{"size": 3, "layers": [784, 30, 10], "weights": [[[9.372380312875492e-06, 1.2609822862390011e-06, -3.0560674743120573e-07, 1.2057260726093827e-06, -4.5688196057125825e-07, -2.654218924200566e-06, -3.79764211268762e-06, -1.1495975271360574e-06, -1.8461485643055215e-05, -1.1222918068626487e-05, -1.1202537524663747e-06, 6.589455183255607e-06, 0.0011483898479294138, 0.0025053997537278112, 1.5484744040940597e-05, 9.954092168335048e-07, 1.4012312721982003e-05, -2.41012781504438e-07, -1.1636455569133907e-05, 4.902333845989232e-06, 2.9231656231443037e-06, 4.2805870863881945e-06, -2.9656144100952993e-06, -4.734065734949565e-06, 1.7903501065888015e-05, 2.1350620385791184e-06, 1.2036488447330964e-06, -1.964935225925872e-05, -1.3670384609461209e-05, -3.5103809303256875e-07, -1.3755866269700403e-06, -3.0718337908204763e-06, 8.676029939174281e-06, 4.065159160498218e-05, 0.0024713843525796353, 0.007568852976965567, 0.015521225498535808, 0.03065888308290471, 0.06768841387295658, 0.08949250378247088, 0.05331842238201544, 0.04208964542106211, 0.06389203369956904, 0.08526193806104607, 0.020539811172762677, 0.040556821152962184, 0.04692425016193432, 0.0233790378785067, 0.03301498296975696, 0.020215971754034497, 0.008758639428732241, 0.0009377958398867573, -6.939983425389433e-07, 3.939757704130898e-07, -3.6041139402897387e-06, 5.744379672666783e-06, -2.1784624212963327e-06, -6.5606811425373045e-06, 1.0526265826064268e-05, -0.0002353970542889169, 0.00010039946256753743, 0.00019579538066676107, 0.0071880241870768856, 0.02815604335269689, 0.04643395657500973, 0.08161939745319138, 0.18385259879904134, 0.20077827687743197, 0.22979853734496358, 0.3190779253472763, 0.31644585712724127, 0.4603330608122911, 0.409570480752638, 0.40448302025876, 0.41921988622275647, 0.332106670772301, 0.1862937851876274, 0.08960059735160472, 0.04283297014749777, 0.012816971411041395, 0.00205957062971069, 0.0006959442593056853, 1.0536107876944211e-06, -1.5821108116758154e-06, -6.656126906017807e-06, 5.582847470090914e-06, -0.00010256798108123025, 0.00035970614397601, 0.0022908661046379124, 0.0037235954329424537, 0.015278758352530388, -0.002920162803851993, 0.08619168142652597, 0.11262028439844123, 0.19587878393227962, 0.09440657137653677, 0.19835003632278977, 0.4925768037707851, 0.674184524625089, 0.7217787745124665, 0.5842619826278302, 0.5312905164293072, 0.6756347886065908, 0.4697426685762495, 0.34030801178199416, 0.18428984773042204, 0.055845589854246515, -0.0368323646866143, -0.05722571544279387, -0.01498487488877407, 0.002036063597456848, 3.897522530972197e-06, -4.680093995141437e-06, 3.49421487367292e-05, -0.00030593565779685834, 0.00741959246687953, 0.033589406782568595, -0.010497192733694235, -0.09965448096902847, -0.07796244775262773, 0.04627204725918139, -0.18993779130214059, -0.12591090315835046, -0.1703254819377166, -0.2274142246985167, 0.03620504619935915, 0.09369198043891831, 0.2753151865849697, 0.4399221022769412, 0.37731882814886325, 0.40516656188022915, 0.34336310963363265, 0.3626757731442145, 0.24332520968177118, 0.0004530299510656332, -0.10819396690198904, -0.14195994198157255, -0.03744408557074553, 0.01960275578508412, 0.02155949102202596, -9.397666564700449e-06, -5.179206858038548e-07, 0.001529193315524646, 0.004227583634790645, 0.0031188137135938153, -0.058839415515047504, -0.12876049093465206, 0.03689092466072699, 0.0032577383086523884, 0.10138903624610897, -0.012916576554764927, -0.09914589359985217, -0.16280133605384298, -0.06651018723191483, -0.18319159795205772, 0.07443618135542138, 0.06201325572294607, -0.1175723255415405, -0.16234707329988887, -0.16144976812839584, -0.06789042814012473, 0.06181160071552749, -0.1416854027224303, -0.22598701929605444, -0.09109177324610222, -0.03495173599852596, 0.06243564263165278, 0.029721364786073907, 6.755140398293908e-06, 9.848993726358429e-06, 0.019046890844225988, 0.03309284799374727, -0.031509064392819565, -0.06503734878217898, 0.03331562154123365, 0.13716614848189415, 0.11293482846083985, 0.38867566161585293, 0.44375921383117517, 0.5175985598965002, 0.31938439128120893, 0.2527570143987957, -0.0002055499276733628, -0.0014669395316262459, 0.11349685121985893, 0.322757627100091, -0.09727726684137661, -0.22486895753349598, 0.11173882536017471, 0.2152746067140027, 0.0930004255081019, -0.271290770912557, -0.23958168084971004, -0.19656514377821663, -0.07817374545294507, 0.009561788668274467, -2.1153354776292978e-06, -0.0069697283681496545, 0.008677896169193806, 0.020236664687427353, 0.02636802612177714, 0.10465394307939607, 0.018801482672946, 0.0952559058832083, 0.12833169198613317, 0.230302000505497, 0.7500677629181904, 0.30825899394907963, 0.3998236109457993, 0.3141837209774426, 0.2829237311569624, 0.6010563781986579, 0.2085051443993448, -0.00829660138285051, 0.31915339649854685, 0.2384931826326142, 0.37519484168491535, 0.14699753274345215, 0.054571300952712454, -0.13156007076211162, -0.3712793760682308, -0.4110740864058109, -0.10519935978343586, 0.0021537349192591944, -1.8144673543180824e-06, 0.00026091857124573297, 0.0029156985059511334, 0.0778393226224949, 0.2491633810971855, -0.02999721420712046, -0.0541732708909161, 0.10552912435090814, 0.30702297275391877, 0.12290851029396695, 0.10752593332247386, 0.35863204042182756, 0.4325171323986439, 0.01803455034515004, 0.0758089524772176, -0.011892293598479696, 0.034336047247224034, -0.12693269208504462, 0.1058463840454104, 0.20111412902283207, 0.1745974595175109, -8.333783861066139e-05, 0.26316299924404113, -0.1512967430796259, -0.34689031536483983, -0.30033088569591126, -0.0036950740402097657, -0.0005896722208291552, 2.0134824023236087e-05, 0.0010276853194731669, 0.032057244410385426, 0.18019687422483657, 0.1470661159288547, -0.06266804984961426, 0.4376616027303072, 0.3547543988237153, 0.48208723813751525, 0.3756858791510837, 0.22607737389804047, 0.4483308299146113, 0.29121518095110266, 0.17517922842682732, 0.2607386182217343, -0.22475523639184333, -0.11607001179331122, 0.01586399217857163, 0.17082955807928998, 0.3351524280444093, -0.07964189956064101, -0.15897037426248578, 0.001488588192716511, 0.007748111960145431, -0.08431275834902739, -0.1862503001702322, -0.08492473758451073, -0.0013058962423165505, 8.279083458356967e-06, 0.0004010671748893718, 0.07275062183215669, 0.16888787738573266, 0.17000106922849714, -0.050877497291937676, 0.30993166657576243, 0.10591589047187408, 0.023868312432444458, -0.03158781407463944, 0.2334675317559184, 0.18385108228166522, -0.025930809000205814, 0.3063848128856017, 0.21899592946746774, -0.23116513667515004, 0.13308913760304694, 0.04821256681860203, 0.039513448691878714, -0.0639072677235128, -0.2548283148311266, -0.16840537892700258, -0.11263106981648416, 0.1619935269646451, -0.0591992186382828, -0.16669239107246892, -0.08110895431510862, 0.002170956100300644, 5.0422116053961635e-06, 0.00010424386792030253, 0.05016657937239147, 0.11507269638397336, 0.2860466218820543, 0.09322498392663084, 0.21875417119311796, 0.25369110923831417, -0.09893085138307636, -0.010968618341699361, 0.43822804407158933, 0.378910625020179, -0.05266055416945011, 0.6324311193954651, 0.5481625893823477, 0.3221465261446724, -0.41322689208696356, 0.24540806403267365, 0.24008877397931863, -0.06891008768132859, -0.08840593030960844, 0.14801071368304283, 0.24190279811362125, 0.36903949725173524, 0.09280304771796685, -0.022525144588739106, -0.03848305144958938, 0.009802534559995447, 9.404808548403329e-06, 0.0028775546341557705, 0.017934144193088867, 0.2267658724633381, 0.5494755332532921, 0.2756766378247818, 0.33891371802667464, 0.2826940280490226, -0.019802233293424586, 0.3035603095836968, 0.249552191895132, -0.06379377012287338, -0.4636417732208262, -0.09789795946908371, 0.5907252154320757, 0.26604365186124534, -0.07850844617421096, 0.5269860929400988, 0.3183207055634906, 0.15036450302327448, 0.45272221511683486, 0.5327668241274224, 0.46921111634991614, 0.9014771608228623, 0.3015250365429664, -0.22040907478863955, -0.10083247204520066, 0.0029884908717972645, 2.8347897904535586e-06, 0.001398311913718715, 0.03833592857917043, 0.2499909774982135, 0.4038793924179201, 0.17603588856234034, 0.1358262596282341, 0.2848383268546882, -0.03766754616807419, 0.23818732286147928, -0.08651421066640264, -0.7414033037830334, -0.7010336451920808, 0.19882600562767733, 0.5157699955682574, 0.04377624240857768, 0.3722656482233404, 0.16931030606338549, 0.2660007804754827, 0.5666719219631873, 0.4835880815052634, 0.17685387224898763, 0.4419372744971482, 0.32347901679096136, 0.0011936426739095223, -0.2898547457279726, -0.11710000806339245, -0.06860470403811599, -4.5756838344417656e-05, 0.007276712831642922, 0.012121025735154773, 0.06618382728034032, 0.018285576205123347, -0.26406074518849204, -0.0908985524291291, -0.22629206374397895, -0.033656002182212465, -0.33689389000765896, -0.3232856867731504, -0.49238611846396657, -0.7225162585861452, 0.13267831292546137, 0.1660553284189925, 0.010712368487991083, 0.10420572123501487, -0.20959860377930722, 0.009492485880339718, 0.010182370059865086, -0.07292982255286602, 0.17102291515321963, 0.1113764092835514, 0.03380196086030928, -0.10074529543184621, -0.20195311837854502, -0.055688582601303306, -0.0016505943585525358, -3.766351126754499e-05, 0.014599385204688075, -0.007363115056532009, -0.034799245369149384, -0.14412309990519614, -0.35481316875642666, -0.2874165245757814, -0.2963481716746975, -0.10904966074538391, -0.6167759617115637, -0.2781535016998983, -0.37630963725438993, -0.468117425054675, 0.07444608503566097, -0.08637985340808027, -0.23638861921077772, -0.3397280946523688, -0.3944342937812917, -0.0017470136421427588, -0.19850320651871164, 0.0098804931104396, 0.2604634408094563, 0.04025716257321809, -0.08260812332926325, -0.19071186587736777, -0.1649878364307637, -0.12037854896286032, -0.001182663430402287, -3.356797612322542e-07, 0.007841261366347965, 0.02097170561440695, -0.030508929879972956, 0.01735138687109318, 0.018955319359890328, -0.0808855987502374, -0.3305005033317711, -0.31974517337198627, -0.15445822558107603, 0.060987760568659156, -0.09192494444433659, -0.1912919384234777, -0.19118161949049742, -0.15865468794041074, -0.6609613982213308, -0.734940955346299, -0.8845452378132952, -0.5491900968547488, -0.5038677872421948, -0.3829962205308523, -0.46764946508607796, -0.31819784339467605, -0.4246085300292882, -0.2961876742107902, -0.2396539008311988, -0.09223088475722106, -0.0025047133848008483, -4.9411432129292625e-06, 0.0030393930788506804, 0.023157162983392116, 0.046501418617514195, -0.13455578569746932, -0.015802368214017783, -0.14714362880021706, -0.1498641276038207, -0.25395871247357893, -0.052555095561635776, 0.06971630371211562, -0.2900550333159025, 0.12979222715776143, -0.29551311734416613, -0.3898117671967004, -0.6043087206217386, -0.6290005541201981, -0.6691637081372928, -0.5704292590349255, -0.04601927168954799, -0.11986977401077278, -0.23849324281851678, -0.06678700482016593, -0.09253816216809055, -0.3257685974551373, -0.20311963241174535, -0.02155021095518849, -0.015593085328081997, 0.00013515645120150372, 0.0001603594975701201, 0.037111388278455455, 0.10127445269972217, -0.4364447705206431, -0.3519491655515745, -0.4143890698970712, -0.25336885819966526, -0.27240853850811586, -0.029176368689022646, -0.040706276262321595, 0.07116698531412245, 0.29349911387359373, -0.055333284415596956, -0.4534316228877286, -0.5088051587916921, -0.9380542676523239, -0.5195079112458753, -0.4485449136212156, -0.20938610312533285, -0.11955021186820435, -0.18366120918751586, -0.19993625831806816, -0.4106604755437869, -0.6293942415958341, -0.2747112343542106, -0.03240390694848858, -0.02519305120451185, -4.524027609776171e-06, -9.558752372192125e-05, 0.039304181863563124, -0.04765870969156797, -0.23653242323436924, -0.42789595013330217, -0.247600237652867, -0.12049760735937996, -0.1349545205603036, 0.05148500546418786, -0.01028868045070608, 0.23581559081222644, 0.6345772396651426, 0.26151320362802066, -0.25603552929374346, -0.9647581854863544, -0.8041378354042761, -0.25765679019100085, -0.19807440941994392, 0.1419476820273836, -0.14789905869502978, -0.33259559248638654, -0.3368965962491387, -0.2965006443629658, -0.3341765021965986, -0.25861245182714826, -0.06914038992158832, -0.003390624323444463, -9.536231099240725e-07, -0.0004323051069235046, -0.04830809547170432, -0.07527082981118176, -0.03300171824538847, -0.13870002806513906, -0.061009879926170255, -0.21647329709764285, -0.16967819649045074, 0.24094493596434471, 0.12499541269437207, 0.012098857096308717, 0.16266584124890807, 0.5942057643610329, 0.5644252546608738, 0.17593652327438472, 0.051850936157651885, 0.21407578328206595, -0.033962294143879294, 0.024571282600239622, 0.19014623134679787, -0.05836407355931861, -0.11831890490037374, -0.1268571230465206, -0.08723384457006457, -0.08837869704086224, -0.03382881089389384, -4.328523681633703e-06, 4.8950277450537306e-06, -0.0017306908555586875, -0.098714531285779, -0.054755931718043674, -0.07480793463982797, -0.1413119982163458, -0.12070949066344512, -0.210307349182786, -0.29112483274561374, -0.09688161040845535, 0.007666024459754618, -0.0758039587186833, 0.3941975999311205, 0.6401200667352304, 0.8506971571081504, 0.8332966895990115, 0.5955874444503627, 0.3287553878416189, 0.08683518673661113, -0.09773683422051609, 0.04092598298869239, -0.2052193357589514, -0.2069288619541008, -0.26641053222623107, 0.06291826649225249, -0.05428267186740238, -0.01849176265136601, -9.482652966944876e-06, 1.0163682020488105e-05, -9.374364003583926e-06, -0.007254319806873306, -0.010465837379440289, 0.0739651641400978, 0.2549437398643129, 0.06687508695858706, -0.08197826493380093, -0.02280584755837757, -0.04107014652697562, 0.07064903320162688, -0.20822803333661877, -0.09992246327204798, 0.37849721781441553, 0.5747094158314333, 0.35047131203346565, 0.4653073732985221, 0.27242399110897514, 0.2680527888283261, 0.041531890630930456, 0.09651385786647831, -0.08676044332474248, -0.09802123565872782, -0.032627250376261026, 0.059260386984419995, 0.002837451070902217, 0.0006059309897473206, -1.526591662336513e-05, -1.4620709015166399e-06, -2.536249012027519e-06, 0.0012759727306793634, -0.020903125376696217, 0.06437253378714726, 0.23908618473225163, 0.12653564664279876, 0.21005921010637074, 0.20066782339507686, 0.24831300252015714, 0.052198254601780236, -0.1960940634031636, 0.11975759946817899, 0.4788180404603487, 0.19563275344290126, 0.24554817409220395, 0.2971813321032615, 0.4560655861608016, 0.29424175451539253, 0.48598204225368674, 0.32593834205094213, 0.028970671169076846, 0.20400419740445674, 0.12213868910139238, 0.06462956643191595, -0.03688224464303891, -0.00018343997487863572, -1.2664208363675332e-06, -1.7759276649817868e-06, -1.15958297701281e-05, 0.003676179570470337, 0.011484551415335609, 0.061494053998857316, 0.13659672259345093, 0.20697218163975128, 0.20798749857242532, 0.3673577312485962, 0.4498057572171276, 0.5725861976036084, 0.7148005355908426, 0.7343138160271774, 0.7093006605383831, 0.34107087004787107, 0.2588126756036795, 0.2712875820849434, 0.3699003609084741, 0.3400080944462163, 0.45604676824950585, 0.3457910239429238, 0.15781300783762497, 0.26631708616677974, 0.1714692334129076, 0.03903176552571151, -0.021337684975892487, -0.010050139736671668, -1.388173240945673e-05, 1.6211528899885437e-05, -1.391757271968421e-06, 2.8966594507528686e-05, 0.0009585220706981983, 0.028300890430188286, 0.11182039820501687, 0.26352355891670626, 0.3794347203367554, 0.5171423621062049, 0.6738763623584512, 0.6774504982730354, 0.6285932234251296, 0.9190393505362169, 0.8833727693433105, 0.6447765139774044, 0.6325738412049344, 0.5905017407331057, 0.3740233402313657, 0.491987944064183, 0.49250254897570617, 0.2512977526841436, 0.15603127861548918, 0.11158629493257619, 0.036635222851182904, 0.003976906476180264, -0.008790484413892284, -0.01063264536360172, 1.4124700245943648e-05, 8.23226780347587e-06, -5.21508016412453e-06, 1.0487484316059101e-05, -8.34437270932449e-06, 0.002826166747298284, 0.08336701740355511, 0.15103736096948442, 0.18242266212635416, 0.21250124184122854, 0.23344219386946155, 0.3039728586310915, 0.18979286861044697, 0.2863021839193083, 0.23737077534190076, 0.41816391300747685, 0.4094556596761101, 0.4439720630158713, 0.3668035648217728, 0.3898506313068589, 0.195970599533897, 0.16021147927271878, 0.13844445912627787, 0.05976761920396208, 0.005638626557915232, -4.0279091184757626e-05, 1.1098507568339785e-05, -6.189441714075521e-06, 8.377586526662048e-06, -4.4805072847029e-06, 1.7117105031076648e-06, -8.7956671019984e-06, 1.0461633776374575e-05, -4.335927721982292e-07, -5.487941647041606e-05, 0.01472159315967191, 0.08471600062929446, 0.07800829739444845, 0.019613774358993266, 0.06916917027950123, 0.04158524595853614, 0.0542714341033327, 0.019781983165161086, 0.07136619277585372, 0.03900411429838921, 0.032126854598667556, 0.042751841762871216, 0.08900044944727377, 0.05493460264889475, 0.008256960972503316, 0.01874410453971008, 0.030469593628936077, 0.0043101731254947, -3.3031197536145103e-06, 1.2724119086123284e-05, -3.843213734524561e-06, 2.969275365975307e-06], [7.747706655731236e-06, -7.259629614999726e-06, 1.3692386364978741e-05, -4.9712595856374105e-06, 1.2682630587911533e-05, 4.351346833382333e-06, -1.0131117511677643e-05, 3.461074080008883e-06, -4.313958259714391e-06, -5.3218793139617674e-06, -3.519251662783299e-06, 8.815451788110064e-06, -0.0015729413241867766, -0.003457572426918618, -5.727590240651838e-05, -1.4594594152843815e-05, 5.678079329474164e-06, 7.099827030542733e-07, -2.3884643834236564e-06, -5.688819031866291e-06, 5.502582121526383e-06, 6.4494788647131994e-06, -7.021138551859697e-06, -5.403851588199419e-06, -1.6732030021918318e-06, -9.790620941715542e-06, 6.4519507923744636e-06, 4.273168790102377e-06, -3.858196144943037e-06, 1.6022768241328564e-06, -7.1614275957352864e-06, 6.708118215251772e-07, -6.25295001446871e-06, 4.289280577184915e-06, -7.080810848228342e-06, -3.414783569383502e-05, -0.00010661508675408769, -0.0006668328676502799, -0.002167337556932901, 0.00012023927177787997, 0.0002780696011697998, -0.002038457390148965, 0.06707334363304437, 0.1054848298773034, 0.01548628904781276, -0.0008525582013263791, -0.004146047907550066, -0.009208749657820427, -0.019133052795694893, -0.010961677787387639, -0.0063128535678446205, -0.0004797282149011609, 1.1553325602209128e-05, 8.327087560562215e-06, -9.15561994980672e-06, -3.7368735375547314e-06, -9.986448223226771e-06, -9.33555603452034e-06, 6.436042456823858e-06, 2.8768216160216508e-06, -2.705163238108603e-05, 2.268726254979432e-05, -2.4176686671440344e-05, -0.00031796376515440326, 0.005375487067057297, 0.009064066274022571, 0.0073595631055679255, 0.0009382700612757584, 0.07931240196555057, 0.12330212335201952, -0.0051395744092936095, 0.0815580769874829, 0.05942936248984048, -0.07474094660345745, -0.07946559432050909, -0.06821576257086331, -0.0989221842474071, -0.07866640039970091, -0.04028567546075598, -0.015687837813962963, -0.0051526986205187, -0.001866277844735705, 1.8998859153509751e-06, -1.2651212653894353e-05, -1.4706134655864224e-05, 1.2855923448658283e-05, 8.233518336767441e-06, -5.781174216743964e-08, -3.7320177214302832e-06, -0.0002911788666946569, -0.012395900671555127, -0.05055015355787657, -0.035527134633356924, -0.018936931444503275, -0.08768787749266092, -0.16957799804984505, -0.09420823711473762, -0.2101839403673093, -0.31006554439405465, -0.30318614903792657, -0.2928035230823569, -0.22943291983804517, -0.34181174852526947, -0.25983059982707435, -0.18602735537136753, -0.20219549290625222, -0.1225843802172675, -0.08940646306738124, -0.07226756276226673, -3.0976687806685836e-05, -0.01396536569814931, -7.047360615674267e-06, 1.1073928475354453e-06, -1.5806198717061793e-06, -9.698180394513866e-06, -0.002359068080032537, -0.009984816810714583, -0.04152341869055175, -0.07524439317352373, -0.055826539072140274, -0.09167664086226927, -0.13756186322677952, -0.08161965342754286, -0.018903305278677777, 0.06148095393661928, 0.2921123612055632, -0.02736390895859351, -0.1831879852294991, 0.1525649074112385, 0.010736428479727706, -0.1507966126479506, -0.09265144243542059, 0.012061585747894689, -0.1806176428897017, -0.06702739760116919, -0.05885699333046011, -0.20193944222686863, -0.170578568120504, -0.06366549698018266, -0.03069216740616166, -1.3416652002787963e-05, -1.5914358424894244e-05, -0.00024566534754069327, 0.0016244355737873148, -0.006691324545040245, -0.05926520451650132, -0.13457563617686022, -0.18570327354055763, -0.2643653232618474, -0.3179500553892106, -0.3403292709557598, -0.4505425062454412, -0.011894280458211871, 0.059754188152464076, 0.06152849286127256, 0.414284211468742, -0.16308544657928936, -0.1811180438125148, -0.1478290419458748, -0.500516042364804, -0.1399252004899744, 0.016543869525244923, 0.0941268538792335, 0.05027834974946163, -0.12049796255227196, -0.30745001459532995, -0.11461116674215546, -0.03649241572864394, -9.707549165216335e-06, 2.493341543943213e-06, -0.022457972847551255, -0.02071565140066895, -0.03868102578596227, -0.15277675688246958, -0.3522267100602498, -0.48955324694012176, -0.4679881156404917, -0.5917739607019836, -0.6567746779667639, -0.45715653745557044, -0.3164631483897868, -0.05626782222607339, 0.07120013733387742, -0.276192260413276, -0.0002826349147562303, -0.032348928572979115, -0.06544828580999859, -0.4244360216925821, 0.043587909632803, 0.1049002733205844, 0.025225807368027355, 0.09646910584489961, -0.14110831171609456, -0.28706079886726604, -0.030861897251758093, -0.034522634490243086, 1.0198515133690553e-05, -0.0006563960970459259, -0.010030997951047265, -0.024213398548934086, -0.122744242353734, -0.24452686581467703, -0.3583975615045852, -0.44321997121383333, -0.4266516048229582, -0.5629777000823801, -0.6644708604223261, -0.3414203414573416, -0.02419175634004639, 0.11961639955255933, 0.174215324045719, -0.3227628556838994, 0.14664459069843458, -0.09359548172455812, -0.3574640979589889, -0.13561906962064196, -0.005706705848601657, 0.08745477660024147, 0.02381983158623533, 0.13225725926861878, -0.28688154122657633, -0.3167635446269924, -0.05804597360709351, -0.03144208406736112, -4.88112778132001e-06, -0.0006820376434834967, 0.00023461506070458692, -0.02092079525927283, -0.128321175319557, -0.22228304889713593, -0.24287352053965652, -0.2560940237445802, -0.2194477414466146, -0.27890279353581243, -0.41582477242697874, -0.24709778747479627, -0.225084035493916, 0.02252731577267166, 0.08646569218258586, -0.23894073057389523, -0.7361053402087278, 0.057013850501642274, -0.2933734651271913, -0.5073087621899299, -0.5741691664019192, -0.4426853885818412, -0.18043348183659147, -0.25995180111628535, -0.44338042693230995, -0.20958509448350676, 0.0014511343136516615, -0.0004704783932979309, -3.070117285926138e-07, -0.0005666989259036157, -0.0013304183760501442, -0.04372653218004325, -0.15488138652067063, -0.3230654732605273, -0.29513313501709154, -0.17323327089978144, -0.1218648745074065, -0.11699879510251267, -0.20359100180192055, -0.18393213646151693, -0.229037552255262, 0.06370073996169279, 0.3804317767129862, 0.22832471246348968, -0.12654671579349475, 0.01040636175733941, -0.015787020206516827, -0.47911652835449026, -0.7763964952202768, -0.5027813799065015, -0.30654414486800075, -0.40301476280133486, -0.1142644675553872, -0.05476593820706241, 0.07526675452583782, 0.0009755388634477343, 8.873408656980873e-07, -0.00027285552515564625, -0.004305897017893256, -0.1310077275484484, -0.25262077376449554, -0.31656492017734733, -0.3350248981811295, -0.034647287647140486, 0.020129302855006387, -0.25245083558294085, -0.14698608897251722, -0.042782699360631275, 0.29178830578952203, 0.40831313836291955, 0.7640864383729574, 1.1321355673781235, 0.6461754873162983, 0.11365305141799337, -0.08754306206577413, -0.13594666219811136, -0.7002589417685728, -0.34613607809153885, -0.31444627918254053, -0.08620394511895291, 0.20836487515821528, 0.1763219539485904, 0.026289213794362824, -0.015445527591699999, -1.8910579361386076e-05, 0.00041168073578355647, 0.016058878612083206, -0.10740045834576366, -0.26291113893277124, -0.31835936276931637, -0.25852444296115173, -0.08792434056034402, -0.12152406624858265, -0.271583785488566, 0.01124072799343361, 0.28039038324370463, 0.43007540621335033, 0.25885362807761675, 0.6165007152432072, 0.891851478294839, 0.9825812127077123, 0.49577052686678025, 0.16863658954524804, -0.6632160228873804, -0.5401440931369508, -0.476468575603495, -0.453581244242327, -0.12031073011094393, 0.17898688834577842, 0.1336978111845174, -0.0901311774356264, 0.002526463259842535, -1.0095707925604047e-05, -0.0007656402947925455, 0.00596919748606271, -0.03602583145866922, -0.14294305097345786, -0.3481986701404375, -0.18774807602741142, -0.06319743748129976, 0.11920284872797265, 0.14202699318336448, 0.2186200496765551, 0.39805604745035494, 0.6716084317336463, 0.3383492280755984, 0.6286614227321679, 0.4760553443554962, 0.935757148456865, 0.1887167507296295, -0.004503978449235012, -0.5533072003091076, -0.5877564769168109, -0.36759148492171584, -0.32746978170284025, -0.1968029421346329, 0.0629698224252016, 0.19212686038716426, 0.004896190707911277, 0.02418249883610928, 3.077560140183152e-05, -0.0013625327786372355, -0.030353658585876315, 0.017882648889353345, -0.1081981242778434, -0.2571317805190412, -0.1396927217234299, 0.11306046284765649, 0.2790481651901144, 0.20155813047875074, 0.4521119236690478, 0.2600253181026451, 0.18103787601705854, 0.3093073448006519, 0.04479993800756562, 0.010219533254222556, 0.4065142338244779, 0.4959986743723935, -0.10050323096762438, -0.8934848262487579, -0.6627852692134109, -0.32549889767682827, -0.1735689344396349, -0.09962775999470666, -0.000900122326886158, 0.10680084292335362, 0.08393775684231941, 0.05624194813342192, -4.371717130263307e-06, -0.0009230021035169069, -0.004082858636236498, 0.040565384380030184, -0.06102871932211636, -0.21103310007386183, -0.17363110730612313, 0.030184030261078045, 0.20241936207838535, 0.3259585813526741, 0.20202717101034126, -0.046182661038627774, -0.03732978356589175, -0.032733878390987486, -0.08795917961015066, 0.308450451975969, 0.6936437972196713, 0.24614826950052704, -0.3027471355758556, -0.9807521241543256, -0.5865669710087434, -0.16382177912662219, 0.13874563190145917, 0.2004596686159668, 0.3242459567996955, 0.21343065317805368, 0.10124220404432835, 0.0028960167750869963, -7.436381428800934e-06, -1.6212495383310758e-05, 0.012309414111359713, 0.013842883413851552, 0.05318520501305296, -0.003669810619934527, -0.10712900779421018, 0.09898089580912857, 0.1886770497570327, 0.13946070987191936, -0.0122065738915604, -0.10510560072928207, 0.11452757757162177, 0.0942939569982838, -0.2521586985019846, 0.2606375373558828, 0.8412287358353938, -0.06356162568794874, -0.7536378059644047, -0.698395693901484, -0.30200312215647174, -0.017319297310772926, 0.09394122016095477, 0.28426904603106656, 0.4001963250953472, 0.2808255169012582, 0.11749999796130883, 0.0002315743348453819, 9.108797900906921e-06, 9.800237508853497e-06, -0.021984314724056323, -0.00807699840699928, 0.05977074923831173, 0.13951428319120152, 0.013493350039097336, 0.05157662538059321, 0.07120008064823076, -0.16406711125042633, -0.1890542978819639, 0.020491091079321375, -0.04086439413603795, 0.22754639441179053, 0.3090998214202237, 0.2753318473090056, 0.25925517360216493, -0.47408909015665956, -0.6305041230685551, -0.48721957894589824, -0.21289169434778762, 0.006013709986356075, 0.2187545495158035, 0.4928393869807241, 0.43364368542085874, 0.28245332126784733, 0.08340436616315075, 0.0023298448777115395, -6.628992327241553e-06, 0.00012475037260510866, -0.03866068493445343, -0.015648542195556243, 0.02533134519077967, 0.15689700566007597, 0.14439444727993964, -0.055523636540043136, -0.057092833770858914, 0.14459505968831254, 0.11038015298428173, -0.007296928246997901, 0.5794784367730649, 0.4861467757402864, 0.61321619992904, 0.015395394669707392, -0.2361681184889426, -0.3651058534991771, -0.2672252426306951, -0.1476468763934401, -0.009194110542493274, 0.11519521320895032, 0.1965809015886387, 0.2819408364423633, 0.19798256051125374, 0.142638148240162, 0.02305734122825395, 0.005208028691531573, -1.9688831003672574e-05, -1.9248906003719465e-05, -0.010253329212048329, -0.016082046097785928, -0.043317909537550575, 0.039083162854266516, -0.045620048827463615, -0.34752791305690467, -0.023824454082165464, 0.24097280446308064, 0.21836865594746635, 0.4100501714873884, 0.5161141977231145, 0.42323737460892336, 0.4059311361882934, -0.4094408906543712, -0.889527389635043, -0.34792065864385796, -0.2838348120397654, -0.10842971272321827, 0.05478598949634297, -0.019071935976249867, 0.11451615805573773, 0.1840898867049783, 0.1673694407964278, 0.053279537762401276, -0.0021657077609892332, 0.01703084674440239, 1.9524010651869106e-07, -2.93723062054964e-05, -0.007849711121057095, 0.002440810689877519, -0.07732638626112193, -0.10825295876477072, -0.25644558877577506, -0.13961323454262256, -0.11162322164611943, 0.21024723099098486, -0.07570960380842001, 0.4104902245476421, -0.04042744631393426, 0.06515111483991003, -0.1437913858538154, -0.4084919668378597, -0.44307753749751305, -0.6315733847543082, -0.3608855861387253, -0.3385875660193616, -0.17936390552678141, -0.19513346920962704, -0.030485597010919453, 0.1397811758449713, 0.16761525655582643, 0.06772512629557487, 0.04399113530795198, 0.006468847761926767, -2.1286292853021356e-05, 2.576980459793637e-05, -0.00896482635959325, -0.03473447331830655, 0.06157231332692631, -0.06151963559228345, -0.1743647071745702, -0.28559116055026557, -0.271142799194006, -0.14096621563969483, -0.46594517573726946, -0.328540580313726, -0.3984078865206969, -0.5039672008493903, -0.24858261395336045, -0.2687517929137688, -0.3394304777942771, -0.6531315895836125, -0.37930201806395936, -0.48559038931968884, -0.191491129001806, -0.31805673499947357, -0.17320222598404691, -0.05280475071632249, 0.17621619128121643, 0.0917633120383677, 0.01615172917112129, -3.1321667879420097e-06, 0.00026358356107316787, 9.074895755347211e-05, -0.002753815730268013, -0.012611479106350432, -0.00937662213998302, 0.012348687255851757, -0.2528366579387674, -0.29558886159983466, -0.4437531649366888, -0.30109188009396815, -0.16421524086972, -0.4944327733399437, -0.4763150692781986, -0.6204285100570729, -0.25671064199220817, -0.04280493362290157, -0.27420155468148005, -0.4196058047450406, -0.2077822094169088, -0.4273061530033761, -0.16925725009439863, -0.25431000004249116, -0.1663438637837248, -0.017892149777119004, 0.10036839365827939, 0.057318155250018314, 0.0112499814755308, -1.6782708533405493e-06, 0.00025271838516266216, 8.084204236775295e-05, -0.0007240308889848513, -0.007539864467796298, -0.023744355769808222, 0.14304286604957586, -0.08168909750799438, -0.2783641505327767, -0.06116088998269556, -0.17615822452778285, -0.3581322781230535, -0.5361193562975889, -0.729196687676162, -0.4490399139645439, -0.2317929170774351, -0.2949883748769101, -0.06534221396577655, 0.0445287624246058, 0.05017151589217804, -0.22683690426177364, -0.08577585762920359, 0.024520961417951504, -0.009026182329037345, 0.129966430178475, 0.05820375872683321, 0.01691031224001788, 0.005468193259131617, -1.5791639965584602e-06, 4.6672509966357735e-06, -7.472947527312363e-06, -0.00016255292620343526, -0.07586039052982177, -0.112534426875572, 0.16210223304355265, 0.06069290993878832, -0.13993937595410563, 0.02698992610592269, -0.2816947208144955, -0.10637726255816005, -0.19693335867159634, 0.06559767432365496, -0.21945337301551648, -0.22878676407168236, -0.1948023255386311, -0.06990154271575122, 0.20270475498998244, 0.2624493481931471, -0.055720823273553335, -0.003006793141642994, 0.07661045473006764, 0.006665321283369554, 0.041517658647158465, 0.04101594600129655, 0.02218029374558428, 0.009797417145248694, 4.6900231531905295e-06, -5.879218066793975e-06, -2.225845029712322e-06, -2.0160887375794334e-06, -0.04557673644629432, -0.040706302483185824, 0.0034962936201135024, -0.07130543788704763, -0.01458253199966368, -0.07290614570530626, -0.36690101009091586, -0.08543431617445091, -0.3141663220460868, -0.42600298700228373, -0.44331491627695385, -0.32772568750053116, -0.4073543820262656, -0.4284060379943951, 0.017367935987321725, 0.22871767522587483, 0.07063408480515324, -0.004738262578318011, 0.011553561313767719, 0.04390301017950024, 0.02628356164990341, 0.012247607573850036, 0.004585323721318094, 0.001521688022359737, 8.573959033635356e-06, 4.462996535604955e-06, -3.1052289651138114e-06, -6.514700415368942e-06, -0.002921520883858127, 0.008672360917233172, 0.031067837056376283, -0.05974552356852177, -0.06364676428149574, -0.0018563277691132098, -0.22786337142242813, -0.47754391959020726, -0.2682152885407503, -0.41646905527203837, -0.09619435111351748, -0.14840965284869934, -0.3956678106473266, -0.21124626766081464, 0.024027007441364254, 0.08851538316496223, -0.07179522410138654, 0.09246908061939077, 0.027727106839863805, 0.043091186685465674, 0.022059978073716256, 0.003901487041781306, 0.0010429521550724967, 0.0012529004988097044, 2.145040062036508e-06, -5.1990009979127845e-06, -3.061474224565604e-06, -9.784617983673857e-06, 0.0008012097888369223, 0.011598001813654368, 0.019603898106919454, 0.03417931185788115, -0.0017205349321806167, -0.10150923246608363, -0.08829787303289843, -0.09592208482580478, -0.09651323359648459, -0.06399896254162583, -0.2159373281832642, -0.09916460449272985, 0.011725806344910432, 0.0367055720382543, -0.01292795439358462, -0.08459041357439075, -0.08902262346575354, -0.017553050188098385, -0.050543652653614476, -0.020155061843167635, 0.0003269024432655209, 9.55258019126404e-06, 1.4142460872530199e-05, -6.462260668829507e-06, -4.704677456077373e-06, -8.521012168923898e-07, -4.676243827952339e-06, -3.456779721996505e-06, 4.762795283604531e-06, -3.123854448127893e-05, -9.950004431350803e-05, -0.00011291897429584962, -0.0002037812833193908, -0.0038772672990746164, -0.0026880420765837266, -0.00627399348997147, 5.814243982503873e-05, -0.005612123059305639, -0.006011070594389211, 0.010804059857566831, 0.04186027543929429, 0.007685542744423333, -0.009721378446211787, -0.005980292223188351, -0.005445083592611553, -0.0023622383907505947, -0.02418526995704964, -0.01576464965339261, -9.705929078556013e-05, -9.89238973601378e-06, -3.8105279402657057e-06, 3.2149303069221965e-06, -5.608784808544946e-06], [-7.623866932809926e-06, 6.6616210991843765e-06, 2.530952294058809e-06, 7.726964345155684e-06, 5.74106764174361e-07, 1.3427874850246109e-06, -1.1239758707063133e-05, 2.8590306883243874e-06, 4.415753598870646e-06, -5.249646317059751e-06, -6.090406521018189e-06, 5.346182583920277e-07, 9.635714166177951e-05, -0.00041157249152993364, -0.0006720674163339469, -2.290492046051183e-05, 6.417806402328248e-06, -1.9733895183290705e-06, 9.438633991358888e-06, -9.731602428580056e-06, -1.2712783857044886e-06, 2.702138599869039e-06, -9.518701348420203e-06, 8.694515167379052e-06, 1.871383780260513e-07, 4.155539859315552e-06, 2.455303198102765e-06, 1.7829905980322676e-05, -8.528045455885182e-07, -1.5557323257582946e-06, 2.0341385768309655e-06, -2.4463447509849923e-06, 6.1850477709367536e-06, -0.00034419802657584253, -0.03213001784690011, -0.07329016782077667, -0.0860995467412338, -0.030362264007886514, -0.017746909439406523, -0.010769607559599088, -0.011122424393997419, -0.015866926469144962, -0.024521632956182645, -0.05233711133706352, -0.1015039964964654, -0.03154123512288371, -0.00033827121010812384, 4.073972366807708e-05, -0.0017150887573606896, -0.02203049712900347, -0.02903792562882608, -0.007298826848678372, 2.2963147736033e-06, 8.203562335943252e-06, -2.632564139304596e-06, 7.688368135454031e-06, -1.3070208619366973e-05, -9.499767068611534e-06, -1.9315643168554724e-06, 5.150748885768373e-06, -0.0007693051900307079, -0.0015672977667874515, -0.040759985459060934, -0.09120107673122176, -0.1563191948048617, -0.11227641831917119, -0.12022246057921548, -0.07658852049272125, -0.14389940526433193, -0.0901237595021652, -0.08268066156995965, -0.09164409225267833, -0.08903199341826523, -0.11517338778368658, -0.12477372145208755, -0.025113871146383582, -0.015618147215349933, -0.007994939830905514, -0.02668109729449273, -0.01501329303535081, -5.691572248906711e-05, -1.2350714252819702e-05, 8.842384658330076e-06, -5.566246268972234e-06, 5.494735058864507e-06, 4.734784256775963e-07, 9.134728089279972e-06, 8.736814156022636e-07, -0.0038468353545190862, -0.01112219568035123, -0.06614565804090487, -0.08737553537215811, -0.22177491448748032, -0.3271662131893018, -0.31251126950061087, -0.3928800614227408, -0.41417665094270173, -0.39215186296439164, -0.3439095881132465, -0.29400278536988766, -0.25913215830591535, -0.13777169469313913, 0.007019839418801599, 0.19013070931679277, 0.1032488747224013, 0.08004983609578141, 0.00764979636431189, 0.0037302146482860996, -0.018131897019189446, -0.011093407427440877, -0.02062371880641265, 3.965861233527194e-06, 9.669725767389192e-06, -4.0869599369740456e-05, 2.14814318796713e-05, 0.0006737674524949451, 0.010800706292861936, 0.03897910438699919, -0.056184688341763586, -0.020300837396367746, 0.06160933161954612, 0.08576769291550808, -0.13872560350545726, -0.41886104356669546, -0.44763970538836473, -0.6131572408379408, -0.568008107248519, -0.4785862091551673, -0.15991264819439924, 0.006366047395817852, 0.2977954562594724, 0.6928966233045775, 0.19398417703347093, 0.027411824994941894, 0.02787164726948218, 0.07939655852327304, -0.06802071839056201, -0.035641369852816816, -0.01930002570780815, -0.01252201105134416, 3.9465767619781576e-07, -3.69330901568612e-06, -0.00029081432707110243, 0.0008647313463387383, 0.011702775921074418, 0.3863602796316002, 0.33645250794603343, 0.18647339743213295, 0.1026234122473637, 0.3680614848757683, 0.5145054673504128, -0.03134556817450048, -0.12876237813745525, -1.1854059253689793, -1.5031312686502296, -0.9101977768291323, -0.06622423223530086, 0.38405421872949264, 0.2411676295092904, 0.564845547081262, 0.08567272159605317, 0.09359328506626845, 0.16600704816123182, 0.2979398897937965, 0.14729431716688363, -0.09486321810959275, -0.05954748829304684, -0.015170767568657435, 7.079269194893809e-06, 1.5873530720156914e-05, -0.006094946033469744, -0.004249369865813135, 0.014871722439659368, 0.25563416678412826, 0.37601880303393265, 0.45141658242780347, 0.31509595835933746, 0.4812537972685868, 0.24390513864015265, -0.2208429952793245, -0.33023580709351863, -1.1810736842488745, -2.3897952986456, -1.235958854442522, -0.0057998203474844455, 0.313937422198974, 0.2312412324204189, 0.4373814701420026, 0.4538617927844423, -0.026922959096675136, 0.16466044750033895, 0.45286239732020234, 0.1981704892852238, -0.12052136341062417, -0.027360849947808037, -0.029911397801888125, -8.975635650680041e-07, -7.147115088268007e-05, -0.02790820504605167, -0.023502178618852457, 0.05079093498811754, 0.33075149794142106, 0.11855352649352231, 0.19519971659478905, 0.2393931868444875, 0.2740941344280115, -0.0265418631115972, 0.27280458164961274, 0.005615508263729414, -1.0544984802877744, -2.1494769899454678, -0.5103603957803378, 0.34846237682424736, 0.4925780199703958, 0.5585382483427408, 0.6321494913682549, 0.1710663016094407, 0.09192906648424656, 0.1259642562842569, 0.13699903999527457, -0.005054482937526343, -0.11874398331234531, -0.06267186088094308, -0.02076318383424144, -1.5244936853752516e-05, -0.002147302413913656, 0.003651486509834909, -0.0034111433592493483, 0.10733522126252625, 0.30757087717626275, 0.10640794977147251, 0.16083936903811952, 0.23940561701877325, 0.16850313087100868, 0.15876202327462216, 0.43771676290411365, -0.04342045281423549, -1.256764559423333, -1.8145074088853579, 0.056120879665788735, 0.5421691378421251, 0.5665610727982263, 0.379057206003975, 0.20890271124035148, -0.08004302108603611, 0.03861093253870827, -0.038010405420263134, -0.12840870086998837, -0.24473818082582502, -0.0824725275620255, -0.0874803637435919, -0.02333580058294512, 1.110526166778497e-05, -0.002079472875656842, -0.00498639136447407, -0.044524677485399566, -0.11513876520023404, 0.022429434368816305, 0.054218728134071116, -0.06095936301220153, 0.39065733646899337, 0.17803464481089185, 0.40530925875252616, 0.4230218315686679, 0.33250435837080355, -1.4303582971835578, -1.4023399269536072, 0.1584019806713989, 0.8016837658454488, 0.12942610243051356, 0.2571237651114829, 0.25370155909429853, -0.018001001993557492, -0.06678577692420826, -0.03381893972532992, -0.2771702214730311, -0.16130219347064648, -0.06767553859526156, -0.061863461765886085, -0.0018021628687289698, 9.339465231631341e-06, -0.0016351947192627502, -0.0008829003703329835, -0.025650114893422518, -0.16250759909404425, -0.24096194947225452, -0.41156482963932667, -0.14430507428965375, 0.16698998571914783, 0.11314570503273601, 0.11761764540980536, 0.34763483730500244, -0.07316298355009128, -1.7903469026377843, -1.0660204123712609, 0.0031978684185880717, 0.4331096349152836, 0.43238043525839137, 0.16177802810845837, 0.01765696435271244, -0.18023648570087103, -0.024883930522057292, -0.24646783118456125, -0.4539135219528433, -0.1573532260381041, 0.03225683422222715, -0.019078318590644208, -0.0006487303921146772, 6.756132100575098e-06, -0.0003267291391452258, 0.03915467493003276, 0.025666224904027424, -0.3190742908252312, -0.1769073726987731, -0.16930903763397565, -0.24167916314001983, 0.06191874386777782, 0.09884038960201176, 0.26392781388710973, 0.15174087357966518, -0.3149576445479486, -0.8171988487431396, -0.5731875243232953, -0.1270875404023483, 0.3010238488840448, 0.16662636997144048, 0.04978662314998227, -0.5395765036808696, -0.18707090616314853, -0.24067369757223822, -0.27599285635682114, -0.32749326254302596, -0.37687161802665586, -0.03003579108841127, -0.01384839590901481, -0.001171455296745837, 1.3735479015600137e-07, -0.009157973474322902, 0.03036880169158125, -0.0811635628035409, -0.3181208057509608, -0.06161228802088497, -0.04380476310269314, 0.13370393619532375, -0.023172204534622553, -0.059175079015422904, 0.24607314201215044, 0.19990728775373715, -0.5213146236711136, -0.42006998957335445, -0.33337858689289446, 0.08603390308176272, 0.3645248463513806, 0.17629399943078222, 0.011028325896139753, -0.11132626333742518, 0.014777033492759162, 0.13083425296116655, 0.10679961775405421, 0.006050787988186848, -0.0015317691691752692, -0.06547347536422446, 0.019241646606691587, -0.008211906483440393, -6.084633662103892e-06, -0.020741818663915352, -0.02381328077438827, -0.08041762732591537, -0.044099836743009393, -0.03287564833890167, 0.18622466727311696, 0.1599608992903425, 0.2146104417927658, -0.017082130903312027, 0.010776104383834447, -0.22380089728158142, -0.34256651231998375, -0.1178454275032294, -0.028178360965248415, 0.022951551325673402, 0.08787766652135154, 0.16669189245618454, 0.2103669876980267, 0.243026570552131, 0.14829849609392418, 0.17762684406216347, 0.39098653536343486, 0.01801894679011754, -0.04079927045101134, -0.018702554181646187, 0.051974804055660524, -0.023334055642830104, 0.00011378819959183666, -0.014474563827506105, -0.015828120439253766, -0.03053053757280988, 0.23167992188570846, 0.2938325074553673, -0.12066810328548122, -0.02448024116553002, -0.0415835692229049, 0.24247095211738845, -0.17117681755100983, -0.17159510206079803, -0.0034738266004824053, -0.10950480602758486, 0.18607726213351633, 0.38803414534491193, -0.033487035637639946, 0.20019673037638114, 0.07349571905557384, 0.35403433789817096, -0.04748687684441658, 0.1623732537601461, 0.08100913998455644, -0.24531542492115832, -0.1042693805392653, -0.11614984406247235, -0.04395626820033383, -0.0025560950804506583, 4.476850245239663e-05, 5.889490898361452e-05, 0.02229736743454195, -0.060829749177902986, 0.2601115658537564, 0.1753671563276355, 0.05767244951763352, 0.2957650886312342, -0.02713453554488929, 0.10178392329419358, 0.12305961118192617, -0.2910305095112889, -0.12016430301999122, 0.07811189512076004, 0.023370806685994696, 0.19071442439326655, 0.1467262380551896, -0.1103789593251247, -0.024989283112961013, -0.09987693637628367, -0.220470409734997, -0.1096945419051642, -0.1828203325601869, -0.29220701383765646, -0.3218132612799972, -0.13591707074514595, 0.11506184539577535, -0.0011134066505261067, -1.5383362409943768e-06, 4.985349299184832e-05, -0.007049209920973738, -0.14107964817177907, -0.2319058784598797, -0.16008259421656482, 0.030020994839361426, 0.1569968166126932, 0.1703463302281685, -0.0658946720257019, -0.22513335664790385, 0.07634083772149915, 0.2749879951669256, -0.04921244707893705, 0.2234637062455042, 0.29201471333304235, -0.010225993107969374, -0.0617825107159603, 0.02597342300164157, 0.2933476158300882, 0.13268533845615135, 0.013420398759259851, -0.35085231546964035, -0.34970355053160956, -0.03316872284290441, -0.02849056568219614, 0.025185184872943498, -1.2193813315208336e-05, 2.1587755005660235e-06, 0.00035224186539338764, -0.02122472438606464, -0.1495192265306369, -0.12326444555001602, -0.017349284787358935, -0.08813288298191548, 0.10028672490504037, -0.13575071402051253, -0.009396574504898099, -0.38216484003325296, -0.2588231363875223, -0.25394484553585106, -0.3155765741304589, 0.2854821012426472, 0.31668222498007137, 0.09440299963146233, -0.04698825039835044, -0.004886417929900416, 0.04546068784547661, -0.10424190645303694, -0.0855869030651391, -0.29541452930328665, -0.12069929095374647, 0.061344598704275465, 0.001983132162893029, 0.04052665090924776, -0.0001159020821052207, 1.759205556858087e-05, 0.00020622921314022102, -0.008682836034468303, -0.12122959300143857, -0.16894440074069028, -0.2668373269129152, -0.4732432875697909, -0.31819722668237577, -0.14665896143348237, 0.16701108058263778, -0.04588196896014869, 0.05995421707323507, -0.16325023512310205, -0.17750889212474305, -0.005758887920952521, 0.073001617906449, -0.017027272892392323, -0.40320689798422277, -0.22049656938856085, -0.31584847618443956, -0.10655892103069307, -0.0235242308857702, -0.3926846318787966, -0.08484949617247542, 0.004110372500093312, -0.08894335335972654, 0.000422210422309559, -2.2838832801073136e-05, 5.99548270697702e-05, 0.000662671771331391, -0.015637943458049947, -0.018367898397733555, -0.2624582806560744, -0.4962998672909396, -0.5042065866339128, -0.2759569034382975, -0.2610639655457524, -0.09737272689316548, -0.12087418148624228, -0.07845393172070504, -0.4587331025019913, -0.22612676319377492, -0.29350741274527503, -0.06606589666625003, -0.13851918870478924, -0.08583405826635797, -0.14980633379501143, -0.17011647835910307, 0.29522663586313186, -0.02985115252199618, -0.28300150850206224, -0.15962741038128922, 0.006310974847964213, -0.02574099837615399, -0.0032110533908808222, -1.6195935749085223e-05, -1.548246594912232e-05, 0.00023503918485650384, -0.008490001078814232, 0.011704321711866281, -0.171056912296723, -0.49244227582580374, -0.4997947653881998, -0.20878335346399582, -0.11465036879457835, -0.27763913202445156, -0.05905917005667388, -0.16989969692396145, -0.18456425167276674, 0.06541197363466018, -0.08891236906359758, 0.06518668244077457, 0.008094473974459792, 0.1433388097042432, 0.26080921411036756, 0.04891902892561206, 0.2522342030406914, 0.2796104235546298, -0.02201702322100078, -0.034615841058399835, -0.0509423616143722, -0.07126784782590392, -0.0026361498538793656, -0.0001545282211484744, 7.472633568110306e-05, 0.00011793752435281889, -0.0006626651687699043, 0.0509366118434889, 0.10938434928480144, 0.44954225158274624, 0.381832256059913, 0.4669235707116734, 0.2743852714084398, -0.20300842097827546, 0.057494432424104056, -0.07882817415691878, 0.032492603496149804, 0.2335089833608874, -0.12716482779057864, 0.06164089565071725, 0.06270655733784586, 0.33209222231849916, -0.03333752799880425, -0.21420678393239423, 0.10553488552086782, 0.20805702023667547, 0.028322918630847196, 0.006033192265293501, 0.061203144809527196, -0.05457288501063127, 0.0011532216536462637, 2.1000812366897124e-06, 6.690645401731376e-05, 1.3718486484849725e-05, 0.0038575061121473926, 0.018348614636860293, 0.11258986972601828, 0.5453612128583275, 0.5686885292098367, 0.4104232791352931, 0.27726592978429354, -0.03306292331360251, -0.36587727213469995, 0.0009256437394215714, -0.2533271704741502, 0.09532490801244377, 0.007687908856605545, -0.12633275115228298, -0.006826383299951815, 0.026188211402168243, -0.05225507872546728, 0.09679112592495882, 0.06688310029367202, 0.08964273337080819, -0.06436741937914149, -0.08700705255755245, -0.019617196834114732, -0.06399729422667899, 0.007269132417996147, -1.6380318054247716e-05, 5.437730504556875e-06, 5.2374596252017215e-06, 0.0028635370696401333, -0.008603697302886274, -0.008552713237535592, 0.0800830750681717, -0.07597316003736299, 0.1951509202329978, 0.046475579112235696, -0.0026045831366828267, 0.0990116024502662, -0.08284696330994389, 0.10147347056246372, 0.16360434646975644, -0.30137093918841373, -0.007241370655677398, 0.055971166242722144, 0.014919243754865622, 0.37950893446837203, 0.2279049878188723, 0.03615054977478324, -0.0949020601435054, -0.24415278339482965, -0.17435844729735406, -0.05973394266643413, -0.010163129955224426, 0.0038872955977343787, 9.205776754637306e-06, 4.517556180539747e-06, 5.738625449093735e-06, 0.0026430489352480585, 0.0037277425136730165, -0.019239506275802253, -0.09551588139241059, -0.25074394010230544, -0.216833217156452, -0.08999558328126306, 0.04989498514972695, -0.23299203467693266, -0.17104288972947537, 0.0484434872168725, 0.4198676808963522, -0.042486092543825654, -0.1812748747442278, 0.023547403939918107, -0.149465797187248, 0.2309175911081802, -0.23456212171954338, -0.23730517477166116, -0.12324299141928709, -0.13614490165527524, -0.06970949082579754, -0.016102942954205886, 0.0006188593582373877, 0.00022552135498620234, 3.6321307453923993e-07, 1.6102360827397887e-05, 1.0010477245431787e-05, 0.0002073806525632326, 0.0005069128184940589, -0.003672612236272089, -0.04757938789766416, -0.11331437285173249, -0.2034736038415508, -0.15169246116608592, -0.1858959966379111, -0.02264274176608978, -0.15250351650032856, -0.10899514553728305, 0.06377147267670379, -0.16018046729829435, -0.2083769811800574, -0.3695777254989777, -0.2751786034987121, -0.15410791369656618, -0.6516522080583281, -0.5058653545915446, -0.3945599686457261, -0.17353366256645708, -0.05319944246333609, -0.003772088591923885, 0.0001325328563099219, 0.00023428653500438194, 3.7012891733762635e-06, 1.3082884029259646e-05, 1.151135799094106e-05, -3.297505309289694e-07, -2.788843864296585e-06, 0.000627642241416928, -0.05399320895269345, -0.05855265843723961, -0.04357877579602731, -0.06138110740129277, -0.09545302183501325, -0.11276618074463683, -0.23983202934532433, -0.3115936629335116, -0.4565478434854723, -0.4043215156528416, -0.1745619963067657, -0.18273305101431211, -0.23819563952049258, -0.3421193097934124, -0.323299202462267, -0.272077544108457, -0.2364052802617855, -0.08639872329746327, -0.0029085682016526527, 0.00020191989073061283, 8.629306577364608e-07, 7.328731910482563e-06, 4.580917532485319e-06, 7.1548900966476934e-06, 9.74718443392277e-06, 8.886110231379308e-06, -8.27271867682736e-06, 0.0001155340835039375, 0.0003038242727847144, -0.004049013681144235, -0.02489205414320583, -0.025097185880321525, -0.007456632013390709, -0.04570376481637918, -0.017925774160117418, -0.012654594264255224, -0.010146403108513821, -0.03853649522883004, -0.018896519711851554, -0.031763082377721685, -0.043966345135979905, -0.07972024841980511, -0.05462910221942087, -0.010750038429944197, -0.029122758529954367, -0.05563024827452026, -0.005441160186218791, -1.4444010746419992e-05, -4.800400735252279e-06, -1.27014374973351e-06, 7.703854569250058e-06], [-9.960579874119379e-06, 6.979896911597949e-07, -4.072650927738286e-06, -2.8515752175036146e-06, 1.1898122351764052e-05, -9.097772264130846e-06, -7.997142998560897e-06, 3.3537914757275887e-06, -4.473924875875373e-06, -9.634264345401095e-06, -5.700957029721473e-06, 1.0206791528767775e-05, -5.461463973263919e-05, -0.00012388924701494457, 6.02924133525247e-06, -5.342794390912697e-06, 1.1477973166210779e-05, -8.231186375828682e-07, 1.6794467083560884e-05, 1.0209753432920193e-05, -9.338635107334613e-07, -8.041364897242505e-06, -8.927352966798449e-07, 3.4265904851085444e-06, -6.880347701506088e-06, 1.2014323027863256e-06, 5.020828082073371e-06, -1.7611960773051485e-06, 4.453073798935126e-06, 4.3068261728709325e-06, 4.763274524300739e-06, -3.879353394554945e-06, 1.5054670345555371e-05, -0.00013989162212023289, -0.03438614153157887, -0.0707846860464884, -0.07902168005996939, -0.02691732667183652, -0.009522554918990742, -0.011723836936375756, -0.028151292251014863, -0.03307592810176833, -0.035543791115896006, -0.032893096990115084, -0.027649394441265702, -0.008436004953890686, -0.0032795653662532507, -0.0011911247309269967, 0.00011337890235438088, -1.50448663424394e-05, -0.0018919683951113722, -0.002192887111295378, 8.212953500274954e-06, 6.405284190493105e-06, -1.0018398137143779e-05, 1.4493686664502521e-06, -2.010477398746868e-06, -1.102987624109149e-05, 3.20279896922961e-07, -3.446942697831634e-05, -0.00041984925563570073, -0.001154964118313728, -0.03288851929485191, -0.08789757719195539, -0.13601896152886175, -0.08579132058785835, -0.08923701021836127, -0.06774582759370694, -0.15391193636158954, -0.15715436844839006, -0.12668177189480995, -0.1758424636858727, -0.17975291649450093, -0.05270910250807356, -0.046269754801996694, -0.0014786395730445455, 0.0032614269598241455, 0.020326336471863674, 0.020897390302994742, -0.003613277627936205, -0.00034512533109862215, -1.4726111018162185e-05, 7.57329005802417e-06, -6.458402254900799e-06, 9.743956035820718e-06, 6.279396445124599e-06, 3.9007350540863085e-06, -0.00011378709906253672, -0.007575580336794574, -0.0070003970669523735, -0.07190482048481667, -0.05389352655979517, -0.19006773507261207, -0.31844140436515733, -0.24659484212012817, -0.22586237472564324, -0.2939736059874639, -0.4535490860663311, -0.3293996382161257, -0.326771587292242, -0.205198718230062, -0.11333719960796283, -0.09303271247733999, 0.0013289799449590464, 0.13087432704015667, 0.15291071907551507, 0.08057894280345558, 0.022351227803647858, 0.0024390108511518917, 0.0007533180114510656, 1.0043589242903064e-05, 3.6284410738711214e-06, -1.1413446661921729e-05, 1.2006201446312603e-05, 5.991363002632359e-06, 0.004195057816878625, -0.004169196774528493, 0.02218576947426527, 0.03195138681410908, 0.0719762368308606, 0.02227435580740591, -0.01508940589130266, 0.0480770447386404, -0.014476970756180972, -0.026868674147331337, -0.0076709230790411465, -0.17210513336696426, -0.4924552013639605, -0.25378052350980745, -0.2582776310913199, -0.1549632437417243, 0.06060812582909976, 0.23326392284585087, 0.30087000712710454, 0.2628998602586429, 0.17644122977128043, 0.06139571551278238, 0.022172201013617467, -0.0005128651486340288, -0.00015894754965227305, 7.061200756091295e-06, -3.76982021466685e-06, 0.001032507535856433, 0.03502449019245227, 0.026845785392794686, 0.07729768052938299, 0.0732206458720454, 0.08919681091527146, 0.01602977407970361, -0.1257287864732445, 0.11098990059376228, 0.04376353377072607, 0.19562107285539201, -0.22898106107591884, -0.18897226869472425, -0.3522746140203678, -1.0436312762890603, -0.8738864700294078, -0.2057740225218421, 0.08305021715474009, 0.42906491800074703, 0.31226006510538246, 0.38784004490388474, 0.41193333948283783, 0.1868153682483972, 0.02597368477010559, -0.005707402733102817, 2.2210155432864736e-05, -1.046243400261416e-05, -2.2129290989603582e-06, 0.016703787760467218, 0.05033533067012366, 0.1385632728562017, 0.25252049258734866, 0.17014167466715374, -0.24791540459540265, -0.28670084095532644, -0.17864873867621364, -0.08656180563466637, 0.007227106614360404, 0.2599007404648385, 0.18420361773173122, -0.06055137548289472, -0.7796321542999839, -1.8024200216615915, -1.680362201840873, -0.626190350224502, 0.01793750183868586, 0.32334391241857025, 0.5265121087908273, 0.5295885810050128, 0.5992475688312107, 0.13997489719505277, -0.0598097122526248, -0.004000375659138426, -0.0040390702429741535, 2.054172984003925e-05, 0.0027440160026820756, 0.025516343038869318, 0.07859018100491906, 0.08685003121759391, 0.18559856611113287, -0.014490914270915664, -0.15471927419235204, -0.22641901070818082, -0.24791748126675137, -0.20364150549039023, -0.0050344462344392, 0.2235969919055878, 0.35840927340439166, 0.008547717689760457, -0.6998154487357907, -1.8261164240784613, -1.1379882382299782, 0.05854465392373932, 0.16724247249672253, 0.25193183685486703, 0.1765777715177856, 0.3492997063383172, 0.3476879113430913, 0.12766471080286795, -0.019267745377607243, -0.012847997525947601, -0.0023609076564451714, 9.979239862268481e-05, 0.06473448365629214, 0.08206166308714331, 0.11646688571189491, 0.04934693015764961, 0.13651300067751423, -0.03340783610333048, 0.12418644381790893, -0.15013457630926685, -0.34965623812368213, -0.06304844627363027, 0.12439300709213658, 0.5509509872395214, 0.3645592421158857, -0.04929028793843267, -0.7990502857653252, -1.9487328870359721, -0.2078366540584755, 0.33660059636168, -0.1852961392863576, 0.3685469814005873, 0.11291125114467143, 0.24572229848129365, 0.19387603430274086, -0.0011826822195789325, 0.012119879744777478, -0.05786395342432854, -0.01093066009070087, 2.739878561908915e-05, 0.09083068538992346, 0.1381922460351297, 0.2069903853984874, 0.02651743487232121, 0.202392414018741, 0.19942402990088373, -0.0522680358760465, 0.03802846481350323, -0.02257650787508593, -0.0840100486001563, 0.12413927919659665, 0.4208453508568812, 0.5056084211439069, 0.20396546291012646, -1.4320456600450688, -1.2635580107395783, 0.2115027457176927, 0.503043838110793, 0.3306705608933027, 0.5072638980313322, 0.3135417645032427, 0.03513999896631831, 0.12088858664022073, -0.18941326026837446, -0.1226874699135892, -0.052723261435490186, -0.006371620726573555, 7.064942840979187e-06, 0.08929362750631199, 0.11507709457031219, 0.1383158789530135, -0.13083777125115126, 0.14432437780579138, -0.05661120925038746, -0.18827688710048193, 0.17770379805974137, -0.1425072511402564, 0.0022683972425551714, 0.3987165196034436, 0.7735575953767322, 0.7547823936889265, -0.24486996398917105, -1.6664668800642388, -0.8765852950677726, 0.24283628173959892, 0.1966740335091351, 0.2425853518552117, 0.3068273392834991, 0.1399271125134436, 0.1836945442498929, -0.0995711843461534, -0.15238807243260807, -0.11992204235297953, -0.043637196103475454, -0.0012536262986213313, 0.00036077994861037524, 0.052516869181373826, 0.18143112279093238, 0.19961604483430131, -0.0933444612495483, 0.07994877272274759, -0.014217613203530589, -0.3341340956251663, -0.36443071027867996, 0.13875047258491813, 0.09904227602802683, 0.4279028214997675, 0.8669792378735733, 0.5122525794841846, -0.9307965939058498, -1.2902804281509068, -0.41467956777506537, 0.021756114779907864, 0.267535174720076, 0.12086759630548759, 0.09072896092481021, 0.02830322516425427, 0.01700782132151594, -0.19774385169926512, -0.328383206382467, -0.14169049639869358, -0.013962513824276315, -0.001144713544656635, 0.000751690861682527, 0.019857888385875346, 0.1731074311033114, 0.17182349649325035, -0.11227851331277121, -0.176710324102434, -0.024219049151408677, -0.1057118906232398, 0.02103644480232738, -0.0010223315320298974, 0.12607314407440345, 0.426425296569041, 0.7285184840828282, 0.14082094223716612, -0.7930669611285363, -0.5469237713729574, 0.0237631300258091, -0.052975855610668574, 0.2318622305271614, 0.0494523204648864, 0.11133799931985436, 0.051074223602655386, 0.23852764892448683, -0.34464594538099713, -0.24896337362659582, -0.14945051355859174, -0.006327951761463812, 0.0002528102991603598, -3.841298096896077e-06, 0.008367023297017478, 0.11708860933046794, 0.03600176718355435, -0.030750524055747366, -0.10406029169630043, 0.2868519159615591, -0.07450413034704566, 0.48030369740558204, 0.5173208182940198, 0.29070098282461826, 0.2819161868626426, 0.1014489137359973, -0.2932910420452664, -0.5854741803671545, -0.4938464783786691, -0.1964663662576969, 0.2693406842892073, 0.18989581479584075, -0.13153723875636592, 0.12764141866122033, -0.24913029060420194, 0.029795492750080428, -0.3770991536124349, -0.1025757585711521, -0.1057433612616065, -0.0037536312134653247, -0.0040515809517313655, 0.0011914672490198025, 0.00591775733211745, 0.06344257178368706, -0.038158694670352926, 0.057053731996938604, 0.44982115377303356, -0.033906410924215605, -0.18718772296647776, 0.30321968624334766, 0.2490738840212868, -0.1924632509752344, -0.21677043300310878, -0.47031723286449095, -0.5574424924366497, -0.36242449633735885, -0.22829851161004314, -0.22645126798360335, 0.24758385763701518, -0.03997207487958229, 0.3957498154759808, 0.027384346104488165, -0.16283036855616903, -0.04891743110642569, -0.09823772681852659, -0.11526597780144497, -0.13202893661606463, -0.009597379291197469, -0.00045593440584117443, 0.0003954834275404088, 0.004962277252461499, 0.08116088619124656, 0.10415281560045452, -0.047845267682665366, -0.04948498697115154, 0.02851297773388849, 0.342449611722951, 0.05610598655024296, -0.12714100297066597, -0.1741904438026112, -0.5185715640387946, -0.5949932291236971, -0.2643959530678085, -0.08592955453148364, -0.2967964374095315, -0.2824411818485045, 0.12236687534719944, -0.032350602542396835, 0.31222632053245114, -0.0651523030843219, -0.18898583316010026, 0.13425878739043387, -0.18100079015820908, -0.32383654017489816, -0.1873644236618813, -0.08685459195210102, 3.6105610286818125e-05, 7.752705372794945e-06, 0.002299493881785468, 0.020823211282579412, 0.019164561305741616, -0.060257893870911725, -0.40561478853413124, 0.047416452383852274, 0.19410667418211328, -0.005778207652891719, -0.22859841904780925, -0.20538643374675225, -0.44302841779285157, -0.45579858569006154, -0.06071503828012822, 0.08313636024816734, -0.044715278115327876, -0.325035711909789, -0.31511962160081797, -0.18945212206359996, -0.03680993898019875, -0.11564259196352032, 0.20759387844009358, 0.08244474289833868, -0.1720479151194701, -0.307666040730126, -0.22401006559385098, -0.11221305027922991, -0.0005080094277012204, 1.0254470482952053e-06, 0.0008599747771435872, 0.004999995926869523, -0.06416688460667784, 0.13362740108497778, -0.10184383530278408, 0.06219458428357326, 0.062237769925634547, 0.011962970892623562, -0.27292687539844157, -0.7008847937424092, -0.6328391100061532, -0.22691669953715374, 0.08365827750700254, 0.5920317039154995, -0.13629394043699603, -0.24935702208632843, -0.10000409665201405, 0.29472922161528675, 0.017914643962846793, 0.011133296129395604, 0.1325534982482901, 0.06881513043542761, -0.09536091634397072, -0.15179170069183565, -0.05677771690441794, -0.037625259087840285, -0.004482696873696457, -1.525309632797285e-05, 4.242444377258004e-05, 0.0018291619263504702, -0.008146321905354805, 0.20618258225539224, 0.09154701991124145, -0.021438584745681583, -0.09730034178250986, -0.09890624025946829, -0.39461850150028444, -0.772417209180603, -0.3052167081479078, 0.23603411006745925, 0.13975634817941934, 0.5213238822105309, -0.0864618491000782, 0.14851389039103577, -0.06121163712151585, 0.2277588617774666, 0.28465115159842647, 0.18225039009474106, 0.1277398737091493, -0.1314651495546553, -0.15936068786716576, -0.07259397662552922, -0.03516169626797578, -0.005094453603595499, -0.0015701454043953228, -4.395530104691072e-06, 5.3500093273141875e-05, -0.0053060324246912895, -0.003870946274440052, 0.0561976345741989, 0.12381037382659867, -0.06637854677589124, -0.2989288835867802, -0.26464926285347357, -0.4130210500555328, -0.4440516146927485, -0.057893252516883875, -0.10599090521264724, -0.07410720278106893, 0.131344622589117, -0.23974611646863483, -0.3672607071756927, -0.10765027222838544, 0.25332341883679127, 0.30399634045197094, 0.1737553538464408, -0.10400015918964926, -0.13500545477566966, -0.22871383284235547, -0.05701379003775941, -0.022447415221979936, -0.0051520248873353006, -2.6436048845831076e-05, 4.259947886440217e-06, 6.716074864861511e-05, 0.00032727460699255925, -0.027483139040750712, -0.0774012803720934, -0.18128966967811388, -0.2840241747674123, -0.439037700558019, -0.47971806231458236, -0.5653926518793221, -0.345857838366914, -0.3426995977762319, -0.20949467026124108, -0.1225200808665579, -0.05180648748698078, -0.14055142037434454, -0.15000754732288865, -0.18295253823262708, 0.251759804533017, 0.3155412424545844, -0.08498806438174351, -0.12295665690158901, -0.0648850448282918, -0.2519101311110156, -0.08890129093867613, -0.09590810682208077, -0.0010947724060988676, -6.408534068563421e-05, -2.9375386767991154e-06, 2.9714682755446784e-05, 0.0013467125197869404, -0.05355289649149516, -0.04254132515557282, -0.20899826261632393, -0.4221795835315635, -0.5634063883803925, -0.227107552345529, -0.131903013436466, -0.07625720225624122, -0.16809284395438262, -0.23416258449201674, 0.07304042336547875, -0.10916102619594843, 0.0717842114484504, -0.09516663150714033, -0.26091353600749745, 0.24478651686510264, 0.4058576139941485, 0.04268764330021947, -0.0628637914902218, -0.16748819160213912, -0.0943329501590359, -0.02219722267930459, -0.026553643778373163, 0.0001202100512288262, 3.7292229827595865e-06, -1.5505458836246662e-06, -1.0275924568433893e-06, 0.0005130354278348474, -0.0561309589125917, -0.06261613638880163, -0.08147591785892, -0.12865012044830285, -0.20589677601093453, -0.1768634322877411, -0.03740625846615241, -0.18657339811014892, -0.03468639246444385, -0.25382425656060525, 0.10162317331265303, 0.006797658609946813, 0.04929918633138206, -0.06833564461000197, -0.2566336488577305, 0.22412523478666616, 0.707887402204196, 0.12578839043374448, -0.09736666783604082, -0.24515492426743846, -0.09976222924535694, -0.030133320160474368, -0.012790856130775354, 0.0018251776199281514, 1.7307739812865063e-06, -9.158475099440767e-06, -1.1765856687503694e-05, -0.0007748407913951534, -0.024227395963291966, 0.001577178251376908, 0.028802250135137115, 0.10108269012916847, -0.1489093392930111, -0.09244567660852417, -0.013177442257452562, -0.17625752455381818, -0.15310883223642757, -0.06746125762719851, 0.10633851361434633, -0.03189908737576235, 0.1254970577838106, 0.12922713699409102, 0.00366956912665364, 0.08042433853906467, 0.1363858533005826, -0.2992070193939038, -0.37074542274560696, -0.3146115321889109, -0.18782082281915496, -0.033469854452045616, -0.012516444045459289, 0.0019356027987231506, -4.069449641992742e-06, 3.060512268837272e-07, 4.565017117392274e-06, -0.0014800481981886778, -0.005105468208907249, 0.023278931030100047, 0.14738397865599473, 0.0954593717863906, -0.11942039309314792, -0.06451363684224977, -0.12708941478841376, 0.2340733385835119, 0.2926642956174482, 0.29273701316147765, 0.17153676736163992, 0.08905316194865256, 0.06187909951995724, 0.10500079027713309, 0.051893108793813564, -0.2518224093482009, -0.2856736111859798, -0.3234276062583306, -0.22985959106864584, 0.0012001499982252216, -0.10449820432194303, -0.035466534759863326, -0.002593642933619619, 0.0001277570690956728, -3.3622301723095536e-06, 1.0030805307105174e-05, 1.181694483515412e-05, -0.0014351127449168367, 0.0007204185849457647, 0.006608501661946487, -0.0474435806151966, -0.17323988617336175, -0.20213153535604023, 0.06407565805542469, 0.08869766397643582, 0.015289770511628336, 0.007932893055397364, 0.23327499936315838, 0.011166505683915752, 0.11054181240466762, 0.16546833319279208, 0.2337875285369729, -0.02947338918076771, -0.12220717877436499, -0.288319841133406, -0.3343511766335741, -0.012450883306684767, 0.16150796072021495, 0.01801586741403694, 0.000833432618779063, -5.0442720012033044e-05, 5.374004786535996e-06, -1.9667556886114854e-07, -7.69052341139061e-06, -2.030575506040183e-05, 5.82375635902358e-06, -0.0001326989783030726, -0.02446711258128128, -0.1268042032713508, -0.18484636366725699, -0.16967331835510152, -0.15652836807850137, -0.05885712893161618, -0.2806175695005805, -0.19490681253914569, -0.22781652005667719, -0.1721441210840765, -0.08433401171772428, 0.163774777863956, 0.08350118802761884, 0.027467857053645833, -0.11214149382446743, -0.12192320784016428, -0.23256599460860103, -0.12843874475598757, 0.009413372123745373, -0.01214276342571969, -2.0441831735606393e-05, 4.89851457345499e-05, -1.6861503980299004e-06, 2.096710943688663e-06, -1.5130115519608043e-06, 1.2304813188300811e-05, -3.815012876882585e-06, 5.1535850932589e-06, 0.0004624497616436584, 0.0034478823477176097, -0.0038662485918475624, -0.04785991829180665, -0.03951464345996039, 0.012387452995824546, -0.053213028110587236, -0.06905768695085474, -0.060735896139585833, 0.03914205458414551, 0.03327138679625005, -0.053779289953829926, 0.005131149152935542, 0.015793851393383646, 0.0077632878937364345, 0.03470691566901095, -0.05484029788156569, -0.022605920757614698, 0.04808585630652423, 0.01482604189604718, -4.652080144999409e-06, 6.420106847619687e-06, -3.6449956278346855e-06, -1.1759452008171725e-05], [1.899387348977323e-05, -3.3752934477970234e-06, 7.88568682877961e-06, 1.069253866630749e-06, 9.65332786435148e-06, 5.2964785980623184e-06, 1.3975809350588025e-05, 2.7505996884883786e-06, -1.5297499607838518e-05, -1.6108316615656865e-07, -1.499725028373166e-05, 8.719068505434048e-06, -0.005759750949220226, -0.01242121276063872, 0.00020723701696018722, 2.990359712565835e-06, 8.174131256626633e-06, 2.3620962038116702e-05, -3.935843063994452e-06, -1.0692094175585546e-05, -6.673584496249952e-07, -1.4925187016098962e-06, -7.315217915316525e-06, 5.968717900305415e-06, -7.634295523661122e-06, -1.68653557884086e-06, 8.568073208711813e-06, 2.3416850060355237e-06, -3.662330364676101e-06, 4.592140545105495e-06, 1.0702525469244653e-05, 2.1182409205688734e-06, -3.474748696945517e-06, 5.4376608279422724e-05, 0.004056808121544438, 0.006370643600524229, 0.0027218198826117704, 0.00033434662138251897, -0.009858386735387538, -0.0159666723010929, -0.008801500600197307, -0.00746094062555426, -0.014172856770086041, -0.01827843681765944, 0.012533298158937686, 0.007552289613670685, -3.819865191180612e-06, 0.0005445326713519507, 0.004442668774445574, 0.0038193768279684093, 0.004573680608763453, 0.0005005166403472556, 4.484820302166222e-06, 3.0642701051927588e-06, -1.0373776713941054e-05, -4.782506600831314e-06, -5.15573255120405e-06, 7.335671287825045e-06, 3.1556462962538e-07, 0.002764787445634863, 0.000974386495954955, 0.00012310458993221616, -0.0011061645173891198, -0.0025542182773621008, -0.011549407321679042, -0.0331748252241693, -0.04643271095649945, -0.05427034608940258, -0.03191547609865605, -0.1032195411476805, -0.06887128677376853, -0.06925455517317133, -0.028419293427581958, 0.020245012584540138, 0.02154319706685345, 0.016070323720353302, 0.016311349413094346, 0.0015882204150062251, -0.00048212520181637, 0.005625693584106353, 0.004459552125021031, 0.0029286423342503223, -2.002259483540431e-06, -8.653836063892188e-06, -6.423859822662891e-06, 1.3495836723163514e-06, 9.368309221553026e-07, 0.008058187527694174, 0.0013208073975923974, -0.003295105543819039, -0.005125745932195893, -0.011599876880774445, -0.032555057393767885, -0.06964316615858897, -0.07017682590505357, -0.0435488419883107, -0.06386283147469589, -0.14321379867279432, -0.214515388520739, -0.12828294853399638, -0.06412686730376535, -0.014386014626107826, 0.038193431815374684, 0.018554785840251633, 0.006603347054998675, -0.005275825357459068, -0.0030336427384193457, 0.00236460999255454, 0.006627123438139474, 0.003087053540671376, 5.3651761413200764e-05, 9.870438440200185e-06, 6.335398751607123e-06, -3.9176425314948085e-06, 1.1939648358696996e-05, 0.0005091264195770283, -0.0038541468113628017, -0.026015695769354787, -0.030886805193188316, -0.06875425064956163, -0.15317876851566234, -0.21048513060678517, -0.20106943471164762, -0.16610415187452668, -0.18719629616210182, -0.3635334896279913, -0.3996160102823056, -0.34137130407763416, -0.28152367836939346, -0.2747755581310786, -0.13509714152285307, -0.13704787456979764, -0.17755495884684994, -0.08843012472187033, -0.06981077383256422, -0.027285123788953414, -0.009807924261972434, -0.014324733640346006, -0.012119293276976095, -0.002421847458093731, 6.811450475707366e-06, -1.0456441062719413e-06, -3.50074957673123e-05, 0.002999125983798353, 0.0002261514902481846, -0.005880944966913041, -0.053092819806407274, -0.11030394763535337, -0.1897950550713176, -0.2568656541128835, -0.4556431257196337, -0.438252724673015, -0.7570959136164129, -1.0244364172849252, -1.4170004972103665, -1.310169934255045, -1.1495107033701897, -1.0580531307810173, -0.6043478453762667, -0.6176177647003165, -0.6188448918523466, -0.322976221946125, -0.23517239303708606, -0.19852019213311164, -0.12563323095823312, -0.0671580275700933, -0.009399540221753126, -0.002213851045255835, 1.0200817685387665e-05, 2.0622031899376447e-06, 0.005736348006155349, 0.021941740744938577, 0.07065591452808899, 0.08293183052350571, 0.07998942381910205, -0.11683967670465586, -0.15739547301771664, -0.21167146935206094, -0.25396700200928896, -0.2116534651899246, -0.7204154975656724, -0.6289900531121835, -0.32300044616816553, -0.374864825390843, -0.313129657159022, -0.10924388102016466, -0.18337925971181354, -0.7546201424667685, -0.8334697878461595, -0.4078579587780925, -0.46745967987388637, -0.515480292943285, -0.2843671249028017, -0.16112544076689703, -0.02727602587059507, -0.006760836375650574, -1.4519972275535596e-06, -0.002733831641048931, 0.009506875093619986, 0.06094455949564625, -0.020352884058813334, -0.07866950076413733, 0.13940186527487347, -0.027427558887701393, -0.09500342899884259, -0.26446748303147727, 0.1218508220567413, 0.2148593927800443, 0.581283349022366, 0.5885045391509348, 0.7285047402991216, 0.2783209087307005, 0.052088654490220015, 0.23442736609699352, -0.07547033756512729, -0.39520736424138797, -0.09940369040263991, -0.5038807705973579, -0.32536942808858954, -0.3323618182173727, -0.35267733474256996, -0.3025482584902088, -0.11604846549950132, 3.4042234378677386e-05, -1.2051590233041838e-05, 0.017438517564316382, 0.004601707970180685, -0.0045796658827665674, -0.014499291556463194, -0.031608550038870996, 0.06384685854878484, 0.08505772664448523, 0.019804774928272432, 0.04674022448452496, 0.29512338865068927, 0.49541300655482784, 0.642368670557598, 0.2740308389661143, 0.0712601446002104, 0.006751256278391616, 0.30600045904828416, 0.47402499513639257, 0.29472010526828474, -0.011652041871934183, 0.12548591698302006, -0.10059192751793977, 0.0800281223008749, -0.02018601316919923, -0.03237711582713991, -0.15051068769228518, -0.05392371829799094, -0.0013006208214421868, 2.9840543161658103e-06, 0.022830209018889703, 0.03830083736937103, 0.05319687816442287, 0.11807606338388302, 0.1387148661684984, 0.3783629912023629, 0.24159760712372114, 0.23743485646820883, 0.30706790234555215, 0.5871665290542596, 0.40931275124609096, 0.4063387376257903, 0.35432271176297603, 0.5925122795694044, 0.3135388602784873, 0.17015490153785734, 0.3686041338207484, 0.31560808781222993, 0.03043928862936352, 0.23496380215636026, 0.19542048804454806, 0.28000899223488734, 0.13735371281248515, 0.3240598124845618, 0.1732107009995859, 0.055321051217500264, 0.013171588034837027, 7.181446377306094e-06, 0.019739538438011652, 0.07499205596920236, 0.16959064317173714, 0.021614413431342294, 0.24791679111602757, 0.5719739219770161, 0.04421042455485627, 0.23561327704336615, 0.261554114226681, 0.35835371127820503, 0.3153680852704405, 0.2957761711573677, 0.9065035278058401, 0.7420283780464451, 0.5894097004523832, 0.790527622515937, 0.21283282676460322, 0.632256571557268, 0.41661663116873193, 0.29181366667641223, 0.216819312345833, 0.338316428800807, 0.4094341835522168, 0.2843042886432432, 0.28423903925649485, 0.07667051759045412, -0.005899760241958962, -7.104517324566254e-06, 0.010492501199901123, 0.13391409224203157, 0.20816094449726136, 0.327514273852155, 0.3647026179024539, 0.2126503762829375, 0.02004033458769465, 0.05886293673604328, -0.06565592867169602, -0.21295938739944306, 0.5470680499741148, 0.3028331077403318, 0.6325207065882524, 0.42421188130559256, 0.7347244066507499, 0.3685391913298559, 0.23757946404810112, 0.6705303368310841, 0.535848838191998, 0.2050059894178003, 0.2144233817618472, 0.30431812665189634, 0.24592898009902736, 0.25213545281255484, 0.15144537789246923, 0.01387762516980451, -0.0010415210793619197, 1.2473966462308872e-06, 0.0033606188329163805, 0.03029778809981988, 0.143688257451412, 0.3242133695289687, 0.21576699611806366, -0.022200640884669352, 0.16020221873250212, 0.14489919817803534, -0.02638754951347457, -0.45643521265336795, -0.19472884791466227, -0.5125136033404569, -0.04834274011099119, 0.38006626149212147, 0.4512395251442905, 0.0729264529118146, 0.3289015348022686, 0.07696721215938955, 0.2008880451848558, -0.10027130454567963, -0.007809376777892863, 0.15368200208953037, -0.10693439893317118, -0.18807902280709704, 0.1365005663111159, 0.1162645295252187, 0.042172137355973006, -3.107367374549026e-05, 0.004159397302101998, 0.0503320384102303, 0.03793742054655649, 0.22916921270859628, 0.01899262993086119, -0.08526880434055047, -0.26819240446853787, -0.26802130693512716, -0.5620607088317825, -0.3646820556908952, -0.24550045567674939, -0.45032615220655886, -0.14298149908566166, -0.023171566108446933, -0.27919589954485396, -0.33943295467704493, -0.25027281546890917, -0.3553668356534031, -0.011793318212657585, -0.046329622808507075, -0.06379974514865544, -0.24359216000210726, -0.2521256314968953, 0.040191733769513266, 0.20478703875128457, 0.13371096475429342, 0.07250013965201167, -0.0006054968677913228, 0.003235301701211658, 0.022611736869407716, 0.06667493751802313, -0.05022649914167355, -0.5483787457343111, -0.31785078481134993, -0.4588393730646106, -0.4684297596921883, -0.26164937388491966, -0.19127743167286154, -0.2676277066201781, -0.18813049707192653, -0.19420164477772214, -0.3315176240767079, -0.18807619669769243, -0.18325364916405087, -0.3121929644024403, -0.12239242768030896, -0.1575827724405352, 0.025360567176460846, -0.1149495585047191, -0.08623872461096557, -0.007945924129649883, 0.06497086154477474, 0.168146251863181, 0.0969597140457477, 0.008143566356588314, -0.00019946978962514576, -1.4899843658596773e-05, -0.018391925838906364, 0.058625734576342174, 0.009427082325879167, -0.3198594176528618, -0.2125209275678556, -0.21870528391468466, 0.004840054469997501, -0.09259711479745866, 0.06761466801968302, 0.016261888397566177, -0.09584824924167626, -0.3249064472704229, -0.2003832942096738, -0.06457251700590662, -0.29177316961412725, 0.106786677771534, 0.060675973989626986, 0.14153369585555298, 0.09146795411438916, 0.012322348378382255, -0.15681836485540726, 0.053485245928319956, 0.21602469007972494, 0.007356608209101787, -0.003345230761309772, 0.002070513015272708, -2.2946179510896775e-06, -1.5035941342726007e-05, -0.010222580783377625, 0.0772213433612704, 0.17322399282253675, 0.07282660747191932, -0.09114744537567916, -0.017683818870347517, 0.13334905498840308, -0.051194244798183124, 0.02180556779791816, 0.08361535296478478, -0.136528094235686, -0.17179378274413992, -0.5423441175789452, -0.500356621334152, -0.03847907797288246, 0.013297768051843127, -0.1838544091940359, -0.11550648493496571, -0.1409259009136308, -0.28214146363939613, 0.03575785666972452, 0.1242027200863706, 0.12044959879908385, 0.09285496230124557, 0.07062771793291064, 0.007887383553667889, 1.5351548525240366e-07, 7.036945530702646e-05, -0.009974983019062064, 0.022517318491483317, 0.005074059838980161, 0.14270036842247186, 0.24607541664018479, 0.021373674080977276, 0.04000627032196051, -0.09804174230898069, 0.1236689727029729, 0.03723859053696063, 0.1321116450688772, -0.015812119566846434, -0.5032054906109298, -0.1328372960583301, -0.23387081262897327, 0.18694207771406313, -0.035140698934469375, -0.04147679786636315, -0.1702997091166553, -0.04589132693119504, 0.25449361502058215, 0.11980237444498831, 0.058728578048577514, 0.06895402524679747, 0.02987791041148835, 0.02177551934614483, 0.0011382517331796585, 1.720061646890468e-05, 0.021527317162821066, 0.008841432934750459, -0.09886892013720786, 0.006126474363240185, 0.09796341363940707, 0.04124502795246259, 0.17600972336132642, -0.0740363059053446, -0.0317446285589332, 0.058907447673193405, -0.0884504854731861, -0.11547938715424276, -0.1599242678188009, -0.11815709249281929, -0.39557589019565453, 0.09170030196049939, -0.027774773249150262, -0.0471440589474357, -0.322139054896887, -0.029560443474149305, 0.28675809434974975, -0.0021262116914204762, -0.03503744017963193, 0.10265721447419608, 0.032999007390036666, 0.0013488168643818537, 8.476525469959328e-06, -0.0005921026285872104, 0.04675304961507708, 0.013237556862504996, 0.020645261934126555, 0.049856246372786975, -0.17260146430942197, 0.03382635140751534, 0.0753844335010271, -0.06506280290543431, 0.00800854970290072, 0.15234324725969492, 0.1690239970506424, -0.060286284276621055, -0.0990151670086064, -0.2942374678208694, -0.18730324311166932, 0.08359144859083961, -0.2949603120938456, 0.16781647972765346, -0.06050684868622636, 0.021522302875085924, 0.12411061294418053, -0.07310751500060365, -0.16780853157073294, 0.011596102126466367, 0.004734155806498717, -1.6233538244075332e-05, 5.698089489545507e-06, -0.00213276101951885, -0.0073333841090023446, -0.01937466371649613, 0.02175273752435925, 0.02612589152582542, -0.07016844637102744, -0.29769986120527436, -0.02275889695628517, 0.030813446290620695, -0.13651290042972158, -0.2160106835520001, -0.3276656134842343, -0.1210882094219127, -0.3536553742889307, -0.3377293671377953, -0.3139677597406502, -0.11483629968783986, -0.4179698530904247, 0.11515181526900344, -0.19455515465789028, -0.13775477373029885, -0.14000568685194953, -0.11230478624680111, -0.07020645993999541, 0.0007756862006063486, 0.000976822040862934, -7.236794193177225e-06, 1.1726705239747949e-06, -0.0013794838075017854, -0.00837620211010547, -0.03938066231150494, 0.0683263362688674, -0.06610500930825412, -0.11833233118894944, -0.3473325315972879, -0.3009652518338212, -0.2183776170090734, -0.41201414865088287, -0.486441545718238, -0.4941818793013814, -0.6558762857336957, -0.3423745253513339, -0.3400880874981961, -0.2770920618232041, -0.36448462025129, -0.295489194223811, -0.18496318611712903, -0.2939493445642789, -0.33580245173333445, -0.3821450125244043, -0.22417320514337968, -0.018218223791806938, 0.016080854767300812, -0.008584112038378205, 6.320649395573404e-06, 3.3179672827869312e-06, -6.223458434690364e-05, -0.008773766175408464, -0.019455895243906333, -0.003353928328311649, -0.0972323068158606, -0.1932464427840514, -0.3369012404161772, -0.27730911787838447, -0.34765845318602767, -0.5796696914756383, -0.7183492272717059, -0.3528676702590863, -0.381072674189542, -0.1594492946608932, -0.16145739861369662, -0.3460398568099509, -0.34956988517879417, -0.3813029985398131, -0.6273288410470192, -0.37174811859550067, -0.28085557299396174, -0.2121300786155527, 0.03766217059872987, 0.030371151355742438, 0.014212295110422088, -0.006411337870626844, -1.0870414001900678e-06, 1.3468470858933049e-06, 5.936889225353552e-06, -0.00020271020997277345, 0.0032392998060419426, 0.011551785343552667, 0.045951206853283764, 0.0284264712250702, 0.05032415379886539, -0.05973058339626355, -0.38067598402147806, -0.4335434190318613, -0.3029732516915745, -0.3612172122119202, -0.10097517829911751, -0.31565850862625555, -0.4480725051719508, -0.37186023331070495, -0.3294187351400711, -0.5157284541888074, -0.7046473089591568, -0.48499506468178666, -0.40925060952354847, -0.014460505777644933, 0.09669744496965714, 0.12630695432539882, 0.010455354575593887, -0.004580791615428534, -2.045026865977697e-05, 3.444945510631271e-06, -1.3046927587877175e-06, -0.00019629580917978994, 0.0019136812731256328, 0.034989540680752204, 0.12161661934629735, 0.19759454046406716, 0.16393752220940486, -0.10291426096393337, -0.46133868595267935, -0.197376283953721, -0.016920398647429568, 0.07915502352298336, -0.05488528907854277, -0.27226053640448133, -0.3100604840948874, -0.37065128062236385, -0.12653249760098975, -0.23207559739205344, -0.23947092066765824, -0.055973221859919826, -0.11033829122926359, 0.03506345464978455, 0.07140064761798472, 0.05889562152002012, 0.007216078446281221, 1.6938873931644235e-05, -6.938043527844181e-06, -6.750222191210264e-06, -9.571185254234954e-07, 0.0001201578445984164, 0.007389361281797204, 0.08145716761410134, 0.20118028976251903, 0.25469722487523405, 0.25984673699685773, 0.08479552950915739, -0.2431803019992198, -0.08063590568973071, 0.28968849706147604, 0.4730424853658042, 0.26428870280939515, 0.34088987002924775, 0.1585712491175987, 0.3016666958699177, 0.29771539274652964, 0.2639810769215739, 0.3096065039793417, 0.15304285098585493, 0.14447420095481409, 0.04723852422999737, 0.012279361666432155, 0.008918615777430437, 0.0011412219059548508, -3.1539639822727368e-06, 2.62805608348836e-06, -1.780997513278901e-06, 5.922540588537501e-07, -9.355605478126437e-06, -0.00048647006806639494, -0.002724735345039218, 0.06050613459616691, 0.14739623937432095, 0.17935782342454284, 0.2075432970455652, 0.2594052927676214, 0.3122306394478696, 0.17560313265384386, 0.3459605521347488, 0.41481741395028476, 0.44076139047752, 0.19911164629460595, 0.3049701782097346, 0.2520048881302456, 0.22281145151000253, 0.19150405799974543, 0.08898256998905903, 0.02563889315833917, 0.01214695299958963, -0.0051300794258812826, -0.00020982835734478962, 7.589751711268958e-06, -5.737821940292862e-06, 5.5677304490637925e-06, 7.587705669214349e-06, -6.475176906532759e-06, -1.373176909728041e-05, -5.197337484856257e-07, 7.290121179040525e-06, -3.9693331323264005e-06, 0.00948668622258293, 0.05471968226683395, 0.05094431640212456, 0.01153037896018162, 0.050826531609098925, 0.03899290399189083, 0.06731845218086129, 0.019880980427572227, 0.05806250424429703, 0.012287754629147146, 0.052854521197779405, 0.03061982858228398, 0.036434752435016406, 0.02347979558275231, 0.0004194243846819358, 0.003859339048071155, 0.004375520866295864, 0.0005665709147651565, -4.165576505848333e-06, -2.832106738979711e-06, 7.722969218956374e-06, -1.112656868452358e-05], [-1.2431796357300702e-05, -4.2635344661282995e-06, 3.977023977508145e-06, -1.1341540500696238e-06, 1.8183061748155642e-06, 4.378019346704824e-06, -1.8227634066603435e-06, -4.068574782615334e-06, -5.525129398473856e-06, 1.260447383455746e-05, -4.3535574530424125e-06, 4.6791670252004505e-06, -0.002245508407570766, -0.004898092249101698, 1.6675232040771863e-05, -5.503713562722975e-07, -3.5732090296923977e-06, -6.202651264161281e-06, 6.2236720458281e-06, 1.067018122436461e-05, -6.661940426474926e-06, -5.3122312267062604e-06, 1.7988465482201018e-06, -2.681945328066207e-06, -4.517407898637165e-06, -7.081124644858786e-06, 4.470779134632152e-06, 7.393980964092368e-06, 2.9549305313570216e-07, 3.0444438861498564e-06, -5.67431760327364e-07, 1.1626401370489174e-05, -1.5623762511069872e-05, -6.604724178536294e-05, -0.0011492882910676071, -0.0032734786260969805, -0.005733490421058495, -0.0062057381372736375, -0.011314777764160676, -0.016088869552687474, -0.01731174288085795, -0.011294153663997135, -0.013393517243409418, -0.0367427179951916, -0.05466175285612415, -0.030484374566916533, -0.019538184824771602, -0.01025557597371905, -0.004623760114548857, -0.0025784258872639442, -0.0002775677658848241, -0.00012640219930982105, -8.448220329398687e-09, 7.538306474073643e-06, 7.462883615420346e-06, 7.139250676221464e-06, 3.789120195983807e-06, 5.599260034914204e-06, -4.666441112753685e-06, -0.004290968658297259, -0.0016479172913545063, -0.000178066745377482, -0.0008845213177453888, 0.00010595041267655561, 0.02153094919196676, 0.0515080495013586, 0.014208168882500392, 0.01940538777619679, -0.021260992974902044, -0.03876284678580974, -0.017922791038139412, -0.044374587890181415, -0.14000695208736708, -0.1270117826224623, -0.0974933169122134, -0.05031334960016203, -0.00540723110785279, -0.006509787136743292, -0.01418298666957525, -0.0031475369975137073, -0.007187618200264057, -0.005167679011802562, -3.3945345350206925e-06, 9.05013790028025e-06, 1.1387874012649135e-06, 1.8595035809407531e-06, 5.454500433078181e-06, -0.012494129603976426, -0.004479397220968216, 0.000800929640478708, 0.0071692750562002295, 0.033013902130174695, 0.05954663930581454, 0.07715858776044338, 0.04620848106469077, 0.09463931594288512, 0.04034491338840464, 0.06322369643969636, 0.04219043135302674, -0.17192308157106143, -0.17301265726004023, -0.12603545914401237, -0.1261490972994598, -0.2099610934381952, -0.12273794134057046, -0.09241928418375275, 0.0004513974344493414, -0.006815069651476561, -0.020637153838681782, -0.0011373424766745117, 0.006657296788164417, 1.6137071092675795e-05, -5.7248259242605755e-06, 1.9032401000665084e-06, -1.6133521232304429e-06, -2.9378339449654514e-05, 0.0007621787070811118, 0.03597919168508793, 0.06734632990694414, 0.0745460719593692, 0.009297331370597151, -0.0680707492263631, 0.019370323723303752, 0.2245847879957747, 0.24194211157352719, 0.1550319264204144, 0.1471397982729244, -0.24467204986450103, 0.017748172814187807, 0.13100949746385862, 0.05133128928061973, -0.06861264917223882, 0.05933740417175699, 0.02997081746873398, 0.049235840405121016, -0.022756541331482076, 0.03449526475206412, 0.038934260615619824, 0.016365391109981687, 0.0009509456704425337, -1.0825516146401133e-05, 8.05472437351467e-06, 0.0026518192942267442, 0.006584634527248178, -0.008983100910712765, -0.0766988593306878, -0.11815160727367656, -0.05158467427666449, -0.07735016599529694, -0.13853191377097226, -0.08570281394367814, 0.03548870617298075, -0.021781842636418417, -0.01910691562530386, -0.24237280449289034, -0.3359609350770402, -0.2645519994405685, -0.2548507734563722, -0.061353275540178734, 0.23227429018612858, 0.22958006209431617, 0.15735939189321688, -0.02423665999447172, -0.14389852737905198, 0.025774348003045358, 0.09108113933811891, -0.00736220395790001, 0.0009722325453494605, 8.035519575079377e-06, -1.1091114822142675e-05, -0.011099634887402482, 0.0134790602809651, -0.014046316495685218, -0.14130143207285178, -0.14754052745289936, 0.0017243749531039812, -0.12314272919882402, 0.019433254332603823, -0.055817753554075075, -0.13777564101258016, -0.02101224424504941, 0.02874684293051421, -0.0705786563132131, -0.10518571620408979, -0.23942365626627396, -0.07228576156063042, 0.056383622139744974, 0.449379412144262, 0.41747779371187305, -0.05012772298780185, -0.19754778080423724, -0.21488629833520134, -0.22978720069598774, 0.006935576441464376, -0.0062953979950504885, 0.007355414898500043, -5.143302307947276e-06, -0.00536057006343717, 0.004461287576157842, 0.06103606195173531, 0.07115981513845235, -0.1581538652675326, -0.003998747247446002, -0.07381435709840523, -0.009528003833746834, -0.20032284756101543, -0.03194700317368252, 0.024084073376072726, 0.02152445106106564, 0.12667716945960067, 0.004476671416634286, -0.30767813323201604, -0.38988609577141864, -0.37771888890932553, 0.22815757297036032, 0.0598432376944064, 0.1671407195309719, 0.262530489811045, -0.08754142651731453, -0.23757384546412388, -0.21253469429785216, 0.03241108017914147, -0.040298737873462116, 0.007848022415549393, -7.7212955999382e-07, -0.011663171641003082, 0.008457679899320635, 0.057062095911661774, 0.05270762859810212, 0.052214502742729485, 0.24676368213283909, -0.009000173054837714, 0.0817339805496947, 0.14249946795512783, 0.2619417060469269, 0.10656754351598613, -0.15599748380007208, 0.06741801386123056, 0.007030862454613186, -0.8309337005522591, -0.2902910109660796, -0.04283397819542361, 0.40536773052392816, 0.26045164938726983, 0.28764685021012343, 0.5038634728892027, 0.06976164834769298, -0.17084518529554735, -0.26955862934982666, 0.003708358196430129, 0.06637343571561845, 0.01592330802507137, -4.993882232816091e-06, -0.014872592408409544, -0.016580898767519378, 0.02188299763596538, 0.06619272773803936, 0.2558568627162125, 0.10613938668487315, -0.1738338156316235, 0.22254140367674982, 0.3366554433221271, 0.1922566323161389, 0.12605785994641946, -0.13203370906275147, -0.024101276659521678, -0.7521265174826466, -0.8937989491417658, 0.2067322245831694, 0.6006157172678268, 0.577549959319655, 0.37084901840649176, 0.46404888295643454, 0.49529440383124246, 0.32242883929692207, -0.1351930569968068, -0.23927883382212795, -0.046366569277625905, -0.01950843108185187, -0.026218590628358098, -1.596424241471427e-05, -0.011186619768579696, -0.01756586802605104, 0.01888833808650006, 0.15516056570857728, 0.23710503167298838, 0.1663104000386967, 0.17164817898321028, 0.4844886413465188, 0.1341022751640613, -0.13601961908295843, 0.22169886697180757, 0.011743136670572238, -0.654593936476973, -1.6967666762727907, -0.819291441624858, 0.2775020356186028, 0.612368199118676, 0.5527352114633383, 0.41696965425800764, 0.26168439128771454, 0.3809041056244217, 0.24617079537266603, -0.10877672993398793, -0.42999970516992053, -0.5063555473553676, -0.06458903824682814, -0.011424721260336817, -4.274815605818037e-05, -0.007858904869275166, -0.003122593176034876, -0.0069272550448202345, 0.06142928723379752, 0.22154470199084472, 0.23677128676257778, 0.27063088805513974, 0.10945250556708404, 0.13617215429648888, 0.2064198363241536, 0.017211451181207458, -0.42788557021453666, -0.8379933545744165, -0.9866532421467378, 0.24051764987544116, 0.7581278861813303, 0.6289691553234944, 0.3603604845895094, 0.4334766824878735, 0.4376238272762402, 0.3602954710284188, 0.3313152213237218, -0.08869573839280329, -0.23606509982134496, -0.12357545086320651, 0.05323951478960585, -0.0016694260773802779, -0.0002202595969314499, 0.0035084974444278207, -0.012721503514669812, -0.05684353952890894, 0.02492251769038345, 0.19362857143605333, -0.014474996367684595, -0.04620458270567934, -0.14747589286411975, 0.010623584658854969, -0.14958175192974155, -0.6925934272655309, -0.9486208455278501, -0.9720024746366337, -0.18540542933230936, 0.646531864565994, 1.060521812992234, 0.8414457596860153, 0.6215817733952762, 0.6916480017095513, 0.4681192737679765, 0.7562993286656728, 0.5741682028382199, 0.26728546197059844, 0.08243760189378603, 0.0919390969578666, 0.07032237756527225, 0.005670175806531134, -7.050754944567526e-05, 0.003959015701675876, -0.013511067405448681, -0.07312660253933709, 0.011420528936844934, 0.005053135878908343, -0.06433480014759156, -0.12747177472663798, -0.46273469918409166, -0.2580213076810002, -0.6467872779725409, -0.6965420345506966, -0.6145504807844947, -0.11125044601623532, 0.45016453312235777, 0.9728474655210448, 0.7802552967335096, 0.7049202512638945, 0.6549060097059692, 0.83804121955155, 0.7851540206616482, 0.8210641093587044, 0.43266822202081684, 0.1701136840660034, 0.07260438249770274, 0.09015326485235524, 0.068409586720264, 0.030713009373589287, -0.001368384975960566, 0.0014655382048023079, -0.0037172301814113614, -0.015671999191766595, -0.06604796139350048, -0.2766451000436904, -0.1873198094187343, -0.18918287060018965, -0.7876134851664401, -0.7859106684344046, -0.5076491466623958, -0.1889807251229824, -0.12655392709529395, 0.3955602536445348, 0.6977256028984777, 0.8325349359899773, 0.6632208970441413, 0.39461293534583797, 0.5559768967146912, 0.7592254411025947, 0.4285228263233086, 0.22986410809489458, -0.3340667587680488, -0.3868630909426958, -0.23722758827509008, 0.0037670881665609, 0.01837525491479073, 0.003708200730410255, -0.000437137989625744, -2.1681987287641477e-05, -0.0030620150390274214, 0.03147361567603722, 0.014152726620228364, -0.304824790077984, -0.3030868532522461, -0.4269550671611414, -0.2353488325991564, -0.5548417312965627, -0.2909676795782338, -0.10536868448771108, -0.08943289534015908, 0.5502675922586883, 0.6505162351863136, 0.7226632115773647, 0.7151150090290026, 0.39237434633671314, 0.1185774116953659, 0.3686990758176352, 0.16804902698366142, -0.05666758561005897, -0.44044957685584185, -0.6200537309801032, -0.3204680039859426, -0.029851530179451944, -0.024197858506021498, 0.0013926487270219993, 3.7088118307759e-05, -0.0003996131490269918, 0.003949505938880101, 0.036879929471931916, -0.035834847187133714, -0.18653431653600083, -0.11548201671321356, -0.1824717637127665, -0.22355834232460425, -0.16183844665709146, 0.20328705770665198, 0.2737695202526995, 0.4369436029203083, 0.6514333373307643, 0.3768903871133765, 0.30005805628644266, 0.5749763587798354, 0.5063892123377647, 0.07975263976739289, -0.2394573059921441, -0.49939298158549167, -0.3516986955420744, -0.2979053149370238, -0.39516199641048555, -0.30981405904945253, 0.07727855863111072, 0.003637536739369342, 0.0008875245824638204, 1.0913654786418014e-05, -0.0001531840116902579, 0.021770315822389658, 0.012958214456766731, -0.008205385747142392, -0.04047390544428863, -0.04923872336987513, 0.07146911310740292, -0.015187366506872862, -0.04963976533087467, -0.19094721420328145, -0.10210993241907515, 0.4782711423113011, 0.5765039132693971, 0.26827841889095, 0.17313928122660177, 0.003847373006322595, -0.1769718675190235, -0.1508247359012499, -0.15780705331634118, -0.44264875003157544, -0.2685653934673548, -0.2712748295251147, -0.32598058239321226, -0.1470727724179047, 0.07921354516601907, -0.0047824747664385716, 0.0037056229834122587, 0.00013909856582678583, -0.0003839236003943826, 0.033167151767627696, 0.06555766445481433, -0.04610707707898362, 0.008618043439501946, -0.1980205874557807, -0.17237890198965644, -0.1688158433420679, -0.029019300364196983, -0.24765531727527426, -0.002326564087099835, 0.33767989347642346, 0.3839061454667857, 0.14589720459007227, 0.004256816657510269, -0.34629987893198977, -0.14599236491433573, -0.05238360999140211, 0.07147769696724993, -0.4928293445177245, -0.49316178217783724, -0.12272108747252473, -0.15576426307586608, 0.11773725662539355, 0.08871819816115678, 0.004228849977783127, -0.00356600179574659, -2.9089944308652797e-06, -0.0012562763762812427, -0.008062877599571406, 0.06842824199034461, 0.04723938658481971, -0.13468478650508733, -0.007925723534149522, -0.019919352094520212, 0.11756136346045062, 0.1633800202733877, -0.2062795268160491, -0.3184714650657931, -0.23298147548799394, -0.26665939287855694, -0.28394073294931454, -0.23559703412935282, -0.05929068902266916, -0.03585064288965708, -0.22062710216512002, 0.028762003064831152, -0.45667496387955425, -0.292862466156781, -0.047878296069180246, 0.06012958859466374, -0.013541795843759951, 0.01862426365978578, 0.006489713872059392, -0.0019370980913660416, 2.6106550812266483e-07, -0.0015194448269873395, -0.0059703335538038235, 0.0778488700462991, 0.12688574314043105, -0.16279444516803998, -0.18278884095738396, 0.026500291417612228, 0.04408764284559684, -0.22978560517971505, -0.24655854033685307, -0.25245820342465997, -0.3986277958640344, -0.1672153483373076, -0.2171006595155915, -0.021018229886548227, -0.005457170499345993, 0.03174237760570048, -0.17719081623617053, -0.01990462081428922, 0.019759063616576183, 0.08162791212000017, -0.05116780348691567, 0.06025204933142672, -0.024229048436638985, -0.0040462069746422386, 0.0045913273425536, -1.3907333738665997e-06, -8.179461814387114e-06, -0.00016574218484054023, 0.028138575977676668, 0.12555754017919998, 0.19350667922922493, 0.06105275540446807, -0.05332433853068769, 0.03667488770227575, 0.04335714846668581, 0.03213437006448981, -0.15233104010550355, -0.22208267659656422, -0.20074108413772715, 0.149586847859787, -0.04922458249225209, -0.4381333786079829, -0.3449343449228138, -0.03665941057146704, -0.4144835864778331, 0.1772832788940793, 0.09489309059374236, -0.03009729622942618, 0.08356461163295313, 0.1296676439104427, 0.03455850988906307, -0.029826338942463556, 0.003272266208902331, -4.8354216127330845e-06, -5.121941560612988e-06, 2.283490366228022e-05, 0.0041128054009205404, 0.024676279390445043, 0.19877505219564173, 0.060042559882784424, 0.1043636610412274, 0.13689836135413874, 0.17456760698653861, 0.1576894332221301, 0.11793478492243742, -0.06812128769017463, -0.2144074803453803, -0.13131638791970696, -0.019083888808494716, -0.22322223311295322, -0.08386352921807183, -0.17379796500207864, -0.22086434682183761, 0.007258392488338429, 0.02856495586649112, 0.004377171730665715, 0.21769842160745873, 0.2147491357003175, 0.06697282014461586, 0.04161516774932562, -0.0018530258188739, -1.1294242558949589e-05, -7.575394876474428e-06, 9.010177778392415e-06, -0.0003975777789409276, -0.014972568676090285, 0.024144123921085996, -0.06477749833476106, 