{"layers": [784, 30, 10], "weights": [[[1.5882254598131675e-08, 8.889698991409813e-09, -7.786522153988726e-10, 4.0457313650150196e-09, -1.2092354187641598e-08, -2.1724535969064138e-09, 5.67382322008685e-09, 8.858879143375169e-09, 1.178087774976268e-08, -5.738255715463442e-09, -1.7655315599396323e-08, -1.4404272474459444e-08, 1.73725730667098e-05, 3.8174874442533795e-05, 1.2696460923151788e-07, -1.6233432556422456e-09, -7.4262886806728745e-09, -5.977881719628508e-09, -4.266927834054702e-09, 8.957019241979034e-09, -1.139626340111067e-08, 1.3786306276058726e-08, 3.442415146597429e-09, -3.1040809574997457e-09, 1.298762799435775e-08, -2.6269425457910205e-09, 1.2619751126000982e-08, -3.1327417413201695e-09, 3.2987099196937977e-09, -1.910274731496027e-09, -9.15393757811993e-09, 1.4626753751730165e-09, 1.8824729495682018e-08, 4.754866370902005e-08, 1.507498404670847e-08, -1.575830473459784e-05, -0.0006573136806265589, -0.0008893647433571244, -0.0009506706989696895, -0.0019173977864372772, -0.0009379494702961532, 0.0011015788829443851, 0.05095316169197929, 0.06382531717440493, -0.07069063042253025, -0.03679290316397698, 0.0016005502529131026, 0.009145700739942027, 0.009445668424623611, 0.00125093005559573, -1.4409447976468358e-05, 2.2082756089115822e-07, -1.2193200192281721e-08, 8.55518043222679e-09, -5.792271539607866e-10, 1.4675990316937038e-08, -1.0285498937253883e-09, 1.5579536411698136e-09, -6.717947113743653e-07, -2.040086795966113e-06, 0.0012953612227967442, 0.00014836460907918756, 0.0010430186494664857, 0.00027149001424889096, -0.020515217227043393, -0.04412495810247462, -0.032477539366886764, -0.0406624645503804, -0.03543807706304947, 0.055796749726527366, -0.003563191898570509, 0.09855800878005593, -0.0024012382507175582, -0.0868379029524363, -0.006359954844642359, 0.005956397827250925, 0.0042049690774458555, 0.019173148054302282, 0.023047657313027062, 0.022384042318731145, 0.006424536462313628, -0.003215254867887334, -5.646886255930836e-09, -3.5171800050840876e-10, 7.48349455837857e-09, 1.1676601800661645e-08, -1.5056366071282227e-06, -1.5684823205262943e-05, 5.483948418478472e-05, -0.0031994034349801513, -0.0028625274732797684, -0.006246645732268712, -0.061993315576438765, -0.15448041171772467, -0.1769154540491486, -0.22074979301892936, -0.14797069255678524, -0.1890215538110844, -0.17718160942152586, -0.2675094202302663, -0.35864275404011353, -0.2050199318539352, -0.2775536762097314, -0.3780081980141605, -0.3405745277554678, -0.2880672335980269, -0.1377364766652576, -0.08426653750900737, -0.06222168382998572, -0.016753963047174608, 0.0007386706551344254, 1.3518076136601336e-08, 6.267301649371962e-09, -4.5238547556322485e-09, -4.3564882360120995e-05, -0.003393153345463598, -0.013017639496647103, -0.02042888994661794, -0.06153614754525763, -0.13517895163685847, -0.2090785099900937, -0.2919178497582807, -0.41470210894195536, -0.4638429056299069, -0.6309655167841112, -0.12420571100069218, -0.3663424092498563, -0.5776761381369828, -0.22477412678161487, 0.13164972063293776, -0.17536208033183798, -0.294366569635542, -0.1731893412359347, -0.007934456303502284, 0.05333931053619244, 0.2325935186212075, 0.0410956827844311, 0.006706764438282347, -0.011622328184481754, -0.0037323560811953487, 9.423207764704405e-09, 4.051894492997988e-09, -0.003965601252965032, -0.011493748359271038, -0.005918390991053263, -0.00975396411430225, -0.07587274445629331, -0.15013158863274612, -0.3526336584786465, -0.44178122020778615, -0.6550387461715245, -0.7523926690037068, -0.20743391346576245, -0.03278844420483726, -0.31441777173064267, 0.019518781706625177, -0.3977988213497499, -0.10283955284309824, -0.2504684264094284, -0.3294257416057438, 0.21092641650168126, 0.08815337844060352, 0.37401211395848155, 0.4426788321785027, 0.27028676737710217, 0.03619399832707798, 0.0008982228079266146, 0.002850891779786936, -6.833006102983262e-09, -0.00033715175973518096, -0.025241351492569064, -0.021992670918934882, -0.02813278054848907, -0.06710559468250986, -0.1806880850213916, -0.4283989320257335, -0.6966839664556765, -0.7621097813470492, -0.6503164096156847, -0.4484155618647083, -0.09595165213820965, -0.5060925109402055, -0.13038943503960207, -0.09060790693945629, -0.33205514048421486, -0.24684962060946025, 0.13935690452351054, 0.0037943939729564815, 0.24375444375202068, -0.10907601771135435, 0.13456260390702468, 0.13845505552872997, 0.24849754876467414, 0.13260839954001621, 0.04562459991106569, 0.020729012556696506, 1.1177469563970825e-08, -0.009306807247276151, -0.03967776252363549, -0.030982517463542473, -0.05312763892099442, -0.07560388112494182, -0.18671116410520622, -0.4962930423467548, -0.7637567296693967, -0.7317410089033315, -0.20033634676278622, 0.07548434778496292, 0.2015305009955357, -0.15783014901597275, 0.12849486832526535, -0.201035909665259, -0.1939899259018847, -0.09513268696134725, -0.15929894313649698, -0.036097562859044974, 0.13272613601443425, 0.15959717651272692, 0.4008006587869244, 0.19111722823012758, -0.03993066695722841, 0.15010136001794722, 0.06977011314869068, 0.0043419713985520135, 9.828933040671111e-09, -0.0038484715927623726, -0.02675768045938594, -0.03469552819791162, -0.03371909893516837, -0.08371472642339307, -0.04296972752610271, -0.3958113834056172, -0.6990824675255726, -0.6655784919630817, -0.3188038605330693, -0.08877709196073681, 0.28337243383548, 0.41828128235171885, 0.16818277079337635, -0.2282416813633464, -0.023520864048462542, 0.2500978333076885, 0.0393364697158116, 0.149068544268914, -0.3018415048447457, 0.03274938474407351, 0.24285181923056975, 0.2394820954740513, 0.17766567096333, 0.18948865886086066, 0.06235370824465509, -0.0009131945548206267, 3.7420618839755897e-06, -0.006602878019692074, -0.01730775699745348, -0.024321282590055168, -0.035892657569151304, -0.09824907740079128, -0.1236804340396926, -0.4347676940334284, -0.7181309802826896, -0.45538629683678594, -0.2982581395428684, 0.09841458793926958, 0.09732914550721687, 0.4906675410815956, 0.33089335453789287, 0.18520396014323082, 0.029535448404766098, -0.005691709309161677, -0.02306312826845884, 0.11263880662626002, -0.08154369493751162, 0.240429151097807, 0.23216013233954516, 0.10999878278869134, 0.3837748505694151, 0.4154460126569798, 0.16402113177538716, -0.014688071523913993, 9.397296327443342e-06, -0.0014598430785361725, -0.01407580647902602, -0.06497896486248902, -0.10625017383491672, -0.17262804688383207, -0.320028961237164, -0.414699419492649, -0.570976616554315, -0.5189174545583495, -0.3491746253753699, -0.018727095359526675, 0.49751584271376675, 0.5568030648114393, 0.2193980591794274, 0.1324174620330704, 0.1081887691168516, -0.010258048927794612, -0.1417096419048314, 0.066870090833904, 0.1494562505443239, 0.2332660806408161, 0.04011163390121493, 0.2458503588179804, 0.6600468584894542, 0.4322106013725292, 0.08309609406205548, -0.00036904687383622277, 5.54884893142947e-05, -0.00042757533060436764, -0.006921552245282229, -0.07455092643321487, -0.12411153423656866, -0.1276633200466852, -0.22713918810259726, -0.29597901546850136, -0.4829620372432069, -0.32088239971250715, -0.27586351784088686, 0.06852400087754851, 0.2689556439331513, 0.26008153993534416, 0.14316782287914467, 0.30164912878283173, 0.37690128479338453, -0.3155277329769418, -0.24749129778325643, -0.7468853951249431, -0.7891545648858125, -0.13282937644514695, -0.08055118827490666, 0.2118776950720176, 0.308483012978752, 0.25714818891917113, 0.006977564756323736, 0.0027942127731759624, -2.3078419392999353e-08, -0.0019510256284078634, -0.01996228175929284, -0.04755074831559299, -0.06416849931244469, -0.17477852442445235, -0.1437417646554041, -0.08070722950685673, -0.26827769745273566, 0.07304423111264409, -0.05774259367636932, 0.32685221155047917, 0.27257454475360254, 0.4501172899094248, 0.5194774310655755, 0.6043730683740007, 0.037845831228990455, -0.1548063073729582, -0.24418320216130365, -0.7090317144736963, -0.7029347919645886, -0.7375238793222282, -0.6540895285244333, -0.4924377070066212, -0.23881025029575156, -0.026335813739181865, 0.008035099085868292, -0.003922321793595538, 2.154127459503338e-05, -0.0022810041164510663, -0.03285243615245856, -0.004212903736264235, -0.0996746564413942, -0.16766639846672454, -0.22020072906490362, -0.0498981724736648, -0.11537923862770573, 0.14002353426526468, -0.19152482641323423, 0.050763171047412216, 0.2727592444520331, 0.05249650251742248, 0.24447170767774629, 0.05345375311973246, 0.018672831126138125, -0.13070831688024284, -0.3748044666144618, -0.3173428918429807, -0.46096906654669606, -0.7830788764536606, -0.620088585206381, -0.5369676621125941, -0.32530569045920504, -0.09001459430196462, -0.019840797788864897, -0.009192291782740015, 0.000256725798752777, -0.0011979296786906635, -0.005493706258882102, 0.025416089326806383, -0.07052860151542169, -0.11904708256956154, -0.3742409949328493, -0.23230526934269718, -0.23239146329757676, -0.06921575404333155, 0.08961830379073008, -0.2463750688426251, -0.074539614001274, 0.12374112619430172, 0.21608757934346373, 0.0057420481830927975, -0.02650283111460745, -0.29038655107315714, -0.13680653022157988, 0.13372211760694885, -0.0038485734664045657, -0.3888071995047126, -0.34854503492270544, -0.34354164857658476, -0.12239806362152143, -0.021839999114659697, -0.026697953835702292, -0.00016408630124511541, 7.777134942289794e-05, -1.3513639022076928e-05, 0.006246098732915264, -0.023774696658533427, -0.10011509733272193, 0.07489746335069691, 0.0020630984283874793, -0.12445250410620894, 0.03866521757742369, -0.09882975538445093, 0.000254724726221279, -0.1832417593425522, -0.1356752933051884, 0.14732082519117182, 0.3194827154147807, 0.1641296339766855, 0.04054171376543822, -0.0937665965430459, -0.11799798295723032, -0.25285438443112823, 0.12505688195438688, -0.19778280525869152, -0.25103707982796875, -0.2590693925940627, -0.15161163868740782, -0.09047474641183206, -0.060508969826318794, -0.002301069990032336, -3.594867440487281e-05, -0.009438583490634799, -0.023540501448974092, -0.06905700638668161, 0.14523420562816003, 0.43274039661885116, -0.07213898370142187, -0.26841520201225677, -0.19535611343228723, -0.3730287104498198, -0.13551646406212903, -0.17239065290120137, -0.007958531525061985, 0.2413448343726876, -0.019195268510217176, -0.12692132740094464, -0.17785023598409838, -0.1811716994859254, -0.1842179657835126, -0.45728517822904274, -0.04377745860065685, -0.08384463990546626, -0.23218069654607257, -0.12039988631804113, -0.022104141998549726, -0.11058738441933688, -0.05784999572672852, -0.0016515758009760144, -9.07811060587556e-09, -0.0002740277266005434, -0.04090230491478523, -0.07383086867557057, 0.28870841582598317, 0.2140797582318486, 0.08083437650522451, -0.06303514436468116, -0.33457654034412004, -0.04313789781304977, 0.26218928223954135, -0.10334728030946001, 0.030407896793224844, 0.06200792813244072, 0.23816384390587184, -0.20025906472536728, -0.19296527610586128, -0.09088775773084683, 0.2654976354645152, 0.09204725695534806, 0.26112475192982676, -0.23211075951434884, -0.2630491785902796, -0.12947609327344176, -0.0232712698234279, -0.04985470097208461, -0.024281454533830356, -0.016571892729379128, -4.8102074604522167e-05, 2.9244049602661124e-05, -0.01916535516922863, -0.05905330938347398, 0.1332269213087553, -0.21941577077571975, -0.18510703500794878, -0.02244372356981372, -0.08597672957700855, -0.017960047939126252, -0.27353297096388, -0.14238129015772893, 0.16299510640297435, 0.07894232316867447, 0.3884099947269087, -0.197152329194715, -0.10556594499850411, 0.2741338621709357, 0.3293718311710402, 0.2785046257423025, 0.22429954342118208, -0.1891404829720345, -0.39126110739498215, -0.20757379993600017, -0.03282221828545984, 0.03692349105389623, -0.0004630246909147754, 0.014801525236243418, 5.873930007301406e-05, -1.7868341241469574e-06, -0.017711904609412403, -0.16191009633555378, -0.017631172259125607, -0.20179668973801834, -0.2474715159102661, 0.01498155103335717, 0.1631566750197213, 0.03337952013907516, -0.005788063368543468, 0.07924684637987782, -0.10637906430743138, 0.1552331811800013, -0.13870247635916116, -0.09926215467621742, 0.3794466144235957, -0.25662251282271864, -0.07413776781433837, -0.01954873876070066, -0.14277921392139822, -0.20954408659404647, -0.43167894803778867, -0.2507458409666802, 0.0017202175204785836, 0.038192019053348514, -0.02722456043874591, 0.0068820516246538895, -2.2978408096915676e-09, -0.0025122724224434377, -0.022783470193669, -0.3474864083299568, -0.32377274584006405, -0.16009535662447794, -0.11619878930276469, -0.2281644753469483, -0.0004996670730389976, 0.07297929796783018, -0.08125163751951096, 0.1505564607508452, -0.2368282484678256, 0.09988553785071552, 0.11058456155707293, -0.013675776766068527, 0.06638259596100185, 0.2714025709524083, 0.2986219508451032, 0.13393164550758635, -0.10362488523605311, -0.24705144944838883, -0.2802071534612235, -0.1358247766122015, 0.020971595051901187, 0.007830823191727359, -0.006320619491926478, -8.153619287910788e-06, 0.00017424916930145712, -0.001400952130731826, -0.019669521831783065, -0.1578893452557273, -0.12333540721939333, -0.23882153108312804, -0.220601891978959, 0.00447471520981788, 0.004777170244201918, 0.05008533889856571, 0.06412835951246534, -0.039989804204345995, -0.18916464110048356, -0.06335194679566503, -0.00746607733853527, -0.23687880374148934, -0.10955761464874958, 0.15432289254719284, 0.00011974633060582978, -0.09361355589574824, 0.011670230284991838, -0.1011457824703808, -0.14227603386569657, -0.033424782618708064, 0.09580730861733631, 0.004222682634709764, -0.0007263330676902768, 1.903963907666396e-08, 0.00016879902900554958, -2.6073272129959425e-05, -0.013598853008534159, -0.049227252206440225, -0.11321159247055884, -0.006964752294781965, -0.14717461332954612, -0.06232016018148588, 0.16783229061407906, -0.055405953364403904, -0.02035532497319221, -0.04189627653252338, 0.07923754564373636, -0.14873470428980365, -0.06476013027338205, -0.240919903055952, 0.01074939418959432, 0.028103334870892057, 0.16445051504008265, -0.0043314954973267235, 0.009261508409006865, -0.01052261370361228, -0.015882832364024147, 0.010454352911540699, 0.020866090836158802, 0.0016681482421878606, 0.0034913751927325085, -6.843379928405685e-09, -8.19569985653716e-09, -1.1593868687404023e-08, -0.016881552635419676, -0.18045156173670682, -0.09628652410669629, 0.026168472121275235, 0.05501591029530572, -0.059326090765091745, 0.17460487540997796, -0.0033342117307966317, 0.24666487779033727, 0.08482849179966827, 0.19404741495046146, -0.287572559824295, 0.009098135289785316, -0.017657810798632684, 0.062442370934909265, 0.17345721065855568, 0.14143802597233845, 0.0348306075074672, -0.1092069923648472, -0.10368334512971977, -0.05136146573064028, -0.0155445094243947, 0.014445733645739043, 0.012890507936620284, 0.00255723521415042, 1.888046983904326e-08, -7.495173557905235e-09, 2.1138585899847908e-08, -0.006542658380615289, -0.11625927422459498, -0.1682446204434965, -0.20037592947133587, -0.3352481178503553, -0.1486498115863765, -0.18676417481256513, -0.021262238489312607, -0.10663251758790286, -0.1008254254657946, 0.22944167708780824, 0.058362864440272125, -0.10141034957281854, -0.1609795821969895, -0.32098057349901515, 0.08745332119505979, 0.1738751329513474, -0.016600399435913876, -0.13859035386827276, -0.08233205262849384, -0.027401549685912182, 0.01438916627101911, 0.00126893704497565, -0.0003030739851086226, -0.0001628832387585336, 1.7411519175519146e-08, -7.073015309326836e-11, 8.21764159324982e-09, -6.24697910332125e-07, -0.0007885321424182148, -0.08505351112283376, -0.17088526291261158, -0.2822409163319331, -0.23974829154454502, -0.1908541914942424, -0.1542117468846382, -0.028655645780896966, 0.0812063681163777, -0.06052604770163104, -0.04663176432240963, -0.03217601732130524, -0.11036684755242264, -0.2001867949146751, 0.0031609096974567928, -0.05281782507810349, -0.13670020534973745, 0.001826971568109601, 0.028050393063976043, 0.03560833424085109, 0.012616600016030498, 7.630710818394417e-05, -0.00015954871106010308, -0.00019073865774088482, -5.70564644483727e-09, -1.1715573524013303e-08, -1.033124977712273e-09, -1.1163757638067939e-08, 0.0003183694580418936, 0.015013198838136852, -0.00712934622071843, -0.02839885312642742, -0.019670423618141256, -0.06840621268850815, -0.013371723250087586, 0.031934814645888765, 0.1614754486660017, 0.12409565234515525, -0.14116043623126803, -0.06981078336910618, 0.0926771917710252, 0.06251353812028368, 0.056767858677961025, 0.008142601354507967, -0.01748103294720185, -0.0062278757415381875, -0.0034699852409905392, -0.0007592681309305194, -0.0003538006462477689, 2.1162282275259372e-08, 2.500720960103884e-06, 1.190266203937647e-08, -6.249743221743469e-09, -1.3562373805866493e-09, -6.3315886308942624e-09, -5.381844314044257e-09, 9.854759698027845e-09, 1.2973917854081677e-05, 1.3808869402324474e-05, 0.0015841201565518766, -0.0002831347516459792, 0.0003496694201273772, 0.0007564719413733311, -0.0029271152519268363, 0.0014709940683303529, 0.002493355034789148, 0.0012329626060756087, 0.022824400502195294, 0.013160177458547032, 0.008717723574962295, 0.004805501333891947, 0.015869681656355127, 0.001628165873473491, 0.0006506331154433009, 0.00013338715881487648, 4.510890614014432e-05, -1.6506452871769727e-06, 1.76090393367043e-09, -2.2027485331957043e-09, 1.1962258960230714e-08, -5.408904580210497e-09], [-3.815891718116443e-09, 4.079962788632042e-09, 8.416497421620066e-09, -1.0762015162354718e-08, 5.744904460984543e-10, -6.4798435842929376e-09, 5.440966066477953e-09, 9.264650915972765e-09, -7.0687510427090245e-09, 4.728904244319719e-09, 1.8909050165298943e-08, -1.894774942128167e-08, 2.5578402543399207e-06, 7.424560734990047e-05, 7.638072333111001e-05, 3.183938082271474e-06, 4.187021570674651e-10, 9.477194585346334e-10, 1.5515578584941894e-08, -1.7033706280524505e-08, 9.091741783441869e-09, 7.612927939353824e-09, 3.001812932798934e-09, -4.19488561887336e-09, 7.829565211208686e-09, 1.7926646051960323e-09, -5.361639494329668e-09, 8.575795581401138e-10, -7.279867772396349e-09, -1.7833416187398176e-09, 6.363534842388809e-09, -8.913330598661775e-09, 9.212660685734078e-09, 4.3852344243881854e-08, 3.2934473614779455e-05, 5.429899428550154e-05, 4.289629368020577e-05, -0.0005421938720326697, -0.0011418438535991489, -0.002003401089445105, -0.0019052701406277366, -0.000695596307625852, 0.04649342530019848, 0.07563861385887984, 0.008240447960204265, 0.00022769323379779404, 3.231854458869785e-05, 8.321348992973718e-06, 3.514947237647101e-06, -8.086129111077565e-07, 1.0955768072836736e-05, 1.5348676564432804e-05, -6.001526344467201e-09, -4.818519503015564e-09, 9.394843920537428e-09, -1.074900839241396e-08, -1.3500110687409987e-08, -1.3005361339359729e-08, -9.517585761716476e-09, 6.45065860611735e-05, 3.6411666393402754e-05, -4.1183391626639784e-05, -0.0043349452964776625, -0.008275544340556112, -0.020951220761668627, -0.050554847050840616, -0.03320029652600298, -0.04144509366541229, -0.034484278178938246, 0.013424217539769068, -0.003535316566934065, 0.054412708016317125, 0.045334234917668005, 0.022148019083810522, 0.09348451686312513, 0.07739368688394817, 0.003747397121478521, -0.013791539543240533, -0.007540927545667795, -0.002688560365143794, 0.0004644074336537615, 0.0011813493495271064, 8.801895788622162e-09, -8.873852987676592e-09, -6.6857444034423434e-09, 3.247559264084188e-09, 1.2382015864335077e-07, 0.00018763289098821037, -0.0027733996914681767, -0.010398448324551437, -0.03916212214221121, -0.07828471508906705, -0.06844773120837927, -0.08341150592467342, -0.07193933718990381, -0.06980831315712246, -0.007064307379210166, -0.07371023257682253, -0.18216242356212664, -0.10593130112409115, -0.076153185455013, 0.03106271809779371, 0.03809239999848601, -0.1615029417069585, -0.16613487541479943, -0.17912748608498855, -0.10588166404823343, -0.03458003452674824, -0.01738424131741662, -0.001049960222189071, -0.014338835585409482, -3.009529221950239e-09, -4.042620207721788e-09, 5.1363246313697044e-09, 1.1174096709186928e-05, 0.0005703254906093279, -0.004740344865944853, -0.04221167520005662, -0.07165748652338662, -0.0764042585091399, 0.020743954331271873, 0.0025675728214532598, -0.05525903825924826, 0.06077547895589644, 0.08817435524006198, -0.05302870215685655, -0.04478200564424328, 0.008284405857948795, 0.05481284378146389, 0.010690413755096353, -0.031776993262441815, -0.26340076824843406, -0.2798421173697613, -0.17543804528378787, -0.15957763419123372, -0.07841604525984862, -0.0549065260064183, -0.086026066845547, 0.0006709552772162444, -0.005286563453470259, -1.3203445491973392e-08, 1.0814438665277276e-09, -0.00012973262401183612, 0.004984839698307527, -0.013390102145914634, 0.09221236640125023, 0.07248921064300873, 0.2195352711359534, 0.1922703659310275, 0.17505822485268316, -0.04089276872336689, 0.2209582064404635, 0.25083762463828074, 0.3202148206217106, 0.41763085594862476, 0.4396328313228012, 0.32369422516331936, 0.029503482695939047, 0.08470993669376459, -0.16644164812339624, -0.04578917335623623, -0.0068442629907682715, 0.14316309949400605, -0.08751218819281346, -0.013520827463555325, -0.015463077840830931, -0.00961108615873439, -0.007181476802242779, -4.276635047588398e-09, 1.4996230289490954e-05, -0.002202188873220938, 0.008037435142210926, -0.06861925798030452, 0.15193280668875106, 0.16313093276018148, 0.10963711910503675, 0.17657934604453235, 0.32209141426335947, 0.40311128231935284, 0.2446281859239347, 0.2936932957909998, 0.2166367304781502, 0.0852047954675215, -0.06348075847207324, 0.07636307103822199, 0.12393637791861281, 0.20453701939214525, 0.2509480908984385, 0.06280909838440003, 0.02996270054051783, 0.13579149152869038, 0.15179666343946174, 0.09125796980545237, 0.00374846528552907, 0.014652794939061138, -0.023141816605163686, 8.781695590132303e-08, 0.0004722342669203614, -0.0025783885841374784, 0.014346005602489541, -0.07472057412368643, 0.13854619103902832, 0.11558372034331237, 0.48982255564840615, 0.27637236611546545, 0.07082856797606506, 0.4901741942008719, 0.04767910782347258, 0.026465441534714064, 0.1893155570970456, 0.255384049701018, -0.12580360523843703, 0.2787474781026104, 0.002095147333212834, 0.40693495273703506, 0.14157862698100018, 0.11543170402635218, 0.11892460459719405, 0.08280373139258759, 0.18284650889036974, 0.21679498010301423, 0.07093397805290783, 0.0018343760733229761, -0.005914884868710954, 3.9085327596334476e-07, 0.001829889253344825, 0.0021232245273694363, 0.03615434148450512, 0.1793922498722221, 0.3404586294248277, 0.22558002483035772, 0.40812135924879867, 0.4994580604933796, 0.14673612270081063, 0.4400734808791398, 0.3567509335342365, 0.34825048222266286, 0.18297513045920183, 0.07104900633963449, -0.004094975539935664, 0.20567788488034208, 0.21521249429281755, 0.3145540928962907, 0.23772365236011345, 0.17075832281175105, 0.015876583107910305, 0.2269250423627821, 0.15264040764251977, 0.04386016967934952, -0.008122328642772632, 0.06340350034471726, 0.01950975219959192, 5.431726568718789e-06, 0.004412507083038449, 0.015492443433583632, 0.05586097203617272, 0.3008010837975367, 0.4623283010759843, 0.24111508461233638, 0.1780354014295343, 0.2838705912949598, 0.16814062533734722, 0.06200493505781035, 0.2140742307932943, 0.11487273521657285, -0.06805555403070891, 0.16618525168580817, 0.14959254796493177, 0.423920083223803, 0.44714682557505575, 0.16555863310708058, 0.22712926322176807, 0.10317802712091961, 0.1411989319719754, 0.1565447741235429, 0.38184101505732126, 0.2047457145325133, 0.3663885128464402, 0.10353299555474307, 0.025994167607413837, 1.29581659441423e-05, 0.002269908223967019, 0.033614323957661785, 0.0258824970114709, 0.15741855643827893, 0.1640386204889705, 0.1015372241145372, -0.022883736351611433, 0.2095425064074035, -0.13020994882257564, 0.10780567003500154, 0.0894623706189004, -0.06453590935061557, 0.44763403690796433, 0.4460267827285876, 0.3325214761852542, 0.4294911606767978, 0.19746590650535564, 0.20308214624442333, 0.08846608422665347, 0.08133239425972288, 0.1290483612290147, 0.20671092313077, 0.471343676850922, 0.3913845547986641, 0.13984079335199529, 0.04315759879964838, 0.005568461044416557, 7.889616225269581e-06, 0.002904445008950398, 0.015559907375654684, 0.015152372710388115, -0.0376730781254912, -0.13331468667486657, -0.13432624192217024, -0.19352745562975135, -0.2966097574776552, -0.03365802594497904, 0.09035925362620646, 0.2601594468143239, 0.38588971611862344, 0.7053947701165967, 0.38672155189212554, 0.545492252405792, 0.18007121912783003, -0.3016811864582259, 0.13368966675764307, -0.09303339103599377, -0.11063555412754945, -0.17593854774049228, 0.20999068297136025, 0.4795746500920929, 0.4432449130169215, 0.12122967294726374, 0.08069671398849101, 0.004397861065343548, 1.3076596311092422e-05, 0.013828656205476884, 0.03465746070396592, -0.05374149479665417, -0.2367061694465017, -0.5213390158793053, -0.644711346184109, -0.13449809679485916, -0.15592263104751775, -0.2536397769542247, -0.5012029323167608, -0.45482934151628807, -0.27184224152561565, -0.11880742100517709, 0.10879139629408227, -0.22488023308445246, -0.07729732643184152, -0.13363686668251928, -0.27256045054396943, -0.2801007743791659, -0.11689588687023568, -0.19199101704622829, 0.33726853834847004, 0.2584967976824252, 0.32913558812016364, 0.0991267204591401, 0.1186607680585211, 0.011606243946415294, -9.763424423787913e-07, 0.011410541543525901, 0.04856893170270961, -0.12753848316281716, -0.4969104288454362, -0.4604510886255915, -0.49690671629579847, -0.5584859078083927, -0.3631830287978364, -0.2696626639007745, -0.7859817260047165, -0.6537668207013322, -0.6451712122660659, -0.6820241601476201, -0.4481205448072418, -0.35142198493362203, -0.2442118173193772, -0.020914629738763776, -0.23355215965557619, -0.17134826752447027, -0.16756284288264733, -0.22778728430098774, -0.023282194236647527, 0.0075056884746804615, 0.1406973999950824, 0.0365302390387197, 0.011842229661065063, -0.005028369393376083, 0.00045443749829324887, 0.007339049824294241, 0.030847132125804252, -0.07453823250225156, -0.3031506259225466, -0.1289670109293165, -0.25265287043766443, -0.31044882630196496, -0.14902063034962065, -0.46678955276434464, -0.07803323784576643, -0.36350077111719375, -0.08492429299224159, -0.19971100939801983, -0.22229935682150373, -0.20296078154817646, -0.20821738697375328, -0.07878313706180738, -0.18082713074677487, -0.09390205983549071, -0.4291178149977729, -0.016256100964957818, 0.05299738338079419, 0.20264631894668209, 0.21709408010641007, -0.06006032607676127, -0.021087815003872686, -0.00010003458144394658, 0.00014839396710037962, 5.401785173325967e-07, 0.033083494040273165, -0.054368855108007534, -0.1563608735372192, -0.18578868569451717, -0.05104876898962976, -0.06132656262964873, -0.13416635868507118, -0.06049906138714505, -0.004986720763310918, -0.09082571511880796, -0.45073574899009183, -0.42971533570065074, -0.0648009011109219, -0.45782495275288876, -0.418336783317467, -0.3748076548694976, -0.05838248568117588, -0.0473078568845327, -0.31560712429379156, 0.016661077168841614, 0.08875750281109344, 0.25456981920244526, 0.11389958695132893, -0.124403095256512, -0.07197973071621909, -0.00030624313627236507, -2.3322655367903004e-06, 0.009910631630682816, 0.027543576176713692, -0.06408350170092884, -0.1549576443873419, -0.22900104228827395, -0.21301980372045398, -0.17267805869074412, 0.03198393570667634, 0.01480954854094159, -0.1976655970240823, -0.5998318466634658, -0.0030648164800610605, -0.0904113723162807, -0.27033658281620365, -0.4220528635263751, -0.051120877038058864, -0.22077070799710416, -0.28375723798501057, -0.04216396806483585, -0.19115289079241807, 0.0564050402705076, 0.19337568038096628, 0.1333653309158883, 0.07578288491542023, -0.18410016672549148, -0.056039554214041006, -0.0029483568895408365, -3.2019681679834567e-09, 0.0007289163809609528, 0.01500698575139471, -0.040034924950617896, 0.01137001609900271, 0.03429561383652314, -0.08183773753621579, -0.20441874398874954, -0.12245608346446121, -0.18407060212643256, -0.5525165215758653, -0.3668990170761449, 0.1664145242325134, -0.15763366485785127, -0.19387396529869932, -0.41941205577458046, -0.594342531789995, -0.09092798605603175, -0.22438607987065934, -0.059799128812155114, 0.1484539939488757, 0.02904368149144031, 0.37146824081927404, 0.21703935711253963, 0.2865125325813519, -0.07652482583004021, -0.014546983961038101, -0.012206045469735444, -0.0002826144590583755, 5.588169364001368e-05, 0.012136057071621834, -0.04692127369326274, -0.02652343970413587, -0.02572562720591252, -0.13011777027363156, -0.09103642457950673, -0.29783824292312183, -0.3621391854660936, -0.3783484230369244, -0.06808621601463269, 0.11285569593456636, -0.44400511174740015, -0.2894327138617114, -0.4423899904531977, -0.3069696317339229, 0.05691716787421328, -0.014072688550427193, -0.07001852080292083, 0.1363764733972801, 0.2483434141295171, 0.2520925258444692, 0.12556840064848487, -0.09942807346952116, -0.05406586241845478, 0.005610646029439814, -0.01036077260761102, 1.3043389114292252e-06, 5.343862988358907e-05, 0.02674985104189583, -0.11157027517801249, -0.21307161648236478, -0.09586579153947648, 0.48159370554709585, 0.26139496351510555, 0.06962194837865449, -0.21563819088781783, -0.4227490632267289, -0.4575932822684904, -0.14430598415855928, -0.08836237623961901, -0.287421097382701, -0.31894949892290436, -0.1978813905777143, 0.18632482334221384, -0.1405289262653432, -0.0014844326608173248, 0.10460641830110287, 0.1198932672547696, 0.15530764047342885, 0.10572175724887291, -0.14251947802328482, -0.049768786467358675, -0.02730034308843538, -0.0006587056706661246, 9.393320733309819e-09, 0.00010368136998678962, 0.004339671278434039, -0.09299098365601172, -0.32179879008264284, -0.18919314158970038, 0.5378286924278121, 0.6106464918135475, 0.5844895853237335, 0.043113623705607805, 0.037178162996611454, -0.376543139654446, -0.11286110967067378, 0.005450540873294932, 0.06894259171085423, 0.01574233634134751, -0.19868338957153533, -0.17441507373772866, -0.18246896685853925, 0.1839057536399793, 0.12988072175667045, 0.09045344818394653, 0.1419484354690331, 0.21018244007868384, -0.080974256664418, -0.07264038981792692, -0.00956372458882073, -6.072952960249107e-07, 1.3447905591697373e-06, -6.314065069802138e-05, -0.010993812917155633, -0.053292469301010684, -0.1919633400262215, 0.02099433307472492, 0.3348507376905649, 0.4207534536189521, 0.6989559908746135, 0.7660386446011974, 0.5905146136321644, 0.46454029824559234, 0.06582816962130286, 0.28660198421899746, 0.1475466623068995, 0.4332511585785473, 0.18626717082218036, 0.2928040819421704, -0.11912545550816779, 0.15828933420298588, 0.19201663681717585, 0.2169139608301898, 0.1438192572205411, 0.01055983794544125, 0.08029436137093193, -0.0228455774348502, -0.008683846415287043, -7.87955874812037e-09, 1.2896063695919698e-06, 3.398971783462832e-07, -0.009025022235985355, -0.023508120035681472, -0.027112134571054044, 0.30839521563530187, 0.36554794261263374, 0.38807935626275186, 0.4602417803048592, 0.55313970127773, 0.636815513583928, 0.7307509758354297, 0.6344924867778675, 0.5616053825149029, 0.5528132686863889, 0.26210321239539813, 0.13501248474089889, 0.5995284404292852, 0.2516503756597246, 0.34377997334442584, 0.21022452340567527, 0.09470584645205025, -0.05009747089831021, -0.08542708773587072, 0.03167734412148852, -0.011761352450225382, -0.003304299838024022, -2.697019924555522e-09, -5.207097124230527e-09, -2.7230529440128636e-09, -0.001520035932690213, 0.009708591188274877, 0.03211126072304553, 0.1406743719590741, 0.18789959838769932, 0.16117979120418624, 0.312056458225997, 0.4753010516081817, 0.522940088960165, 0.5903353285622698, 0.4773804095100095, 0.5022831183826719, 0.5275090070549275, 0.4967839827453897, 0.5689018500074787, 0.4333769582560339, 0.12933377285278427, 0.013903846534192146, -0.09340444978501714, -0.20245662552289923, -0.1055708566212282, -0.02183774373077561, -0.040493264639297394, -0.005997074599448823, -0.000455499436162532, -1.0051883827768265e-08, -7.766196996624794e-09, -2.8099711603419893e-09, -0.00018852632925745057, 0.014333638435571863, -0.11157116744638321, -0.13089101715415397, -0.07965679496927407, -0.07378019736720698, -0.14897718856168868, 0.07779605983863465, 0.2726432827933901, 0.11028504829939507, 0.1069955130543417, 0.3032415531554191, 0.28968390959366364, 0.266308681550303, 0.17452727371134222, 0.20125837772109126, 0.09535371906702106, -0.05801459131790908, -0.32700184033469915, -0.14529734488734025, -0.034371623529101246, -0.037512401195211764, 0.058327424740776616, -0.0015684019830042588, 0.00020865071402004532, 2.2866849853467768e-08, 1.4002272742972992e-08, -1.1960996122223563e-08, -0.001073205520467384, 0.007353093950870376, -0.09376204887378242, -0.19968932929589536, -0.19598918279734998, -0.20351203016005376, -0.2748479811063318, -0.2281942616098996, -0.11574231168219978, -0.12182104888988951, 0.19323092596021404, 0.0075405935695188045, -0.09331619953748457, 0.07702223082652473, -0.24334179968997202, -0.15555393881741486, -0.05692895035709716, -0.22730368916639773, -0.3901549296829051, -0.13330316277581344, 0.14530374085789233, 0.10408511808399862, 0.0664988506436632, -0.0007651750368904116, 0.00021674144758276962, 2.253001769254508e-09, 1.3137266076584562e-09, 6.792870576576639e-09, -1.8057470113005447e-08, -0.0005692748095900622, -0.03927179283601539, -0.0712417935681147, -0.1272416085874517, -0.12376922964396335, -0.005376075195378582, 0.04882989459188442, 0.0029585140537764223, -0.0025855555749504733, -0.03409633874770116, 0.05104766054428086, -0.13396764959603855, 0.008728087594494303, -0.0325719117823653, -0.027460992380601273, -0.0007913785032958368, 0.10786272929030336, -0.15702549454506548, -0.16671308383242886, -0.0661764168604822, -0.004781624621544958, -1.2325070712902467e-05, 2.9690684045745893e-06, 9.400046652868999e-09, -5.587753218080795e-09, 1.034904618609822e-08, 6.744374733960798e-09, 7.88855558886847e-09, -3.5601952475650704e-08, 1.6324621592706748e-05, 0.0061662577196902, 0.004684810568853038, 0.017534871401899424, 0.015142566611732232, 0.019077714041379874, 0.04124705397175178, -0.010498076071444653, -0.004590658377434281, 0.0828803529552978, 0.014860247587568539, -0.10138310862319341, -0.02057754053756281, -0.001851848734381786, -0.08409643051232744, -0.02479217395200241, -0.0623914218944627, -0.029646053172309193, -0.038274177898746695, 0.0021087054596083473, 1.2036674493417743e-08, -2.7266347568169406e-10, -3.6220999606415753e-09, -1.879462549103694e-09], [8.865983740861825e-09, -2.5942601952948728e-09, 1.6061735429341734e-08, -6.512644169224703e-09, -4.281934771147814e-09, 5.280292928385336e-09, 2.1503272289922865e-10, -4.932917576434102e-10, -3.241349006888241e-09, -3.210272198051612e-09, -3.502758366563101e-09, 2.7198236315510777e-10, 0.0008566183960492972, 0.001803893891146491, -7.991826911788584e-05, -3.3250418858185173e-06, -6.797291909658239e-10, -6.33492797757747e-09, -6.560954041559765e-09, -5.781807700070146e-09, -8.21458554859815e-10, -8.241036930288731e-09, -5.296326091891695e-09, 6.341314126246903e-09, 4.223720076947391e-09, 8.425844718064388e-10, 1.984301812097282e-08, 1.3854437251188764e-08, 8.592453993616881e-09, 1.3122342626877937e-08, 1.485180428398628e-09, 4.531791541328636e-09, 3.9899991522262735e-08, -4.3181365381960316e-05, -0.004363740809454642, -0.009233246833296117, -0.007825124660775735, -0.0023474429977979904, -0.0033923365080738756, -0.0037728697116594947, -0.001205123784130902, -0.004293484213712238, -0.00291602548437321, 0.040492747830459044, 0.08477809528938521, 0.04232061145091076, 0.011415854926451082, -0.0013719995643542858, -0.005436873290272397, -0.0001326231875080292, -0.000470802485910019, -0.000699960064110006, -9.162814803813397e-09, 4.053729128148986e-09, -8.829050010818528e-09, -8.854687129465436e-09, 1.1451813468214573e-08, -1.650541091027989e-08, -1.165632458104368e-05, 0.0009393384861049209, 0.003987925578892406, -5.932812067941611e-05, -0.00978041142548289, -0.02081329014600078, -0.03759099002454318, -0.04545771671872027, -0.027226971329002345, -0.04555340254629252, -0.045880378178230034, -0.06222780126948065, -0.02734842289218739, 0.01895430143063184, 0.036439537654807494, 0.07092303914990893, 0.06077876433563523, 0.01826237819068583, -0.019404665776022307, -0.010761363510762425, 0.004700837531840175, -0.0013112930285159449, -0.0010442780998854444, -0.001262470975771865, -5.93609979256139e-10, -4.1299682863596555e-09, -3.823106495004338e-09, 5.484000451437856e-09, -2.5711274992068177e-05, 0.002726946338614272, 0.0008985998706974098, -0.0026355532091427284, -0.023058422128875003, -0.04982317333524434, -0.08817944920563443, -0.07285008728820862, -0.01285533973058372, -0.06293538146762884, -0.05522071318651561, -0.1270649113688966, -0.17320649845845187, 0.07083200141478638, -0.067995382358112, -0.1407722972939645, -0.03633840768013259, 0.2035206079776525, 0.16288951336973773, 0.0757906750573772, -0.013727599412375726, -0.024142664756098536, -0.03150139491290538, -0.009751190941002734, -0.0001360319801597489, 2.2494687699456382e-08, 1.5754910639923978e-09, 3.730608248644164e-08, -3.330147461234788e-05, -0.0021703931763560665, -0.010337528455222107, -0.03291451731993079, -0.05921424932968582, -0.10073756623957617, -0.020364587835673124, 0.07046994510885014, 0.04873530755605252, -0.099041811178279, -0.124715754832369, -0.11704451901220173, -0.03820814965440168, 0.2584920312566927, 0.1684880696769488, -0.15900320382508512, -0.25291264535563707, 0.058638619016746975, -0.012003036099395814, 0.0693252773462203, -0.038230156778669484, -0.013528281822556346, -0.061640641326446116, -0.004006354039929942, -0.004742129149453161, -0.0009810272581471553, -2.380125576510899e-08, -5.814078462017943e-09, -0.003188493934532794, -0.008523158694137363, -0.008977801562418496, 0.06436691994454252, 0.15283064438927255, 0.08466885385369481, 0.14093398378094565, 0.14808052202952252, 0.03476437539703574, -0.1279202796891105, 0.026583562520463167, 0.16582587825769543, 0.3055433342320906, 0.18425512929151425, 0.300195163426791, 0.2818574205492815, -0.20106656062692255, -0.21501987155826457, 0.02951931766684668, -0.0433526139256012, 0.018444182962588596, 0.19868283015573815, 0.011333530696895959, -0.07391411502863059, 0.00781690132923437, -0.00032870385256938853, -3.068622223002677e-09, 9.63909851608451e-06, -0.00010413255043759932, -0.00929578183814847, 0.019935390271484475, 0.26746567828171497, 0.3319056313794385, 0.05497926371068165, -0.0019422714882703213, -0.08643308951322808, -0.09831918591458773, -0.014760150221929747, -0.1289390397685505, -0.09073455701466417, 0.30656716043787147, 0.27834081977801595, 0.31541240745125876, 0.031053106173360743, -0.01479010506632433, -0.3699677858127656, -0.28205905811041515, -0.02913607250368504, 0.02055312397204899, 0.11403139913721896, 0.2199526326701029, -0.048609824557248375, 0.013954679510319017, 0.0027366988590873985, 4.646501850160947e-06, 0.0005442521011735263, -0.0022731741650393045, -0.012939295286620685, 0.009489283481777766, 0.2624092181973126, 0.10034007378089595, 0.06088525540465385, -0.0909796516018966, 0.11994128533569069, 0.19024029117375055, -0.04726935113814374, -0.11655835579353592, -0.06224626633730625, 0.13982312519388873, 0.29886453067977053, 0.4028758063142594, 0.10858016841077049, -0.32791273808109317, -0.25750665326801214, -0.2193570568588708, -0.1403068973069229, 0.0437911519485813, 0.19358480320750088, 0.21222482159296646, 0.07289173293137673, 0.054567604681437766, -0.0013959785642592127, 1.8798058549932733e-05, 0.02280147655304315, 0.014137464326168974, -0.006946494024357684, 0.03720791335939643, 0.19359733770217954, -0.14726897503609673, -0.04210622094311095, 0.0157598897935963, 0.1482132228551799, 0.022673798462968592, -0.09784063133945506, 0.3107098251735032, -0.016760655206061594, 0.055665597263048275, 0.9425044463925031, 0.3125241501827745, -0.21049045872775135, -0.3128711276839479, -0.35554599920801017, 0.0454548544832918, -0.0838242037776193, -0.10028179690478373, 0.12097533904398264, 0.4167547920779996, 0.1937684650872911, -0.02834253355122015, -0.014843673241413375, 5.927481900353855e-05, 0.029428661007436414, 0.03790640016115194, -0.003828205289474841, 0.00963885747699604, -0.032091839216509294, 0.011832949890044155, 0.2117749246828472, -0.21356243974833675, -0.05108007507201959, 0.0418997760182688, 0.014657554472683004, 0.03824467163012051, -0.12704445802147202, 1.0914233635513295, 1.000495941443398, -0.04463470081895755, -0.7124432409612594, -0.26426199093764646, -0.4109098392660255, -0.3157959422370931, -0.2890723332494246, -0.306263521486856, 0.15535643698403528, 0.4201360051875227, 0.24026192604902152, 0.061059768289654724, 0.050065322254139816, 0.00013497270828060734, 0.027740249133860584, 0.03172315640078212, -0.03372795255565085, -0.16722763110314384, -0.23173589830235183, 0.04775580911340983, -0.08380467504750048, -0.31254433057429637, -0.16283155288742512, 0.08642316040243021, -0.035585130686518016, 0.043849333046158234, 0.6582766397461255, 1.2771262792846982, 0.4379483450219637, -0.4234380362450923, -0.5621871195459077, -0.2697362098625309, -0.39170075623715667, -0.11362026897311255, -0.2081557807149094, -0.29468432774521996, -0.08122818434211292, 0.4171345941445181, 0.4500058040512742, 0.06552838433987311, 0.01542393266011698, 1.4082905228996842e-05, 0.01523648888873641, 0.02951969203684832, 0.02199554343497441, -0.1551981273302459, -0.0908466969790907, 0.04906687678514793, -0.27077411730452156, -0.04922866628662202, -0.10660041395518739, 0.049236767909333325, 0.1410293887708957, 0.4946943179991259, 0.3992161293655792, 0.4210062149214058, -0.3086288651769295, -0.635760955142273, -0.4433936092507587, -0.3870085160653085, -0.23158664669802964, -0.4215912094462615, -0.2106712756788745, -0.16479523246123182, -0.061376724067673846, 0.1651274939564857, 0.2834345766715879, 0.018207538572973934, 0.0012327222404336698, -0.00014567680247683348, 0.012036953086328173, 0.036416823863010574, 0.11170668642283044, -0.05249524841654554, -0.12637043533866993, -0.002373932588579118, -0.01331548131204011, 0.04464735750333711, 0.2048808142986766, 0.2977698617893888, 0.4381824413510565, 0.5633677300938158, 0.5689660619834204, 0.10479509295507554, -0.38907052208929777, -0.6700570378522933, -0.48758546531519187, -0.4336549829070929, -0.3755148629154988, -0.4209022794944452, -0.5749400755783176, -0.4144227153066199, -0.3041371213924793, -0.23125900576929168, -0.028616661536706993, -0.006665401464238754, -0.004484580066997306, 3.627665245184534e-05, 0.009439405182570849, 0.0034682439831235693, 0.15063665504443888, 4.3231663848932294e-05, 0.04648358511205359, 0.0438265414830132, 0.36202420751749065, 0.1529975298833059, 0.35582786285404644, 0.2940237122863058, 0.27923303876230304, 0.2389805049855904, -0.08350911403951627, -0.41003596469955045, -0.40525545841048605, -0.1838675051202392, -0.14633342222563628, -0.2624585502104504, -0.4622484598105761, -0.4227640809259014, -0.3836890374235628, -0.3826881346419958, -0.1465788555446359, -0.18153807089144078, -0.0747612384747913, -0.048634240267368505, -0.023476957244838528, 0.0003373704335205912, 0.004421200696662813, 0.002426738175943391, 0.08628186529367801, 0.1366485940913108, 0.1957522354737591, 0.10614043867362884, 0.2511046283963858, 0.22390291840826945, 0.3316410891378926, 0.015659904328301687, -0.06867884246763026, 0.08368029692055089, -0.3071956745660596, -0.48572204886319315, -0.3062325017262654, -0.4071680565278665, -0.2215430583393575, -0.31868116861673845, -0.24200638603384933, -0.1239405637292985, -0.1701825173721755, 0.09304936634565437, 0.24799485894268283, 0.21702427896927134, -0.0007870766642498536, -0.010567204806614309, -0.00245482887888967, 3.635464182916907e-05, 3.948972165565281e-05, 0.0011600268139872183, 0.01999856510214686, 0.1922316918562885, 0.29067894659311816, 0.15493664652955083, 0.21694754797571722, -0.03879915837331132, 0.15855586766806046, 0.10507541097612831, -0.022513863368244524, 0.11073061102815114, -0.3633508007708059, -0.44312487380780907, -0.5374258448295732, -0.4635238314388676, -0.14648682023958443, -0.1660994035581081, -0.26749450148473425, -0.07477842823842817, -0.1299927017006148, 0.11268359694203237, 0.3350097355532817, 0.2416112332154479, -0.00749652577899569, 0.04170720093471724, -0.002236235359767441, -0.0004234320084487323, 0.0012877307264460307, -0.006648625304662003, -0.009584538288703502, 0.15802164211348216, 0.19513201600567603, -0.126104714458295, -0.14523379109820994, 0.17136629130471082, 0.15043882121823968, 0.016855902156169764, -0.24959634925368995, -0.15131333734057997, -0.5139042636505557, -0.2624121530138545, -0.09051951864215568, -0.2922107368977773, -0.2533693070742711, -0.15941140648005195, -0.016684655692375937, 0.42017199442459274, 0.3096535895411239, 0.37511072959035047, 0.3438752492398967, 0.12281089054726924, -0.07976381496346589, -0.014511418811713495, -2.7089061767383073e-05, 6.36419785338024e-09, 0.00010346567207374582, -0.017804412405944253, 0.06926425076000978, 0.11025951752355612, -0.01804914986452244, -0.14867934075627806, -0.23844301293803383, -0.17182828654990404, -0.01969422423987086, 0.19397895824962638, 0.17168122322779883, -0.29294750369750705, -0.46629184675830987, -0.18129837170855556, -0.0019407136774606845, 0.015502539660707368, 0.19510640819772343, 0.2663556868338485, 0.3089423423867162, 0.3815942271379266, 0.35123242055336706, 0.52253152526695, 0.3072937114153834, -0.0030252132556661147, 0.0030680083009573724, 0.004500594668240468, 0.005270719518424814, -0.0002484854721521037, 0.00044544230780217014, -0.0185029641587428, 0.05203729335138395, 0.1275459918719315, 0.015298597403874105, 0.06384959233446515, 0.08154026553423022, 0.0018052566342016915, 0.029251818946024404, 0.08867956807241707, -0.16142734209233084, -0.5174970437447384, -0.3652899804325138, -0.11534670582547063, 0.13211371131005, 0.34910959608657094, 0.15490928156805223, 0.2380333895543339, 0.15257076157792757, 0.4961971380183568, 0.37494216329476776, 0.1098998996374702, 0.21211787724200945, -0.07258136117578452, -0.011613576274291585, -0.0034787368175, 0.02032730217764879, 2.6716434371629473e-07, 0.005510627229346451, 0.016972205017201147, 0.041066398180884735, 0.07696970013891365, 0.15279524055675087, 0.15673694376955144, 0.006607084645194008, -0.10670359554086596, -0.21809270605392633, -0.11724800380001758, 0.1489417647394592, 0.2371653855147526, 0.27156505292183747, 0.19576836002824746, 0.02208791985331488, 0.09053132473606926, 0.039846588587493265, 0.2873259403687849, 0.03709123277265341, 0.2000579703189367, 0.185601850334889, 0.07288736467935723, 0.0198872929945673, 0.07177653330131646, 0.029998621708475386, -0.007046008175148607, 0.008896914362076605, -1.027629409111255e-08, 0.013011532433672951, 0.018230909392800212, -0.10693841016766505, -0.04052688676598858, 0.1382937841839836, 0.12184419822575669, -0.061208092964436106, -0.17579945036122466, -0.009043206284142557, -0.002373224957906562, 0.06361163223005253, 0.2807552309602588, 0.1245628071874725, 0.21882030023935295, -0.2470755168043392, 0.014278772394068754, 0.05301562967173222, 0.10589837045861232, 0.013380234979954359, -0.1039888853552843, -0.22407017123296397, 0.015278866812878523, -0.021385027330473372, 0.12924462283233784, -0.00883693706112675, -0.0037725787244700087, -4.369379925369987e-06, 2.454496759476761e-06, 0.0010937179363329336, -0.01203908344088912, -0.09452545925629509, -0.02294022902696036, 0.018003974682910935, -0.0795103955449299, -0.09967376705832551, -0.037004896034255344, -0.06471227635898688, 0.08240169353794596, -0.018407521059219844, -0.047778697109405556, -0.12275031725505417, 0.015438237827244374, 0.1547674162079456, 0.16916648336219298, -0.11208750626768957, 0.2831514966101281, -0.07394990358978445, 0.013414332102491523, -0.026376215304395285, -0.034121184304447126, 0.026723291657670515, 0.046828992301373155, 0.003330095184022414, -0.0038912130173023155, 2.8102010954498084e-05, 2.3920842384601754e-06, 2.5459129924368134e-05, -0.0037964237736121476, -0.010256501952877103, -0.07035861846851277, -0.06049606269195627, -0.1262027280431468, -0.004931682249841104, -0.10600738740874822, 0.042990825127282924, -0.014744667577726708, 0.042550474052904075, -0.021338204691213582, 0.07502306010572513, 0.16787495606935948, 0.03878035594141155, -0.07703576044634353, 0.04080185881744222, 0.24913671387838965, -0.01876139360689944, -0.1040820407578039, -0.07960771924064156, -0.09518155951963266, -0.03597178750989655, 0.03583282537771023, -0.07926121820258752, 0.004525319191024289, 5.1892742509278e-05, 1.6120473688758485e-08, -2.2633369199721627e-08, 0.0018987892515236022, 0.0214538544475236, 0.08844802203599747, 0.0417299692461686, -0.013531376846559398, -0.11565608393804486, -0.1427595215714485, 0.11327748250719769, 0.19226285356219083, 0.2516260948458567, 0.13748014624090388, 0.09345027081298514, 0.18281131126529143, 0.012243548820841036, 0.06929822380530504, 0.10580856933855043, -0.010247012922301697, 0.1607475909748018, -0.03150686574404503, -0.1443549558067606, -0.1224233800855748, -0.06028294574200528, -0.033323513330036664, -0.04342042673389418, 0.01649477349171189, -1.604743822312795e-08, 2.744332907550272e-09, -9.46577023278808e-09, 0.0015551315373761592, 0.006693836041092178, -0.020782255862318112, -0.04008087156320899, -0.19612570758000958, 0.061399297798597256, 0.0008142135743668713, 0.35659773607726, 0.01814107871028748, -0.20089598005942255, -0.07411341810061979, -0.027318822017291258, -0.05638231663171572, 0.06647432552887982, -0.12338412067458458, 0.0526831483243208, 0.027610220516702758, 0.04014424118492394, -0.12974577082840813, 0.04648497976135267, 0.11868857547762032, 0.013047716349350024, 0.010266283836185379, -0.01929020122659856, 3.2507062863659196e-05, 1.828553385128762e-08, 5.6655948627532705e-09, 1.9818551291163472e-08, -2.2216108237456692e-05, 0.0026219006366128257, 0.01165860600925907, -0.05758097756503142, -0.23125111722266864, -0.1897352979570859, -0.04933864852924443, 0.0615044747005313, -0.1672795997179094, -0.08684319683767124, -0.03360414707236679, 0.1760741361361932, -0.14384830855965267, -0.12325018820702621, 0.05198444166885075, 0.23280251380107378, 0.08342650857841187, -0.06524262034695393, -0.24566778522460372, -0.009122357300704535, 0.15294704839530648, 0.15339424130580304, 0.0934386066074211, 1.4843636130459992e-05, 1.8157797616664335e-05, 1.5212378543917587e-08, 8.2706275391167e-09, -8.897998974831529e-10, 3.1373454774475033e-09, -1.7132826402646508e-05, -0.002918571937973992, -0.06639216158059154, -0.09238007006567589, -0.08580906704768437, -0.09092270700593257, -0.08475395076544813, -0.1018649191210728, -0.07132515196808566, -0.016762723064843204, -0.15665281200021913, -0.2224587392870478, -0.06556145386942915, -0.0455342368680036, -0.09316501488721372, -0.03652934616479596, 0.0620953842926108, -0.07855158968834765, -0.15328486268060101, -0.013306208291660909, -0.007538057824602432, -3.520922429186146e-08, 3.341384682881346e-07, -1.0014014149349237e-08, 4.048188107402125e-09, 1.4247573001589605e-08, -1.0123721212670826e-08, 8.827579884348776e-09, 1.5687136240222118e-08, 5.255560779297719e-07, 0.0007748416422467943, -0.0010959995114327606, 0.0010842238886829552, -0.0075739744597251935, -0.0063106740054466575, -0.01272573168461439, -0.014740854622762228, -0.017620115106862955, -0.016200294135398155, -0.06696365514388411, -0.07433019405045008, -0.034665495207212314, -0.018784840368177166, -0.05142541927157029, -0.013428371623713933, -0.012459612117387033, -0.035958893258139085, -0.02555332380720736, -0.0008777365213181662, -7.392637875418396e-09, -1.1792586152216235e-08, 1.1503207288450921e-08, -1.0809601652142201e-08], [-6.712908421781121e-09, -1.273336889053407e-08, 1.0533763805491488e-09, -6.969167076916711e-09, 7.323080400221585e-11, -5.018146559008818e-09, 1.5549056176763323e-08, 9.019020211167081e-10, -3.1295556811760766e-09, -7.395442138233452e-09, -1.9832531633609715e-09, -1.8761263743182194e-08, 0.006950133633763935, 0.018845875150008427, 0.0040366681950200186, 0.00016818077629232885, -1.6314306192130466e-08, -4.919233944862349e-09, 6.5249154057181615e-09, -6.364487058990147e-09, 1.4528704662893585e-08, -1.616561731776333e-08, 7.845073402818956e-09, -2.792894290408975e-09, -1.732214045412525e-08, 1.2843642576242497e-08, -1.3336783065041059e-08, -1.3417787810712604e-08, -9.649423424676411e-09, 7.25940962847596e-09, -4.523297615682862e-10, -5.0506698994431485e-09, 2.3474488199497588e-05, 0.0002177712418302917, 0.018223745039719616, 0.04545920110484323, 0.05096272227680831, 0.01599178092735955, 0.04608261197431035, 0.058945216347628164, 0.07551150400574298, 0.07254337856678318, 0.023877011728327634, 0.026257499423290066, 0.09593261839327255, 0.037274379336524346, 0.042450185931823634, 0.09016789018929883, 0.06917279632275958, 0.049373630968793006, 0.03509798680316757, 0.013293085470527644, -7.147552039141324e-09, 1.1539622652644578e-08, -4.5452451062507325e-09, -1.7092791269319488e-08, 6.512248848180462e-09, -8.573293285256217e-10, 6.536506838188721e-05, 0.007610639085057749, 0.0028339193393110028, 0.0011740474600093085, 0.023881339404768942, 0.08270209163186251, 0.12340523885339412, 0.08689333135070627, 0.1652336681900738, 0.2544982761612974, 0.2151605419004476, 0.00011197217533110913, 0.2048801808921006, 0.1995602794927111, 0.2688585161611231, 0.23321211012747092, 0.16256094194398193, 0.11971080968309164, 0.10196081006236621, 0.10881855820223497, 0.09282761769493295, 0.060876395098370305, 0.010989879696742364, 0.002790279414754062, -1.3756529897747034e-08, -6.214180969448133e-09, 6.121611289198145e-09, -1.0839610000390467e-08, 0.00014403592486362886, 0.022052393355006087, 0.022462784029669444, 0.026303138457472022, 0.07740896385939301, 0.19954561317599726, 0.26099245473249555, 0.2217175503294331, 0.23536905550569603, 0.49812387680007847, 0.4465562310784976, 0.7632338819309886, 0.7750116397647052, 0.44031067959338016, 0.41950237068918106, 0.364147378676918, 0.06604487175999085, 0.027944008408582632, 0.26736493319228094, 0.28323218911692005, 0.16690059784979577, 0.17064050048222823, 0.12381022446098215, 0.010304424183280822, 0.031329812890626765, 1.1792823707564287e-08, -1.3633961433599459e-08, -2.1015673803804038e-07, 1.243058644749233e-05, -0.00034615461075822367, 0.021989438798263563, 0.0689393695528183, 0.13668816683852045, 0.3180098266252592, 0.22959095295898488, 0.2792108921180848, 0.4891135500595307, 0.6116734947013422, 0.5567685285884905, 0.49844830426062237, 0.42909973154972336, 0.5362531971843508, 0.4705447929338156, 0.718567403450885, 0.5003831042349579, 0.3527227854299308, 0.36508577020997, 0.08958547535507122, -0.09201539593665145, 0.05197616564675188, 0.10485649972442816, 0.061670406537057014, 0.013824160370971977, 0.03380436475829907, 4.3913277267921313e-10, -7.295546299319332e-09, 0.0008829507988391542, 0.0006056838198450473, 0.0654206987199442, 0.02424790612653963, 0.3029053540331162, 0.2990116326780103, 0.18501393445159486, 0.028746793376533537, 0.29870487037745547, 0.20841949645861582, 0.13409304999639274, 0.08422902809691755, -0.06143646520213104, -0.0011112605706597974, 0.1567235023633005, 0.29535339681144374, 0.22200627103324633, 0.26959618400861174, 0.13420064921354824, 0.2651488572462682, -0.14373823830281593, -0.0768520530100423, 0.07614358417091434, 0.23812149433387636, 0.08137306207265199, 0.03627073682620363, 1.2497850304858446e-09, 2.1143241771432217e-05, 0.003856744553416369, -0.0065031169090449875, 0.02628804884463685, 0.11410427408280316, 0.18145681430157298, 0.15933263320743532, -0.0005490860412452041, -0.07200876196545071, -0.2741628861394739, 0.06664158712913193, -0.1459705796431653, -0.16423518249673344, 0.14551014294846282, -0.00579292972247463, -0.031977447144951245, -0.07152824055745613, -0.08412687147640689, -0.3046477432921893, -0.13591644040522113, -0.02137872056101281, -0.01053124127877556, -0.05544578735030862, -0.12451004289551955, 0.11694210253736982, -0.13662672412338384, -0.022515563021643408, 5.183454190391658e-07, 0.00814707298836949, 0.03136942981226497, -0.05133623700222441, 0.09388209149578271, 0.3398778375901292, 0.15268127304535833, 0.16846598574764696, 0.3179849297597236, 0.23683454719770994, -0.0347613449156041, 0.07261875549870998, -0.23768954641728515, -0.11379631173455713, 0.1718745664922492, 0.19441997578264172, -0.01632545878384264, -0.03522473352748685, 0.13042254317076918, -0.19224436729169186, -0.27310476349118384, -0.29983166434662534, 0.07796511482117548, -0.029022193846986857, 0.2194972332085169, 0.05547287688426353, -0.18632866410749152, -0.012414811230988648, 2.0197805866226702e-06, 0.0010970408516068131, 0.052096851515697574, 0.046830182423123555, 0.14527660289142041, 0.2512161099106746, 0.25037903549811924, 0.20166528803398717, 0.09790199628542846, 0.10501663157397495, 0.22842112757720062, 0.05452130318813587, 0.12960093011797538, -0.002368110405158341, -0.07364207501206754, -0.3430605698364047, 0.10677937217912799, -0.195484594109173, 0.0076167024761671295, -0.06954203285465374, -0.16344848592118427, -0.24820272431771204, 0.16901163452262988, 0.11940005617435677, 0.09399254958643977, 0.11549686783959563, 0.02203592692706062, -0.009863297861731716, -2.9180384046364176e-07, 0.0012029666135323655, 0.0560955767198165, 0.00567576548218479, -0.05776840438663314, 0.1686494339652395, -0.03047587132519067, -0.06939824714672069, -0.019338091170412956, -0.10936218235474068, -0.1465886115930527, -0.07745782174901521, -0.197236558848657, -0.21863656894437378, 0.021335364376053406, -0.3207020007201683, -0.11418476049440222, -0.3682736233962268, -0.28090914256913124, 0.034738957026481616, 0.2830737936939249, -0.24614240457054443, -0.08279423566950216, 0.13315121189422374, 0.04786855158005549, -0.09566571319826903, -0.04009506456126913, -0.03446767317662772, -1.4890700991890998e-06, 0.0014451212469349674, 0.0507496745847229, 0.013984791234364573, -0.09677242493772667, 0.19568490866040322, 0.03290181873020255, 0.08191588612147907, 0.1532582753277864, -0.029019915318690134, -0.19150546060900517, -0.31864587727340865, -0.15151447427717127, -0.45959236038908313, -0.1319131914029023, -0.20322957763480712, -0.1643687368626802, 0.05445280845580125, -0.034276228607073134, -0.2169939856420524, -0.06166772843076914, -0.14568399316594927, 0.0022252981321785863, 0.042298403400578055, -0.2993329768090536, -0.37055319510735046, -0.052611063251706794, -0.003111835720044418, 2.1239705530340057e-05, 0.0007668075562416093, 0.0030718610167073364, 0.0112518086094568, 0.0317120002368713, -0.08036458848293636, -0.17881640501924062, -0.05934760638708941, -0.157585722498163, -0.22251432752972036, -0.11020850776732007, 0.19054596044071226, 0.2722237320707277, 0.2412328614577739, -0.0040591126651292365, -0.1949897823731204, -0.4411728070644419, -0.1640893027738465, -0.0498979670441557, -0.03858911562817573, -0.16112367893845025, 0.021724152639204845, 0.10977593617438569, 0.0005540448976129146, -0.072799134662214, -0.09209847397401315, -0.02510931074510588, -0.0032108403502282288, 2.2232352597116265e-05, 0.0008811426944368731, -0.00780917035566413, 0.019640983547545413, 0.028758893560085718, -0.2542816041961059, -0.3767210173252704, -0.09853609634782205, -0.2831206893148664, 0.21950231174635815, 0.1095081192980442, 0.24104425308029445, 0.2773785993627075, 0.15696010257293605, 0.10705716516635232, -0.3482295921673088, -0.09644109802810705, 0.030181029676573642, -0.07727467265904067, -0.2821235157661326, 0.16865004722227467, 0.22101436731824578, 0.20557735656163803, 0.29999489886596803, 0.34379893519468535, -0.05310347311661375, -0.12750593886008607, -0.02030154469198786, 2.777984852068584e-05, 0.0021340166464452882, -0.00436922957294627, -0.007154086076835058, -0.13152560217855372, -0.38920030283418805, -0.2593849192755533, -0.04685877460609679, -0.20494958131189997, -0.020491734614908885, -0.009132865120050659, -0.07673485973745268, 0.1495872015963282, 0.26926387575928645, -0.0217112774814855, -0.038424575764381234, -0.016854605062305805, -0.29256493928248, -0.08604163796225843, 0.0630489900923864, -0.06491939235691135, 0.35641198350675085, 0.2770252974348648, 0.4382880178999443, 0.3437551820582028, -0.0721483871185371, -0.05862210433921794, 0.023230941236887834, 0.00063468218542108, -0.0012172046040331915, -0.0017439184123605243, -0.0017111179633289713, -0.3226102312171009, -0.1920817767247803, -0.1738767837843513, -0.15073395033528791, -0.3236124528259901, -0.11973579937375121, 0.012260915733018886, 0.26408669199207274, 0.042676110194735294, 0.2145031948148763, 0.016626472788494426, -0.007877247813480225, -0.31854949902595064, -0.16799793683100323, 0.108733375595058, -0.26441070857930987, -0.2823317979700117, 0.29264509436832953, 0.14837874501139742, 0.49497285626853366, 0.30835565108179497, 0.032205601811978776, 0.01775757006924332, 0.002080195453037609, 0.0002141878656319974, -0.0026235216688593166, 0.0002885437678800142, 0.01642983822505944, -0.26452082294201207, -0.1231871492888761, -0.26748044301328094, -0.03684278127892178, -0.3258874054921787, -0.5269087029282662, -0.0028471887859582157, -0.01080351393931217, -0.14983273247546738, 0.20042792253393002, 0.07935270806599308, -0.00286699958106752, -0.2396814385081993, -0.020342802415966855, -0.19680500145889812, 0.10693373093407418, 0.10097178126103142, 0.08058775415703741, 0.22055388791260835, 0.35953351269634226, 0.3403024041731084, 0.2037503216664019, -0.06464437225171421, 0.0006523487914100245, 3.6287097344896534e-05, 0.009064994957256257, 0.014775004817628319, 0.05387057784225276, -0.04385193647921547, -0.0012572437436152192, 0.1100260751410227, -0.07657734452211402, -0.16670382798374586, 0.034032937634268276, 0.06683307509399605, 0.021645743169201294, 0.03329246356026922, 0.014228903113368524, 0.29357719214545347, 0.026890298069901966, -0.17065033067198015, -0.16109702701588102, 0.11192930270129853, 0.18282902374279178, -0.06973565351285346, 0.07430070637343425, 0.32160340279439226, 0.13700115918878514, 0.24271485777777174, 0.2591796880578064, -0.013543412979999387, 0.0015956063355093441, 1.539223450646339e-08, -2.9233156883662846e-05, 0.01561625333631564, 0.0445115969010434, 0.2232760381107992, 0.10739784906321598, 0.008214562313578913, 0.002335455430395327, 0.08211669973453593, -0.015280662741422953, 0.20560318244393525, 0.1732281356367782, -0.16303640841343395, -0.21998951939559544, -0.2820251304799586, -0.4306711723867985, -0.17133244848081228, -0.01042873884279693, -0.003660648322166384, 0.21572942633485861, 0.09445455892458864, 0.17831300017259136, -0.043337539848581366, -0.10560296256379643, 0.1364288762224011, 0.09193408774114172, -0.02903357135500152, 0.008626846271751172, 9.271198765141158e-05, 0.000703418363541428, 0.002000438026289378, 0.07613926346453359, 0.2586205081520796, 0.00990450936764652, 0.1155252496156927, 0.11709621652720216, -1.3838615227148223e-05, 0.02009046410754754, 0.08441118092606917, -0.15149381179854168, -0.21762389345885705, -0.13415850319346323, -0.09797111810143348, 0.14661670974988622, 0.19710054977412705, 0.04993626328285785, 0.0019792757397393873, 0.12894281040866407, -0.06542900013206325, 0.10131563714886505, 0.24915552075894312, 0.3238073165127808, 0.3466611266000394, 0.06444098614056253, -0.027077660427255377, 0.0025113755093201635, -1.2750345736040825e-05, 0.004877030703695808, 0.005920258902264702, 0.160934004884255, 0.3680171432387162, 0.09111223018161532, 0.16126256637437267, 0.12305860167300782, 0.22846700136518003, 0.2868680420986355, 0.34314001283982676, 0.34916505548677174, 0.36021345961037476, 0.15596875428810242, 0.0683305922626303, 0.034423541139425765, -0.22041752747231635, 0.4162209566479244, 0.10775620317445302, 0.22759012234395068, 0.2484403229384551, -0.008183488051783426, 0.41722595125157597, 0.2325244881037189, 0.14466136923981315, 0.01576485301701455, 0.02807018686834162, -0.0026264620042607692, 7.0177687477264216e-09, 0.010634596329632314, 0.01570789696796623, 0.2259931553696662, 0.628160619660089, 0.20202435603273605, 0.18651278480976508, 0.48204700743465007, 0.487471766022044, 0.27743111311991725, 0.6055452231758534, 0.48552390801886464, 0.7432939730955688, 0.5212693180846837, 0.16639064375697327, 0.21724400548398548, 0.0023321245511622258, 0.0822143628140127, 0.1648771721219875, -0.06760019391922045, 0.1969932536553318, 0.23784225410777418, 0.3428218179132077, 0.07189880269493919, -0.05178563619315466, -0.021086974386561902, 0.006931782316565898, 2.599935382641341e-05, -8.432747190760722e-06, 0.0022756067698675307, 0.024633406235703887, 0.21247053927312018, 0.3564489468777898, 0.12206213272309423, 0.43006420296779374, 0.4068160082782471, 0.42397425862056426, 0.5258842300668995, 0.3921160527312299, 0.5348765020811846, 0.2835563495582646, 0.5798254577834758, 0.2936102338668901, 0.10317003042347128, 0.14773477651040917, 0.12239734832482105, 0.08094934408785397, -0.4129074679900779, -0.44803591243418067, -0.22975542440960614, 0.15739558423912697, 0.03646086851493349, -0.08030951546629458, -0.024584184029551027, 0.016523583263826132, 4.361714158425465e-09, -8.186559360749272e-06, 0.0001403889904443294, 0.028076882971530673, 0.10317341151963286, 0.06903629731037611, 0.05588111965674895, 0.09300179074076431, 0.16744641639866154, 0.20006445545595714, 0.031025298522183508, 0.15986578928429954, 0.10299537382251245, -0.05275404663173636, 0.43188622203420085, 0.2290287183228578, 0.3157442253359959, -0.027239668573919063, 0.04401310203542022, 0.10124270985696301, 0.03210796004490841, 0.18429252391536055, -0.18707799242066267, 0.05626739292852128, 0.029767235177597245, -0.07061446659151659, -0.007770086587479605, 0.00038599316642796473, 3.892248135395192e-09, 5.971546893738731e-09, 3.64873742002143e-09, 0.027371425677740285, 0.05802042456408763, -0.028110244426638203, -0.02666793153547995, -0.17747119064110392, -0.19642006535991116, 0.0033115261903164687, 0.0460119507317707, 0.04289777140830955, 0.21071994960918955, 0.2531497854719618, 0.3272302328873036, 0.1886384558496516, 0.32087644113031266, 0.22089272850474043, 0.19699248665719785, 0.23332343391609706, 0.20701220920385008, -0.1398673405311528, -0.1082516699615098, 0.09007884939060325, 0.10792277748009815, -0.029690270824396053, 0.006904465646991506, -0.0011991826098291265, 8.340350143185326e-09, -1.4416900136434647e-09, 1.178979480190868e-09, -0.0012712341286927455, -0.0008122885515583231, -0.03742551221126297, -0.032661310758089555, -0.007632425257282466, -0.09847862708478698, -0.03269901196064838, 0.0413927500002701, 0.11031369578941772, -0.0115956353255963, 0.4268191872570119, 0.15862150932235852, 0.10161954317026871, 0.1384577351021019, 0.6612217435270348, 0.1254856959114547, 0.14891158597084958, -0.15481305880804905, -0.17027852258034362, -0.03783008996764404, 0.048078834771675176, 0.028361331255426326, 0.04003622665326754, 0.02073956634990063, -0.00012560884689423416, 8.192643068029168e-09, -1.8090446131228603e-08, -8.313977596115648e-09, 0.0030301392952609414, 0.008164177738892177, -0.02972709290731714, -0.0426443165797761, 0.08020942597799513, 0.14664853280245485, 0.05931646448693905, -0.04637485845750445, -0.08656327837349068, -0.07052729370127163, -0.22956223657473215, -0.1324643945174219, 0.05436551762375381, 0.11082316571319659, 0.27554930083553353, 0.18574075272500085, 0.05344646136562225, 0.04760734310643758, -0.07863536847737322, -0.0728653773053899, 0.005412762733328599, -0.04278739315800211, -0.012632709135706757, 2.356992677348311e-05, 3.6876399090970446e-05, -4.3096625908221765e-09, -1.6630080215611207e-08, 1.4666677591658696e-08, 1.4100706355523654e-08, 9.865481665241183e-05, 0.0007963870244691065, -0.013095076061480382, -0.018367031928039734, -0.008490343984284967, 0.017493838313354167, -0.004925423270231535, -0.04745230321933983, -0.11170852252424489, -0.08767333214664842, 0.007030790942929541, -0.00018550566840531187, -0.09439454575763877, -0.13674994135706703, -0.07449743432557202, -0.034033607656517535, -0.0023486239837715137, -0.014516623928870558, -0.008703039890177016, -0.0005157145392883834, -1.4340767794746493e-05, 1.8422624454138672e-06, 2.987706445404452e-08, 2.2525510741049937e-08, -4.572381707382706e-09, 1.1053961365127955e-08, 7.019852744096835e-09, -3.3706181074615375e-09, -2.369685444363728e-09, -2.6298419807423295e-06, -3.1946736874069604e-05, -9.470041309996747e-05, 1.7727514680668054e-05, 6.858714153148405e-05, 7.538349850991318e-05, -0.004492716792702727, -0.0006092333896000894, 0.0004444247655900477, 0.0010685455343610992, 8.377036201495474e-05, -0.0028030670030009717, 0.00011843615056254023, 0.00013005942393568367, -0.001363807905973437, -0.0008919199683327725, -9.641631158487645e-05, -0.0005224663100778001, -0.0008349021963634302, -0.00011918225633617163, 1.3509213302549831e-08, -4.439957857587722e-09, 2.223245401188693e-09, -3.265667228990971e-11], [-8.600316734866192e-09, 4.730049669663856e-09, 2.6731583275855137e-09, 9.960522573214129e-09, 7.684167084523115e-09, -1.4171033644520718e-09, 1.2029672817761273e-08, 1.6854206547358962e-09, -7.192377472850187e-09, 2.3843729876458307e-09, -3.3792453736559106e-09, 8.5797258123686e-09, -0.0037025311810128707, -0.008143407920980643, -4.0195104895168585e-05, -1.6785806569524376e-06, -2.1412330586111563e-09, 6.441445790545001e-09, 7.761836509217328e-09, -1.1847258977664323e-08, 1.908705821716664e-08, -8.18240847970066e-11, 1.1928487962071432e-08, 3.8138719137658454e-09, -4.494937563642121e-09, -6.732227615201799e-09, -9.324024732778474e-09, -4.262530114876679e-09, 1.0420251761868225e-08, -3.4309066466421574e-09, 2.4117044628986897e-09, -6.420081963681156e-09, -6.979253349149847e-07, -1.990609789373104e-06, -3.479815326424037e-05, -0.0002816379772075433, -0.0007655073737739194, -0.0008985705977323093, -0.001687826433958724, -0.0059799000546612024, -0.020571162926354428, -0.01907425875822414, -0.00826095288378928, -0.011874183142878561, 0.002297088873414411, 0.0008391574845947251, -0.0007113596249801714, -0.005825243297039885, -0.012674322391859663, -0.008388962298337937, -0.0005732754229440138, -8.906507386420035e-06, 3.4887375526303075e-09, 9.549463375463109e-09, 1.2110462978336275e-08, -5.702251974618053e-10, -1.7531016580284284e-08, 2.334744742677511e-08, -2.0560633945398078e-05, -3.1993751242466904e-07, -7.926347420709937e-05, -0.0002969871169366161, -0.0020537310226098667, -0.005007067622624779, -0.00287269007095917, -0.028636279311367998, -0.07112495187292733, -0.06268223703609295, -0.07837089028875327, -0.0731670143966207, -0.05662609581975731, -0.026185302746826497, -0.018768537583315148, -0.0623513473366756, -0.025965459454907247, -0.024768255537243235, -0.03853079130891835, -0.05791928966824504, -0.03591660977601184, -0.008712497258029452, 0.0025611110409957476, 0.002931901471526906, -4.304351965899977e-09, 4.547563559002384e-10, 2.22620652230884e-08, 1.7185977465442472e-08, -4.527130850645689e-05, -2.9171044718892942e-05, -9.755114728839477e-05, 0.006668694286343522, 0.006035582063741669, 0.030085245437277856, 0.11828407851396792, 0.09906854937548502, 0.05005798214941356, 0.0582104323059118, -0.006583673390709499, -0.1259076364507487, 0.005287940145199397, 0.34584930449985174, 0.3529036243295655, 0.09725691008369725, 0.04264382523811883, -0.07208206654022749, -0.00017003916551109623, 0.019105097474418797, -0.04040947659328163, -0.03797636325541668, 0.00623215046341148, 0.01235130419434917, -0.0017859630110816616, -1.3029522462381682e-08, -9.529762412573809e-09, 1.7885632593642162e-07, 2.8133401087539347e-05, 0.001734662689287584, 0.005801635589093871, 0.015814424027250376, 0.07449180402854697, 0.2361386339690733, 0.25187762957203025, 0.3272972361595553, 0.37087003746471264, 0.2626341576103101, 0.3944148698414466, 0.271737551873053, 0.27579662683563855, 0.4709207248761853, 0.22896775079062281, 0.08066377257901687, 0.1432739965268006, 0.008416715778388973, 0.11290186469477001, 0.101572490991384, -0.02833151503363275, -0.03588346308170995, 0.13630473433640983, 0.09688370433132955, 0.00869678929272908, -2.5042158016991204e-05, -1.2073550440141245e-08, -4.868508688807184e-09, 0.0002924295230759111, 0.007691407649635022, 0.016767915535776057, 0.02886511991369326, 0.06945443427271035, 0.2902195914407625, 0.1962512966546915, 0.016899071363150088, 0.11397293844119559, 0.4143989847165781, 0.5476803179068618, 0.11414321982647097, 0.11255327380794913, 0.22113749758704876, 0.18079597480242512, 0.4484724126284116, 0.36839956269021445, 0.3168297191885673, 0.2804271333073496, -0.008138797538451552, -0.06532110121740838, -0.1291250846726505, 0.017278036010942157, 0.09506429191906869, 0.018308325899336165, 0.00036129230633394544, 7.525352345102808e-09, 0.00013528951800766576, 0.004206535342823888, 0.027271504889364532, 0.04003239345077906, -0.09411916031570225, 0.06337584628354671, 0.14606755878349556, -0.05141700117850809, -0.1683776486608774, 0.08810499190189328, 0.18908208615470867, 0.11976947906109718, 0.16075431083519304, 0.10225838932852496, 0.27426028743975067, -0.02955175844493619, 0.08764676144107135, -0.07454626874378929, 0.10319604677631974, 0.3013170224828382, 0.012041165587865174, -0.059488775393961246, 0.0044564562050948865, 0.03923983942496186, 0.12917076157121257, 0.03567524360322066, -0.00925787119242898, -1.4527855438732767e-05, 0.009213805579741005, -0.014003559302102975, 0.05404231976778826, -0.002456747212595637, 0.022462088691786092, -0.10316702078564055, 0.05076478881914129, 0.06998950344317775, -0.10993990396876215, 0.004381628242510603, 0.09600723812230223, 0.19242572668189398, -1.3777387379644994e-05, 0.10995498667569188, 0.3149368258957169, 0.23902905692467769, 0.03716611733981231, 0.029204642761413914, 0.15858494781874768, -0.25727595810491927, -0.1735969173667051, -0.08677144992784568, -0.14248753771887948, 0.04538702967973215, 0.21984713300808545, 0.04360271432132344, -0.0015969733256934113, -5.906148360059315e-05, -0.030160342112932895, -0.01735707264472655, 0.06744879954298556, -0.14393997775607126, -0.040139256743668326, 0.0824059848083796, 0.034275612993545715, -0.03267513629902887, 0.09060666810830995, 0.23303862643687384, 0.40285558998696724, 0.15675183132274156, 0.11482656773323856, -0.2460341990540842, -0.12899962626150394, -0.11536319986853132, -0.26035900617202423, -0.10293657464891597, 0.15743450596115288, 0.10208374292971265, -0.09779860912477684, 0.1142558189327387, 0.08576528665162196, 0.11567037711446809, 0.1507839844114894, 0.021114344991711526, 0.009191608169223089, -5.302015803576935e-05, -0.030058949049362734, -0.014767305474906057, -0.04665906008186503, -0.18045393629580858, 0.02202200024885065, -0.08137392948742027, 0.03156242672662041, 0.2323226972910826, 0.18839978378898145, 0.002856899539857433, 0.32082065227088413, -0.011241432787743361, -0.022227957942936822, -0.24137535884998237, -0.03610290515308447, -0.1854229123277787, -0.08358141232876323, 0.0214091037009857, 0.06330225837459269, 0.1136948027821094, 0.2538090659057218, 0.3333068939016371, 0.16914552091036864, 0.06679316648358807, 0.17044796035622067, -0.00013208834429395466, -0.06713199816123391, -0.00010443493906626129, -0.0247180734954039, -0.03825738023492582, -0.0679841870163319, -0.06118205160672126, -0.013219505794747802, -0.2228820294336443, -0.18207573275118477, 0.010503355551195108, -0.10890288034264133, 0.04046352530444556, -0.08029819020213845, 0.3710742035433566, 0.26291639165745956, 0.18835946444822524, -0.29814288786314264, -0.03848984592887997, -0.11886821146585051, -0.03191086967919903, -0.06361203201329138, 0.23854281101102545, -0.07857017577289131, 0.1449059886286048, -0.126067497895637, -0.29204696005962283, -0.13838676045613094, -0.035122796190205315, -0.01839349321885795, -0.0001045733855998068, -0.011993656151104206, -0.13761570741037915, -0.09062024578316506, -0.11234698028778825, -0.2520717153428911, -0.4619646324092902, -0.35263925959524356, -0.20602814609972722, -0.6065220063769523, -0.3565844456983222, -0.05467502155549781, 0.5528478614985689, 0.26658020994019327, 0.6483839728811279, 0.31971458989081275, 0.24274107739319611, 0.0930149947734199, 0.27987087891088624, 0.13465296409009475, -0.07493682069291831, -0.23019628919409904, -0.20109260957209454, -0.43851198492068627, -0.24734495270294013, -0.07591040329575849, 0.009398385981872108, -0.00582325371283179, -8.506945912128154e-05, -0.013523927309274483, -0.15194828459268334, -0.07894796336097298, -0.287262041528834, -0.32568557139224297, -0.45663327864700537, -0.3316865198484488, -0.43281828646536497, -0.2373052319590158, 0.384233097602124, 0.24988136158835608, 0.27531704856678435, 0.18374953112480386, 0.7666565032937523, 0.3688927190929024, -0.14633024724831556, 0.34067523380118847, 0.20580133419221758, 0.44085148908388616, -0.13561999640914965, -0.3414658113531632, -0.5747428730234508, -0.474081831794383, -0.28689787919469334, -0.13031460336997003, -0.00472283965318384, -0.009384101234011339, 1.6733270326158643e-06, -0.025914379039005255, -0.11359863839265223, -0.048380334778288576, -0.27994326822806576, -0.3319373180398776, -0.45284202857851735, -0.3957241116019132, -0.10819310333407953, -0.042770789019419844, -0.22482133583048056, 0.007691791198297673, 0.4116323404800638, 0.5122427006255602, 0.33728942761744907, 0.16194662904942375, 0.05714847444914022, 0.2666648466964281, 0.06869982285582898, 0.11806470342761857, -0.36641604108443615, -0.5642118518620814, -0.739836766625403, -0.5350005918525111, -0.3333542039420009, -0.16235302329520715, 0.0005886360337754826, 0.0006266952710839553, 5.65618667494514e-06, -0.018525522897424766, -0.062209225465285456, -0.10046091273508784, -0.15019568629971955, -0.34858877793513027, -0.2119297808668252, -0.1235546963513084, -0.3480197945569165, -0.3089409761537289, -0.7273052685848627, -0.2518762510809062, 0.022473427190373756, 0.36573573879568694, 0.49534943147798166, 0.04027343024197487, 0.29629243680675343, 0.3352114122626359, -0.4556369011994556, -0.775594065306207, -0.48894375196557005, -0.32974397861076266, -0.4916736789612816, -0.5616832444327785, -0.19707441338549073, -0.06403255332155146, 0.013983416434732054, 0.00011053756237879773, -1.641154220317624e-06, 0.000746609270642168, 0.002625733812128533, -0.05311351018509681, -0.04752252037171057, -0.2928885710832665, -0.018306938172603895, -0.15442958664184336, -0.19623292052877198, -0.3998038914754287, -0.6275189068244988, -0.30044973696442384, -0.26679106460285884, 0.4440812659398183, 0.5323571745209771, 0.1734329661867283, -0.11457369258100955, -0.35701108424049416, -0.4868704105806343, -0.2740094897535082, -0.17323271248061106, -0.06691486835379691, -0.036484235257494675, -0.23398182279637414, 0.0649433432943437, 0.15053671886660167, 0.043363044712192274, 8.698817022918272e-05, -1.9871058075142714e-05, 0.0003715741629593577, 0.029121991257211426, 0.031291281089544036, -0.057100639763890584, -0.14608960533300366, -0.10059097535773763, -0.1633376567364766, 0.008963348154401295, 0.017252393625559137, -0.2185041938531109, -0.43259361334162133, -0.2455572014485147, -0.07748990599320187, -0.11194993073692205, -0.13805813452184565, -0.3299369376412553, -0.3079482538681393, 0.0335430751167644, 0.196438503657478, -0.02219787024487628, 0.12213441822154529, 0.10901134160854507, 0.08567658727538313, 0.34059542192416864, 0.24305517311611607, 0.04148339948344202, 0.00031611034786965277, 3.992868387649891e-09, -0.0001377007126611497, 0.035003838214710564, 0.1596116789012766, 0.17640566665917684, 0.09344861948000162, -0.024781520219923275, -0.09133361334379432, -0.05460273500775679, 0.14358074303550353, -0.19114083553355563, -0.32737148039414865, -0.541527058039255, -0.1897562620668096, 0.030355740089635826, 0.12579367119938833, -0.1250932287783354, 0.2626014405134685, 0.11418670014536983, 0.19730599548243838, 0.05407449882967014, 0.1916525638680242, 0.021985241051376402, 0.23895074477232692, 0.3001994998744196, 0.039690485184074996, -0.024511895836625268, -0.012034220951123189, -8.712062069009635e-05, -2.3165443503965757e-05, 0.016665568733695763, 0.2441011693526185, 0.3762386456812681, 0.20950081519576788, 0.36858116418075576, 0.11018626319154615, -0.29373324973798537, -0.3594813618232141, -0.36167903948120206, -0.040456284989825585, -0.4865707191665399, -0.24995459452982163, 0.2405759397555716, 0.27176868495314366, 0.35658261643263206, 0.2965055454886164, -0.037639447697473793, 0.15428017700862837, 0.06931266591522227, -0.017863020971556967, 0.1861881226100765, 0.4177315870515448, 0.32578267329636784, -0.04155863459411653, -0.03272133299527839, -0.007396098977309632, -7.6499576823545e-06, -0.0006647006119929155, 0.0012771990363833698, 0.14170047275062103, 0.2802019034163948, 0.3973295830311585, 0.2632167660990949, 0.18297173366940392, -0.12079510180187378, 0.06069519961615006, -0.05245345118740115, -0.31032157181076053, -0.713526712110188, -0.370894973310876, 0.08213295587069512, 0.3097313681136069, 0.6219319655327511, 0.42624560748366985, 0.09761805549964261, 0.05858290413557893, 0.22685982890468945, 0.24323616625028888, 0.2881832192329854, 0.44402669643899034, 0.05668642012559159, -0.018102921426021396, 0.009362808112140561, -0.004796298612095859, 6.925994895275742e-09, -0.0012634097954467845, 0.0008707414159685802, 0.15078335027032233, 0.2636658786150322, 0.27912758418735273, 0.13851841574078116, 0.13722026645752777, 0.10481690304098154, 0.09399059186974222, -0.019587948113459746, -0.03208083989362429, -0.3893582543345526, -0.4388990390409992, -0.20522431224926085, 0.03077580053014662, 0.6738206003224319, 0.38839760012302255, 0.4430935935626682, 0.3757393250687732, 0.5322899459756567, 0.4153012940891574, 0.37612979026222776, 0.3224462415414373, -0.05474676767381105, -0.024704358242145723, 1.4922038430670698e-05, 1.7681878779783912e-05, -4.32410810584718e-05, -0.00011006896201952812, 0.02298397475653391, 0.10957751496697779, 0.20548654478873996, 0.11686590403023114, 0.06255527798276454, -0.1262592728089505, -0.049642049596699794, 0.07382060620678083, -0.2843191185831642, 0.05502243493974143, -0.44622122001020187, -0.3761827807069227, -0.37257658864162974, -0.10800166840606795, -0.07663700594230502, 0.3701545503731479, 0.43007347227272885, 0.49253839765376495, 0.2427635959421284, 0.16409833397073245, 0.22262389092799595, 0.1270922190381916, -0.06993922736193074, -0.011268018796605106, -0.005850210322647926, -2.256822521430131e-07, -4.1869421242676796e-05, -7.611204973052399e-06, 0.021862438883880512, 0.08538667994705017, 0.1356253096764565, -0.14860603498987895, 0.016751420905815752, 0.023312534432889647, -0.09644609370966002, -0.008989014826476517, -0.007883202343782428, 0.04297715081875342, -0.458768409699445, -0.19054604727051072, -0.45086259416664426, -0.45642307908868235, -0.2173221023543219, 0.06776253351520814, 0.32103618098983466, 0.3521099609797473, 0.1594988361997765, 0.2521684677996389, 0.13588604945758725, 0.044304467100934546, -0.007160641829055128, -0.017057822716071834, -0.006569369042540151, -4.319921062137595e-07, 2.448128081645026e-09, -8.693364461620756e-09, 0.030278783799461417, 0.13698649781609049, 0.11154164500611367, -0.11919159697626927, -0.25858107855538137, -0.18454524928327243, -0.005650525367894122, -0.20294887991457494, 0.11746797464653662, -0.012639058527849186, 0.06093399491354526, -0.20266044965408986, -0.2507034482530646, -0.2852650710635301, -0.21316130397310737, -0.027786158541479766, 0.2564295574202345, 0.1845986364588009, 0.15848276354344326, 0.19055654774203, 0.09490686126704238, 0.04387108688084845, -0.026995851784597107, -0.010387344501248183, -0.008454115095396371, -1.8334128067872302e-08, -5.88596550355834e-09, 1.759811761523981e-08, 0.017803426066877532, 0.09480467176007135, 0.02474971851903385, -0.1953888645423578, 0.006002531891414124, 0.013467779275594598, 0.11774829041762981, 0.015290122258949681, 0.018264230449124733, -0.01023997355900248, 0.2257535253091755, -0.0981713173843655, -0.10921688126015346, -0.32903776635060433, -0.30363070320155644, -0.45488777374193035, -0.012386575990591914, 0.07154011893417521, 0.01784972101973808, -0.09104117315723319, -0.034376142293978056, 0.009802740150925315, 0.006165920885523562, 0.0012175334214151103, -0.00020162333646190337, 2.3599246371952417e-09, -1.5841961799679105e-09, -8.080108379431684e-10, 0.00217058849797031, -0.01171820015658715, -0.08506949747345893, -0.0979610403363942, 0.06249309510145508, 0.13130623770190933, 0.19676014258659907, 0.30561664189347254, 0.4520284336423663, 0.2101537357260282, 0.42432090232715586, 0.20704341375650878, 0.08683400515690018, 0.1425409177074616, -0.11737493808708167, -0.21498723952797252, -0.17029252489588753, -0.11422103343241193, -0.1521744339559804, -0.153464437384228, -0.13233121467893036, -0.005124039506958317, 0.003145317559494798, 3.246926008088363e-05, 5.4470664978278766e-05, -6.428340365687927e-09, -5.027131195199273e-09, 1.9281117692561302e-08, 1.4543194002845877e-08, 0.0004652505616827633, 0.00638207619421819, -0.016732978287581267, -0.041431317105617406, -0.0013055301122876883, -0.055082745875642346, -0.05249673706227866, 0.09259297623085226, 0.014832260502355593, 0.02431764365662518, -0.06811240681692653, 0.02461425368246165, 0.02356828788895036, -0.01973839605159044, -0.07373104466817249, -0.06983118369836379, -0.1304437687449279, -0.0917158965757365, -0.07984660973622335, -0.03831987528456349, 0.00011247765448147463, 5.445363410352229e-07, -3.0276401536729445e-07, 4.911210933209071e-09, -1.2752385513647407e-09, -1.564905632443482e-08, 6.897227782629949e-09, 3.2995669442406614e-09, 4.921680823744002e-09, -3.6446613854870994e-06, -1.2688120132047897e-05, -9.710589354021071e-05, -0.0004991239786480826, -0.0010238665004941856, -0.004340590140653132, -0.044551410470844356, -0.014037763292802376, -0.01245267937895257, -0.013395551037747993, -0.011874639159188932, 0.024567568823154962, -0.026513363856124964, -0.020983450156873872, -0.017299452263424994, -0.015160342698405245, -0.01988943914959338, -0.012761582791315378, -0.0061149522169882935, -0.00016559057655697034, 1.1448188526847014e-08, 1.1716236138337664e-08, -6.155350626974885e-09, 3.254324813897475e-09], [-1.6260421569439124e-08, -3.232764449468722e-09, 2.998169907140997e-09, -2.5206950923775024e-09, -6.628543839857187e-10, -3.0364469953086944e-09, -9.25412283127727e-09, 6.1140595356306206e-09, 2.9006489602419205e-10, -9.191790688674381e-10, 1.2311396097010764e-08, -1.6812190868236733e-08, -0.004398347002114011, -0.01002213825853709, -0.0004354344581431272, -1.81579317787576e-05, 1.9123466670200074e-08, 1.0767080729067093e-09, -1.0721400699321405e-08, 9.868585732424419e-09, -1.786164560682591e-08, 1.3625865740088633e-10, -8.944860046029455e-09, 1.9600589903607392e-08, 1.5763578853078393e-08, 8.249835494689621e-09, -1.661037869965593e-08, 4.280436981755632e-10, -5.917797350588244e-09, -1.480644340683294e-09, -2.510615339947579e-09, 1.352946927757301e-08, -6.463993356863083e-06, -8.648229652004478e-05, -0.014608956847036418, -0.03028929941278287, -0.036288825298492186, -0.008535136138799887, -0.01709839974787945, -0.02802557668591089, -0.017965736378648216, -0.013052630596604444, -0.012119142549911265, -0.012250196812231273, -0.0008665397636702907, 0.003779901955768649, -0.007543972432471538, -0.04837039539961335, -0.03324054209903089, -0.002837591904541915, -0.02029444329531893, -0.026374056165228307, 1.532286123472635e-08, 8.926348207290555e-09, -1.23195826789688e-08, -6.921262212507319e-09, 3.154310925134952e-09, 1.8120302583544046e-08, -0.00015694413534376937, -7.50243585814627e-05, 1.634223518201221e-05, -0.0005572644308109096, -0.0395818623288695, -0.07884737735854772, -0.09514525666210767, -0.07487877272513287, -0.061347012372337986, -0.0779258307861612, -0.17805945217718339, -0.21308988749497726, -0.1629595177058721, -0.04145049250940474, -0.04651696211468204, -0.055149123008927416, -0.07647630865439031, -0.0795882730516975, -0.07498079483291711, -0.04692005907151954, -0.04201577320375089, -0.059814993362241956, -0.0035393700854860237, 0.0009326775621117992, -2.124370489082541e-09, 2.9755424148712423e-09, 2.1373000164322247e-08, 1.1580798647423075e-08, -0.00034577783283266955, -0.00014059512878563873, -0.025575487538768055, -0.00729902310181303, -0.14469987229690495, -0.06775054657826393, -0.24198492210095285, -0.5103623636835012, -0.12430278196296184, -0.08115835683210179, -0.24649382153039193, -0.4206336380846062, -0.24622164836321037, -0.23529131875387546, -0.28508659138876935, -0.1927167817464234, -0.13294584690362088, 0.005131768572628561, -0.117368886377493, -0.08269615976460785, -0.059667542784783104, -0.0517943766969678, -0.04768686624578231, 0.029407773593425012, 0.006971065342929084, 2.5809231588153408e-08, 3.191530818361703e-09, 2.8285593672182308e-05, 0.0002665304454807887, 0.00240535075623541, -0.048525754842834605, -0.08156574986396181, -0.04450400253117799, -0.08538453189767921, -0.2449964077457311, -0.24372854133514668, -0.453660265595485, -0.14344692197697323, -0.04692949681259784, -0.14294212098141607, -0.2742111501387912, -0.33797807816086733, 0.1397052741754017, 0.1805990747461688, 0.12786233429743682, -0.13422666098455832, 0.10469110043342487, 0.14519981771519308, 0.24024620223306148, 0.0670909631646775, 0.00696989410784027, 0.07245129716140336, 0.021569548924113845, -0.0036317845950191454, -1.3275809615972572e-09, 7.516538937656399e-09, -0.002609916589782849, 0.017961839347376846, -0.10261587747794824, -0.05449033702379692, 0.13126943080121412, -0.0998904577423167, -0.28251126183582703, -0.16787305906581185, -0.0008292713923969708, 0.35220731964471436, 0.18139679240443374, -0.1189560151202633, 0.13514173130837773, -0.18302791417806463, 0.28017317687901755, 0.09865793113398014, 0.1874188706873955, 0.021548831390535678, -0.1126112226855807, -0.3079459782866717, 0.09250727643423404, 0.1551562108409701, -0.09339117444115709, -0.009905916316707881, 0.0158557235017526, -0.006144273337803832, 5.127939741825432e-09, 1.7437830067775602e-05, 0.009645509587466091, 0.06013022006886595, -0.02216623730486507, 0.17538337348200284, 0.12511002291133108, 0.0011291644980597393, 0.07825590429280976, 0.32205128601866045, 0.33201908662422475, -0.05860210587140292, 0.13849092688311593, 0.13952582836592178, 0.2961962487323328, 0.021182410887826693, 0.14215409373579346, 0.2930642585643655, -0.023247734776924878, 0.36442048376401415, 0.16184771616868499, 0.017458497202129462, 0.2699206783864857, 0.32884171595712824, -0.008630091486661407, -0.09788871298974636, 0.0043313532515064585, -0.0017451047128348883, -2.596356245069881e-08, 0.0008418705558489584, 0.012988877880537032, 0.14010605685411057, 0.0116825932485327, 0.24808947764782177, 0.14869058754863562, 0.22396101205845748, 0.29568189947164814, 0.3841854838573295, -0.009952234178376436, -0.008495648825224076, 0.176216531892477, 0.5303556681105371, 0.2496353593698621, 0.4279411736600102, 0.4326010738696999, 0.25333133917483835, 0.4361985446800069, 0.40963778636598036, 0.4252780805374134, 0.4874401918767908, 0.40674367163549074, 0.598974199038163, 0.025427998900336608, -0.06843219644636755, 0.024120347948318546, -0.0008817561017411275, -6.875504957244706e-09, 3.804461008032331e-05, 0.0030066726818032095, 0.05700884297570495, 0.0006660152820746793, 0.02698224141017965, 0.07922654330439784, 0.24801737154096898, 0.08572208000714944, -0.06901189350209275, -0.1899972604211257, -0.07847059643255502, 0.37739477416426, 0.37025978351635747, 0.19445667735408997, 0.2511162875318219, 0.42066847429982934, 0.21535778774771278, 0.5993419013093305, 0.38595556404277703, 0.23624319775377348, 0.41740201609226085, 0.487574658059563, 0.5767125521009148, 0.28719236955609573, 0.16728300354622747, 0.02937195659918373, 0.014352412273910884, 1.0851685665799302e-07, 0.00729031758361448, 0.0015514501022685656, -0.022944503404920387, -0.05081062225308609, 0.06570945048083791, 0.4359572887961471, 0.21639801502065242, -0.00848205504027924, 0.06407454747120081, 0.1894757733563626, 0.305835960868383, 0.21729454547065466, 0.18356199901009046, -0.21725089893531355, 0.03750729309640044, 0.07556807786715561, -0.03242847581168072, 0.0765918921563306, 0.2238480518107969, -0.1493400469121021, 0.0011446958353092368, 0.1778663253505197, 0.4086264206612703, 0.005036431300414028, 0.06215258423529636, -0.008092129455760344, 0.004109067550276183, 2.729986679545499e-07, 0.0004862819503728971, -0.00028257999222473004, -0.005388804857584591, 0.05457306658413243, -0.01882220862992816, 0.3846100108811038, 0.05920304714215605, -0.037228247624652426, 0.4293694125963037, 0.2775158976633557, 0.29886195314561154, 0.026559552525099533, 0.20041977421695356, -0.006276553965536584, -0.0032716624503126485, -0.06565721305546056, 0.04637364049196652, 0.08719017495221328, 0.36035218406427394, -0.028261017033833796, 0.05230588118145593, 0.2968468188880988, 0.13082514484241814, -0.11159697542140448, 0.012953294535152692, 0.024606551478410045, 0.017595548354203502, 4.713653540971831e-07, -0.00039536304441643226, 0.01803385434146514, 0.019793689451696284, 0.08031080326995471, 0.23674741997577128, 0.5356124796375124, 0.40773303281855017, 0.5402705167862594, 0.6772633948551305, 0.3247473664996588, 0.1426970473922713, 0.5409148825172028, 0.21913867968536918, -0.10574148609047111, 0.15021905118511467, 0.08101072845601916, 0.21480642941173442, 0.12268495826772764, -0.012661000831179332, -0.1357129544344289, -0.1680088975683402, 0.27964786076130604, 0.04897655841290339, -0.16238910838019868, -0.029000908100220907, 0.06915256596829458, 0.011992176279600654, 3.4082802249085446e-09, -0.0001120149350898973, 0.03237179433849245, 0.028485855570135263, 0.309135770086261, 0.3668458418833683, 0.5480052368207498, 0.35941665029150516, 0.27077879032421404, 0.4545296132515735, 0.31909603195132524, 0.189441952350239, 0.3964662257171931, 0.14376793766901366, -0.4842533567357184, 0.06839660097775993, -0.05363711887968292, 0.21445078604729959, 0.18112058098247508, -0.025393909927036287, -0.0013885664348360295, -0.15907092812917795, 0.0574817425974845, 0.22193362305836042, -0.02209967909097365, 0.016315458778020826, 0.10159025002396875, 0.004392639327107884, -2.107205404753619e-05, -0.00018716364192947546, 0.01123170290331275, 0.04446948053365831, 0.24757203941605568, 0.21104946089839655, 0.19749765491968183, 0.15088625553776636, 0.03375971827482801, 0.294706559870679, 0.37849859566576405, 0.036866817456671724, -0.18235073997457157, -0.617526174758541, -0.3563817276858828, 0.15923271241445375, -0.16697382954588227, 0.0672487513058923, 0.38696321111948934, 0.02902533797111661, 0.05623362469694983, -0.16416772642142358, 0.06385957113237105, -0.24259340115693762, -0.17638624962253124, 0.03833107110146825, 0.04071554481693881, -0.020598176163524034, -1.946890298367753e-06, 0.002333251691200352, 0.0014724122808247747, -0.04361149877434825, 0.1896427860291481, 0.17284329380263586, -0.026535360051914383, -0.04876993206593475, -0.002380780674633764, 0.01411047365275279, -0.08808106045691856, -0.1375940927918657, -0.09116995058354103, -0.17245128254163403, -0.24600154309405176, 0.04626363330431715, -0.10566746453625822, 0.39790009297705353, 0.2535787472849883, 0.3097813319909655, 0.11088934550875634, -0.12420350121312813, -0.20977867306632492, -0.3696384219648992, -0.1865436750463171, -0.1873716007216313, -0.04375609085105704, -0.0017165840979544366, -6.366168045638711e-07, 0.0034639602649177426, -0.015373361657045368, -0.1581151477576606, 0.012314185261929692, 0.09466381674601479, -0.06057490877897172, 0.1639132789165514, -0.022749467647667467, -0.056679073815800986, -0.019705857330659226, -0.023086906249986067, -0.050107183800163144, -0.6342807651067707, -0.32113255258379625, 0.1434532021698771, -0.08612739122484235, 0.484995704341946, 0.18581539244861195, 0.1058494749363972, -0.13218046921312496, 0.033988251111329866, 0.01106134464785972, 0.006918809067373871, -0.05440371375414233, -0.32927872756692683, 0.049708652942889196, -0.0012473058884798491, 2.145847617559496e-08, -0.0016505514814484903, -0.032762675036208076, -0.20719705551731868, -0.18633827488494636, -0.04208710511721948, -0.3528881765270096, 0.08140662664803894, 0.3318187308655406, -0.053874149448070376, 0.0010632471604179222, -0.14632829965007393, 0.044104553369226904, -0.21134846687679473, -0.6082982380935895, -0.12737238682827745, -0.3757130334136594, -0.13403979587417433, -0.21608519858588665, -0.006950403494348187, 0.07317517856507295, -0.28928814234411715, -0.17605672181683227, -0.07981983544434007, 0.016542680353071004, -0.3814692351306426, -0.13031286481115656, 0.003321740049729814, 3.3251460005842958e-09, 0.0007488827225810471, -0.027745163086860713, -0.14109988253823677, -0.16792867174586826, -0.10710871222543117, -0.1341554665996752, 0.16316911090691089, -0.19853764952932948, 0.1734922275532777, -0.25070087050539686, -0.18382893391752425, -0.027328824993890652, 0.09475717484740401, -0.27059488694575895, -0.18958788868531384, -0.012387997550957904, 0.11233141005649035, -0.2808555530921993, 0.18891222916675343, -0.12629838151931885, -0.28560048648568104, 0.020682214151403852, -0.08985519243600282, -0.053135385624063884, -0.32584116309902217, -0.08459642987414287, 0.022173506163441374, -1.2488820818350478e-06, 0.00024229680273060738, 0.019885118426479994, -0.2367641975348232, -0.1167798104639632, -0.09107857351139324, 0.04717771113095777, 0.0745773005429097, 0.0636454020842715, -0.1324947361047575, -0.08232158978723107, -0.041286402295787006, -0.39471047907580636, -0.48206959359335055, -0.36672062619746265, 0.0010574357406088462, 0.09792625061957819, -0.25051177618113213, -0.09092605920956787, -0.10791822426786285, 0.14410179866010808, -0.02798778902748081, 0.006605334558892118, -0.2890802842641129, -0.2748885833386151, -0.26368972093883947, -0.03185020892250126, -0.03284734962229183, -9.656818474599931e-07, 0.00955326689743005, 0.015746101591947757, -0.19301178069406855, -0.17944535228830702, -0.07330296321614245, 0.03310218573298011, -0.20448798333297458, -0.27096333044175414, -0.3230098698122982, -0.050942480703595354, -0.6091259827471317, -0.37009464515636664, -0.15757778925251814, -0.07407702853350946, -0.19560097730643283, -0.23505194965776297, -0.13893863709594031, 0.025964544754860475, -0.022459530642637553, -0.2007443372691109, 0.1386015794427514, -0.0934256405185604, -0.3864830190079827, -0.19715361730718864, -0.21824149648068586, -0.05210622467696846, -0.005718104977271549, -7.227872648927762e-09, 0.02370545623591357, -0.014530796954225354, -0.22504323922588562, -0.21015765248768076, -0.10756560513737008, 0.04870233567730711, -0.18481793104016964, -0.23914599380598206, -0.1239447180961196, -0.12631376450743356, -0.31518509658402694, -0.30822059744053926, 0.04282119183671073, -0.5696169555273437, 0.0965488882222403, -0.3400274113291427, -0.041170228872272494, 0.004966615490008, -0.03332774978074616, -0.25230208184777014, 0.0035148548351285895, -0.0799870928157621, -0.05579900648020803, -0.09730359224748526, -0.08247243826803428, -0.017303614125887885, 8.454732295715502e-09, -0.00017515560545827938, -0.001210629811242058, -0.08838548844141542, -0.27415926942269453, -0.32103959206046295, -0.2627270157812808, -0.25015857024642874, -0.12263828012695863, -0.18076388578980726, -0.25361812585292376, -0.6046667939566276, -0.10510037705243713, -0.21009012820376619, -0.18974171541479426, -0.410589716666956, 0.09617460379337797, -0.07559168539449135, 0.03185154604661895, -0.4720356100955998, -0.4575720895867112, -0.2651983548129627, -0.004073017749045415, 0.043302708239592376, 0.0003391021360543263, -0.05778297677363292, -0.05031849760326746, -0.005683419060027189, 1.382763515262509e-08, -0.0001696952208825349, -5.516298954086476e-05, -0.0493700353324407, -0.15358340456877528, -0.19885556190236273, -0.3751297820821897, -0.13230564516618296, 0.1881087015468925, 0.14889527280419879, -0.09488406577158598, -0.016760453327690494, 0.41320981433541865, 0.2352626845685179, 0.11908382955356905, 0.35820509173857457, 0.1795485763158401, 0.31108768721891067, 0.18055971021697426, -0.04237257756146183, 0.05258410006481891, -0.17737356148573077, 0.06561265481060967, 0.15128249102466496, 0.1332738535446231, 0.0802040430144813, -0.032288014146563, -0.005648039751024638, 