{"layers": [784, 100, 10], "weights": [[[-4.350730973118614e-05, 0.00016245030791031662, -6.816515811862785e-06, 4.066242938495126e-05, 0.0005393953848789343, 0.0001648078863390437, 0.0004007535519085496, -4.481985178480318e-05, 0.0003581298523098472, -0.00014622162242611112, -8.196068748789752e-05, -0.00043654756550627643, 0.0002551929773649702, 0.0001321655236130916, 0.00032699660170504595, 0.0006632427678437108, 0.0004845039849919595, 0.0005467527075251115, -9.65633229763017e-05, 0.000488449227183969, -7.123818396439887e-05, 0.00042269404860690224, -0.0005438549518100303, 0.0008692372009671058, -0.00010509004236077477, -0.00036459597772586517, -0.0006621775032816377, -4.293246650189839e-05, -0.00043258852488473764, -0.0004350706342109131, -0.0003953630739924116, -0.00043312876075742805, -0.0006566860432015027, 0.0002898932937146573, -0.0003166600950249004, 0.0001803475462667178, -0.0004811860042897522, -0.0010585088555226318, -0.0013885509976698034, -0.0016659611850535344, -9.049983277804889e-05, 0.00048083733908695715, 0.016137592982470975, 0.0348599530285758, 0.0026924000418389283, -0.0002781880574699387, 0.0008455007522776902, 0.0017719356883524598, 0.0010580409896046204, 0.00013109707732047283, 0.0006384747655553542, 3.4758733182873675e-05, 0.0007553660748920862, -0.00016958547831425876, -0.0003486682629340448, 0.0002963465851158172, -4.411610551925861e-05, 7.031129396646534e-05, -0.0004254059022294577, -5.737946902986678e-05, 0.00014380741349441547, -0.0004670249521535667, 0.000625836728376406, 0.000362102280489005, -0.007901550606154793, -0.020977640576936078, -0.01821383802151949, -0.02555637460968538, -0.02720354019529591, 0.1122566129686162, 0.01303865049652247, 0.10117009699971856, 0.11323973215509195, 0.043698661613855244, 0.05834402520208884, 0.04471135103971822, 0.006342428053809895, -0.005382594933747594, -0.003619102278590214, 0.0008804160734635349, -0.0003518355576776349, -0.0009522925100083599, -4.283506571348438e-05, -0.00048030498548948627, -6.68442377434112e-05, 0.00023650454831846218, 0.0008303886264463785, -0.00034067251023274276, 7.01393120475942e-05, -0.0007260624753401697, -0.0013437944715588737, 0.0007781905037933461, -0.009985235833756398, -0.05421965589593995, -0.06566838721146206, -0.09615929829076524, 0.01063075075374113, 0.0008189169529908358, 0.05607249580955961, 0.11129626573258242, 0.061300997405868966, 0.037318192432905184, 0.02464421672463893, 0.008446918769772757, -0.03314864057616488, -0.02717695195646966, -0.01881298247790672, -0.04282352200279119, -0.03379440586932408, 0.03207967914628073, 0.007108435428262086, -0.00011438715121760944, 0.00026423822582438683, -0.0001767359824716498, 6.717941216274302e-05, -0.0003222882501493913, -0.0013680498724939452, -0.00901370323682303, -0.017682891878174446, -0.021481457187334897, -0.06439240026470534, -0.11067933514918556, -0.19705620461221615, -0.14045252661230548, -0.06444858780535985, 0.05617882959010902, 0.11742554478812221, 0.22827589975049906, -0.06087134570331704, -0.16709394645948117, -0.029426791416101765, -0.21063000302466817, -0.22274456721834715, -0.19918522542222603, -0.07082670591343518, 0.034530668657983696, -0.02907974361988787, 0.02414720748073481, 0.009392596157163447, -0.0057186584128209, -9.382920197745184e-05, -0.0002875209773984943, -0.0007937876237547474, -0.002924885716087193, -0.004830640246569053, -0.00837533931554752, -0.025922798056592523, -0.07059797681456383, -0.18257450034886635, -0.3534046429436816, -0.45414376747456486, -0.04066174729685167, -0.019099800168579227, 0.1276161850721187, 0.09462481007629138, 0.1490642802035922, 0.08592995023443976, -0.09209721642411033, -0.19843735372550625, -0.14066516044810828, -0.03997687588116447, -0.15581091537612451, 0.052721019123135815, 0.08254169167752921, -0.04986747046284147, -0.013272094102200128, -0.01294361278090304, -0.004554915250539309, 0.0001625618643484965, 0.0001433894073109489, 0.0038842127497715597, -0.005580607834673726, -0.01604404607613525, -0.031005315654102198, -0.0909494888580314, -0.2271030057251217, -0.37730182703480364, -0.4537024990873348, -0.19183841475102115, 0.012289169118679348, 0.17373108592822317, 0.048173858923059504, 0.014816457488652138, 0.032967569048649635, -0.10159719788404928, -0.09878116500216631, -0.09382214925567733, -0.11287363241139003, -0.028925575621939006, 0.049651834260280886, 0.19448422565254883, 0.07876016877519809, 0.09414738211077814, 0.03110756524480352, 0.062137376161527244, 0.004123613218485403, 0.0004328405470062049, -0.001138476081154626, 0.001235346074625946, 0.0010160796316762211, -0.011322731101727095, -0.01609596009964983, -0.08355843340952666, -0.14952520867432187, -0.22804588448846191, -0.20338768600871607, -0.13667857000611955, 0.06147363467678612, 0.3439690360377677, 0.1512425982353449, 0.06507813855428245, -0.10118089300099299, -0.10586002932356467, 0.020562340542875236, -0.025565352485972997, -0.02427877177126927, 0.243516889241052, 0.2255341945511344, 0.3682941506221989, 0.35878579800465543, 0.2326220105929769, 0.10130493706448246, 0.10188410815963957, -0.002782913293711912, 0.00023017429297499185, -0.00048163377669290506, -0.0012518172498360227, -0.00026523337961106516, -0.01730241751699659, 0.0010532611739682972, 0.012510748572475814, -0.015370289267107711, -0.20446608453990098, -0.08837825872090284, -0.25324498790394917, 0.017794282266793474, 0.41544518580442, 0.45203242624516493, 0.18307344730463276, 0.05655802858141498, 0.003459862402976206, 0.03984960052147256, 0.21631831269862167, 0.5179686505680156, 0.6590036237513202, 0.4864220409520299, 0.4301294587467275, 0.4566390308002851, 0.39625645578800855, 0.25130468543950885, 0.05641507835868317, 0.0030246676362515007, -0.00014742913294841018, -3.8211462933104716e-05, 0.00017793650062403768, -0.0059814233777502265, -0.016501936937095885, -0.02948770815360782, -0.002003652902824565, 0.004882900974550464, -0.14282961040724493, -0.01961184480616672, -0.2825396019766684, -0.1781460123645334, 0.0333726219496809, 0.24982965092667184, 0.11091621781031694, -0.059145362446461285, -0.14416109086935328, -0.03828646742126592, 0.08866961905971604, 0.24219380838567978, 0.3516410926736971, 0.35887794992377015, 0.20533582547478774, 0.178385855440662, 0.21025329988016755, 0.10798323088556644, -0.019622525617182928, 0.0029355083207677924, -0.000527853510321488, 0.00020475139800836846, -0.0005529046952048742, -0.011049699504414817, -0.0018655146151798291, -0.09976202284356823, -0.06804224104110128, 0.0805656358805041, -0.001992013306966784, -0.12582904683966994, -0.1098814295517151, -0.277338394355518, -0.04836942174132924, 0.19460196428621246, 0.1261513661957381, 0.1672350193344926, -0.38424664544369325, -0.5647948088258145, -0.45488625210392053, -0.23477337894901462, -0.16721593939067728, -0.2390288505853385, -0.1791467250128426, -0.14534657135962775, -0.06466552984006094, 0.04953135001269956, 0.0215294523409797, 0.003648371303889221, -0.00014606677705193097, 3.929954979739578e-05, 7.857476695530436e-05, -0.03107237871279943, -0.0198188198939239, -0.05909081091570376, -0.09848652912383632, -0.04025291775985007, -0.27332400191362455, -0.2513761529671349, -0.22366381222551954, -0.31049697801308535, -0.17471006733591432, -0.05358708008060235, 0.12196074454849891, 0.09123026007197733, -0.36242375387201486, -0.78984290343567, -0.8880834434582149, -0.6965394957026972, -0.5806030765769752, -0.3797660286162328, -0.3466238289991926, -0.2294189774970507, -0.23665047473360692, -0.0075506906700665765, 0.015946654202824907, 0.0030413990458117188, 6.959802936889392e-05, 0.0006522731820982997, 0.0002648747324853361, -0.02560660970503529, -0.05822780202593153, -0.07836592814217573, -0.10829261529084201, -0.09513273299708677, -0.09976319446785448, -0.11049138709523215, 0.0840976799445069, -0.08123730588085612, 0.08541472954669803, 0.008611199346839307, 0.11057356018249273, 0.17072937306357064, 0.05668982271280924, -0.3616384165782229, -0.35940631235539794, -0.5144846625787426, -0.5005790689492208, -0.40442169195646327, -0.34523850422824703, -0.2597179596352023, -0.22585471056046333, -0.03246781463389662, -0.0024910740625880405, 0.0008533306389651124, 0.0005176630935520856, 9.928461214844055e-05, -0.0006262320236651154, -0.008993379411376201, -0.06741298966414395, 0.0003409903594513446, -0.0714631449325033, 0.08040895041423053, 0.03500288597859568, -0.08256366891012516, 0.04843509825104135, -0.05115337116246293, 0.1595101552079028, -0.15040591573369258, 0.342906364671488, 0.2863206428297746, 0.20028115142633793, 0.13379289727266336, 0.061375140137059706, -0.15574601755952736, -0.23272300260638656, -0.28899306765011196, -0.23873654893660629, -0.21334686310431542, -0.18254677469086492, -0.023095898527620416, -0.0007255884824108626, -0.0006355136753263192, 0.00059989486198939, -0.0004057787976936431, 0.0008663988746982516, 0.0017216313160786996, 0.020845716463804106, -0.03129829622883765, -0.07296081241163353, 0.002836822553869566, 0.07200854890276151, 0.011894718119207752, -0.07282935780052173, -0.33391807530459805, 0.025043855992640245, 0.10759297480603765, 0.3002357000110907, 0.08069307308065685, -0.14009978527033837, -0.07360918104801509, 0.09614605807641784, -0.08771382346355268, -0.10527381770721968, -0.14726258023689137, -0.15958821906049198, -0.12640667810578166, -0.1286539036779472, -0.012904609609328687, -0.0011194584520623182, -2.3850639088403936e-05, 0.0003537095408919814, -0.0008773518174727152, -0.0005389982795156265, -0.004100454037723185, 0.0014000416849545834, -0.04774075984069915, -0.044153974997233086, 0.09375758197184993, 0.07742060643645972, -0.08286395682065592, -0.23000928852133987, -0.220142320082523, 0.13871875107794993, 0.14286444774489956, 0.15218045199511165, -0.05637550490458872, -0.2276589089785102, -0.11452932340671773, -0.05292291769559041, -0.2008904812986797, -0.08026551059973176, -0.13684063313065795, -0.16100430010931227, -0.08818659742172441, -0.08195877739849142, -0.011854370559719758, -0.004360477052419541, -0.0007474123035963876, -0.0005857287208577294, -0.0005512987713295496, -0.006166389761251993, -0.012548709291102515, -0.058556956635743666, -0.0831707976807821, -0.10160314260145409, -0.1145449624467623, 0.06150877426275279, -0.1325294252520917, -0.1269699830962378, -0.09920727421481296, -0.11925459477538529, 0.06717289084339044, 0.06454867081713783, -0.13785853619419433, -0.4052705070219141, -0.17801792371913613, -0.13103329036896566, -0.08318880762651272, -0.09805272745248773, -0.14348236804820264, -0.13503586732492567, -0.08437704074899685, -0.020540641395166686, -0.007561631738940286, -0.00328466645107907, -0.0005684898031225111, 0.0011132520528774421, -0.0007264288261204533, -0.010636569230201292, -0.000634313750401366, -0.004360586023608768, -0.1115316880400894, -0.0484860469526264, -7.070757101693961e-05, 0.08641666674344149, -0.030247089408931473, -0.03875618132516283, -0.03987466090102745, -0.12568266221236832, 0.1051923440365756, 0.2401185167180065, 0.21986120268669596, 0.02297807171975661, 0.12134083517994534, 0.01909510707505345, -0.07425995611524167, 0.06537696386767164, -0.08177509594023881, -0.033783755546360796, -0.0008159462511658231, -0.00567430018691253, -0.014982927517971988, -0.0021782684471072784, -0.0010222394095622204, -0.00010220351991294299, 9.154395022615366e-05, -0.006011886846157511, 0.017339521280839498, 0.04703938680179594, -0.07891878265127596, -0.017757188424343203, 0.19465259477154884, 0.1950108174453976, 0.13303842637080493, -0.18252259359273829, -0.15491610499503586, 0.0269914967342537, 0.015036491493135936, 0.21014915955670688, 0.10149303581661466, 0.08595351159631971, 0.12213966822052177, -0.07871630145677033, -0.02926426614892624, 0.16040092349917406, -0.07053945054263856, -0.08940303522894806, 0.04075869628588224, 0.02085180426403619, 0.0021477732945337285, -0.0022136855785637307, 0.0037670245223280704, 0.0003419405476133634, 0.00017548854956697183, 0.02745271805367855, 0.031514624846894254, 0.00689175024664704, 0.05675888475966435, 0.056547318136289965, -0.015304064976376682, 0.23843867396891388, 0.12545086561914903, -0.23105609653119, -0.1626058370764635, 0.020281272183931824, 0.2776562831786405, 0.07716960754593123, 0.08662682395884666, 0.22070470784363294, 0.03358480032368677, 0.07734347831324048, 0.16489133683156587, 0.07983383714328285, -0.04909313009496669, 0.002197259007257735, 0.22766934193889107, 0.1441356640709354, 0.01778873880404526, -0.009389433038172084, 0.002330803958920351, -8.621211891762403e-05, -0.0011871330094025867, 0.03771728909591096, -0.020363325802491863, 0.008177112941807015, 0.17200256676688352, 0.09626642399014625, -0.0592413239665529, -0.00385041510930934, 0.06281770636295525, -0.25127421195627436, -0.06274560119171556, 0.016562339729325803, 0.14569072103586697, 0.06739062638022932, 0.07754618007371093, 0.24153042072993297, 0.2304921288014856, 0.14729087701229535, 0.16737194735994088, 2.959091318456897e-05, -0.03583466436641622, 0.08288178707617233, 0.1725577104656966, 0.1332112752601011, 0.021730028595927042, -0.0006406668107867513, 0.00032320299968812983, 0.0005067581905233899, -0.0015327284658203774, 0.010712036320046865, -0.01999914651377647, 0.10628763334442042, 0.19112042936268345, -0.009966712494234793, -6.8290025451337e-05, -0.06989459704020994, 0.007628992165061087, -0.15432583102711184, 0.04586296748224107, 0.06088174450297561, -0.03765524888371653, 0.12887495059413995, 0.3471127033766243, 0.05690209629649208, 0.10726681142017597, 0.04371451805821295, -0.0870273082294928, 0.02822875689550792, 0.055756700684239435, 0.0028826590813274145, -0.0095453525687374, -0.0026922783161107563, 0.0039314032206301305, -0.0023912139947728536, 5.990393351351091e-05, 0.00027818556867408815, 0.0003276458155273335, 0.0023592894125881335, -0.011162717978909577, 0.07950294721115597, 0.047987028822749994, -0.014813470671001338, 0.04106896186859671, 0.055768577359395846, -0.06328414083371631, -0.014504192607996864, 0.1276700403610738, 0.2057471947634402, -0.17141707752192167, 0.08022736049059172, -0.08631212179241426, 0.010755819616646577, 0.06714491435186158, 0.031102989035631145, -0.04336729654524198, 0.03374718064177966, 0.012509005231346938, -0.036933228777190234, -0.005750829058279585, 0.0031995391784127047, 0.006163847968240833, -3.1473006508458786e-05, -4.100136221154083e-05, 2.631659646779916e-06, -0.00013577757083190037, -0.008270741775635741, -0.03574146963135271, 0.00010696230999236409, 0.10055799018273053, 0.13035046746414178, -0.06897689815779125, 0.00432844308788358, 0.04069176117413606, 0.11396699775937807, -0.00844170068529064, -0.06275417732782401, -0.06304792414943336, 0.10404500810170152, 0.03454774525746836, 0.04188752340766004, 0.12619265031919316, 0.12032353211053136, -0.011078510682786508, -0.03034722296540198, -0.018896699440341225, -0.04129877312364207, -0.0020512615285524097, -0.011487071293270966, 0.0003051406926262362, 0.0007401577818328068, -0.00040760745918825387, 0.0007426755490730377, -0.00046507206755176775, -0.0017586703041627544, -0.02915938045629514, -0.08476446368449925, -0.11006133291247801, -0.12305282784432821, 0.011070786381277248, -0.07421421793311807, 0.06947378709713768, 0.16552173375656815, 0.2513366626332312, 0.2318534704349898, 0.2301637575491663, 0.19639169235671908, 0.003149509155623285, -0.0031454254038871445, 0.12131147131042501, 0.13038763993881045, 0.01594039047517531, -0.016041315077313108, -0.04551725436833501, -0.038495778556633053, -0.00530533541022759, 0.002572545314371409, -0.0003007365614500756, -0.0005776580712568397, 0.00048671724884210025, 0.0005593955994812999, -7.906589758297667e-05, -0.0005269415102159831, 0.0005942173199333096, -0.036819840329182965, -0.09384848735560228, -0.11330348780435583, -0.06245219987883809, -0.10164950758993628, -0.037705344311135654, -0.09311112350383134, -0.017255054712740577, 0.053015651815195276, 0.12406796687743826, -0.06951289887353121, -0.20076877584779754, -0.11381819853716585, 0.056707716028814664, 0.07236473443814848, -0.0006987628850018447, -0.007914256430006473, -0.0008343207411639248, 0.004035133949617772, 0.00378384696830183, 0.0035973448492427214, -0.00011717408057780783, 7.802707364457511e-06, -0.0001639237137940588, 0.0005725782409919429, -0.00013755100166338235, -0.00021293713321965857, 0.00013874510657385238, 3.856114852373241e-05, 0.0006859121156128656, 0.0025567152490984547, 0.0033368386052205095, -0.011135344940075037, -0.01294221370561416, -0.020777065656642724, -0.011300310730987355, -0.02837428398155096, -0.10470899676063761, -0.20247800229359195, -0.13395668109219713, 0.03024903875642604, 0.012060601928322146, -0.008623999652314241, -0.005936195425155402, -0.005243280661235263, 0.0008603300384313708, -1.6447937897573482e-05, -0.000247084685035683, -0.00019253620681277411, 5.719930684954562e-05, -0.0004611261970161548, 6.216947452884319e-05, -3.177771293468477e-05, -4.635087196304199e-05, -0.00018305428561094078, 8.194935469674517e-05, 0.0004526389975661111, -0.0003678885182223932, -0.0003487951462973143, -0.0012813016405837975, -0.0014097466004390886, 0.0009192406185163521, 0.000685642406390231, 0.00019523493267544317, 0.00015167699607235733, 0.0005289222975904649, -0.00040958208472507106, -0.0005097241131632156, 0.00031743871059807975, 0.0005294096963454594, -0.0009473589994659943, 0.0004876805804736108, 0.0006156471712578842, 0.0007509567417389239, -0.0002358589511115981, 0.00035854019426915574, -0.00012060837967648442, -0.00039864878149202646, -0.00032561336312575905, 0.00018491920193840078], [-6.976392256413261e-05, -0.000415589783308377, -0.0003272599695292404, 0.0004202815308939707, -0.00021574935278356584, -0.00021194815498226915, -0.0001430111584171632, 1.890757220230463e-06, -0.0005251029811223745, -0.0002412647525690117, -3.342712587072867e-05, -0.0009308400863660372, -9.591202438647912e-05, 6.147668290015631e-05, 0.0007820789011334318, 0.0006758451103839262, 0.00018973115923652496, -0.0006065241736156152, -2.2775475945993545e-05, -0.00017288853984393375, -7.921748685693633e-05, 0.00022160633733350198, -0.00026682082376916705, 7.154600716994312e-05, 0.0001605291308701292, 0.0002962250799430275, 0.00030097606615241845, 0.00020700787604423915, -0.00038760257582961047, -0.00014341633349793662, -0.0001726491183141681, 1.4910571117437103e-05, -0.0002065676284375373, -9.068144841675668e-05, 0.0006347794291379462, 5.6568490933153685e-05, 0.0002175157432303361, -0.0003159442176124373, 0.0003137278095313767, 0.00034122314749745564, 0.0005110469671347288, -6.684755061537977e-05, -0.00037131693664059506, -0.0011914531298631897, 0.006557323782519667, 0.0019361543802206992, 0.0003708231219804195, 0.0016815373867072982, 0.0007453717770374456, 0.00013814669150404564, -0.000450875199500636, 4.933408067056379e-05, 0.00010290513583786418, -0.00020801702884412895, -0.0003521605938320784, 3.455527059786734e-05, -0.00033366059639127317, -0.00023065222832972945, 0.0001395846126810509, 0.00024441747101542965, -7.5352803521569e-05, 0.0010208329894268568, 1.098887988708232e-05, 0.0001912631574709676, 0.004075616438197051, 0.005932272605492913, 0.004374056872907797, 0.003792326382734021, -0.0006671532061008625, -0.090340682663391, -0.045106741068553544, -0.05317510603800105, -0.04446679583699336, -0.08224069195427963, -0.019796938677485665, -0.004895982135075857, -0.0008032216666320643, 0.0017861399681933635, 0.0012095847608195674, 0.000684473926279603, -4.4402402339278756e-07, 0.00031889738464436536, 5.256178209863644e-05, -0.0003997427740094423, 0.0001487978596168155, -3.1508930330433205e-05, 0.0004882815836581112, 0.00044432372205642837, -7.220862298336772e-05, -0.0011702529786715887, 0.0009981012523252967, -0.01033751676669554, -0.015718101794195097, 0.027876348092821388, 0.031758378312488136, 0.0111822772258096, -0.02272805506933062, -0.023406990073011964, -0.10066504375881781, -0.12389059544987331, -0.16341231577555873, -0.21884253709893306, -0.14486587167278003, -0.05792513934563253, 0.010968138778676426, 0.03762701997987354, 0.02804146532709551, 0.02781214285968296, 0.019845441793737366, 0.025870320378132184, 0.004723909202167826, 0.00058445793197618, 0.0004625124935590141, 0.0006891211774001679, -2.2603414943708053e-05, 0.0010367949571740292, -0.0032496530472263235, -0.008250395029523508, -0.0012529775964597956, -0.03524529832932256, -0.10663210042849784, -0.11776218344701805, -0.05174179164856046, 0.06325842896544676, 0.02078153964497553, -0.16094618213291095, -0.06585842288238475, 0.0186630633827527, -0.051478102754486596, -0.14950408656156355, 0.012644690698741905, 0.06244096374174006, 0.09716417985549163, 0.14696510127757728, 0.05760784794610096, 0.03522283306537685, 0.0365803051262098, 0.0010271546017252785, 0.002618823302401803, -0.00016658388035460875, -0.00033663048412851016, -2.0051185639712073e-05, 0.00038227229449158733, 0.00043039295781449187, 0.003973456527790778, -0.013932939037378831, -0.027321557088841705, -0.08481155763210473, -0.07934778269532734, 0.13872950885530727, 0.1018979199205794, 0.34980578981003646, 0.10207801718858465, 0.19922754202862394, 0.04055348578160766, -0.25675288473539526, -0.2668472485205386, 0.2199059786213069, 0.3656142039375814, 0.2651267261529723, 0.28690037926063344, 0.10718729330531551, -0.04187939783172176, -0.12783507646540365, 0.03752438386881672, 0.06737113242265035, 0.03495780067188332, -0.00012184350983069522, 0.00024450466735228014, 0.00038716825963823026, -0.002334136264440623, -0.0057388456933681, -0.010709911216376504, -0.09564914117053118, 0.006632392916902308, 0.23569381704475545, 0.342192760804121, 0.26800750288300573, 0.4634900908929092, 0.37969742664125805, 0.6303026863471011, 0.5361298708924688, 0.3753108338141509, 0.7291393101649748, 0.701634193428585, 0.9925414686689354, 0.5422254485063321, 0.39799755456668084, 0.1985133900224223, 0.09977117935679007, -0.02502077006408211, -0.03883940273903493, 0.010706042941435675, 0.05727055818152107, 0.005396637377391914, 0.0005656160249455696, 0.00022415561051774373, -0.0053946289489683885, 0.003433069455608435, 0.0038167252294675647, -0.0307737006328714, -0.12256943112265427, 0.12442047451112838, 0.17947135868605893, 0.5834929612952876, 0.22399619968509826, 0.47223006482023516, 0.2882087018745953, 0.5428994254916117, 0.771175729941075, 0.762567172652903, 1.0077779294293876, 0.8693447867261653, 0.35543163058780297, 0.3537763785313936, -0.10534993873274842, -0.1288739604142334, 0.16552478180101718, 0.01349673265986261, -0.33162532419651647, -0.25580925300435686, -0.07940603515168942, -0.005215420919521597, 0.0035757585320820417, 0.0006069051852093095, 0.00035764075404875806, 0.004863472377194436, 0.020458229164252956, -0.053734823738134714, -0.11507431333539407, 0.13822221713916952, 0.11422632025814812, 0.38844510154688305, 0.4451457016592443, 0.3680107419299269, 0.3835051904258974, 0.5745232399811763, 0.5987003635830053, 0.5680527600038892, 0.3722313905292077, 0.11857188021413809, -0.25777368649571514, -0.01914077949208605, 0.07967473064931045, -0.08399562820500596, 0.2204446050668718, -0.061268437962386804, -0.29164722892823264, -0.25513493298701717, 0.010679851786386323, 0.018375788632918857, 0.005633520035418582, -0.00036206800473176143, -0.00025669229524320606, 0.012822874899029056, 0.03819170974135722, 0.00019255463977182924, -0.15111636262219602, 0.11044726905073159, 0.2457953167121086, 0.21039122059148804, 0.3658031095144041, 0.18541103041055904, 0.08861755259281694, -0.0493491429750237, -0.15775389060069286, -0.310419103058771, -0.49080494170234706, -0.6474441930067039, -0.33717590737060954, 0.10031841619013789, 0.05455209599611358, 0.08587873084320237, -0.06638940769178872, -0.13485719325095405, -0.09030859268324833, 0.03588930168275762, 0.057945419289302955, 0.03565626551519749, 0.0031756214112539888, -0.0001006733599100487, 0.0007957526324677626, 0.012050139097512125, 0.026155477511781794, 0.008202731114670632, -0.04380323525358572, 0.448624268482147, 0.039145915802699806, -0.11015201027424837, -0.24595471265306582, -0.2526417703744521, -0.29195358010196487, -0.5119676518010229, -0.6863216016749083, -0.867880235206424, -0.610595469950328, -0.3152887886914995, 0.006401588321017301, 0.22175401374659998, 0.14150669676391203, 0.048615767904578625, 0.056329459189359124, 0.06238146009784621, 0.13908270506069154, 0.08798560025466184, -0.0028751710994377976, 0.002854726594398606, -0.001238230276257486, -0.00039673182445703297, 0.0010093570201267458, 0.0046780259329874336, 0.016221527640406266, -0.0482783950223042, 0.005767569007147328, 0.20445588727086425, -0.33454685499445713, -0.3634001116621879, -0.28835833822722917, -0.2502544938837516, -0.33749905465122015, -0.4304099705289515, -0.24479425311948633, -0.36241928465972495, -0.1285616076190109, -0.12694672429092388, 0.18206337226967909, -0.09195391843035715, -0.003619639931925794, -0.03647982926339074, 0.033138517799501624, 0.14981888985518602, 0.2437700279729734, 0.18100751825566072, 0.056209295466578026, 0.0017263154255333475, -0.0018130034336729924, 0.0006955354278627308, -0.00041923041473498944, 0.002722781785843308, 0.03423711856141746, -0.005765707991800245, -0.17473553222220375, -0.23741791360668751, -0.35145097818748894, -0.1284293149207219, -0.2747997054248516, -0.36120953843618236, -0.3574431367348609, -0.2846390161439409, 0.1747851705579441, 0.1422411258693738, -0.01409355421202353, -0.06062022054791241, 0.027313650785527572, -0.15442081272314168, -0.11847130812418004, -0.17112605924783747, -0.09710050616549736, -0.08769721076701684, 0.100929998933388, 0.08059090977762728, 0.023998635379778758, 0.012696887683579053, -0.0010480784101220626, 0.00024358461980924853, -0.00045555378735183773, -0.0005203132154203056, -0.0004810394460843945, -0.242840698256754, -0.3933341079416048, -0.3620671008912639, -0.13703384855503262, -0.22515247415779685, -0.08684013667710318, 0.008202732683426736, -0.2723364237354396, -0.12928231313538224, 0.12968791588181303, 0.18719557946889054, -0.06631726068238883, -0.12527809358390338, -0.10182682071955483, -0.3506203781645076, -0.13095982209016968, -0.06965647967335195, -0.24422841803443615, -0.17896621410862437, -0.03781624568550283, 0.0054792339034551545, -0.04245992416609953, 0.004869300947605105, -0.0005269747412291126, -3.6908158237081397e-05, -0.00046773993697305844, -0.0027867616634938493, -0.029976133923178775, -0.20210603171203798, -0.5272347402844157, -0.2692812556453823, -0.07099971176348464, -0.27293405056800973, -0.2583499770109999, 0.0965044318299427, -0.2973119655771395, -0.45825579946582523, 0.33377134928306107, 0.20122553421056913, -0.12090990715046572, 0.17457007599708227, -0.005709215359522014, -0.04294893170063848, -0.225534207886211, -0.03808094091675084, -0.30821096010707905, -0.19772209218914094, -0.06751174708431315, -0.06360453226945299, -0.04307272868882352, -0.013889609380865682, -0.0004733979128851114, 0.0004809889282583677, 0.0004608602410172112, -0.012784500365249593, -0.014270154502882318, -0.08117274510190617, -0.1298850946233187, 0.028500953100670932, 0.23892725327682213, 0.25884078773231395, 0.04670877803340428, 0.09734702138287767, -0.1779247312343401, -0.23319838941934362, -0.10259833932687647, 0.10442300577017963, 0.05760301080452155, 0.1669508886865295, 0.1037228415998151, 0.09384640532819426, -0.19301823629092957, -0.11241059716756349, -0.20892190441653052, -0.2595691799342248, -0.08786162410876154, -0.060111962630509864, -0.06721458488987272, -0.0758008332247093, 0.00034403334676801723, 5.158484291782538e-06, -0.0009292420988481759, -0.004263048473848335, 0.0135014297198439, -0.008347513643777203, 0.047083794373219356, 0.047516291431244334, 0.0736413243715125, -0.02543628614211957, 0.009099775865497007, 0.04923221516221112, 0.044157630434754236, -0.019241486238312455, -0.37319633623029536, -0.23649077968471557, -0.2264343915053367, -0.07746132443182577, -0.2709718692386138, -0.05797232100430815, -0.5030914193745134, -0.05045436617919289, -0.058721290412523115, -0.1342951796194241, 0.024092205687546147, -0.061373611372120954, -0.0903554914339648, -0.062878214993551, 0.0008943172088093547, -0.0002056471025752053, 0.00028900089136129785, 0.000525082841558158, 0.026766619504553488, 0.04294445415618445, 0.06243043418781442, 0.03963694879877619, -0.15937272445904205, 0.11153501978683773, -0.041511109468970055, -0.04619074954381835, -0.1026047136271493, -0.20228544184001215, -0.22912794702681208, 0.02842234276748783, 0.20056981515803599, -0.23104817537376962, -0.1848019229285854, -0.29254667583057525, -0.3212120583437682, 0.05047668819625046, -0.2559522143998779, -0.20022700290493664, 0.030200512676879492, 0.03184994679395591, -0.04870156593776676, -0.007729321929571672, 0.0008191507250424734, 0.0022153620827653014, 0.00030277320143150716, -0.0022447640540243026, 0.01705020449650922, 0.044377290873184226, -0.00989234142037726, 0.1475795806583208, 0.09629032448642488, 0.11546718250498124, 0.011842168741343941, 0.03801896992881614, -0.11405262928790788, -0.16406479377823696, -0.13137889819384507, -0.019585820240146656, -0.13561290317081573, -0.2982452149182784, -0.1859718652007007, -0.3498594282300504, -0.07008092865994052, 0.14105659641193447, -0.11533753578558036, -0.03602337943343385, -0.02904614699758492, 0.04663845093291063, 0.025060924173882393, 0.011931004404503242, -0.007944104798384671, 5.4568901119959735e-05, 0.00027281102261363403, 0.010624734634846731, -0.04701038528666134, -0.029731653951233727, -0.08681416222879078, 0.1479586714493003, 0.2601632814050182, 0.07810905805123357, -0.1690856842622588, -0.06698222537277586, -0.1309761614025021, 0.04081947421872602, -0.06294142786031785, -0.30968200282677216, -0.3699518903978765, -0.34566089653510246, -0.3918812298409956, -0.2127141951376737, 0.012235644761410723, 0.14551172228221215, 0.08171886319889643, -0.010002253469025928, -0.014113545547381479, 0.06412448437167334, 0.0012760379087118786, -0.00013063894255965942, -0.004058562626571776, 0.000867903539835847, -0.0005244698822701235, 0.007700285710800355, -0.03258601220749845, -0.018205825233196797, -0.003165584460540076, 0.1696954163843066, 0.0792748271952237, 0.0033266351646589884, -0.2637752338765521, -0.058690156481373955, -0.2246664839415091, -0.15855828466231092, -0.37396101296093953, -0.3052548307452513, -0.20920456190199424, -0.28181645050458454, -0.2456938382381739, -0.1964524572380343, 0.06932853211512857, 0.08277851596301036, 0.12798060673567893, 0.037139138040719645, -0.015082488675847865, 0.07308844682511799, -0.010638062331876877, -0.0019409408084631974, 0.0006878836260414111, -0.00014730823245294417, -0.0004129065216771032, -0.00850018465261977, 0.023536455497496587, 0.10966936648077757, 0.06135080759655456, 0.046037280433567286, 0.11078398873803044, 0.008415001928490602, -0.10569718000652564, -0.034773215140679985, -0.019537595962010323, 0.13506988885462864, -0.12347353121319025, 0.012397343853604689, -0.006522043002848089, 0.18474872931676603, 0.19960072045813132, -0.056605253300114705, 0.21381786909360326, 0.23916245016412258, 0.17728515382422225, 0.0546858691129645, 0.16733391259717245, 0.16809377505891315, -0.0020258555324059535, -0.005451631644080699, 3.433197729712412e-05, 4.451285864968858e-05, -0.0001594210718466147, -0.00486939299679565, 0.05507752765104755, 0.14931991512869391, 0.16181805306361688, 0.1490037035578016, 0.38898811027832203, 0.3065295226707221, 0.1881453158760941, 0.24390419647433645, 0.273185466618558, 0.24162535091877416, 0.24971348081609288, 0.32349144669530683, 0.15241871796658837, 0.5420511607713216, 0.4610601272840045, 0.29580756948718195, 0.1576646782188822, 0.12410377711475666, -0.02320522842018385, 0.16190042076525582, 0.2703143572510385, 0.20902356469121078, 0.05852784270301458, -0.006381850165403101, -0.00039873651519150834, 2.8036148241597533e-05, 0.0003359683109348795, -0.0006648939783405989, 0.019978887369116054, 0.11483680845736424, 0.23152165196245628, 0.20842453247449777, 0.19719779235288304, 0.17525717871581017, -0.06372204460232983, -0.2917176421243632, 0.06987236324738187, -0.043193894603146814, 0.03201742737991431, -0.0201962768500318, 0.14549655431121217, 0.2915102344935029, 0.39344961863772165, 0.12157601286025439, 0.09315087765056593, 0.08030558935272877, -0.013803978491145428, 0.17556018712642965, 0.24999151296545916, 0.2069830908292293, 0.013607651151604333, -0.007843061590860163, -0.00019299983087324714, -0.0003533400611025572, -0.00019402536935465573, 0.0006574956359666137, -0.000992011786316559, 0.024328315959097836, 0.1399605873652341, 0.12303431346643869, 0.11868286548886942, -0.046454215174269835, -0.24931660973780848, -0.09036367067422298, 0.15237963982630032, 0.26426237732286656, 0.19214109619873718, 0.003352848818258372, 0.11785699257597192, -0.13756811995064114, -0.0800064867580444, 0.09864913688729939, -0.07070595700452749, 0.08355095038592247, 0.05564392797716919, 0.1363583752708138, 0.1637355044195398, 0.042923684978471266, -0.002558818546956708, -0.001583765212395712, -0.00037935404316772757, -0.00027517485803315504, -0.00046705817400851627, 5.79710568550971e-05, 0.001870809473717452, 0.012497757163075643, 0.02620625978781459, -0.003427896067577467, -0.028736208214345076, -0.034596143644276184, -0.03582583968483694, 0.11369673934484129, 0.1534008057179438, 0.22805128428370008, 0.05690240594006411, 0.028370332458321747, 0.10885797805027508, -0.011086659940574431, -0.0016252916879808791, 0.1888639565662931, 0.23891500618487763, 0.24728566662596246, 0.15686523549160467, 0.06036883105725525, 0.021918953678913514, -0.0038101786265284754, -0.0019001030518723879, -0.00117232366262188, 0.0004312735072439183, 0.0004570649668883979, -6.209677386595372e-05, 0.00046141857279132685, 0.00018771267154823283, 0.002358421470470501, 0.06385399918653838, 0.054408928893427196, 0.011383151966370292, 0.055029149010779474, 0.08418870989194759, 0.07523349649399087, 0.11347803864173463, 0.06022795117692949, 0.07571727799086388, 0.08250528846014443, 0.07098339960174473, 0.1317170814839349, 0.055536256241253024, 0.2543550364906447, 0.18071566214473742, 0.1900335091940676, 0.1396183720822109, 0.050541903982809444, 0.008678086956348932, -6.443006985486387e-05, 0.0003121900436842667, -0.0006933270391700372, 0.00010579684143137025, -5.509556888134285e-05, -0.0002691620822236143, -8.724545395140703e-05, -0.00010265982781261808, 0.00026000889399284004, -0.00026208360553887743, 0.0003172012545480017, -4.766281063311913e-06, 0.0005966536805933036, 0.0017831598063800015, 0.0018159862286822195, 0.001137902994371864, 0.002440269979025335, 0.0017512821431184987, 0.004646298516434363, -0.001587228067692639, -0.003122719662058421, 0.0026246271844789283, 0.048422474536227625, 0.028504993637955837, 0.0033906484349014, 0.004667082022871419, 0.01661611612859977, 0.0010205245439940797, -0.0007999144317617381, -0.00022329605127123116, 0.00042607136618979857, -0.0009388996225410788], [-0.00021777733883244683, 0.0001157804725092262, 0.0004902371712638404, 0.0002596056420555879, 0.0007073333057278248, -0.0007529500448249634, -0.0002561284718062141, 0.0001282524304278448, -0.00015888883158411625, 0.00025631166318895536, -0.0007385736343003406, 0.00017520117494654512, -0.000156681772234335, 0.00011068107195982076, -0.00012118729859183297, 0.00015612712687556538, 4.592715689962985e-05, -0.00015968568033819435, -0.00011168988211954343, -0.0003051845925046995, 0.00043680945069933503, 0.0007060233666736425, 0.0005682475898185354, -0.0001985030517204107, 8.961875150198233e-05, -0.00015812447771146443, -0.00020646018018724623, 0.0008227468615466351, -0.00033625685911484567, 0.00016868960141281047, -0.0002436631233392815, -0.00035631593459971186, 0.00020556936034794374, 0.0009745627626997634, -0.00017511320848651445, -0.0002579963060383449, -0.0002360880513464716, 0.0014734588789803863, 0.002865838413953217, 0.0003738250021659277, 0.0022331320292615442, 0.0014524679000307832, 0.01088848812330759, 0.023248012126181973, 0.0021967394957006685, 0.001386540116594872, 0.013541458806842642, 0.010031275853429196, 0.007373573758226167, 0.008609636639672149, 0.0008310072581835492, -0.00026154301254826135, 1.9977164562585555e-05, 0.00047560029346652133, 5.292893240619728e-05, 0.00032082042058300634, 9.862559600083809e-05, 0.00021104287471667143, 6.505093413807442e-05, -0.00040199804337281823, 0.00016667648358204167, 0.0005045095472561409, -0.002109114544091539, -0.0026358578661795002, -0.0034344899419315664, -0.010600889363806373, -0.00918226867533815, -0.0049346227950088405, 0.018044853704904613, 0.04826630009689006, 0.060609413545646404, 0.10117167713970707, 0.0788181412890967, 0.045556736836618546, 0.08196584843598122, 0.10218192960881525, 0.06346197438532145, 0.04679654968549481, 0.020903125568037972, 0.006487618156058274, 0.0021241352290110767, 0.00022456563880422051, -8.61096946958111e-05, -7.669375449046775e-05, 0.0002399596973632193, -0.00016473604438926122, 1.4004931847456567e-05, 9.490120800320067e-05, 0.00043990609612492795, 0.002798457505281892, -0.00024359718928385703, -0.003788923370672147, 0.0025076995737253614, -0.01982495266308529, 0.0029063655527639346, 0.030717406799367696, 0.07348046822138578, 0.15447569534681505, 0.2167067285986813, 0.28137423931619077, 0.2446957633997379, 0.176764192421439, 0.13480830706062197, 0.09865357897594926, 0.08950303513956402, 0.02629468250448209, 0.044155683641638785, 0.03442880825727308, 0.0073754974153842565, 0.001049442670121903, -0.00022234087202626434, 0.0005046309173328392, 0.00019326960096687106, -0.0005985935541280824, -6.5879196278057395e-06, 0.0045215986761862285, 0.015972502846005127, 0.009466999853964797, -0.020429093506559123, -0.014628134928967754, 0.05215353779817745, 0.03200596124352709, 0.05635005532925132, 0.05211002243152057, 0.15516002185732344, 0.21260685663157478, 0.06891813043531829, 0.1365406863498102, 0.1590685968798458, 0.10674066594531863, 0.06425602131305788, 0.08083011575548199, 0.13392402115417051, 0.14182929646421732, 0.04291481678771015, 0.010274494513295871, 0.024385505557175505, 0.00023548714377851998, 0.00015836567574495825, 0.0009437395164154879, -0.0006334489823057215, -0.00013590748261683308, -0.0009634824971323158, 0.002903174738689049, 0.011107230430769452, 0.03230068230905845, -0.021376600645621226, 0.0784129806377655, 0.020196914137554728, 0.1000031876016008, -0.002432083865580911, -0.07672268457159681, -0.042049400132601465, 0.05929639647636546, 0.11709840577714979, 0.101176348084708, -0.015149330379773283, 0.16949819977345223, -0.04228763559110729, -0.04310136261430335, -0.08933906742664155, 0.05810366083523297, 0.032166915069002565, 0.03271168322186154, 0.05391168428475968, 0.014591575707271391, 0.004680183842902337, 0.0014320557347748586, -0.00021414831188458768, 0.0003028252140229119, 0.00045380139751463556, 0.0031254673610181002, 0.02844220728716352, 0.03422843122319358, 0.07400165762083036, 0.12823386387094599, 0.13185766758133596, 0.009445700575891603, -0.018273072835672623, 0.04776792933311037, -0.03727466546038149, 0.007707635903091758, 0.06336945092528239, 0.2782207766180312, 0.036999378386677904, 0.23718170237726388, 0.13635790650278204, 0.26275123927426425, 0.09023542497832719, 0.012941257621230195, 0.0924367301541051, 0.07728671031938641, 0.0640220594825826, 0.04388623965981049, -0.0008357024795219291, 0.003913492055674441, -0.0005211298184875393, 0.004069011042457899, -0.006344197715266245, -0.009553219954098153, 0.015662092873434955, 0.013808742520325445, 0.11462369049321568, 0.1728147017292433, 0.13667738383431785, 0.1007475873697928, -0.01211654266334722, 0.10929478746138711, 0.0517256237313742, 0.03081696997452181, 0.04396010551050066, 0.33531629426133097, 0.12221999025270329, 0.19060800543156503, 0.31207746900894207, 0.3293216845019788, 0.14476290816796314, 0.039570785258195254, 0.10385174473158287, 0.17282867122733192, 0.08722049180338919, 0.0378409533039483, 0.015159709515583597, 0.0013343596670002116, -0.00023270641053809986, 0.00015000163599908768, 0.0008486442066050283, 0.003907706476138728, -0.008870442176717203, 0.02262526748299504, 0.0521224377015838, -0.011193708737373733, -0.13644227472167464, -0.10185096454687739, -0.04683867759506256, 0.018447510596855957, 0.23565394052384317, 0.14130796251383435, -0.08719280759916681, 0.11740032047668846, 0.005897564516027843, -0.0912435566034155, -0.028663950020936007, 0.21250236572422418, 0.08245774412745673, 0.08709859085442494, 0.2044397353173902, 0.17063073543756044, 0.09998608015653897, 0.04679271203945134, 0.016041276880788054, 0.0027701930778177624, -0.00015174443910921648, 0.0007810772898055224, -0.0004767754855354738, 0.01980689263706268, -0.0605898177452569, -0.0011072844158756447, 0.0603433188311315, -0.14750883057591574, -0.1728798687480043, 0.09866754567926415, -0.05744227859300014, 0.023959530472188677, 0.06411684159451476, -0.04345870958340795, 0.03956178716160203, -0.04123678177432529, -0.26721835222572515, -0.18234197957028403, -0.18583528784267053, -0.007050388312120671, -0.12370580405072065, 0.1278388932023274, 0.19842225474617595, 0.28987006572159946, 0.18281026632160507, 0.10846513465990931, 0.026271609786265873, -0.015497386235293191, 0.0002594165125072464, -0.00023028210616436514, -0.006764430478603324, 0.021285496265272177, -0.054159417258643594, -0.13172366729998147, -0.03155139265907644, -0.1498721755056725, -0.05418078100125343, 0.2278718065969173, -0.043852385132296695, -0.05995649525397679, -0.06652732722111418, 0.05163717205259383, 0.3189454942555813, 0.004661792600894116, -0.19926882364791368, -0.2090612458460011, -0.17661097960930014, -0.2423059207409949, 0.002655721692700745, 0.12462001442766668, 0.2169380847243622, 0.26836890899562066, 0.11061363968976913, 0.04322176367390541, 0.016415968108563887, 0.0013983926681258706, -4.722011975462122e-05, -0.0004805296927326969, -0.0002043833305581418, 0.006674967770696106, -0.07468443000778571, -0.2293555029026991, -0.053638269957221284, 0.21753576784447579, 0.056998187716265254, 0.08603082453681211, -0.18212724058110122, -0.11586965967894695, -0.00984544700276419, 0.03696142498628462, 0.38053237227602105, 0.06047583746943871, -0.15254133648474186, -0.16302834516186918, -0.32372652830094456, -0.21513293816536275, -0.23531474737484814, -0.03258032616673638, 0.03511621481634925, 0.17345402226174805, 0.10448875668013825, 0.014397400348876228, 0.027886649421600705, 0.0016428464930530941, -4.11377397978483e-05, -0.00013922569274797661, 0.0002730476618604976, -0.025901542456373657, -0.1390925901813689, -0.19599705339358828, 0.01828154512769828, 0.26836478520806684, -0.08273007736383339, -0.04792031698158147, 0.0382171473677551, -0.14061728769812906, -0.18625244928041568, 0.01773194208884268, 0.28553326747095403, 0.1368795226780881, -0.13784387493998615, -0.20622156525021207, -0.15036695672624473, -0.1846964385694543, -0.3071183088337332, -0.13543507256800483, -0.0941842154801679, 0.13513443992773233, 0.0660190033998513, -0.022067222510119677, 0.017669584969191864, -0.003882340180394646, 9.414022702511766e-05, 0.00023972798829958062, 0.0025418765604626773, -0.0077588035373720365, -0.18777440123365943, -0.14059362814932502, 0.06042540125406459, 0.07742614621896832, -0.11475221336229349, 0.04018823394838527, 0.017038984681324445, -0.0468271274541599, -0.05461013443146819, 0.11020212195105782, 0.2589899773827709, 0.13494258207530072, -0.135569444909352, -0.38218906516270146, -0.11503677070533384, -0.19247176044886738, -0.07222758143748473, -0.1449605234492746, -0.13790343548224446, 0.06910679276802241, 0.014851697170222505, -0.007936347396226527, -0.009413831057773731, -0.02028371271296608, 0.0011952761761769037, 0.0016963661178136713, 0.0030502473588244947, -0.00994745383692417, -0.1698524179660886, -0.13190414644106174, -0.11459174567892234, -0.07853138509983465, -0.041352327312717846, 0.017930611991569857, 0.0817218503866399, 0.0850280970731471, 0.1027217214155399, 0.16630566503968058, 0.09182716134607795, -0.06404098421067249, -0.3897090396097963, -0.41521611311469897, -0.3612337425360758, -0.31242756531859933, -0.1685214312846064, 0.01041544431369257, -0.13820566073864696, -0.03285294270250244, 0.010435710354487305, 0.002700893606343829, -0.0250154470560649, -0.0003663625849551751, 9.437871934866256e-05, 0.0011571497086656825, 0.010444219695401047, -0.04819015029253719, -0.07374174576278304, -0.0607957779638053, -0.22265008278858728, -0.08308486571937414, 0.06613463002254548, -0.02650269754044697, -0.09405216412165067, 0.1437160053607782, 0.20736798344684154, 0.16769514235988142, -0.06569571490934263, -0.38498547392498084, -0.339950265860956, -0.2949600753785779, -0.09973783322220396, -0.1283748275336169, -0.17299448127878414, -0.0474293328577456, -0.020702488553681928, -0.014691006960142708, 0.00916521945755627, 0.03963911780179618, -0.019640581646933553, 0.0009449550613039706, -5.22240836038201e-05, 0.0018152284039453517, 0.0324372660235334, -0.004545304453874324, 0.06312249969732671, 0.04286402863601303, -0.14585561184548612, -0.18326635872773955, 0.031613203673074665, -0.036414950090963724, -0.01718357737270115, 0.15253179254009527, 0.23305288179312872, -0.1451889656963055, -0.6613603599122222, -0.6442608857301378, -0.46769928838630404, -0.12248873097107738, -0.16149387160226295, -0.13161021905144824, -0.33088836080697454, -0.2591489689693225, 0.005160577431644832, 0.08146987715296783, -0.02734580992562748, -0.0020499375563279723, -0.01897890869488238, -0.0009180569479348776, 0.0003639458891003127, 0.0010212675558537666, 0.028604945772330758, 0.01743653757803617, 0.08804351825050778, 0.02013190247294716, -0.10843145568790565, -0.04965527774509844, -0.05721695321509087, 0.05541565293512378, 0.31680934925357607, 0.44662398530218717, 0.2054478569840061, -0.39481740840215795, -0.7165966388876075, -0.44251176567450423, -0.1927621433490054, -0.13906557063178435, -0.2536509909425681, -0.1062730841912555, -0.09161013478515216, 0.006381845791312343, 0.053998796933591275, 0.12983221477799262, -0.057274022129977516, -0.061702973181132645, -0.01602117061858297, -0.01288023308582008, 0.000170807737993195, 3.389170715587779e-05, 0.03957811394966715, 0.02727556400470151, 0.015405597917961714, 0.04166981023851163, 0.06741526622659509, 0.17971082989439496, 0.15801010948939165, 0.11011748977034184, 0.28939037167961723, 0.2829982707057985, 0.022588089647428825, -0.5325962696869733, -0.37742587258082294, -0.0948828595253804, -0.20652522734719506, -0.2710214053034124, -0.1344299262158603, -0.08240154050029436, 0.009215940283280337, -0.004647741340339881, 0.018271016174118925, -0.010892061146409922, -0.0699672619642309, -0.06359887297000696, -0.041006139626252366, -0.025208890673849335, 0.0007205231664155905, -7.941233425100595e-05, 0.036268736962996685, 0.10022830939118074, 0.1151147813571614, 0.11499797053720492, 0.15145287443350927, 0.14570790819646745, 0.4082532898358145, 0.3922126652370788, 0.4006898002225705, 0.27848227170999096, 0.009661035903970506, -0.2266881691899739, -0.028534550731629096, -0.06595100700140945, -0.07481099641211315, -0.062751944610171, -0.005088149404590979, -0.0332385997460049, -0.007044480706557558, 0.0891595001619995, 0.05633726998430304, 0.02824409837530464, 0.06792298579112731, -0.007198884777286174, -0.010186904111949845, -0.0001890125239969622, -0.0005474560548087969, -0.0011731157138273665, 0.022575869945936463, 0.05396848075020426, 0.16276072206569348, 0.21512277844956088, 0.06231448729968456, 0.19358422591977234, 0.2429494582033753, 0.35950008537873424, 0.4315632213837066, 0.35089777182987814, 0.22100108457153816, 0.25479903883965976, 0.21999990064346384, 0.15084485815420226, 0.10891206873178125, 0.1763478214696124, 0.12615791101621718, 0.11095352694339912, 0.02671764697923825, 0.16154806854840198, 0.0971953648051719, 0.01411045341095028, -0.00660991779311669, -0.009581557962722764, -0.003031716565433437, -0.0001893126465378574, 0.00020512182179062936, 3.9353611634430116e-05, 0.015380470573973924, 0.04990020050625786, 0.12132353743491439, 0.24814724328850238, 0.28709438499213613, 0.20896383211927552, 0.014543805103848404, 0.16850726450581313, 0.05431262752292481, 0.20992353684281564, 0.027082537393767647, 0.11071987789015446, 0.15399006152295264, 0.2859956956314597, 0.14035305072247448, 0.15664663598280198, -0.1156632270701538, 0.10744047924342742, 0.07006307088228736, 0.16030973840526694, 0.05911757103083755, -0.09517400881149392, -0.12422876023457192, -0.025453934710318756, -0.00674215492788991, -0.00011063264758426908, 0.00027060631113645444, -0.0007490547913503112, 0.011595062628360506, 0.026525738891625614, 0.10615461612786872, 0.17781991217439197, 0.27751127110859686, 0.21153895861733954, 0.026620876947321726, 0.022860553784551395, -0.01794893035594155, -0.07711720168093737, 0.005050935506477333, 0.09497887063890922, 0.06840170640289932, 0.1146085979557281, -0.054865481962798515, -0.029916510260647303, -0.12019306620423817, -0.11331595697041486, -0.16873489712928053, -0.012382640929820537, 0.043617953871545066, -0.10677465609412452, -0.09076915083291796, -0.019541215810647085, 0.0006365487927075192, 0.0008189759778064607, 0.00021635274712708855, -0.0004573935668169067, 0.007160990590357504, 0.01471737877745889, 0.11404596273169289, 0.13932969079945057, 0.12739375416578902, 0.057361950223644806, -0.015141285746123896, 0.13306577464225341, 0.25120776837979586, 0.12238285006602634, 0.015894873849593424, 0.21309983652233613, 0.02165915980977039, 0.026571832302229363, 0.09006863613974463, 0.042282052035874484, 0.02029475345565302, -0.13182184670168068, -0.05760807912907444, -0.04098481086049336, -0.031848418413675125, -0.05860024536662079, -0.07939171536970202, -0.011187763883179236, -0.0001465377232705988, 0.0005229248033217968, 0.0003083903066516921, 0.00015528426008229614, 0.009095630642388938, 0.020450030697477563, 0.05440240833379006, 0.13411279240730375, 0.17443568060742223, 0.09244842935894333, -0.09958011046344412, 0.04122751253692513, 0.14477976527732617, 0.25964552216645137, 0.4119041512684103, 0.28665499924106097, 0.041301982847135266, -0.1904749371187751, -0.13755299317231023, -0.06782302972125716, -0.05189262747483975, -0.05564543875458955, -0.05736674079314373, -0.08545256146567433, -0.048640712996886125, -0.03426010638425496, -0.006433368522726408, -0.0008712818568630596, 0.00018816947858449882, 9.042762284810554e-05, 0.00032250917708984394, -0.000677200874394301, 0.0007919308382237218, 0.0008019935630873367, -0.006504445119279815, -0.012646134167287828, -0.042711943605277816, -0.010487935547858231, 0.007458194795240983, 0.1202256567473252, 0.20237543846559283, 0.22189983698028856, 0.16500079363929412, -0.026268447330188287, -0.04848969205837737, 0.016498738053180556, 0.06196550186290497, -0.01778828942216946, -0.050031492474961914, 0.026197157114186954, 0.012111950691549347, 0.008135236087843858, 0.0047816714826745795, 0.002324396187734687, -0.0019207078639906204, 0.00017414730815661712, 0.0005555745576079974, 0.000137509068919988, 0.00014977295193415236, -8.121149924286903e-05, 0.00011158649265451816, 0.0007535027339137015, -0.0005101050992197176, -0.02797450617912561, -0.043365537623502086, -0.025922781873464022, -0.014939501856809412, -0.03619456287765247, -0.0017109608130565683, 0.05058661594063402, 0.02948434614818243, 0.007907247741448395, -0.02783544261372184, -0.022123645513636086, 0.0036303816234179594, 0.003273390988822073, -0.008055404569748268, -0.02080196139796355, -0.04930627839056805, -0.02436403555275159, 0.002092178906886327, 0.00022146887469542216, 0.00011877502359471888, 0.00057169476685743, 7.815205642104372e-05, -0.0002958053465224393, -0.00025216274809132766, 7.099273902299833e-05, 0.00032255614462313735, 0.00010982133758012029, 0.000269174679218029, -0.000617779230093885, -0.0001133336659277587, -0.0013813294068269586, -0.001109040057611179, 0.0016671973063611106, 0.002235628262579756, 0.0016553292042055087, -8.883663615287879e-05, 0.0012091027263427295, 0.00026663132364060913, -0.0003311847278030375, -0.0005193185552696278, -0.0006932703136984881, -0.0031219058716683433, -6.138567492928371e-05, 0.0012989547211039972, 0.002854104947293488, 0.0006475904436854694, -0.0008388975656793821, 0.00011502247069282091, -0.0005004141498762697, -0.00015597194363623575, 0.0007478621246702295], [-2.040551808893951e-05, -0.0011517182680174506, 0.0003937431869230648, 0.00040590622781986203, -4.243978055698197e-05, -2.2760703300923937e-05, 5.58962058184208e-05, 8.621261956386441e-05, -0.0003018700081536543, 0.00013497506085867497, -0.00019069449576180204, -2.2480146036972535e-05, 0.0004091243637105543, -0.00039169300202850283, 0.00032301527724611654, -4.53937561687353e-05, -7.447464075295724e-05, 0.00011929446339994827, -0.0008489037036135907, -0.00019335258206180345, -0.0006185123117430318, -0.00014987977103800428, -0.00038917806902023165, -0.0001234559214610105, -0.00010875902969315071, 3.641015094520766e-05, 0.0006777659123752198, 0.00021829628942692742, -0.0005202717257144723, 0.0001347414344553789, -0.00010041797212496338, -0.00015952559562793135, 0.00043022324090049717, -0.0005866319731423675, -0.0006190178475893462, -0.0013500269104238468, -0.0011286206133925233, -0.0016283187108878943, -0.0033414730805654265, -0.0029227188986166645, -0.0016748649103634002, -0.0018631034413381538, -0.0020182753427647137, -0.00030589781819204094, 0.005062093698406984, 0.0025623565059877105, -0.0006233171869500994, -0.001530444458130091, -0.0006574891508213256, -0.0022439212819702135, -0.0019942991879238836, -0.0003903164304258036, 1.245179713586617e-05, -0.0003411722704907368, -0.00038670836809780163, -0.00020343408291512413, 0.00031220320339871475, -0.0006281768602108422, -0.0002748435078792861, -0.0004032065907357312, 0.00019651741934882178, -0.00039493481965709366, 0.0007696710970294806, 0.004602050737941716, 0.0060503090073237365, 0.0031375111601527096, 0.004589310403539741, 0.007403391088721238, 0.004196103274085239, -0.005399292563788286, -0.0012918301972376861, 0.0018241744502418861, 0.00816533801612537, 0.02552967709686321, 0.013483855395913636, -0.0024755293333761077, -0.006296729781733508, -0.0031208736189083986, -0.0032005051753686794, -0.0015820954561379934, -0.0009544547248076077, 0.00024445355032387604, 0.0002364104006268299, -0.0002525627912463665, -1.8849573016247768e-06, 0.00014883637234458158, 0.00010766501656732285, -0.0010058410124517234, 0.00024340615113405202, -0.01356943561218841, -0.008599902495982765, -0.0019710296078640443, -0.008266764373893705, -0.005408499857144932, 0.005520977656309713, -0.019428650102994893, -0.08184326047392727, -0.039169580966800156, -0.15790010394345283, -0.21197913372395613, -0.18799560266554124, -0.23701583072170238, -0.26907684972284746, -0.04634943188595334, -0.05671431568171258, -0.04948125350949292, -0.004905925561466571, -0.003044258210354341, 0.00026671195177483255, 0.0021280282765828284, 0.001986257221176484, -1.3309338720486742e-05, -0.00011616793970304667, 0.0004901462631202682, -0.0004887100219513456, -0.0019530219758726254, -0.011893929690297686, -0.02336723369647381, 0.005538180524123066, 0.042545212396828534, 0.08264125353019476, 0.10691423660171506, 0.15354165182664123, 0.1292645431117898, 0.04149753132261813, -0.11710155734882376, -0.10312162966859595, -0.20915998949494954, -0.18852736161470748, -0.08849096343620835, -0.14635886985651597, -0.09503090494920124, -0.13588201938005842, -0.10784827463034137, -0.049984519789038256, 0.0221808892937781, 0.020124051183843188, -2.6161588928674913e-05, -0.0044085013266842955, -0.001425794988702614, 0.00025848779053955163, 0.000632226915015562, 0.00017737714209063794, -0.0030331726704823717, 0.036902434071440324, 0.09401613353452543, 0.09616811324407279, 0.05670170633192081, 0.31541812206205405, 0.33725767295086734, 0.07200604112268148, 0.050696791642997875, 0.007063400577770585, -0.1786078412879017, -0.14198172290523187, -0.1411425895210671, 0.023510003864776006, -0.05123031192516779, -0.11632670576733001, -0.15027442945737857, -0.1765113762157055, -0.10706131131772584, -0.052737924318303896, 0.0086403164754943, -0.0077048225736693335, -0.015980684572150787, -0.015267679974649045, -0.0033396584229178354, 0.00033396178401318935, 0.00019867024183925147, -0.003038606053621356, -0.010523189774255075, 0.022027470772891803, 0.07074405730858566, 0.09618337391835541, 0.2460275309282289, 0.24444149513583993, 0.22063602049086672, 0.3153856094322039, 0.11506662245149592, -0.12520579961016454, -0.41133635026732474, -0.38057580012486714, -0.0741881763512292, 0.1596446839950701, 0.18028767280770683, 0.09047025487894082, 0.10948537099178052, -0.10668637068526168, 0.03902440330391704, 0.08924741409877845, -0.026770098256431823, -0.054678394679608305, -0.050482332701056655, -0.010897900997718075, -0.01017082262460122, 0.00028115742824053264, 0.0027985262266913037, 0.0029649187062633377, -0.003615189834188975, -0.043096277273557575, 0.05302498818435537, 0.1977888144294506, 0.27171262624219233, 0.14282997589266683, 0.3948209396864669, 0.2961326365787564, 0.07560853435635584, -0.14958272437849868, -0.23979187496940543, -0.29544056142635944, -0.05205640848494796, 0.093701726518612, 0.24529281983416285, 0.007428546186869118, -0.07533012100939397, 0.09681933787472953, 0.0921498848513269, 0.22212553211175753, 0.015475474273529197, -0.08721199683371603, -0.057744853744216305, -0.008715136437395524, -0.0024353357640989307, 0.0004308097460746009, 0.004423027387334487, -0.02039189155791786, -0.0396058292054142, -0.14655903397875492, -0.02984810722433627, 0.03828223596396723, 0.10923270097912278, 0.10833537663072651, 0.3125820382686059, 0.18548373844660374, -0.08536465708395308, -0.17955664873101193, -0.15722258814382747, 0.1027112419898495, 0.2993750375101295, 0.121993060452805, 0.004575845414607979, 0.06322843699897568, -0.032577326122828106, -0.07775196426744335, -0.017146522242361507, 0.03264997398808454, 0.002069114994205667, -0.03266033991671476, -0.054773747286918174, -0.032951113406603345, -0.005624141692292574, 0.0006462718317997433, 0.002944139045822106, -0.01053526173174469, -0.04681923221820436, -0.09983397958359981, -0.021965865880636523, -0.0071173424772042835, -0.03284231462113832, 0.10441688858537149, 0.21105048612772762, -0.12479770521761076, -0.3957142679904306, -0.17274533037843312, -0.17489977289958697, 0.12296003942419473, 0.31922127151350926, 0.31055246931556496, 0.29211804967512556, 0.17408207174244159, -0.03382596596804987, -0.19530707860141153, -0.041360638261846445, -0.1370370373202642, -0.14265789878206028, -0.012842271200662468, -0.08250302216604373, -0.012867022102103136, 0.04242273326501277, -0.0006480859720717686, 0.0009261039247167634, 0.025997760628116144, -0.06274927418359744, -0.13357542105924963, -0.08704199791518608, -0.06296396058358271, -0.17840230776679347, -0.049471886785200384, 0.20351790276372134, -0.020244110579472813, -0.4489356704854102, -0.5941237507126875, -0.08600844330683867, -0.004570178584744924, 0.35797587388926455, 0.3125415149684206, 0.28483230893390743, 0.21492621495155959, 0.008417306909057584, -0.04304754616209809, -0.07689611179113666, -0.24802815371998296, -0.16385712021956, -0.03609880678916951, 0.011155114188587589, 0.0038571779741859466, 0.012499483441818142, -0.0006930996046320112, 0.0009260018089030639, 0.013083072160127603, -0.015649534605466666, -0.14457461871932037, -0.22533772372530605, -0.14221243431442696, -0.18274879507235578, -0.06657084422401206, 0.08849272031110117, -0.20871177024580143, -0.4721079788043132, -0.43340404743103733, -0.1594719476664442, 0.007552638062507665, 0.15793494545338016, 0.1297193810767654, 0.09207604444173162, -0.0855746120339332, -0.2507461271754766, -0.032399058164034523, -0.026665262038546016, -0.14860442112813121, -0.12426951972288659, -0.10866836950441239, -0.04562226024294951, -0.039174616711115426, 0.0011504725350113608, -0.00022249997788397347, 0.0008205972573186256, 0.012457764307914076, -0.01617255894627707, -0.10306187315960214, -0.23302763830449288, -0.22504185029495571, -0.22913146496523648, 0.06519348047151152, -0.08095682916749951, -0.3189587030766519, -0.45597411238175917, -0.26539126706199834, -0.08876587532571627, -0.1790033706904672, -0.013202896038140413, -0.047004366644038446, -0.09133350575925064, 0.1462034860908982, -0.2602382860122084, -0.050617819044403205, -0.03338949160768887, -0.14211219226845476, -0.06460518804703089, -0.04584313374407515, 0.012889354162040826, 0.0073948648394011555, 0.007899110775566457, -0.00012692232583777415, 0.00017613331282311412, 0.009886876107948311, -0.02325100190815666, -0.06658802201602072, -0.11348940937799135, -0.11659995429514174, -0.1544065852850216, -0.07736619012243841, -0.13042161298267568, -0.27570797922214757, -0.4222005978190977, -0.3362623683285829, -0.16689498609831613, -0.2796259201669346, -0.4510881622270162, -0.09312812801258988, 0.23130005674101917, 0.27745122884520435, -0.12826087819377688, -0.03912224654761708, -0.10073940844106154, -0.14246684517496447, -0.01780555806927391, 0.05939114623658082, 0.036916774505879824, 0.0010428708158486113, -0.0034123207723372384, -0.00037836443715907203, 0.0011570857018777675, 0.0035737851026098784, -0.02679063714148003, -0.07828246925309146, -0.08173433565445867, -0.10579250850023827, -0.0525899024138249, -0.1529336741176102, -0.208719869260062, -0.2664157014843419, -0.23469686336005205, 0.010551390960944318, 0.007570632460052341, 0.034416938459073045, -0.07694903278748604, 0.0020758998901856903, 0.2174699941119952, 0.12832841128092032, 0.21074956092043673, -0.09337218929702833, -0.1385107793288757, -0.06295470932057022, 0.006489282032810916, -0.0036882369550606, 0.016802743532207173, 0.0009802930691432744, 0.0004795055940648166, -0.0003981968029529935, -0.0005596986941748751, -0.0014540713445474853, -0.03149900883617138, -0.1331340390784266, -0.1557591634537439, -0.07540514123228491, -0.0168017965208713, -0.24466731584419063, -0.15348247801358786, -0.15490695617930625, -0.21990154448739666, -0.0034660593201248455, 0.0750529617122944, 0.22517648018178363, 0.33578176594653847, 0.014727139394324663, 0.14467337303738736, 0.011213429407320372, -0.03892026983229148, -0.07714092552711406, 0.0453070700258482, -0.03576449306229928, -0.06277241997920074, -0.09122862874924295, -0.0169812151259031, 0.007181562498953889, -0.0012120386105933135, -0.0002988642404581841, -0.00028911612969178765, -0.004559508097210002, -0.07979259390631162, -0.18466350479527913, -0.13509924748720206, 0.024604903289921844, 0.11380439377170065, 0.020638230885986642, -0.08655637844373629, -0.021727074170406327, -0.044593839484520316, 0.003050163541947199, 0.25928996715351005, 0.298177328504393, 0.28584327324003644, 0.11670894159557214, -0.09323308427773987, -0.1262657156675585, -0.05913170162901768, 0.0578826981293619, 0.06595090750818643, -0.10062206301599275, -0.0756989757920868, -0.08396884087996927, -0.018167495234691446, 0.003821162536237462, -0.0010699950338937771, 0.0004898150379013692, -0.0012015932262805591, -0.003742463139468316, -0.07078776972056346, -0.16821003486116584, -0.0821172337286573, 0.1630808517462414, 0.05889651686792736, -0.09186184478719073, 0.029740044559512197, 0.1294585357088683, 0.13924697304769496, 0.21286768718944762, 0.10178006868428068, 0.020566992760993896, -0.06238099641945101, 0.01797492360511641, -0.1309330318973758, -0.11833333482454997, -0.19994928174130583, 0.021174545499969884, -0.06506578208436142, -0.045785693351085156, 0.08064231303862524, 0.074027933030988, 0.052845442355547334, 0.027896851998698027, -0.004192149668596812, 0.000260450563023669, 1.080293985749583e-05, -0.006482341055373015, -0.027174362765034384, -0.07913445487126039, -0.12928774381477448, 0.013447981499530503, 0.09534903790645685, 0.07412949726305926, 0.12038984913026549, 0.058649971802438305, 0.03568277644958838, 0.2524997788601562, 0.13657811185657032, 0.022012471772425615, -0.2910881811846108, -0.3133387305838485, -0.06533415223751826, -0.17456953735464445, -0.18230948521332507, -0.024845529026793028, -0.025186770169644053, -0.04437792781674714, -0.0038886850666438075, 0.04166255547049181, 0.035325206602033664, 0.020039241146021788, 0.0003082818441053102, 0.0006375760956647487, 0.0005273297363188753, -0.0115395098908026, -0.036430041191800266, -0.07488321037755692, -0.15137835660909718, -0.015496220811360163, 0.029330323942193186, -0.002667765575739146, 0.24948775882781593, 0.19222848823139535, 0.26940502999649446, 0.24047422754448447, 0.24151914477331513, -0.024550305918045495, -0.24382211180852872, -0.3677397398833454, -0.2788274681931853, -0.3390015599316355, -0.18963010898993826, -0.0674895887598822, -0.08400348084164272, -0.11792713250980606, -0.03799721419734236, 0.01650813659875268, 0.008474698974344342, 0.0027339672783818604, -0.00014926755424233662, 0.00038513449960356715, 0.0032665300626585495, 0.006701830433645873, -0.020163050159713123, -0.076530159284546, -0.18262465680760587, -0.04328737791212027, 0.010217481884395967, 0.012390390016071695, 0.11222256599610475, 0.04450605475095516, 0.03287544845919925, 0.1383988221987216, 0.23105101386840582, 0.057714380563369215, -0.044578388693843236, -0.24241353912966151, -0.18714399706642362, -0.2826826231994634, -0.10092029075289789, -0.11591086240305251, -0.0538205540600507, -0.07095379756367816, 0.003640761535067625, -0.013316826574513482, 0.0009385876892290991, 0.002799804325132168, -0.0007367084296443359, -0.00028955225313007473, -0.0005316000130431507, 0.0005892418585571655, -0.03189095929187879, -0.05337971257249853, -0.043956616272823684, -0.10422096935353338, -0.22042939524541824, -0.2050612262817149, 0.06826544949293947, -0.10435307981488258, 0.07517190586677264, 0.24917252579882185, 0.15059879197260376, 0.15471017224731687, 0.1263731999506972, 0.06500749310268591, 0.006591003656309613, -0.15656462580061947, -0.07390446762141656, 0.05118893161955336, 0.06961805997684437, -0.08857493411133639, 0.03457482029275153, 0.04341578880890842, 0.01086382825180053, 0.01382542878656731, 0.00040890035852629835, -0.0004600506549193346, 6.290383513036528e-05, 0.0021962638587180714, -0.03340284917496857, 0.006807633808976488, 0.008766348770778651, 0.1394168482405649, 0.006103956683453603, -0.020872426759430553, -0.08344742381684449, -0.027225612455798763, 0.11929904782412847, 0.024974315568735233, -0.09852433683476075, 0.02081085843553026, 0.0947771212034808, 0.08387747630104797, -0.08075039729135318, -0.09559039112122776, -0.057192034367884025, -0.024863353285553953, 0.02552420859326451, 0.05842337270422074, 0.06017602745201397, -0.007457014853304072, -2.1452295535406236e-06, 0.0014106956065570743, 0.00018786324992794135, -0.0004237125919689699, -0.0002142854976239687, -0.01563544905647017, -0.09542634241547968, -0.04462723811431096, 0.030363354369456124, 0.16901502158361761, 0.04072699733003511, -0.10933586827894325, 0.045522462917564024, -0.11595788050945306, -0.0883569956586017, -0.10268669208185004, -0.010350968998976744, 0.15600593605007101, -0.010412073395131578, -0.011378224742520409, -0.31084924989263046, -0.3092228084370948, -0.1504028602198188, -0.06493335339908553, 0.006100537782705261, -0.03354023879168213, -0.05045017850059321, -0.04392573267264914, -0.007226845755091287, -0.0003724718574145235, -0.0007484500329539507, -0.0003120795425915858, -2.4439486677237062e-05, -0.010070674533883023, -0.08088270132969647, -0.015825380357044, 0.1308113689136812, -0.015498006535834757, -0.16588695725650318, -0.23159794148268084, -0.17547441145660939, -0.22394198695693357, -0.13099184259627736, -0.1669188950208921, -0.06168340797871477, 0.11082343086274962, 0.0803023540516222, -0.07562982435990799, -0.07370851290256238, -0.08226535252716524, -0.1313900963197341, -0.11305700274064084, -0.031820581719219275, -0.0695322440818379, -0.057074776820976385, -0.008075860264005707, -0.009548915714633814, 0.0002254689149508091, 0.00045423632744594493, 0.000926737013594149, 4.6545827646310125e-05, -0.002666101960179874, 0.012554356592137552, 0.10009228290360822, 0.06584062314281322, -0.10858793243663213, -0.02034366118328571, -0.029364779629373058, -0.06515582518358132, -0.1851927315408705, -0.06196799118101103, -0.1108365684273478, -0.2106475709316839, -0.12594841873819765, 0.026783503546494117, -0.022600639983214252, 0.0016524283593306638, -0.06341318203538539, -0.15035764204188473, -0.066099118080026, -0.005638758835529345, -0.02952158571806128, -0.018712309482232996, -0.0005519476359703129, -0.0001588841906320658, 0.00047066780982247126, 2.3450956695030814e-05, 0.00019962607935125913, -0.00022340809851981974, 0.00020177405311112978, -0.00047307010194120436, -0.007696131364955849, -0.029021796228915372, -0.000837365983026919, 0.04889029669741086, 0.09306831199043068, 0.0964973334447027, -0.03284215317290473, -0.10455973187083982, -0.049568018222167214, 0.01676319584938011, 0.07446238334364064, 0.024444634145535816, -0.07026257599598582, -0.0015109787356365598, -0.031125764193544837, -0.015331969863106419, -0.0035023057957957477, -0.015479383515166206, -0.011398675382552865, -0.004832290644449925, -0.0007752686160134748, 0.00031969578873900493, 0.00043112829019147455, 0.0006355016249721755, -0.00032063635382757077, 0.00011823902563076191, 0.00014307742651671816, 0.0002672404973020135, 7.724712560508054e-05, 0.0010763603733347112, -0.0002591783347078924, -0.007248084794730022, -0.00503594543652706, 0.004165453835052261, 0.0017960633059150126, -0.005633434462414512, 0.0013370483778845585, 0.008079593471183364, -0.0102669782125378, -0.006189873915015345, 0.0017553298184184085, -0.006153528805941271, -0.03292392174736118, -0.0005404983804452456, -0.0013155974064982228, -0.0005263522623287515, -0.00510432833714741, 0.0006318261740511915, -0.0004935481467445321, 0.00039101530094747363, 0.0006814818373506164, 0.00031086205280931304], [5.070058623435708e-05, 0.0005041931508120243, 3.2248071830562217e-05, 0.0005219069832305447, 0.00011509247995268946, 3.947316439661872e-05, 0.00029955849209768113, -0.00031976504838588656, 0.0006624994519007378, 8.108646953100116e-07, -0.00033181577855217754, 0.00038543803913516743, -0.0002576895739575389, 0.0001351030007718894, -0.00028312540430007493, -0.0004969810704962878, -0.0001500777643607916, -0.0004074996898133615, -0.00013177401498311208, 4.264197659049469e-05, -0.00013986300313390798, -0.00015957726032876047, 0.0010544218559617746, -5.387778184746007e-05, 0.0010262824568554125, 6.077451739749441e-06, 0.0008101024725595219, 0.00017024986850353973, -0.00019109512172588874, 0.00012001292538741804, -0.0002224988534858807, 0.00012568594526299697, -0.00018778015634862921, -0.00019059758205788803, 0.000351142130995785, -0.0004451004818114555, -0.0007457327099816362, -0.0003170584848026492, 9.778443628541776e-05, -0.00020802832474672178, -5.706482916023976e-05, -8.176714352960323e-05, 0.0002815919723310329, 8.091228904089967e-05, -0.0013312435938748132, 0.00024259462442866102, -2.9971023975350834e-05, -0.0005865998536866175, -0.0005805470903237403, -0.00020917887610241763, -0.00046292169880721336, 0.00010767904803999966, 0.00010727965355675872, 0.00025681269682695387, -0.00011099800532686948, 0.00044288891098742526, 0.00011108146105807218, -1.146736557771826e-05, 0.00012124781777143252, -7.238860724512032e-05, -0.0003044434993576718, -0.0003254699505025043, -0.00042868625433695954, -2.6926883521662877e-05, -0.00033139134426837943, -0.0013350405217801796, 0.0058339152922362745, 0.01095558322018909, 0.004324176289315831, -0.0034892904861476494, -0.012562518052178373, -0.00022675743304953, -0.002309920912896506, -0.005191309503017525, -0.008703372879906716, -0.003307308469370388, -0.005288752786598272, -0.0018282162119034743, -0.00037540973878120065, -0.0003316038092202447, 3.758471797166812e-05, 0.0005004626564229758, 7.018824654332719e-05, -0.00025241702551631384, -0.00021640357793789084, -0.0003654470888486895, -0.0008255339442324255, 0.00027021002125749604, 9.314526270682251e-05, -0.00012121696013949959, -0.0006899566514934683, 0.0002356945967814385, 0.0018971160075795263, 0.00619971374513829, -0.013149255807120792, -0.05284552346558583, -0.030229198019666143, -0.054251065637589024, -0.16003615880944708, -0.23506917246013748, -0.1460278404566562, -0.10469671792151632, -0.12708935941075156, -0.007845250366743895, 0.017735836613678096, -0.08230070181700219, -0.037203126312473786, -0.017164996150350675, -0.000713636702734315, -0.0026249832641532045, -0.005798260431530477, -0.0003096285960438685, -0.00033135514514933263, -0.00018811282062724117, 0.00031693717935245025, -0.0014269513673299298, -0.0030340296450348772, -0.0036968699495337804, -0.005126714080109291, 0.0013809823389999316, -0.02123907292991621, -0.09172733742088637, -0.10333419521833827, -0.055556898716195915, 0.0359177196396195, 0.15089293131163362, 0.009298428740899107, -0.16523221432827068, -0.12133778744933178, -0.08805971167873212, -0.12119892572954948, 0.01377380070591745, -0.03372151143784106, -0.14413448086389632, -0.04278905028627509, -0.044558480408856634, -0.04167943878381537, -0.035516159834516614, -0.013575267839563839, -0.0023411286491931828, 0.0003042077359837255, 6.877537729817845e-05, -0.0009013248750082937, -0.00020150485494619232, 0.0006976491702348675, 0.009924013140221673, -0.014468713735676916, -0.04806246964221004, -0.1355170166030883, -0.17531097483363486, -0.21157193326041288, -0.12457496029855941, 0.12833031911317813, 0.06957561805444909, -0.07403267901124373, 0.07840456230269284, -0.20722038010124566, -0.41627498115286504, -0.08448825027086045, 0.014221681405912864, -0.01236028572886902, -0.2528937888030721, -0.18392720730278833, -0.07875319671457272, -0.028373967196503435, -0.030706903853676613, -0.020113827770269342, -0.0033195344783260674, -0.0003215766242829386, -1.5322457168405925e-05, -0.002952709284730247, -0.0005001744469057063, -0.002876010172671472, -0.03923199837275243, -0.05207137722972046, -0.09356690493399585, -0.09696485991841197, -0.20101712836932117, -0.28525624561151314, -0.2282712190024627, -0.06790088998907608, -0.010459819358090032, 0.04753521589630727, -0.18449137306313926, -0.12873934964752637, 0.005830865928700477, 0.11581245346537501, -0.024076378174627534, -0.15923406262201956, -0.14471521469591256, -0.0814340080293804, -0.06674317271520397, -0.09117264226993625, -0.08184155167918052, 0.0032385760239930163, 0.0018691935539135072, 0.0003676837347603732, -0.0012537407706803567, -0.011591975308635474, -0.003370562335236069, -0.010992859215820211, -0.052434014597998825, -0.07475965500562251, -0.14411752287933688, -0.08743798383854676, -0.16539911138831265, -0.291992221535733, -0.19005729384370082, -0.06034504842300839, 0.2016089521319805, 0.1849309599091873, 0.038699609324009135, 0.35044630155165224, 0.03507275443358854, -0.07742790613696278, 0.038987393784905906, -0.03242882778756038, -0.02998040797601669, -0.10467199572491889, -0.050127795893840026, -0.06764202322993172, -0.08397251162702316, 0.0062061932029902275, -0.0006904886875344349, -5.266508513017564e-05, -0.0006989216583714129, -0.009231060106350811, -0.005793189451875854, -0.0006607752820179328, -0.007982554729506474, -0.04919371519857046, -0.11488961846666201, 0.07598358211670748, -0.06177889516991033, -0.18405350259409756, -0.17423807998023844, -0.30337649678254447, -0.02707332716115065, 0.054208392945168056, -0.10516091826796907, -0.13678272508549566, 0.1224320768441825, -0.06571455924104024, -0.07163706400015347, -0.2822566921935449, -0.09749960594903492, -0.021904717707653388, 0.05018605754580879, 0.010499869469804668, -0.06478562802126282, -0.008693113799496627, -0.002530086012389351, 0.00014881100785661236, 0.0012946005399793509, -0.005201925475398402, -0.001494786182004798, 0.008440454533874308, -0.02747093841549349, -0.11123695169949178, -0.08445804147679885, -0.0017138112419314688, -0.00013613749357888026, 0.020360041951595596, -0.022542884202602254, -0.15159809618461947, 0.05594745206702239, 0.1885301409100595, -0.011479921302264105, 0.06780725027488604, -0.25404935648968263, -0.2893120526734588, -0.11154115966864916, -0.09062971812045142, -0.03944635011590295, 0.03651305782700956, -0.06111566430651068, 0.10566904542625748, -0.03679867556546706, 0.0009421889564826635, -0.004038210888064493, 0.0003451237156493125, -0.0005422560377792854, -0.008396878843899782, -0.008432628688623092, 0.011096096865488294, -0.021561796415756194, -0.13908544939925427, 0.04888136847532373, 0.09868024646623674, -0.05024297339562086, 0.020310873893459473, -0.06493314998567365, -0.03298152040260393, 0.0541511232907671, 0.523166642837392, 0.31613682009156946, 0.048769788046924965, -0.2522550376158673, -0.2722715398654629, 0.005798530953172108, -0.14554249440535183, 0.07351715739395563, 0.04546425448745091, 0.10935139033160184, 0.17277334647236078, 0.10283720819172235, 0.018909258015902496, -0.007458548872467101, 7.158110212350356e-05, -0.000406928821194444, -0.0014363020453563456, -0.010090956509070307, 0.009961128406471736, -0.015255431697950858, -0.12476536579016866, 0.08690520896367591, 0.006364210903336799, -0.16912235022681668, 0.1412301099906656, -0.04674819638320676, -0.0581764763641646, 0.03836933052208667, 0.376027118952964, 0.2027274874197137, 0.30585846429686764, 0.06478331556765199, -0.011728279172151601, -0.16856192286908891, -0.1906061145328167, 0.055705930031883566, 0.07077873805903115, 0.11582182612919344, 0.06045924981377482, 0.042885269374900316, 0.013156014113279052, -0.005550689688411659, 0.0002360610715344075, -0.000155215002838075, -0.0026974776595050515, -0.011436151644349059, 0.02536929034122241, -0.07907563426550517, -0.07991051390366374, 0.08689605608514318, 0.10486605411630034, 0.06341236551768861, 0.1962447904741832, 0.18747620044874652, 0.2529688907118285, 0.45830641861222327, 0.4779316367911699, 0.27949322262201515, 0.5296983199296418, 0.0858770717974068, -0.026316276046646145, -0.3860297065263958, -0.2130101115634108, 0.025445304524631257, 0.030757156464467836, 0.0023319460667331733, -0.03669456739476797, 0.0005658785759442619, 0.004141856257434007, -0.0033808961973070743, -0.0002941278757565542, -0.00044214222450542626, -0.005782721561596181, -0.0007346639353922065, 0.024257721551304554, -0.1221613750973243, -0.12455694063094704, 0.02134087352332427, 0.028250218127157552, 0.11265557576125364, 0.3513557564001456, 0.10346831546938091, 0.2541993998513866, 0.38847080923213845, 0.40932863261034147, 0.1664833642318914, 0.30750984308703144, 0.30057370376307824, -0.18455008314303892, -0.4838546889023393, -0.2112267960069669, -0.00944117807983228, 0.005071142933737022, -0.06984256312145964, -0.05506958144303939, -0.009059017006125008, 0.005056032447981351, 0.00015987946294743026, 0.000122087488491246, -0.0004929663417486545, 0.00045925067213336114, 0.011259300555982031, -0.006525823369668494, -0.08063194337703151, -0.18167645397672413, -0.2698039649398132, -0.07876840892182489, 0.17401003880256635, 0.26213054095527427, 0.022706576776006876, 0.1483085560952805, 0.09651816231543593, 0.0963448833281879, 0.04934693085311426, 0.5285617762248507, 0.26999031331946144, -0.0023744538382904105, -0.4140078458275301, -0.31259343922115457, -0.09188450728024442, -0.04561380720143586, -0.03896834408301859, -0.016253055908408604, 0.011571349176553072, 0.005549600853776515, 0.0009500606450542423, 0.0002504759926225511, 0.00023681551612792846, 0.007951149577744879, -0.0015914786839091495, 0.007880385874333524, -0.020674283411699124, -0.17300917876183775, -0.3219015934247577, -0.15763391653225398, 0.14032418028942956, 0.2393061490586012, 0.2623551275055928, 0.19306412234046286, -0.032514343315056, -0.13687168547893516, 0.1355281248640766, 0.5825013260108285, 0.14452102030982641, -0.2580297925852629, -0.44601572196400474, -0.3321924260973888, -0.07376441702011749, 0.0002749175093380662, 0.016930031119535668, 0.01903713491951722, 0.015019079361627535, 0.004496984429279864, 0.0012034676077475625, 0.0003761564003173325, 0.0004152777182071968, 0.0024434642686903965, -0.0017877750996094966, 0.011141570927376283, 0.0301026507582893, -0.09676835558973267, -0.16300028156836757, -0.2191916389083744, -0.14619630731258085, -0.05125099437216061, 0.27920977868101987, 0.09214421199388047, 0.015874165797998847, 0.19507608552251773, 0.30077292672577766, 0.3519074541116796, -0.3389721725981537, -0.4728803200145214, -0.34909475153754066, -0.23782766045158535, -0.09294727851006912, -0.026481500658808946, 0.051474188321564536, 0.044208232523098974, 0.022581974602517808, 0.008734771024570364, -0.00012952624846354602, 0.0004090028665199924, 0.0010801392491397977, -0.002632364349763101, -0.004784971877939572, -0.007662830050179914, -0.001345519548109682, -0.1159913997482073, -0.22161852106767813, -0.2826487121734079, -0.29186727235683446, -0.2623833866974494, -0.14406606939482144, 0.07396459938311153, 0.19244891374043951, 0.2957920673691063, 0.02527170436897608, -0.22081846300695995, -0.6272280434753151, -0.5264217128112902, -0.30403846284725744, -0.2814821075999448, -0.2068787646161896, -0.09336287584183259, 0.01399544527053008, 0.028053154629421043, 0.0413896400628608, 0.004913320528857215, 0.0005712869549397279, -0.000420903067243237, -2.8254252589642593e-05, -0.0030782240519212807, -0.00887042879711829, -0.025291019767982714, -0.024499821797686304, -0.19120912544876706, -0.2821922486715107, -0.25630805762141023, -0.304580360539118, -0.3516009616663822, -0.32332737150628865, -0.07792162139227704, 0.17195502825639222, 0.09612259777413042, -0.2736931666891992, -0.6465972297429231, -0.5093305450427456, -0.4536034520877416, -0.32075953426016834, -0.22682473639006548, -0.18490560220004387, -0.029303700918987645, 0.07806105073779485, 0.029621627272135, 0.03687317990869514, 0.0010610471811254851, 0.0081893609737391, -0.0005608431549737233, -6.011273974688311e-05, -0.013573998417534766, -0.017970027818673535, -0.061987421687239544, -0.055453758883153334, -0.2107313389602706, -0.20266981824562158, -0.38696964798886885, -0.35637481851911457, -0.40770833054375893, -0.2620672313672737, -0.02243117759012349, -0.0041258304858445664, -0.16400098056121587, -0.40864219066034363, -0.2476332062912344, -0.4186152905474566, -0.384615491485782, -0.32009140392100366, -0.21154033007839007, -0.17896509884316156, -0.01172938415515004, 0.009022840891732964, 0.029616739506476395, 0.04353325687087313, 0.005408230122303782, 0.0031873433961182645, 0.00039587361975253763, -2.996910782317161e-05, -0.010433371871358527, -0.024931384185336795, -0.045496864706799006, -0.1029309724703055, -0.1578562294164336, -0.32388067589878056, -0.26888608820069876, -0.248016878092622, -0.23086602684636146, -0.16802175618721094, -0.16567419023037305, -0.27301152834293985, -0.2724729485493605, -0.15415701110014524, -0.1506012320035238, -0.27272782883458724, -0.22714420826264148, -0.2438976643808594, -0.11450778352393287, -0.1780774563877024, -0.027276100583890295, -0.04404163997347008, 0.03239751179302125, 0.032649921203961645, 0.0048646106206128616, 0.00016986196384158566, 0.00021479740952504283, 0.00036095459303058956, -0.004166527340520454, -0.014713655121038281, -0.029052182658418125, -0.15327357388594534, -0.2533006205182249, -0.2716165903660911, -0.08396844423713318, 0.021289272241378877, 0.12770806868760762, -0.14546791562731493, -0.12182195862559454, -0.2270529644753328, -0.23898576643067973, -0.06729413194292946, -0.19378081622706858, -0.12304549760698819, -0.014593520567130942, -0.14256082695579592, -0.02315028681553759, -0.07156816227422136, -0.1071679096282301, -0.05015896892808271, 0.011224988138082892, 0.007693672527308308, 0.0016275360771899664, 0.00047709463705390264, 0.0004953174343074873, 0.00017713004079010833, -0.0022561722526672637, -0.008632321506491267, -0.04365468863351561, -0.1469125269595546, -0.133711443928297, -0.16083395903796197, 0.08058106254961557, -0.1497395429718165, 0.06668225693944833, -0.010702466896433746, -0.11163062102234571, -0.10511308865277497, -0.03537261329750458, -0.07405742732247637, -0.0195277498403019, 0.0641503910354378, 0.13821964770215847, -0.06093382062929817, 0.0034713107777610904, 0.0028700421944245873, -0.10197998388785115, -0.02203460931825261, -0.005823566546839895, 0.001159314795239793, 0.0028236029716601956, 0.00011477591258676833, -0.00022489990126329588, -3.5870930779953424e-05, -0.001755209592142005, -0.016404216092692294, -0.07599329613761718, -0.042839559831847965, -0.05117507076763938, 0.02916839327084663, 0.21667580396471744, 0.040754898126664496, 0.17776130180040794, -0.02419885721314951, 0.14254040315806701, 0.0711863161493746, 0.051501933740426054, 0.00314806704638586, 0.07706511760526254, 0.35469078647625174, 0.25346964400559363, 0.036766121679438664, -0.0964775993182089, -0.008956481591860674, -0.016354271297924067, -0.012844520778311547, 0.0012976622000633892, 0.0038347556483530215, 0.010266239438896096, 7.013433622784685e-06, 0.0003114058730202709, -0.0005608853303034564, 0.0001968279367965759, -0.011421472718983432, 0.018066430580083687, -0.029215011754109604, 0.008856014631963905, 0.14408748145469275, 0.1877100163791911, -0.04548352768424988, 0.020079310114559382, -0.27109179359331176, -0.38575539105648876, -0.30085732145132604, -0.09558656599572547, -0.05684816884682898, 0.04454649521646086, 0.14823432850259846, 0.16056946623174936, 0.04466278630611472, -0.056992331233999646, 0.05887164770793905, -0.0011632443518165957, -0.009379338149970808, -0.005447573585006935, -0.00019440522813916558, 4.7498931678669664e-05, 3.018525860075255e-05, -6.791379560977354e-05, 0.00043614593432544344, -0.00020543614286933204, 0.0004434105369993419, 0.037589635545702944, 0.061243692674520206, -0.012045640909732973, 0.041610757448554477, 0.11214837441939296, 0.031001394957315378, -0.22090950710537574, -0.11736403684352724, -0.12533526305903803, 0.11854791131539132, 0.15356098390387665, 0.01023326014902158, -0.043292027290773076, 0.04725101821334672, 0.04040633817512278, -0.038184607796985626, 0.019653409557724648, 0.0005790716969497947, -0.012423755918406677, -0.0075869297013757345, -0.005303038519096334, 0.00011633226496668978, 0.0002645682084686958, -2.573328381938551e-05, -0.00011774196962023832, 0.0004438973343280302, 0.00046950644738267595, 0.0002898180860356051, 0.014118339994466095, 0.05332676658464232, 0.061772196853778855, 0.07861836333557631, 0.07095822405423716, 0.11227595004225172, 0.06992267480438807, 0.049627881558195926, 0.04120941641485406, -0.015260573218895672, 0.12313092077581012, 0.18500121167809633, 0.08190217239290136, 0.02334489015945691, -0.03480209139498636, -0.051888676306546776, 0.009904528273605986, 0.0026521227970597596, -0.003227290423509523, -0.0004008393901028552, -0.0005850029157155419, -0.0002910735858478948, -0.000194683825847724, -0.00017076436156446276, -0.0002681941524418347, -0.0001458259198094603, -0.0004089656869379521, -0.0002244890508450991, -0.0005822337216712802, -0.0006721917038076811, -0.0013716217737288687, -0.0023324664289567547, -0.001720315862645476, 0.0010057259723057546, 0.044307475919337425, 0.033576803901116635, 0.01926124119744309, 0.012999529005247779, 0.02101844917561211, 0.041706354797378234, 0.011796299052037293, 0.0063300982058001045, 0.024666761688392626, 5.1386478992914714e-05, 0.0003016093012007517, 0.0005202011601699385, 0.00028641300440521806, -0.00036464801752073456, -9.337786150993716e-05, 0.0002833355598177665, 0.0003182611876851477, -0.00011084751381278551], [-0.0003486051452797763, -0.0002977709651850699, -1.762588696699447e-05, 3.749965045518479e-06, 0.0006084820495729605, -3.69854546990168e-05, -0.0003648402406671401, -6.210572621258523e-05, -0.000552665514650324, -0.00017510698764346017, -0.00014043436603984797, -0.00030662421036539266, -0.0003261242375891451, -7.691921309395604e-05, 0.00039885223777280627, 0.00017864184054618466, -0.00033961443944726034, -2.9020364224595782e-05, 5.054501770120403e-05, -0.00021803886230061233, -0.0006215362806612991, 0.000181685851833774, -0.00016103672557796634, -0.0001999249229259396, 0.0004883209451466085, -0.0005081773122451422, 0.00021169227727019222, 0.0004895562406438034, -0.00024956241096703335, 0.00025322868132027964, -0.00015062426658751362, 5.8422332976633846e-05, -0.00017531023959752503, -0.00021540711764215405, -0.0003186489377695284, 0.0002648068151722435, -0.00047484064773494904, 6.322052994785614e-05, -0.000694121535948793, 0.0008861093248568844, 0.001227286631380586, 0.0010497019493865528, 0.00012382454373721676, -0.005539211041219122, -0.019350174262649934, -0.0017339951782232423, 0.0002669941858832584, 0.0014150861621269495, 0.0008859700727949834, -0.0001012745650907009, 0.0003063040182626807, 0.00016826577546236502, -0.00019888871476388204, 9.411082977992432e-05, 0.0006170256016043544, -8.262580876075097e-05, 0.0004311068008811819, 3.385866810655807e-05, 0.0003832981738721354, -0.0001948694788120179, -9.030828381592771e-05, 0.0004048159728628853, -0.000558621335085441, -4.084500572177955e-06, -0.006297807235149692, -0.019773426916309407, -0.016263629845254427, -0.01702575934169546, -0.01829891599353599, -0.01968344543658286, -0.02927217071710267, 0.02305356176427313, 0.0429956747520277, 0.015299441926587354, -0.017540285028176894, 0.09242415824900857, 0.020248088667653766, 0.00368622917668749, 0.006812642113672097, 0.0014743194478754227, -0.000354827421930141, 0.0001679588359779483, -0.0002256557702424889, 0.0004499469007356847, 5.990427439582368e-05, 0.00019862525451814486, -0.00028431838757628957, 0.00035752195608303617, -0.0003298816546989443, 0.0004011891418786509, -0.00250312074671298, -0.010846868770728723, -0.02270202652092166, -0.053954952228368255, -0.06660875415619989, -0.08718204415762676, -0.0989800091183288, -0.0680593448901355, -0.045144438560064226, 0.04200599128805117, 0.15117772126308737, 0.1412628907355492, 0.10172425118077608, 0.05760522614571695, 0.024759135347425746, -0.031167745358101885, 0.00801057442607413, 0.018014396464944384, 9.149584568599947e-06, -0.0016262607754415383, -0.0010053601889972999, 0.0004583421212100856, 9.698353934855619e-05, 9.368630957781107e-05, -0.00024391547442020674, -0.00012129535844637806, -0.0014612777841794466, -0.004286114993397541, -0.007120260462717657, -0.014705148119517165, 0.006369031548180208, -0.0025638316024861676, 0.041488058832905926, 0.029957619759372146, 0.04054033703398703, -0.004412254515694364, -0.023761777322572307, 0.18435064489791153, 0.2777651600862583, 0.19829354482611816, 0.14924438030953985, 0.23190659277586487, 0.06192153880160982, 0.06306103362596566, 0.04848338520489953, -0.0055240759183849365, -0.0530529350430253, -0.0035166954109001895, -0.0020032866590371885, -0.00014691798606554886, 0.000313694104577291, 0.00025401476581444154, -0.000619277152026891, 0.0008516726573970555, 0.05547705903713769, 0.09431835544832773, 0.050902534089778996, -0.03632683602584208, 0.06471551697590094, 0.11630674161014226, 0.10079917913399747, -0.00846719990593992, -0.21691793268872908, -0.2325782619778613, -0.08308325262911527, 0.101931922288843, 0.1433957407240522, 0.0922699785594603, 0.16880496812508325, 0.23365183875236892, 0.02396531198384463, -0.006541520364981273, 0.02285107180712011, -0.01700193239481748, -0.06261056201175712, -0.021884324169414417, -0.005615265296685383, -0.0088747800758929, -4.873733860689161e-05, -0.00017572645391581828, 0.0016187536290540338, 0.01759797125945934, 0.08343020808231927, 0.11653068160136926, 0.01988639923389415, 0.004087339165759832, 0.048780307767972826, -0.1721964344027486, -0.042058123299734455, 0.08604758766714224, 0.028892659711626894, -0.030592724961224144, -0.16251026860410947, -0.001971936150898384, 0.23313557291721912, 0.23594323579056994, 0.07235909978205683, -0.03739110467032017, -0.13046549865579107, -0.018107506964971317, 0.11829347307088167, -0.01889169702989769, -0.10207753152343808, -0.08987875251858979, -0.05842585382269092, -0.035325504172017345, 0.0007974932955086325, 0.0007717000447356189, -0.020692095515890293, 0.021546658977520096, 0.04423790172846737, 0.06985498565072201, 0.20392778754946922, 0.2145564200966064, -0.07461222492922992, 0.18586097100721374, 0.28280893878595514, -0.005693744847724874, -0.06563333797348489, -0.15742501802932, -0.19206085593027863, 0.07623568312358754, 0.2668592272215987, 0.4490520490905793, 0.30310798499221175, 0.0016527856393885128, -0.14522497124513095, -0.2199315766872301, -0.028196706373290956, -0.04237231049951887, -0.06807667517325039, -0.052699505625397, -0.05373399352116169, -0.004159826222931607, 0.0004360160541146486, 0.002047067248551691, -0.0214296627384828, -0.02193575244871189, -0.07623479591868619, 0.04488990121039771, 0.13790922671725908, 0.1395939472945608, 0.16950489644649602, 0.19277629147822212, 0.16230759176472861, -0.143622139818545, 0.16011433225173452, 0.02951356243434866, 0.2971766314761723, 0.49765237037933413, 0.42241978608228414, 0.18998302660520117, 0.32915655798005267, -0.1230251999885625, -0.17559236990774518, -0.0787759439839355, 0.09422389453595949, 0.049599487207044914, -0.04358612166064189, -0.06940600802027518, -0.04219126154453461, -0.00974610511895357, -8.487524973683375e-05, 0.0023147063182518447, -0.04455929576873372, -0.035228186353926404, 0.021256477332508947, -0.050463017942361056, 0.11787831154194808, 0.1132533281001133, 0.10419712549070174, 0.27438250783068385, 0.1331228298886809, 0.026884504391539044, 0.07135807565243565, 0.20151762962040423, 0.20668861198440963, 0.19508194085598654, 0.24288814720288796, 0.24073131920621968, 0.14402266555642454, 0.17051789737640585, 0.10707342184766619, -0.02182396880519469, 0.1664113878723979, 0.20705571932325284, 0.07605304734589093, -0.0655872351241621, -0.04131564933629943, -0.0023192335774687594, 6.13563114201288e-05, 0.00304094840750408, -0.012393961140886763, -0.03654808965007288, -0.003820622005295871, -0.08018496891138854, -0.03680006165910518, -0.07330891519981012, -0.10534588216388158, -0.07104267696190239, -0.10571348372654632, -0.06795705961284833, -0.061632429076974735, -0.10624696504651326, -0.2693915056222197, 0.0005503232460565915, 0.15412372391998355, 0.19773650375523943, -0.12002171493716803, 0.11139869472184032, 0.20998382937257914, -0.08650957258051538, 0.23123564163934085, 0.22343003307475334, 0.027561260674132903, -0.040444551244198816, -0.035759350938172486, -0.00020664841105575338, -0.00038812830508201413, 0.003228731102713127, 0.01454478579175465, -0.014108498029749115, -0.1371481704697637, -0.16406493505904785, 0.028272462947282896, -0.056949625639443294, -0.36949089674206115, 0.07688478668819324, 0.18901020506072225, -0.02664311501177047, -0.021786262449616255, -0.3728704943513151, -0.6556999617531689, -0.2394691349812474, 0.012202146090112031, 0.021194837078133032, -0.08506458486901788, 0.044714526017105106, 0.10364910868410389, -0.1121902005226246, 0.03536617815559873, 0.07942737438208389, 0.0687442256251305, -0.028554963625194763, -0.016082979349945726, -0.0006736627214741651, 0.0004396679750871137, 0.00335965412396627, 0.005908955635599167, -0.007956287494261333, -0.15853768323535772, -0.1626158673871569, 0.010191445895900441, -0.08774823212298558, -0.09375016516247547, -0.018308835526423026, 0.24664448019018875, 0.25554110720655926, 0.08305695116407648, -0.4863321552433347, -0.8983734452152417, -0.23361162142306782, 0.09832452755939172, -0.30476825640670546, -0.08953445025088154, -0.09736446335603637, -0.11260580804601204, -0.09887010452599222, -0.02011497151182237, 0.09009930791145387, 0.1262848655534756, 0.016317417992696606, -0.000947220837901873, -0.00031496197518003416, 0.0002868519080616918, 0.003123721522016039, 0.02208235941595001, 0.016596048779159253, -0.12100344275759034, -0.10395268858921887, 0.12360459979297993, 0.01237234019250303, 0.09554756684286317, 0.18487574436946755, 0.27204977686468207, 0.22173547213735872, -0.19039902622049493, -0.6664181469295236, -0.6249107106616415, -0.13367842181228123, 0.07404959184224678, -0.32187728164158347, -0.3827756328966699, -0.3642560861798392, -0.0970521084838303, -0.06410679271109515, -0.07352088874417527, 0.04170391984486985, 0.08139696809480693, 0.029709316937143508, -2.0606086961074303e-05, -0.0004261664316026817, -0.0001639283738700904, 0.00343610567265393, 0.025447353536114912, 0.002619839582312729, -0.029455968900073553, 0.24244991076223302, 0.16547278048697053, 0.26999839081227844, 0.3082662227979971, 0.22433576242808445, 0.4128383375917798, 0.17863639718527233, -0.509331496768971, -0.9014343661559776, -0.4436233151498603, 0.15210563179811934, 0.08509943542409723, -0.15946239882880636, -0.2609795166641244, -0.11817216062101529, -0.158848275636257, 0.03434037398490975, 0.05942271529370823, 0.08219061496130574, 0.06938465391858471, 0.027820739943365095, -0.0012680907383646068, -4.277169004814524e-05, 0.00019500092725446478, 0.00011330221128315535, 0.012257999969886, -0.01983618514158918, 0.023091496022674976, 0.14123364548330405, 0.11019943702015332, 0.4066965356651283, 0.07010840790362358, 0.19327171142826957, 0.21911927371729628, -0.2491228748010232, -0.6924469591343849, -0.7329508813143902, -0.4280670694527819, 0.10136099538903302, -0.05384292011654018, 0.10683461760662825, -0.1367619050521829, -0.11418870098343958, -0.1872550979968604, 0.005378132662984193, 0.09168476457862118, 0.007695927583835218, -0.04052174517631702, 0.012982060948939908, -0.005080301113710964, -0.00012259411755132353, 0.0004535865360535722, -0.00021914465491660118, 0.005123681434225145, -0.03545237011663889, 0.12517399903136425, 0.14988921334998112, 0.08497409053743546, 0.23250754276429705, -0.02141052968194336, 0.00508648427399607, 0.1289765726669645, -0.3743289098542799, -0.8573028279008867, -0.7200889243428781, -0.24271045760988155, 0.3257423042115875, -0.16242733745608115, 0.01672957289789814, -0.08076075678361512, -0.2974101743924503, -0.2102611426627093, -0.09432924834046086, -0.07374188019275126, -0.10562426780904896, -0.07063008288594443, -0.03874182379540865, -0.019271316141657228, 0.0002676133558402063, -7.265073781503328e-05, 0.00036883721932375404, -0.0006721817536221514, -0.05624119449706202, 0.1311285722651718, 0.20990126973065054, 0.013190809235780735, -0.10324072991837249, -0.09197948116691594, -0.014278207187852887, 0.1387865108150997, -0.27537374758245825, -0.7002778536140033, -0.5561038165400727, -0.10242504621888346, 0.032446831904027085, 0.009108843373545145, -0.08294832046164373, -0.08904893178345147, -0.4600984502693593, -0.1876652629736431, -0.10821446705985915, -0.04133752655122512, -0.041232758256037075, 0.025215445301039734, -0.057154069495673976, -0.01819378281349981, -0.008415429584796482, 0.00030345622693080104, -1.718440349658093e-05, 0.001569331532085717, -0.07829829468661505, 0.02558224146727571, 0.16022229630622178, 0.09938149902449887, -0.08329116342495002, -0.012240082267837713, 0.024485666617300526, -0.11979473816437228, -0.45099127519877685, -0.5247207418305009, -0.47235195146993275, -0.28153201632144614, -0.10794164941372718, -0.08588075617010082, 0.049940824600041886, 0.11576051363076588, -0.1961643334996622, 0.03792108969695868, 0.14762417515000906, 0.15095192189397214, -0.004587782809292478, 0.01964835103555875, -0.06412779869230226, -0.030064246504668397, -0.018264137243528156, 0.0008009002379742099, -0.00021580762012840532, -0.006864300692510028, -0.04443742239486339, -0.03941249662004146, 0.11332499790436848, 0.22157598257635674, 0.0780077374977006, 0.03995632925324104, 0.04380269093893199, -0.13950028004391196, -0.35776370257863316, -0.2250020340614713, -0.20462239812992852, 0.06329610900223512, -0.010549111689749303, -0.0543498363816884, 0.23585007940432798, 0.13039396493643546, -0.013498558206308122, 0.21390934736793568, 0.2766291696558959, 0.2216150251316415, 0.017258182605209997, 0.005375713401750073, -0.041295393415963486, -0.030667794007970272, -0.0014127466648217004, 5.388050258400787e-05, 0.0004701979837733956, -0.019191909859720302, -0.052588942071925625, -0.03650971362049393, -0.03034333298139569, 0.027140092716311428, 0.049416073345915086, 0.12450711683939361, 0.07751747750788573, 0.0801447473523949, -0.0763629645769414, 0.10741403188580913, 0.11950026329761063, 0.011227194299585321, -0.11481189442208586, 0.09843931059194169, 0.14341385184220778, 0.055140398695886196, 0.03492281072561187, -0.04236513811806589, 0.06292025402773087, 0.024192394630426193, -0.08245008888367064, -0.06981690323458965, -0.03147712705005107, -0.005941792169010076, -1.813402582196727e-05, 