{"layers": [784, 30, 10], "weights": [[[0.00014366731880028385, -0.00026667638643625813, -0.0005827392233367476, 0.0002162665423666653, -0.0001996289869893997, -0.0002538846730319559, 0.0005261960347282643, -0.00026700032529010517, -2.730465075173824e-05, 5.686109786951376e-05, -5.2745855822733506e-05, -0.00044751784891343144, -0.0011859727358286484, -0.0018806589858881384, -0.00013502454151966413, 0.00027872884358351804, 0.0004145126018070825, 0.0002720366761729195, 0.0010048264138056127, 0.0005609215898790981, -0.0002897306825285072, 0.0003592307033062944, -0.00020515241904353834, -0.0007254405395289569, 0.0003586456851383068, 0.00044587350645458536, 0.0006949949017825439, 0.0006395219588868318, -0.00023647829504370752, -0.0004188951387889734, -0.0003928195337054721, -0.0004984025145301489, -0.00046994322376687245, -0.0008182350432914173, -0.00284928183365881, -0.010691409301699437, -0.015563121338713527, -0.015458273390276733, -0.028053211681405947, -0.03337755331167503, -0.01989033103810807, -0.022128850815758945, -0.028821892716640707, -0.06163094559689773, -0.046751766656578334, -0.03948460176858708, -0.03489991694761821, -0.046571116887837806, -0.04277535714192251, -0.03762730383892618, -0.018517643873481992, -0.004191812407980318, -2.3490818390768643e-05, 0.00029093512402632917, 0.0009427375893893655, -0.00018427590459814237, 0.000273444522268455, 8.475332834616081e-05, 0.0013285991836452982, -0.0018896743971354853, 0.00020994498447324532, -0.0017493122061316001, -0.017499708786357364, -0.04573925180791028, -0.05063679435233587, -0.07527815943804568, -0.13972392905481318, -0.14419250314351922, -0.14379093525710443, -0.16572402860230273, -0.12987805798510813, -0.22492490663008347, -0.22316742599009567, -0.09011369067978449, -0.02724909742825578, -0.10241503602663556, -0.0714835438584945, -0.06785712443111644, -0.046172527586995804, -0.02313158005948199, 0.005205290840974461, 0.008759142424609172, -0.0003096727441329465, 0.0004044903051493937, 0.00024757238301346664, -0.0006806493109671042, 0.0007135621775041518, -0.007142129688597546, -0.0008301405244737522, 0.005498072895320917, -0.02536899195718257, -0.07920933479811962, -0.08408658352467832, 0.01749991603695322, 0.03469552037439167, -0.022442108667434294, 0.01760873845041756, -0.0413903924370718, -0.1427762523815356, -0.05411960382867558, -0.17361049233064582, -0.3400548360453699, -0.09112557825513028, -0.16956884172554673, -0.2852974157115268, 0.014885908531187457, 0.02901365220587602, 0.019095081522692424, 0.019447515870807962, 0.02561188267150472, 0.0006116447875498485, -0.00040173836285412544, -0.00033305033831012497, -0.00015483313413440177, 8.495958731254998e-05, -0.005539589256059176, -0.020735202221425195, -0.04096921432238843, -0.06826173190739399, -0.012491674190181476, -0.13988258770538017, 0.02164153269917739, 0.13935358783501947, 0.1924863990585665, 0.20663887907672795, -0.0663835828885849, 0.19896803242101851, -0.0049898593182285764, -0.08176950500129165, -0.2999212144838784, -0.04612516848220556, -0.1597105127264774, -0.027759820255450752, 0.16605158893137575, -0.0625865666704332, -0.024654137431915638, 0.10826168446857462, 0.05779947106146824, 0.0178177336670104, 0.0010263956111884178, 0.00033891688636867673, 0.0006564221934705944, 0.0008066096933344847, -0.019689713404085412, -0.10654788267200013, -0.09859141442892738, -0.07887212446498347, 0.03106285284484844, -0.11944717984452065, -0.10323281875132347, -0.22011528278604228, 0.24640101621632232, 0.009575274201621783, -0.019287033827248203, -0.024163021521542163, -0.09464343719312843, 0.021201613936349756, 0.028488956861655163, -0.13761891252147046, -0.0075758651944673955, 0.17628587429264803, 0.19682025841050252, 0.1370434957765511, -0.035344103077289815, 0.08959834434429509, 0.09519687480256427, 0.017002722723670014, 0.0001905713185511173, -0.0004388258656794478, -0.0003596883430668262, -0.0016103045976651063, -0.011652553496955022, -0.1132457083076121, -0.10447719307600967, 0.02137993865134308, 0.2111363866617766, 0.12657795419351348, 0.0015180652519177697, -0.0636576783474336, 0.17825190053583562, 0.13244697302693623, -0.1437652791962986, -0.09972663421523376, -0.10570735775332119, -0.1178598575297542, -0.008236115665467543, -0.209404416685775, 0.3245254897112022, 0.07773958065812873, -0.0782965423325628, 0.19886667530271732, 0.319870486811286, 0.3123606167084858, 0.247103910912902, 0.07470835841798322, 0.00329127434415818, -0.0008835134351266075, -0.0008499217633237869, 0.0035340474358974334, -0.016922397407162594, -0.0875237425012112, -0.11498748526000695, 0.10338454760353785, 0.21491798205251014, 0.4975196146514564, 0.25527575729671276, 0.2919202310774568, 0.13236093767990326, -0.08819518786923594, 0.09197832405628559, -0.25604174534859686, -0.5596062113422556, -0.20711374359771728, -0.4889753329717449, -0.15028752031799095, -0.07258531313491119, 0.17548087018012862, 0.15966107385576747, 0.12962560679861262, 0.3005192364392312, 0.39557594790446066, 0.24187616587762215, 0.07171999752117467, 0.004326449085479368, -0.0008084677369818561, -0.0021311372530958407, 0.010540850882242648, -0.04146654578375609, -0.10445783149173639, -0.09470640553611837, 0.0713219428025757, 0.17536968856583873, 0.24945700013378208, 0.1960617342865049, 0.13637678306897824, 0.36126510134489, 0.1344447624381482, 0.1792532373945005, -0.3037592869999447, -0.6311503799388873, -0.5613482080848284, -0.3334350985874086, 0.11194285188498973, 0.39528641186016683, 0.21369974182449739, 0.11093219073630751, 0.21376982867082417, 0.3901713116880941, 0.5348077334771495, 0.3073427005242824, 0.1038268332865662, 0.0059372816885789, -0.0002808140373247637, -0.002631939117464198, -0.011932801640674796, -0.026580465416538815, -0.09843619247679224, -0.0018429264447056503, 0.02590304435877173, 0.07473631277915452, 0.05683320239319377, 0.21400617141835326, 0.16344534288983725, 0.7506498602845895, 0.47034357296044493, -0.018338625455059605, -0.34717449592725, -0.5141017619495799, -0.14472393691324012, 0.4591912313765773, 0.3243440192529871, 0.24357845498994632, 0.16018509879694745, 0.08265966288129514, 0.20748495614060103, 0.06318975209405515, 0.39650266652765104, 0.46768883100822944, 0.14258142540967517, -0.004138712359030758, 0.000411691996220929, -0.002886969566560452, -0.016026807049217107, -0.03023209140658412, 0.11170436579978295, 0.16019174381593898, 0.14793657164615912, -0.07479843562702186, 0.03339631179870045, 0.20144378351862718, 0.4189578744900717, 0.553897532697648, 0.42102957273349073, -0.35198732661955456, -0.6481585267928556, -0.2609165747129875, 0.19429416488315268, 0.4132631492083695, 0.09926356222334456, 0.34491827230787436, 0.09192980755820945, -0.042800270686436444, -0.1940858436860681, -0.12137828735724747, 0.2446306475334698, 0.3302550552704726, 0.12351385312735796, 0.0024142037272746565, -4.655931063085571e-05, -0.0007650664777929672, -0.007416396762701578, 0.00481877834044675, 0.11481836639646868, 0.22981329348111992, 0.08101074597002236, -0.18338573587392676, -0.01777790472487614, 0.15139091971473786, 0.10159099833716048, 0.05841948700865716, -0.1044783749283705, -0.5618984201185245, -0.2251338372590359, 0.25686365111768555, 0.6149602710053509, 0.4723723683440422, 0.20324479357419195, 0.36168153661082003, -0.03280971482290961, -0.27880861209355257, -0.32688401329783856, -0.14102429545694237, 0.1781556646759009, 0.33872080480458505, 0.1680693811035482, 0.0012820087597685415, -0.0006391064195958454, -0.0025964522876621835, -0.012044442523919834, 0.013835676048228118, 0.011413482434721749, 0.018823178484452256, -0.2424404407173158, -0.055851481857108205, 0.07453218740672464, -0.3457390301408107, -0.26503458677761677, -0.500212596698134, -0.3638661846407696, -0.04176644043376684, 0.40290763696329984, 0.5086127064576678, -0.0008374216634003356, 0.11461930392067501, 0.3201183992602122, 0.5042244135539358, 0.20772772747874999, -0.08713318772507363, -0.3283846182804616, -0.5041373951728201, -0.22501661179975627, 0.22279319416324966, 0.156408564303653, 0.005680824321387911, -0.0009119558842438534, -0.00297085394751527, -0.012797823112487656, 0.0042474975241268325, -0.11185605262989944, -0.25084388368619, -0.3243222030836889, -0.13664166353293072, -0.14980262002582573, -0.45787962398424487, -0.18802098206062065, 0.11215766411921467, 0.3163644373772054, 0.4808144600774329, 0.5762595459726558, 0.3638317906609414, 0.1896735909388479, 0.37980806105413273, 0.31206016436403416, -0.02348401355213115, 0.19791523885489853, -0.17952117024152103, -0.20404743494920816, -0.5738327044231682, -0.3878814532540989, 0.1066530190871604, 0.12099444293526196, 0.06033777220808705, 0.0004834503533917123, -0.0019247202562827077, -0.005160609120657005, 0.008146811673709078, -0.023318365378146143, -0.38572336984909983, -0.4277865201317416, -0.2180008357003393, -0.4533445916728165, -0.38823297397427425, -0.04956974991913566, 0.0063977755512784305, 0.09080492494658784, 0.3852834707405155, 0.23185719632673576, 0.2710418752633602, 0.3637723838202936, 0.27311656937059614, 0.29697822841922733, -0.032729082836173706, 0.0528790849218303, -0.41877913252684285, -0.421075248620795, -0.6326756078765131, -0.268592250005768, -0.014267372947543934, 0.06961220420097576, 0.0033204089461892237, -0.0004997537811349416, -0.0014348109752657455, 0.002242112324735058, 0.08711610311431332, -0.04683360835726506, -0.3304696577514312, -0.31016002351013017, -0.5096001141012501, -0.619405560352211, -0.03478397739464037, 0.020661091007037488, 0.11965190155288177, 0.09016936130172958, 0.3642919438114342, 0.4800229707047654, 0.5520829207957578, 0.4852606369843719, 0.3399093401949777, 0.097283590136592, 0.0386285105445373, -0.17807150353873416, -0.41070878538923966, -0.6062030979202392, -0.4112870490435776, -0.26429924576865693, -0.011409000731917236, 0.07628586591356841, 0.011093589259121097, 8.833286688935457e-05, -0.0002468019669810078, 0.01091243808603506, 0.015868288614032947, -0.08594688215370389, -0.36114698063752426, -0.28265367780758216, -0.5943969497768571, -0.5943908725526046, -0.2501450930400238, 0.09754135908957455, -0.010111714488594603, 0.42581502704680685, 0.32898162105387907, 0.45223236517985227, 0.694522664624228, 0.6517475202220104, 0.30366721920960393, -0.03154097091140867, -0.3102991336865437, -0.15618450368654851, -0.15544436146958215, -0.3890198585853234, -0.31479304621157705, -0.03890108232600557, 0.12952066842113652, 0.0674955051576016, 0.00264842728249427, 0.00011511297683832947, -0.0005630449573881092, 0.023436423205996246, -0.03774458191536671, -0.16815491399281765, -0.18783680971370414, 0.1125268709974374, -0.40159004443545326, -0.4072485190685774, -0.49856655794770977, -0.5241868626550129, -0.08806034606911321, 0.2607365898751277, 0.44831005269968155, 0.3632663657381185, 0.5434172960067837, 0.09242256460305623, -0.20355209662254214, -0.24681607662426247, -0.4479132398539659, 0.059974478370529966, 0.16710846382789588, -0.4879226199418652, -0.16807049512469488, 0.18238845240688076, 0.13908071397633656, 0.04195910166968071, 0.00140088888622361, -6.562086722310516e-06, -0.00019903072968861912, 0.009016838236646963, 0.01577650927218755, 0.0368051194330158, -0.06401743279652286, 0.34835865149811096, 0.02876849746441363, -0.41196033176045144, -0.6659171492799045, -0.7911484633245633, -0.5883557737464851, -0.20947019654394386, -0.015345609420952668, 0.33828500846455095, 0.15477189705379785, -0.09551736543167996, 0.0566917887355052, -0.23809791610415273, -0.1381894645644656, 0.22844097235321453, 0.13239474743158655, -0.18130430137409453, 0.20443273722002264, 0.30769583704507353, 0.1290190136982839, 0.025064482946193914, -0.002538003236817596, -0.00034456111640758866, -0.00015144092398126783, 0.0783719296843834, 0.1761278569822318, 0.22698680259840967, 0.031809573559507975, 0.20549892620008142, 0.09452360568463006, -0.19325393260829268, -0.1335907853124563, -0.4722214375048356, -0.8493964827229663, -1.1151585993826951, -0.4319564632376437, -0.03374493898155888, 0.22443517347788897, 0.4280904192004145, 0.11594656662455918, -0.1391837171869945, -0.11521210727019436, 0.1635306749277885, 0.09727050299015508, 0.1587389415611255, 0.4315778295385996, 0.2663239012174627, 0.17305515859683415, 0.027746865977771748, -0.002939088424692684, 0.00020700035839041976, -0.0006371910379697824, 0.0837642595817973, 0.2824112098560529, 0.35779956811317254, 0.34470474906661835, 0.36754340752697895, 0.147435288835429, 0.25699260996488915, 0.01907423412556157, 0.1451887415367162, -0.23686124380892723, -0.8145482445046335, -0.7804527403805673, -0.8173126138601928, -0.1704646663973526, 0.09657057927754807, 0.13434336416184658, -0.009643110900527418, -0.00038072984294898373, -0.005824992332956102, 0.158157300737919, 0.42627966690695956, 0.5874195232202082, 0.20099897895914012, 0.07553981128978292, 0.013194721905233265, -0.00040834198724398415, 0.00015198465045234688, 0.0020741276848408596, 0.08056112644297503, 0.18406235648377856, 0.34450842741996274, 0.4769393176786072, 0.3325596359297919, 0.391957885982747, 0.5941567573285322, 0.6160622557612008, 0.1628689855039175, -0.08435720309366851, -0.6516148473159955, -0.54614830175097, -0.4299808515755968, -0.1488051685551101, 0.1855228341854034, 0.20168499137460638, 0.13103869110635943, 0.35370423612898627, 0.49068865804798706, 0.5587177144968387, 0.367707896349243, 0.2791421473310618, 0.1250257214488625, 0.04460786633477018, -0.022249207768306592, 0.0002886745883984122, -0.00014181394953751426, -0.000827505852768628, 0.03882897367928153, 0.09704395959926984, 0.2854154847134004, 0.2868602756736888, 0.2962212007815075, 0.36622369333884, 0.30641535448624213, 0.26272308143850726, 0.21618043641186313, 0.04470751671515885, -0.3450645643684516, -0.350365606328101, -0.1044537995129955, -0.16873788808128448, 0.08970154574682601, 0.22790022674401858, 0.259535639898201, 0.4032171258791228, 0.447507913986756, 0.3489312761579078, 0.1982716746164415, 0.1353031656335796, 0.09140290110943415, 0.04768545884186399, -0.0037735418781734585, -0.0005102678294205521, 3.6430253444209404e-06, 0.0007262010097967634, -0.002737194221006532, 0.0014610248333784468, 0.1317988558833566, 0.15098033965991772, 0.20721494445088715, 0.29472650050961124, 0.26954900759944767, -0.07771739002313305, -0.39434803977879634, -0.7318407669784734, -0.5274470159247686, -0.37827975796146196, -0.36168690374865003, -0.1366379094567364, 0.1814011052111369, 0.06345580539312487, 0.11594402703296332, 0.23067614211951218, 0.15178628947075282, 0.14764738766860613, 0.14375272329856553, 0.15740206567798748, 0.03343800382903956, 0.03522181122169953, -0.00038519977402937935, 0.00012945444231529839, 0.0004274470203859707, 0.00013354345828614302, -0.0028844882298585746, -0.007492351428681668, 0.006799791601987186, 0.010686078181029441, 0.06736426963376363, 0.11232385089330699, 0.1870325101527886, 0.028503031140707135, -0.27691936381934473, -0.22395105431777707, -0.20404258609989134, -0.20962085006827738, -0.34279982365595857, -0.16499995201173928, 0.07626955858451402, 0.03350068341896551, 0.2119526115594706, 0.20977080915073923, 0.06440676322949994, 0.03910592096001824, 0.025744945668176276, 0.06196948100848215, 0.04523865874412007, 3.391799087495232e-05, -0.0006541094773573447, -0.0010215676149838415, 0.00023528300649047827, 0.0004841422381640796, 0.00047327644410972644, 0.000380772251674834, -0.031088567807952987, -0.0632860248991609, -0.04256999072665051, -0.06625076051520555, -0.05053647015831512, -0.11655547405702198, -0.01214775537248926, 0.011073440422679546, -0.06069694981051019, 0.010312609258765475, 0.0381479453844472, 0.15021943407487248, 0.1496957581763136, 0.1536459874004432, 0.13495171334624495, 0.0907577476216092, 0.01937515352691284, -0.02102081362758337, -0.0021804388563196643, 0.02856767197709664, 0.013801997221757257, 0.0008357623391335653, -9.545453353965814e-05, -0.0002447878537428035, 0.0009042665706572028, -0.000994957743972606, 0.0005612217801555564, 0.0001402351459700897, -0.0012707606353296371, 0.014549654425109406, -0.005305493292933055, -0.038302309265933046, -0.0789008464952271, -0.07626486745272934, -0.0614216033127442, -0.060298534362501585, 0.029107390530937662, 0.05130877345672278, 0.02180839421903705, 0.012486541777145869, 0.026408147304019875, 0.004422618547280401, 0.0013884246044311836, -0.0034844757237244154, -0.006071950102539236, -0.01968279873582485, -0.014519243600658217, 0.0013806283698686301, 0.00047959252584134983, -0.0007037337698597913, 0.00010746694585623648, -0.0003882314010648572, -5.2714114514042275e-05, -0.0005716612848589803, -0.00010819664566466086, -0.0008672730981090405, 4.845811270562845e-05, 0.0008376705344022616, -0.001921150476034307, -0.021970410412872548, -0.0206026382677247, -0.0022070416764191744, -0.0015841432374385184, 0.0015416691411144158, -0.009997859911681343, -0.006094183142710758, -0.0048523224874240985, -0.005319828120985465, 0.0001734558200434295, -0.003017191769447088, -0.005099835301020171, -0.001881994927596844, -0.005320423154186237, -0.008317215612095035, -0.005203986590764492, 0.0003176203407776855, 0.0002809198389125852, 0.0011198856447769156, -0.0004967566319861487, -2.722014431126562e-05], [0.00037730267410188525, -0.0001548021442506665, -0.0003497436509741514, 0.00038542985190734855, -1.0143992484781685e-05, -0.0003454889566273617, 0.0013343782552534293, 4.7394142538588694e-05, -0.000869945970469562, 0.000409375944920891, 0.00016023429382862203, -8.96918491326639e-05, 0.018064467008986333, 0.04260894639635824, 0.0012439419230915111, -0.0004939368609225964, -0.0008110351369860202, 0.00026396245297153844, -0.0005674808329517265, -0.0001045884062645179, -0.0002564939419647866, -0.0009426479878063508, -0.00011482459501027915, 0.0004765571658559184, -0.000763904194681491, 0.00034333725168540405, -0.0005107172997977932, 1.0152900853582523e-05, -4.2045139143487634e-05, -4.2760191182886265e-05, 0.00022806252879016987, -0.001124768174766758, -4.62956556668226e-05, -0.00020644476139109217, 0.02009426187641514, 0.03889845674652015, 0.01856947111273672, 0.019751070235063416, 0.07151717310763257, 0.10766892934274272, 0.10655579290378828, 0.07879153633736352, 0.0028856725363340992, -0.024871081132402807, 0.06247813886686893, 0.019763170260084856, 0.01935389063677436, 0.054336896337274, 0.061004117038530044, 0.031010856996811994, 0.004871749123446556, 0.00386355322672454, -0.000373223957207849, 0.0007972495943493783, -0.0006875058104420291, 0.00024335149800319865, 0.00013004342929300177, 0.0008367060066119906, 7.294727424776807e-05, 0.0010637949599896354, 0.0016213741425058995, 0.000501434123943223, 0.020412394584976932, 0.10262222184306194, 0.11062536852711012, 0.11581266010498688, 0.3069041336775832, 0.3346850654175988, 0.27613641534791455, 0.22254287192910233, 0.16214529640994832, 0.06583252223252656, 0.19531764122474096, 0.19041234914536947, 0.10178559682160618, 0.10840246260395953, 0.07072641656780415, 0.08010768868847842, 0.03848165407686629, 0.026778101117982907, 0.01285573660879569, 0.005905107243488184, -2.732846825424753e-05, 0.00033945291310914885, 0.0004617660894173721, 0.0007798459532507715, -0.0004667144762445856, 0.006507108731281015, 0.0027365824361083864, 0.005163416679993065, 0.051925451844389, 0.19094965920024293, 0.2506469383948773, 0.24637528055928568, 0.46084140034425375, 0.461451467258513, 0.5423332898067933, 0.8104477796750122, 1.0122693980315565, 0.675152549755563, 0.7025064865059406, 0.6443480435096611, 0.2617510147997959, 0.09922923980738135, 0.14144726456338602, 0.13529844505548633, 0.05910813987713753, 0.04722608182503906, 0.05769766566038658, 0.004174576479822524, 0.010270161798680531, -0.00038981337134658746, 0.00046424393633838344, 0.0013821375656491858, -0.00041732157785845863, 0.001611921825558462, 0.011251659706887835, 0.024099800523939872, 0.10264248534791834, 0.2574914270099966, 0.1978231158027884, 0.35346373418387994, 0.6104310173889059, 0.6220600081453569, 0.593219528203878, 0.44626736881178125, 0.3535092111695551, 0.24577518772571752, -0.10639924313641877, 0.11249549372699842, 0.0488121323280787, 0.21018958395299722, 0.09925059247809302, -0.04876508921184225, -0.18932081403327938, -0.06382639792888253, 0.06543992973359064, 0.027483215062077848, 0.0069833431754988745, 0.02451296919960144, 7.133294735333414e-05, -0.0001280729573112378, 5.167886192421892e-05, 0.004415752641559634, 0.04299644125274734, 0.052055423146515276, 0.17466266950078568, 0.27426823208068785, 0.3024173334480476, 0.20857858446712502, 0.5699104443342239, 0.1492057030417479, 0.1172311803682633, 0.059287711879242186, 0.17340070647307965, 0.17536953777141231, 0.12270512944322154, 0.07686853357799588, 0.2003730575104165, 0.12707907313444153, -0.07108616091634795, 0.07009254898229628, -0.42517618706564175, -0.10494314737724415, 0.1734846983199244, 0.18518948621797607, 0.10427066934440106, 0.032973770337710026, 0.000619118322368632, 2.7186972959785015e-05, -0.007737174916858862, 0.003105324721246125, 0.04837337936981261, 0.0581157272756958, 0.13026442238948727, 0.1917584755283339, 0.19649099220186783, 0.05203197035801385, -0.32059278569896127, -0.1432241695148669, 0.07166046770400396, 0.01890765362672843, 0.2048917281380638, 0.045068033211994575, 0.13060492134187796, 0.16999636593720865, 0.21194006715236266, -0.2656459573108633, -0.15131116094214717, 0.1298100351735844, -0.09939558603807008, -0.20785291485634808, 0.013174971663899825, 0.09929454547915045, 0.05660799500576172, 0.03885097236142106, 0.000705076516630738, 0.002426422965768081, -0.0054696980667855175, -0.041114650306440945, 0.10722642375791062, 0.1306662195220082, 0.10298669087204775, -0.003913416828284126, -0.16543092799252238, -0.04906156826171675, -0.3556274746002853, -0.13764899108675616, -0.12232659242867037, -0.10170876380894982, 0.18003728316062698, -0.21523648284716876, -0.2913056007294766, -0.001224129741165002, -0.15659109053410364, -0.27758316963947616, -0.34773942451369316, -0.019812849197241737, -0.03692347489526099, -0.25442103740018224, -0.07315726691449087, 0.07341528814556202, 0.053512584190537296, 0.01657147642267832, 0.00029716781776594105, -0.0006755640306995471, -0.020280483031526606, -0.052304659237100676, 0.07970224922356259, 0.0576250333253191, 0.009696678422571119, -0.03425499409367034, -0.23350389402817529, -0.28248140740325883, -0.057635465673631515, -0.25240364424635475, -0.18522940967649895, -0.0001769306764994437, 0.08216651228557188, -0.349432271929628, -0.09004635964356351, 0.0297582178400743, -0.4177590020075953, -0.054552928883231155, -0.2705838109222778, -0.087277886843403, -0.06613786990023383, -0.33798558145685864, -0.2736872658709052, -0.0061138044438407094, -0.02158336283007178, -0.016848396839491565, -0.0011025190098434225, -0.0010610927538047214, -0.0016386279460514654, -0.07322237151951402, -0.10010777923907335, 0.08059052104098233, -0.022914255527730167, -0.1358318035050132, -0.24925466206470395, -0.39461440241194706, -0.08760051958189828, -0.46201520451260975, -0.11407617869191689, 0.1503405694013637, 0.09187656087130339, 0.05714099676852023, -0.020432646673636364, -0.3339278799962078, -0.21531638310157178, -0.32878071124103897, 0.0687109855923643, -0.16529830336194368, -0.20609226987219817, -0.23705121916085367, -0.19044575125066085, -0.09821868102739216, -0.07146566025619323, -0.0012497568293176452, 0.00025548650317325705, -0.0005992613220524197, 0.016912238356900217, 0.008754175712838931, -0.23000732812780206, -0.026679368439128225, -0.1504929217665245, -0.22250038454842383, -0.22601634929549635, -0.27920470966378647, -0.5560802915267323, -0.4622541263727001, -0.3783998162429382, -0.16446379623161225, 0.018865251099101456, 0.05014415782546139, -0.16335804105814788, 0.07934573663045771, -0.32674398010684724, -0.4366114369564154, 0.04529707535233774, -0.1662825482037362, -0.3306126090863667, -0.3271558713147799, -0.209130467408444, -0.24975205923054472, -0.11942390837036765, -0.000671795549251488, -0.00022602936291369396, -0.000990368638384365, -0.010377802028925645, 0.00656614531031135, -0.21005975211130498, -0.15215384609191163, -0.3456666759971835, -0.5263794602014068, -0.3723129688773355, -0.30641571975076337, -0.26083747836505483, 0.041106951957397254, -0.2619257276687111, -0.2688288041227207, -0.26323685901045163, -0.3475958413044428, -0.3913280586478012, -0.2054020779024629, -0.29579392061845694, -0.07192977979246558, -0.09116430609246343, -0.021668812068420893, -0.3746358012294942, -0.26495092463090314, -0.32712262231450867, -0.30277088322080264, -0.17993798918814188, 0.00025568931247020983, -0.0007013981607195496, -0.0009719384899633684, -0.005762084106662342, -0.07357171073047086, -0.18293027272479834, -0.2165379610800397, -0.3343095208067942, -0.5122585384190484, -0.17898172777962876, 0.04516944481208999, 0.03707309194426444, 0.18162934424445742, -0.04571963960054906, -0.39615635995082366, -0.2548881825899386, -0.1698878066535865, -0.3704325316151174, -0.2794524509148472, -0.38790669173787806, -0.3954527843160697, -0.23669869130224996, -0.1548685936462658, -0.21440608895540478, 0.07040633366132834, 0.05312940512216399, -0.14157387429340149, -0.1529716356177426, 0.0007199171598908695, 0.00013815188942535928, -0.0019255634999527996, -0.003952930129419946, -0.051604794743103685, -0.09645667632535387, -0.15624012994453235, -0.0799215497149839, -0.1702242571833649, -0.27295905211949545, -0.14546566030604044, 0.10017391343605353, -0.039643134867906875, 0.11039587678952852, -0.2145177020047059, -0.24561217863781773, -0.2853961413081319, -0.30072076726318764, -0.46105821500122895, -0.3361285675699452, -0.09327506436428018, -0.20487955920453813, -0.025035083920746187, 0.004703427840863988, 0.32986979936525423, 0.23034177933487285, -0.031609232729535475, -0.06515819285143243, 0.012463596322571185, 0.00010819504866908366, 0.0014373146259201307, -0.003191643494360087, -0.017173484190278678, -0.15265358802034404, -0.0038799057437974988, 0.025117579109849193, 0.05621849895858017, -0.25052327976247357, -0.2639781586347476, 0.1091267158480447, 0.3163424327481661, -0.0912544027009261, -0.25240079091247025, -0.28557990066734157, -0.2773651456610186, -0.6180669632184644, -0.6774580457902094, -0.3380742787014636, -0.12577156612403073, 0.061677554516900136, 0.35816320022215753, 0.26493003883961447, 0.4478117135859782, 0.2331663909004313, 0.07654845852100978, -0.014907104400397764, -0.000317951310407567, -0.0002454945273425163, 0.006009309825677455, 0.0032151473958003697, -0.0279714595278398, -0.0020158183452552454, 0.14081616844495118, -0.1890343723773943, 0.21181309554242023, -0.274980447212342, -0.03307504512803053, 0.27042191222848844, 0.1869805386716375, -0.3247488891645075, -0.044686701441450635, -0.19526424887342173, -0.17206169481955852, -0.2912318345974228, -0.31849471392753126, -0.057290443775859505, 0.17078403592451438, 0.4906495300240796, 0.2988306322048482, 0.2032990477731014, 0.3681464488195147, 0.3904256077846213, 0.17082080695551416, -0.03977606271625903, 0.0024685903935771645, 0.00045925778471350357, 0.004978199276263456, 0.028480250679387333, 0.021772337362513425, 0.011083746179961293, 0.15310680941248236, -0.09835613390798127, -0.07857698152115508, -0.34921995711956694, 0.04988887354220822, 0.24580561548689772, 0.13914806578769326, -0.33468069668644046, -0.2085261937065258, -0.3066618523331192, -0.3189754432410247, -0.4497187574299869, -0.1544450645110606, 0.25252169614669834, 0.6303226766882549, 0.5119765530150513, 0.18981217018490498, 0.03376161019737012, 0.13165068677719435, 0.30355717062800713, 0.20527118756040988, -0.02070632163278188, 0.011752217052635593, 0.00021620149208861214, 0.0009328141172511979, 0.031307369637013985, 0.06693721862495224, 0.0778304004647449, 0.0722464041244397, -0.26096199773255, -0.05176496688573727, -0.254877193441566, -0.35176618321838093, 0.06376986754701595, -0.19041088223452107, -0.5100391594155148, -0.7562112174644167, -0.6309559692444899, -0.4230841301122148, -0.153621742150781, 0.2147115427378416, 0.18227047504688443, 0.5172263018723252, 0.274534164681737, 0.05958594533739768, -0.027209254362387046, 0.12275743157871374, 0.09572203413039967, 0.04624969903422353, -0.079456453142338, 0.032847580198845656, 0.0013512029505880355, -1.948083467237193e-05, 0.01581269248960015, 0.09118459822694407, 0.15619331906732664, 0.08350675718010227, -0.12438840461429707, 0.13087020592970477, -0.14662761839387226, -0.3180589430382, -0.17525699398957428, -0.6321630109645222, -0.4720260784413354, -0.5817434781204996, -0.2905001736744267, 0.22725353140923307, 0.806199851815151, 0.3228515911141571, 0.22266379887158397, 0.3706338327604828, 0.03730862187800699, 0.29874791127209116, 0.5427161072431437, 0.3030136454980711, 0.22343356880387447, 0.045821975337058854, -0.05236568854207834, 0.004979149133297669, -0.0007119964828229937, 0.005461454784344024, 0.022558850964272483, 0.13063105980433526, 0.3625694033994906, 0.13768182464628756, 0.16156235632077456, 0.2986922423234428, 0.26534591504442745, 0.38154791216499484, 0.3835686138222649, 0.5111149193090883, 0.7500326298406363, 0.45947921722959006, 0.6047053755398561, 0.6193013770406772, 0.371364184798761, 0.42095626507213885, 0.2912893844606685, 0.3979549806905356, 0.8107712683542567, 0.5940619877362352, 0.8052872538025687, 0.35501140448050683, 0.13503148630289116, 0.02495255269057055, -0.005898239954751297, -0.00021847934945130897, 0.0006154431402255867, 0.01336465959256294, 0.02951997553950988, 0.2124505115183676, 0.5211258029055467, 0.3097250965740816, 0.3595439227793688, 0.6574586599656591, 0.6132074649743275, 0.8143109285791704, 0.8956996086716374, 0.8345099565164599, 1.2065026099001581, 0.9680719620420871, 0.721269838618369, 0.6171178638401226, 0.5006798511044419, 0.4612000293646188, 0.5556468174108397, 0.4520168615288408, 0.6525142500017769, 0.599885631877722, 0.6473795184851896, 0.20695101469385266, -0.04666994441671359, -0.016371475077724205, -0.006177298581013906, -0.0005484931976798423, 0.0008252531958127733, 0.001343152781525503, 0.024440803348722236, 0.22013598251627467, 0.43911807118315094, 0.3458284809256854, 0.5231360879011521, 0.6228855693436599, 0.7202726228563155, 0.8466583299111062, 0.8759717059884436, 0.6423557551459154, 0.6144164077644952, 0.5419214763850869, 0.27558590488029094, 0.044165727201929524, 0.14347024944612288, 0.2326948744452178, 0.21106664008564494, 0.2920775338943084, 0.004866978366111292, 0.0445305971604123, 0.22331344018550134, 0.10301051568558373, -0.06502705896270819, -0.006561033508639226, 0.011762966494952167, 0.00036446233196326967, 0.000257599122408254, 0.000703259038228606, 0.029948167612494372, 0.16249038432453894, 0.2090195169840494, 0.23895263131308617, 0.2099407403584147, 0.14363403819774545, 0.204631367492654, -0.0355402313569293, -0.01462609626151498, -0.15877196599099302, -0.012318729579611715, 0.22707319921138155, 0.07811195066877548, 0.28231008139014846, 0.33885432573830876, 0.20006307807272697, -0.13725206784579272, 0.2237164507051963, 0.015368335501938207, 0.02429321007989396, 0.03319541428721423, 0.06246446902182408, -0.08999791824786411, 9.575411850404251e-05, -0.006146301688674555, 0.00028176402494242686, 0.00041171027696644584, 1.7393460026650105e-05, 0.036839040223513426, 0.1460740592445014, 0.19418046564875088, 0.18740635138858133, 0.021267244076805285, -0.016167442888578316, -0.09587608527834816, -0.2708104744132993, -0.3062101852740258, -0.2759584259185212, -0.3199037613057329, -0.08206021022835622, -0.17357373707770588, 0.2105136430423901, 0.08657806386820063, 0.03535142062977944, 0.2032117293555437, -0.13499748275736198, -0.28682243378756606, 0.034062431655727275, 0.07943128295028476, 0.021436506291761564, -0.002825698452993047, 0.01312384047810062, -0.006534529791902204, -0.000418164323598747, -0.00012261630668682565, 0.0004892090564382559, 0.02691930302322275, 0.096797730387439, 0.16957050810256324, 0.14838281316490726, 0.18191238594964157, 0.14501456964799564, -0.07525473761043909, -0.0938715252011467, -0.06294130776986209, 0.026039818654158255, 0.10042112081721491, -0.10394597859314667, -0.16474548154091018, -0.0666471030550951, 0.11484041153627993, -0.0627568883250152, -0.12809900254340786, -0.4190360807522151, -0.13392077713958503, -0.07593179298140633, 0.01607493486414102, -0.019491522255897564, 0.018865833068236283, 0.01667566682985587, 1.0686752072139766e-05, 0.0003467409333869895, 0.00031885607681845563, -0.0007512357667253893, 0.0030524175179392457, 0.004009652542276298, -0.0029971815246396575, 0.05074323933378872, 0.07028505904671901, 0.10434467737511882, -0.056100994268839306, -0.20343524369318053, -0.15247816947315265, -0.15969891475625514, -0.3391179295647181, -0.2563810274420435, -0.2528423763070801, -0.3341278411608154, -0.26575805602085745, -0.3020191043640361, -0.2597446867003927, -0.12781636477458383, -0.11759990543423347, -0.16577882056833337, -0.03621078723786972, -0.012214118965783108, -0.0046266450942606925, -0.0002090910916172945, -0.00044939317339849795, 0.0005697676227328426, 0.00014336404903091924, -5.700522077778057e-05, 0.00030140439057520463, 0.00027481737769281117, 0.0006333688940478352, 0.02367036111245518, 0.01803837899082393, -0.026272871260320137, -0.08541008713028532, -0.12018070777928297, -0.047109248829557894, -0.059312135314162, -0.09826342433979578, -0.07079938352158134, -0.06500743615390098, -0.06782216741917495, -0.07453338715881619, -0.08745192861741978, -0.09946786791415653, -0.07508338794690353, -0.03566690661161103, -0.051872669093848724, -0.003959403035168971, 0.001003176562785739, -3.860556804293486e-05, 0.0005839183101733353, -0.0004564470225971717, 0.00016817081865749453, -0.0005340571384894814, 0.0003548317080410557, 0.00021640021263053173, -0.000880914323177604, -0.00038479678163454145, -0.00018353450109002305, -0.0009675802580312546, -9.089026791392271e-05, -0.0010332108698698288, -0.0010592692740471175, -0.0024305075875199846, -0.003634233791851621, -0.00265490048952097, -0.0014473417915256638, -0.0034933636619866306, -0.001779395658244513, -0.0016002096874227387, -0.0015027147874913187, -0.00045646099117709906, -0.0006777943193535344, -0.0011299216930533622, -0.00043017933269844235, -0.002186184383589758, 0.000560853371759238, -0.00047018749491387605, -3.5839081900854236e-05, 0.0009955340191848464, 0.0004621289640825771], [0.00041086257457869296, 0.00041984168592232123, -0.0009768259461563594, -8.912601660438295e-05, 0.0011345143717926014, -0.00039999071944992154, -0.00032769503630127777, 0.00029070528208212794, 0.00033504638309092365, 0.00024636787584372713, 0.00024422142819012683, -0.0004345324899543601, 0.00017549482886229642, 0.000393128185251139, 0.00037527996576538407, 0.00023122773264546602, -2.4172633218776342e-05, 0.0009206679017196386, 0.00021315643789326566, -0.0005360853015185565, 0.0006362940684163429, 1.7332222018279157e-05, -0.00010066435318040282, 6.782422453884801e-05, -0.00045360399675314136, -0.0006352701723752551, 0.0004023474202833834, -0.0004105800039680554, -0.0006116170939899956, -0.00048447601301072305, -0.0003409459585853891, 0.000351291212601369, 0.0005687853430380017, -0.00017377728284329245, -0.004616915089679214, -0.011455977526191279, -0.009850631530741982, -0.003331407701465146, -0.025913638133730595, -0.03017087328547096, -0.017011392456707825, -0.008763800457713829, -0.011006083178750441, -0.01821160959829284, -0.033736489984950414, -0.008768769092783563, -0.0037569034123747977, -0.015619585908408007, -0.024480985630163803, -0.014799381291070234, -0.018190404840732165, -0.0037973484201924827, 0.0002679240425597273, 0.0004871773024589938, 0.0008513537878639787, 1.4428189436502914e-05, -0.000288098513740155, 0.00013507217756587435, -1.675199486398756e-05, 0.00040055744154459994, -0.0003810344088049787, -0.0002909176616396086, -0.0063186770768716965, -0.014399492974133758, -0.016069543448409898, -0.018537943960357732, -0.07910235553847247, -0.07324807955212981, -0.05442702554029287, -0.08067429184113337, -0.08502587954879702, -0.06358623870137398, -0.09296106593678911, -0.0030668016971750985, -0.019788465984243574, -0.018113378032593826, -0.020474053258095343, -0.018759649559530866, -0.0230608455331991, -0.009325420436790776, -0.0004414968104909107, 6.163819558096711e-05, -0.0007863265650117763, 0.00024450263530539196, 0.00013528349357740845, 0.00025286221770025715, 0.0002812481443574447, -0.0012325466290456747, -0.0006562998180883624, 0.0015219524970913891, -0.008232340019663022, -0.034746806109836194, -0.10862262648858423, -0.059780423156897244, -0.12138353191062595, -0.13251570885270972, -0.24357043353408092, -0.3909043513149467, -0.4002023974836424, -0.5062132076175978, -0.3118500244102159, -0.13575169972753293, -0.16316763895464603, -0.14032824906046823, -0.08702765143811336, -0.04156711807607871, -0.005668589732950089, 0.007293135586170708, 0.005044947434078694, -3.917605738262408e-05, 0.0008772167853144944, 0.00037864858906265844, 0.00010877619303503192, -0.0009988880660450857, -0.0008194334802638188, 0.0005711299857604287, -0.0025549812487778503, 0.01738956737444807, 0.02576992984978705, -0.06705628062562523, -0.07349727952969656, -0.12915591541931135, -0.27354972127188865, -0.3136805644453099, -0.44315006346930425, -0.6858926264108752, -0.9368693835070562, -0.7482839643050947, -0.5804456521453757, -0.5810082341750743, -0.40057771485344945, -0.30801129093538415, -0.1439761780362315, 0.052733609140601816, 0.10223520969340585, 0.09422135191459347, -0.01697835297682392, -0.11604944152031688, -0.08187238951137817, -0.01487012318187312, 0.000586205491030594, -9.85137557646912e-06, -0.0010541610358931837, -0.007367627210082708, -0.0171831913680676, 0.04368486041726168, 0.013825368441023477, -0.10344313516721082, 0.1403211156541284, -0.03262123425458576, -0.3107531407215791, -0.1540165859528459, -0.2587491963602278, -0.47540263767174196, -0.4191424456187109, -0.24014908769683863, -0.5547366063420945, -0.5544189269191252, -0.5554371271970914, -0.6792143596649861, -0.2554039224512613, -0.17567836888474989, 0.008208635439612293, 0.13849285891397478, -0.09692794228766771, -0.12879462608557263, -0.039548034256921716, 0.0001967683042957616, -0.00020144856891666076, -0.001055486176638667, -0.0009652332004172257, -0.004130194800543131, -0.03556545168062608, 0.05906021311391509, 0.14432046432604556, 0.1316483103173127, 0.3091004554698156, 0.03328857713894313, -0.2573787625350824, 0.10970582769529523, 0.20718341714302269, -0.17257296237140468, 0.09658298003229536, -0.01404336521915557, -0.17675632439593014, 0.2724642093721277, 0.13088033166671978, -0.26905171945373985, -0.1264332767754513, 0.15585639363716552, 0.13564227149364286, -0.09608353047998115, -0.14777621342382866, -0.1342345645905896, 0.026857137256261533, 0.0013076018765397648, -0.0002758831367164041, -0.03167835161979686, 0.01293444118760689, 0.04840841304368762, -0.029291777759505148, 0.03795299825362436, 0.13093588148647156, -0.04747801568645956, -0.04722617622707204, 0.4210567003821705, 0.27711653522545715, 0.006965898976892174, 0.13051108101057848, 0.42310887594788704, -0.09296994334091506, -0.2230458927456422, 0.14166277211188444, 0.45891335022640667, -0.14714276268672488, -0.09622989210161757, -0.04902601279376217, -0.29369484976590493, -0.12373308604180178, 0.0606222054573584, 0.06783524477319597, -0.03566348731517939, 0.08492203339457828, 6.353919949746845e-05, 0.0007334642263647433, 0.009199914827668342, 0.034606117008334214, 0.003120588390547485, -0.019869921589948433, 0.1151862085014341, 0.14349845424178018, 0.0010914653226767725, 0.2985389885208295, 0.30798708622778775, -0.03372607178611733, -0.004602492284514789, -0.3961854637476145, -0.20795686132970226, 0.02484719400789676, 0.15833325762917383, -0.3521872783123267, -0.07546406554131649, 0.15829187453326835, -0.3191667826753755, -0.3375071900321797, -0.4708249173618093, -0.332813543758056, -0.19696343542030906, -0.047843635866899506, -0.10760246055441555, -0.0791568176094873, -0.005990947692822302, 0.00014731648251077966, 0.01360664106615142, -0.01931066798538912, -0.001352734078205305, 0.04164942456311249, 0.15893734280585697, 0.22200506132099831, 0.002742455969974842, 0.24048537745783582, -0.18072255659901687, -0.19992147804761956, 0.1941598840962751, 0.09330889946038945, -0.15093722224609174, 0.010455352314644329, 0.07501748538025563, -0.17016684851038794, -0.03281809587581532, 0.035804862649745556, -0.17522879605401875, -0.06815896010204249, -0.3871775195475969, -0.24047387963152253, -0.3931138119363237, -0.19087430145801212, -0.3307017974338785, -0.19357790149927184, 0.0028389427076519875, 0.0006466986350985172, 0.014242234708177138, 0.004016831672121028, -0.0013100071151679333, 0.08067042771053573, 0.052290465024769306, 0.11933988474314587, -0.09849414224192911, 0.11919148939647138, -0.10647368354387193, -0.1419616224897174, 0.03581632242772623, 0.1536991131001155, -0.29127952793654277, -0.006760514816120643, 0.43895575016881067, 0.22490973638304154, -0.11450828832759692, -0.12358285366388556, 0.02983058067225567, -0.25828131406684207, -0.3296557738626189, -0.14319459853393898, -0.36392338526039947, -0.3768775936927911, -0.28730504457770156, -0.1419636558674457, -0.018817913764718835, 0.0009361990241471875, 0.00971331409569806, 0.031326347239237155, 0.10256205570292165, 0.04054202860964345, -0.16260463304317038, -0.12936065296518434, 0.1101007954813247, 0.4107253412929872, -0.04690039125315287, 0.4238678484224491, 0.47195335625115414, 0.2093034812820829, -0.49846204782250764, -0.0775512525446439, 0.6144327839379695, 0.6488924074499078, 0.6432373002185736, 0.36538409586642556, 0.20744936654271412, -0.09772230431297817, -0.25432789923386057, -0.31716500505667905, -0.49897857404213986, -0.40560793539701173, -0.22936483104601357, -0.0670346529374552, -0.012468699154302524, 0.00015639656513915783, 0.0047822996384128975, 0.023791822183766846, 0.08732988036003646, -0.016797959575063907, -0.3943724361744887, -0.2832444696686434, 0.1252361984647058, 0.4641498498670302, -0.14125258385180503, 0.05903631845127755, 0.4510291101480228, 0.05067288338499841, -0.3761918534266963, -0.03605100550157939, 0.38102433050762036, 0.7994566656356877, 0.5008755755100139, 0.5471916259848386, 0.5090812183975245, 0.09138199739677969, -0.14462267375503865, -0.2433135463201393, -0.5379955731584206, -0.29923461672584495, -0.13773771737130053, 0.0044888603811675185, 0.006705593807297191, 0.0004601579287485213, 0.00912262322960338, 0.01439237038544873, 0.1048551864293145, 0.07511260713590773, -0.10816342059654636, -0.1448140212434393, 0.5143929090167066, 0.19054927264783464, 0.17774283420295572, 0.4431981792621907, -0.078130557486108, -0.3240456036316692, -0.7331341667747844, 0.12620218825246124, 0.4508116149661595, 0.5833253026534155, 0.5329948161386809, 0.2496735559472637, 0.2029632552990228, 0.25010801812582617, -0.010021846390777377, -0.3249939310695509, -0.3674208555522658, -0.15043453561256478, -0.08274294250983912, -0.025876979878142088, -0.03335822233055977, 0.00015662090708897474, 0.0060807220141882255, 0.01208123322864802, 0.05814675150686422, 0.11484438477353871, 0.10801963149647233, -0.010247840809041514, 0.4541885266514231, 0.4565371865485259, 0.46229910722309414, 0.265782348765606, 0.0352457791222237, -0.22124216375027553, -0.23088057848499202, 0.2242212696340567, 0.6163400430523607, 0.6862762796386648, 0.622109414343308, 0.8020589376963514, 0.5716094431905024, 0.2625908598076594, -0.1481909188082196, -0.05037722741636153, -0.1416118300353467, -0.13462885596732932, -0.060863856822096635, -0.022306647943263584, -0.0027388606799229973, 0.0002751971094119126, -7.772769623086765e-05, 0.0006616624272925189, 0.026910540105282467, 0.13107963971229686, 0.035495526461212616, -0.022133154041554616, 0.028333853923279875, 0.12817024369389352, 0.21374978004098666, 0.25652445494850573, -0.07261705587748497, -0.48933936112895643, -0.4118564242782384, 0.06636014663298836, 0.7329558303813094, 0.4078531466793594, 0.8615073664789622, 0.8064273904939327, 0.453641174812046, 0.12219278141111167, 0.1380465286735491, 0.11198338714153178, -0.04710920861857021, -0.17365602390430618, -0.10490707972758503, -0.05089023745008751, -0.004572268137295341, 0.0007935889008144467, -0.00021206803933594896, -0.011497727503058757, 0.013483094794667604, 0.08986585918453367, -0.01643753069593308, -0.1409497999399853, 0.08452905146188304, 0.315302558348499, 0.031800387185991645, 0.1800841263699477, -0.16793102521149922, -0.36494221161235535, -0.11375771592849344, 0.3272399369843982, 0.5216588150593702, 0.6460503040504837, 0.617484396890609, 0.40122635898499776, -0.025084104102304768, 0.0356969733215199, -0.09076536285147582, -0.1362274901244155, -0.13586266875219938, -0.206435687217314, -0.20411451628911986, -0.1138411528943846, -0.0014137366753601388, 0.0002346818688616868, -0.00112305542313972, -0.009688836689327131, -0.05677704917147774, -0.09558989157513904, -0.1974482394238502, -0.3549859403722295, -0.23143521474051865, 0.08166733971634767, 0.02045268166203241, 0.01853528670202028, -0.10075906669582974, -0.12804945558505051, -0.03239592494216236, 0.22191753983818313, 0.563719606135087, 0.28091726827478736, -0.03591396723063748, 0.26550351031164227, -0.598020506102594, -0.4291403242783577, -0.4494827401575477, -0.44867760166037424, -0.3491706291980782, -0.28910928363163857, -0.12199279351425549, -0.08548314901867388, -0.013834037418299047, 0.00012414538810393065, -0.0002274745673239588, -0.008026739152041858, -0.09965382245108705, -0.15650335787841907, -0.42255292465365796, -0.5087194821385899, -0.3164353358819234, -0.3096352362051661, -0.7418609966665696, -0.7678584221395065, -0.3472073762858274, -0.6384528291163037, -0.352923272402279, -0.11224545042149545, -0.2311627329079102, -0.32090372927860317, -0.3215774430336642, -0.7340942730825194, -0.9632171876038779, -0.9009646051371828, -0.6210464334192849, -0.6631922238419006, -0.5474205380630125, -0.17429149151827547, -0.031775626268948316, -0.010388046528051177, 0.0009358168170987117, -0.0004068482941518057, -0.0013180582744168768, -0.01569161468607588, -0.05585680467234366, -0.173744263753484, -0.44271244985262503, -0.5788614377457466, -0.4855081821228829, -0.6406070011814189, -1.076499714481169, -0.882316287295763, -0.773707916319253, -0.8462594412547998, -0.4968698665013818, -0.12766867011935784, -0.36493923025430675, -0.3692679924493547, -0.6153931320989601, -0.9768885951962996, -0.7482806622847965, -0.8388997670782583, -0.6512581875166022, -0.6034613458886368, -0.5195798567320035, -0.1353401424897607, 0.003792353205908021, -0.0029818529762124096, 0.0004722650133791148, 0.0008438463225360564, -0.0029932489435500515, -0.04781907741529374, -0.1573357177541856, -0.2529960031208854, -0.405068955766386, -0.6104320300804781, -0.7953742397599308, -0.6674989643592052, -0.4000337951977741, -0.42967717466273264, -0.3789092956072116, -0.4113831836311662, -0.21375821402853717, -0.38281354928359324, -0.690501278188683, -0.2965240931530118, -0.6199341925139813, -0.8713465208171957, -0.6808614131234121, -0.8412580674394617, -0.5076763818262138, -0.3007404957320697, -0.4007020937994149, -0.02717627548071856, 0.05656338769926704, -0.0017515077501296034, -0.0005121926152660589, 2.7009099388205434e-05, -0.0014917422447065058, -0.053748979624451264, -0.1634857233336812, -0.214472021810608, -0.44629324353138783, -0.7347838327049535, -0.6016155137495355, -0.34422220117747987, 0.2653677190075515, 0.01727625358870786, -0.11622253021204977, -0.19386309296869986, -0.20747188365507338, -0.6857565305589083, -0.7959296479907988, -0.4065334422978231, -0.7638490498022492, -0.6426760896442262, -0.5237536111030532, -0.5919701722328939, -0.3774386929559152, -0.27005193196526506, -0.24529551601039637, 0.02875802914616088, 0.007794423901268556, -0.014052532596226755, 2.628816276619964e-05, -0.00022747910995680724, 0.0005089652400006732, -0.03850853589425147, -0.06441855796267995, -0.20998642878571405, -0.5066538394489245, -0.428546475498356, -0.284402608664503, 0.04162291520319734, -0.053020345538776124, 0.03889114734166635, -0.3045877797177136, -0.3544200962839167, -0.20138590645460397, -0.2951439267798783, -0.3568470602982991, -0.5760756896180507, -0.44041049108140623, -0.32701112237026086, -0.31705705209858637, -0.4345651048191856, -0.4191810233340429, -0.21646329809703183, -0.11630811592989611, 0.053165865416148705, 0.016876364891469875, -0.001536021206940034, -0.0003354246325532597, -1.9029055040757115e-05, -0.0007042560310939958, -0.037754182907811136, -0.09152589752101943, -0.40183742378654264, -0.37029002082455154, -0.1630832774312326, -0.006528397390061762, 0.07820540939260227, 0.048714649878932724, -0.030329814440636017, -0.5525307682943466, -0.05624000659243756, 0.13429288482162396, 0.022823967211448516, -0.3520827574972506, -0.31871703519865574, -0.36832805698174526, -0.29806013935358766, -0.0828324508204179, -0.20170080077126862, -0.2490094436184998, -0.09476606818697599, -0.004278952607680983, 0.033597581614647, -0.007565234432194558, -0.005172357763117104, 0.0002829214856130544, 0.0011015611276380052, 0.001067668366027227, -0.012911127597780068, -0.08810640025895194, -0.18855299216681476, -0.03828841425117844, -0.023873465327961942, -0.12799950291023038, -0.005521237319383232, -0.10364239939610748, -0.17656455088161185, -0.5578367915220394, -0.5972769154540546, -0.44788967574930577, -0.4236353482466382, -0.2872300423973638, -0.23892475174851954, -0.20151118281959274, -0.09763485933798033, -0.03116812582842002, -0.04166340927497831, 0.00741074771549228, 0.05915102969772712, 0.08096247272327725, 0.010861116197965016, -0.004353214419283638, -0.0010712767637282015, -7.998369732637502e-05, -0.00024418453218415784, 0.0004178170738783075, -0.0011297120776164993, 0.004100966537162484, 0.16555187474315247, 0.22798767976810155, 0.1130826764118149, -0.09329968208208873, -0.23523956758306222, -0.270421766680423, -0.4535628058251748, -0.05907632603156255, -0.3416004336972657, -0.39738407698504363, -0.07887996080375155, -0.19412259937274018, -0.05997110211291416, -0.14046986678052623, -0.0904587537717183, -0.14635396513983503, 0.016002618510680286, 0.08311417884320671, 0.045868529013071216, 0.03365608093026334, -0.014466674535566621, 0.0005005393751068249, 0.00046284989110853417, 1.552580282132933e-05, 0.0004200190950953922, 0.0004255412274497023, -8.559774591734117e-05, 0.0010645354936680677, 0.029851600223619146, 0.08051951803967208, 0.1408781746479195, 0.13162302268160264, 0.12686633142337314, 0.22977332548022844, 0.21035541026750273, 0.04090253679933777, -0.04579337952781027, 0.0022662356198593736, 0.17901881670145708, 0.04113322734246913, -0.030544582837518104, -0.03677085884294391, -0.030958945554984085, 0.07509231064114776, 0.0841093953301741, 0.020709786014715258, 0.0009385584498143193, 0.001230288716193899, -0.0004863499565472686, 0.00010631018386102243, 0.001384579235747724, 0.0005393596673834589, -0.0006096708225713303, 0.0007282810219912261, 0.00016186456472667887, 3.2966646859848837e-05, 0.00017766977358745048, 0.00032431397109467685, 0.00045453397192851924, 0.003002369657166666, 0.007230552632684793, 0.009946891871829849, 0.01174981953568175, 0.010140293882761166, 0.021099233646336004, 0.018447881197201463, 0.014771420229859505, 0.009483329380963934, 0.014253077302043447, 0.010233036656520075, 0.020079531497192844, 0.010289498598316606, 0.005108276778282658, 0.0059061365522983834, 0.017680577430632446, 3.810939731414468e-05, 0.0007955156226056043, -0.0005258077283687436, 0.0001223252157048683, 0.00040154193327838507], [0.0004553223713926655, 0.00011002282950955233, -0.00012860194368671956, -7.237791364214674e-06, -0.0007884324507787463, 5.858616018130031e-05, 0.0008010658193474677, 2.0095230972733686e-05, -0.00035152888256228745, -0.0009449155514103799, -0.00021860093167710293, -0.0005586681528391593, 0.009672956233471166, 0.02158121912694438, 0.00018279417245721993, -0.00039111138240609483, -7.706467847053349e-05, -0.0009944892427950016, -0.00041203584834265366, 4.6023767802076105e-06, -0.000404347791444316, 0.00042923377042417915, -0.0001463589460319689, -0.00042039079288816683, 0.0004074145643588777, 8.159165085699131e-05, -0.0005231816538296916, -9.569409574679973e-05, 0.00015192615723339152, 0.0006237973689621975, -0.0005038569893245798, -0.00030323652607020625, -0.00034726615474653735, -0.0004622149293170152, 0.0004290926928356047, 0.0014909268430311237, 0.0040956914366975655, 0.004656397242803339, 0.009096546890021012, 0.0035537871066869844, 0.023368916324292034, 0.04103470229211019, 0.009226609110395152, -0.0038829315212565644, 0.007370986704930877, 0.023026251408307875, 0.03503892038200108, 0.058474989242928814, 0.04473802609816084, 0.01999569445238226, 0.012016356500483131, 0.0011264992239793184, 0.0010224989827989374, -0.00040329775007036774, -0.0006007099419432965, 0.00040107520056273827, -8.18433336232165e-05, 0.00036843721579577453, -0.00037710640012351667, -0.0006303853688081047, 0.0010207157275134028, 0.0006138087468410786, 0.009055370936466113, 0.019513598423765675, 0.020746882795202568, -0.013263219145389556, 0.08204511622321455, 0.17771571893293553, 0.14967886404203287, 0.1795264929052572, 0.1752999045585185, 0.0896383428503739, 0.0950264628807666, 0.14513777496820016, 0.2067911925826082, 0.2297495400336829, 0.22608942868503798, 0.185462803348127, 0.09631823538654567, 0.04191991303705801, 0.0016837005393749223, -0.008658252905305742, 0.0011015862605791402, 0.0002686913319775356, -0.0003129288944894626, 8.476781268952777e-05, -0.000112413047961865, -0.0012005121985500663, 0.0010744799274056288, 0.024690593891456475, 0.04796103062052813, 0.09076367214235119, 0.01388010512055941, -0.12527324369955295, -0.08105352409580871, 0.051189114803432925, -0.09866837955990967, 0.012945399029256038, 0.011003638031331886, -0.00010294346076825484, 0.1246466183964643, 0.3363627679107363, 0.54708823669712, 0.4437578824083809, 0.4524835602124435, 0.35220787541217224, 0.2647711017467173, 0.20627935765096322, 0.13105319446740182, -0.02841772238444273, -0.007499756296534958, 5.676189372549479e-05, 0.000977431106884604, 8.543292182634647e-06, -0.00022147303740097107, 0.007123421806443981, 0.030788456292676753, 0.10914488954200252, 0.13996384189050906, 0.09905555102015902, 0.002938016888107429, -0.09723381827064306, 0.004193945040636087, -0.10252761838691506, -0.2860645091371281, -0.28166016130033245, -0.046898851052210325, 0.1668684124479851, 0.3833931189597141, 0.365268844678828, 0.3918977498322466, 0.4867359360544034, 0.39092848651358264, 0.4191406776468508, 0.4142597739544474, 0.18832310031982424, 0.14295807460207655, 0.1062130177996795, 0.03561228887612456, 0.010669806640275224, 0.00043682022686236183, 4.688659610624333e-05, -0.0002564956428063899, -0.0013383339242408825, 0.02878045305444196, 0.13515471248864339, 0.15258215386314636, 0.09963374451512823, 0.058744775511462684, 0.11653367407071302, 0.14777508786188778, 0.04804092872719842, -0.004091362957633933, 0.35738157697382716, 0.3217840827088419, -0.04806706272375685, 0.5020356722826178, 0.6102192902997405, 0.5330022737197289, 0.6903540440492794, 0.47298839661615083, 0.3469871965295627, 0.17202783790619708, -0.06959757671125577, -0.023282328831132203, 0.10506149058189751, 0.013003882007215004, 0.003247991190398133, -7.438629471053321e-05, -5.024042112950889e-05, 0.0404474321687833, 0.05608745344959378, 0.08515356201578289, 0.24541797215087732, 0.2712421994406386, 0.3085125535473755, 0.3344342427171188, 0.642056418123219, 0.5679045783337116, 0.2702255899854185, 0.24472085275235117, 0.24077166013891435, -0.06471574878335684, 0.046373498348928247, -0.05319911212960203, 0.4384746484913003, 0.05979082681243139, 0.5883080838714271, 0.18235751013846754, 0.026028936564306875, 0.09716298150873542, -0.07988288141942018, -0.14558179136981048, 0.05191433096057229, -0.03260544709357335, -0.0026583918808099293, 3.408787138572793e-05, 0.00940302339541381, -0.0018587547102455447, 0.06574925095524453, 0.19319346232834342, 0.39086456519812485, 0.460170601537957, 0.6595187755722209, 0.5211510705773607, 0.5374307274060894, 0.49799822244295366, 0.04961411620917121, -0.05854942564690337, 0.03691253211751134, -0.013393101885034064, 0.2537344116711852, -0.2749245973860488, 0.19316208644028435, 0.31337422766626655, 0.3376637608990358, 0.08181480255654187, -0.029688993920186948, 0.048214276135826316, 0.0683825542911752, 0.01978507635138193, -0.03477695834828423, -0.09685255332938944, 0.0016127343751850191, -0.000995636877885202, 0.0013508176968744375, -0.016979183482099924, 0.055462392448039986, 0.24090132880736834, 0.42469401766443643, 0.37553080964774505, 0.42195042121071186, 0.29143765890185536, 0.2913405651633425, 0.2843598849119008, 0.33240373741297696, 0.13603918364143183, -0.007116007116578078, -0.1463696829499232, -0.030148557333330044, 0.30941331291470586, -0.10515357848955234, 0.18797294298586825, 0.1432410825117943, 0.11167168606960876, 0.04151701814169621, -0.26177999354400106, -0.06388631919859446, -0.010144656420750301, -0.05907464108006875, -0.03668447056537862, 0.010735279935435013, -0.0003376183650270344, 0.00041964697741077767, -0.010744323129948084, 0.04418819581174105, 0.22305784535328696, 0.44253857394045193, 0.44196046399161326, 0.24838901202174915, 0.23742810236273634, 0.12845392692653868, 0.16665421403374692, 0.05161696930166872, 0.02556640008606928, 0.0025315942605206665, -0.7814865698651665, -0.45734110439658443, 0.056555130238257714, -0.01991505858595294, -0.3866893272989776, 0.017211961730600328, 0.20498409979813348, 0.20406610041253637, 0.10359861889631239, 0.3290870587171118, 0.02651639043159108, -0.07753642380504569, -0.023511777235827147, -0.019073411129959847, 0.000505897637864356, 0.0014670569154795953, -0.028176804728073452, 0.04423121886559782, 0.1631626056703411, 0.2626160340374459, 0.04383565871608754, -0.043261970467519506, -0.06945949199061276, 0.00017194363002471152, 0.08577465759079529, 0.03654476044010487, -0.20533747900584598, -0.1545254263696202, -0.7951978707270143, -1.0147158271890164, -0.48085649813725523, -0.3421415426622973, 0.041836326534929975, 0.06996922615292168, 0.25609233911683943, 0.11252426800090849, 0.37452503920297214, 0.1860244770131429, 0.03469706788526383, -0.3022529103197734, -0.05387121556423961, 0.024911690236433828, -0.00036091289737295314, 0.0013657638231678543, -0.0002446183552494871, 0.09927818047924045, 0.20767067052050694, 0.15700238674388742, 0.015047245400073718, 0.08888541333931507, 0.16844358062820358, 0.23610923769475256, 0.02585957298460475, -0.3696332733262197, -0.23939351944811332, -0.25916976660925817, -0.6594188116093421, -0.999347763451636, -0.6282153902147181, -0.38662775835687896, -0.018977501541738644, 0.2849969439463376, 0.16307822335518557, 0.10017918586496256, 0.20018891409639783, 0.24737262688716827, 0.22284783303052136, -0.22462949040022373, 0.009980551982971854, 0.023292760002266696, 2.7145652748182216e-05, 0.0007316700847550504, -0.006607857130832868, 0.06244340047664361, 0.16212625626258434, 0.37889302212391207, 0.23645751106278784, 0.20734317700340202, 0.25606061472396896, 0.17359032827991658, 0.07365366074283444, -0.324836377402512, -0.30621763826343823, -0.34974070151783415, -0.3434316918152636, -0.529385037067312, -0.4487111611618276, -0.05469926111964602, 0.10584075072927192, 0.33955185587773523, 0.24513665307632185, 0.12210351242350384, 0.28058849644823103, 0.5652130258490004, 0.2678729471666605, -0.1904639714367552, 0.025248953326540553, -0.007486921121756284, 0.0006622291589789553, -0.0009190493290819677, 0.005297616657242207, 0.011674433732798976, 0.05514024519314961, 0.15769656267684642, 0.09985407545242712, 0.10040542351992074, 0.024315328864891655, -0.03440575519009008, -0.4102235677357792, -0.022008901315620385, 0.18310760899234368, -0.30675226768285535, -0.021524412875170307, 0.06122852897616521, -0.5200607570609853, -0.38003393517087597, 0.27253065043968866, 0.8139318019776915, 0.6393336996390433, 0.45152646032569416, 0.3557876425064264, 0.24149007971292047, -0.13902125652962014, -0.15251849485618776, -0.06259718064980327, -0.04289693690007649, -0.0006589329180006919, 0.00010514698114522632, 0.0022806225378720953, -0.02678109936005566, 0.013248834286769226, 0.10399525107930423, 0.10314984160418932, 0.12217977937064795, -0.07838479762827931, -0.3581884083649328, -0.40509965579169005, 0.07996083694335385, 0.20780831828743562, 0.01763923983004056, 0.28133198732969206, 0.18244621051639048, -0.565889909736932, -0.1439237693341125, 0.25901126767843485, 0.7613460578375761, 0.4132289789903497, 0.3165882525287648, 0.08413797636772098, -0.06820837268512435, -0.2599000314902228, -0.2997676209754366, -0.12753811385803301, -0.006956885204278981, -0.0002204195096048244, 0.0007652088115902829, -0.014763001163282254, -0.015387036106317226, -0.09017545008809877, -0.12003303233467967, 0.07912535156077281, 0.076751216000731, -0.12728033218399373, -0.26092981894727846, -0.13410346464395126, 0.09378451798953365, -0.18785188622947424, -0.1327343014163868, 0.4545590859012803, -0.16094841903155643, -0.4757405887097455, -0.036022776760823966, 0.6248586950908522, 0.5302423782980876, 0.24482915630601043, 0.04297253468262794, 0.10454124356725451, -0.07157095990848288, -0.241297882657082, -0.2275291066470212, -0.09499725879446763, -0.0005484105315900143, 0.0007176421254092929, 0.006284790292483075, -0.011477354968607495, 0.06098025749925881, -0.12881207020962293, -0.24442352274032056, 0.013935310403919628, 0.0958792683988855, -0.21354565028327235, 0.0024446816927453834, 0.07259341080757545, 0.035487998014380226, -0.07454183169439565, -0.0844010599461833, 0.07862697416382888, -0.017159569192688996, -0.2486960169915631, 0.2701812469157572, 0.8573907215227203, 0.43977861131417123, 0.10030593880356718, -0.07536422804579361, -0.12482791895315366, -0.18573062070342838, -0.1892405647445482, -0.25070276629814153, -0.13047142571843198, -0.0022232654673695084, 4.829303531043595e-05, 0.0012531037609367027, 0.011330132596501251, 0.03251311790775954, -0.12882251784927282, -0.3337612027210667, -0.27624354383176647, -0.021393115718973257, -0.08506890439344966, -0.049827696452666256, -0.05712442017027817, -0.04268370804232055, -0.4290701585570454, -0.24353856221140105, -0.32317483476685815, -0.08109149916046762, -0.05794530273437821, 0.29801662913005783, 0.4927199744142948, 0.1621675271679142, 0.034558684623221, -0.03280502679686285, -0.2559018084486919, -0.1626059068366081, -0.0798204221631054, -0.19834911944355108, -0.04682105896181014, -0.014886892065628411, 0.00023407654959053112, 0.0006702664797466355, 0.028990739507547606, -0.02922398737116261, -0.2746452293915969, -0.2016653238021889, -0.14730455071328227, 0.12654171158794997, 0.06704385106053772, -0.0714822832974959, -0.1267340323537376, 0.11468105517506635, -0.28969924975783024, -0.10628397616706016, -0.17193683570897708, 0.19436600193984702, 0.5117988564685086, 0.16468427228626023, 0.2037003647709696, 0.08276327880417633, 0.002769832739638835, -0.048777523106497016, -0.21771367491939955, -0.4594703800660152, -0.45607720375906413, -0.24441825660030245, -0.05526945104677437, -0.0402767897560221, 0.0001952669108415978, -0.001375778808148041, 0.009357520353529974, -0.040135929937576746, -0.13321322990853313, 0.046073537195403386, 0.40141437239310146, 0.11888164943976212, -0.1255264102517381, -0.051048682512810965, 0.005795133155399516, -0.23156744271924487, -0.23397056264246188, -0.2643741829975303, 0.11688925922877431, 0.16897373778631236, 0.4490661675156927, 0.24899062294166263, -0.059085560628512106, -0.07571021993085847, -0.38139144195089014, -0.3140555473487256, -0.41971081776491653, -0.5361957666530774, -0.45020831239927117, -0.21118678097033158, -0.05183343559756002, -0.017800570751135357, 0.0002232263066082602, -0.0031046153085472635, 0.02288848426934472, -0.006023086129131708, -0.1323431624654435, 0.16024886436129074, 0.2722973859532955, 0.2701814166027806, -0.0163954636878247, -0.09270594293213577, -0.12100496952765225, -0.38239545101129807, -0.023574549762671523, 0.19755485902970155, 0.32985933327648803, 0.2577841786003655, 0.43190315703735577, 0.36974731319668297, -0.052510027981847535, -0.0028672335642690333, -0.31288495884158307, -0.20067729076054228, -0.24655693283191674, -0.21313408804067463, -0.3628324153372651, -0.1566667734963597, -0.03319377774318014, 0.0001713446720087383, 2.7882695347601853e-06, -0.0003608328312933197, 0.020462343570627192, 0.010500267828528852, -0.06179213340350964, -0.010057223285874247, 0.20134451480646132, 0.3166382574379222, 0.47815114364802175, 0.018208242289613333, 0.1423498591755078, 0.5216457734590609, 0.4044207118799323, 0.453701224850593, 0.23578139137684687, 0.36487379301943423, 0.613435750916283, 0.48756580005284406, 0.24469632573995473, 0.306002689953162, -0.0762691364806326, -0.1269366533966268, -0.2504779255935884, -0.32876096123311366, -0.2808112864990313, -0.144487281462116, -0.012032848556244697, -0.0004682539427659903, 0.00036543322769627505, 0.00023303113220940068, 0.004567417138531855, -0.00238343834833259, 0.008300567067015666, -0.07238828853633829, -0.17408298244666456, 0.12690320747097836, 0.15887415085248244, 0.21584118257995716, 0.4692278052456485, 0.6067648312460882, 0.3955233290080073, 0.36911481338583796, 0.22082418529458345, 0.33064025850434453, 0.42145989391653155, 0.49175627991799603, 0.27444691414294753, 0.27570333436129585, -0.010600937228861199, -0.19824293278609034, -0.1696177635750277, -0.2771883984466408, -0.21716443756128506, -0.13606384037720304, -0.00033010059433474895, 8.250587285328284e-05, 0.0007744563129323501, -0.00038992922452051705, 0.001992543399799593, 0.05006354150194909, 0.0534643381427535, -0.11384090064541243, -0.06491117339712958, 0.0054119184816496715, -0.05609056093452816, 0.19306818303296855, 0.22597378706805735, 0.2857760494090286, 0.279576541527502, 0.5688786413663689, 0.24145836703863519, 0.2895414355040749, 0.24895741103049318, 0.33811565691731726, 0.3714317391469956, 0.3687644884031125, 0.26512383969198833, 0.1045970720128371, -0.1611566274529734, -0.19578724918466162, -0.16253241429203988, -0.06525016973571943, -0.003500491994143993, 0.0011412542361875255, -8.419076419857542e-05, -0.0009340381232548384, -0.000725706471891269, 0.04384220855424778, -0.01227058779326192, 0.019989466731408927, 0.1840842826766252, 0.06892411273175535, 0.16650928795736789, 0.3618848220279847, 0.17283087077034204, 0.4017671501267918, 0.4796922839248367, 0.5440860773256728, 0.2740656361599693, 0.2433173724175278, 0.44534434761296837, 0.2612509375279089, 0.015637227736167363, 0.0887635801746423, 0.23524701585226399, 0.08034951421663135, -0.19935028563478194, -0.17275445590735802, -0.09168707175639071, -0.02683294543012945, -0.003644190454814943, -6.634200411231472e-05, -0.0006107051379531566, 7.152068019661902e-05, -0.00019263410958150187, 0.008627916796110335, -0.07346517933125014, -0.0798150988866019, 0.11826381648702468, 0.14217676765462192, 0.06080140956828955, 0.23753892797319764, 0.3330560724413666, 0.23322680866757195, 0.3092235924814011, 0.0944850659452206, 0.070370505240929, 0.19462540223312255, -0.03816130128624032, -0.12595108399992921, -0.08427829647943333, 0.16185501847165013, 0.06517537119806184, -0.04610879464038788, -0.0719930489168546, -0.040769101278177615, -0.014243673266178675, -0.0032913939830754957, -0.0038939210261065855, 0.0004927025934072411, -8.823393759693773e-05, 2.8469173766783133e-05, -0.0003299474555855954, -0.001770139666051964, -0.037867850636383905, -0.05877434707769072, -0.03858936259088368, 0.0007620658824432844, 0.055371914453180786, 0.11705588603239724, 0.08787974108798956, 0.011332789859678524, -0.0007496898971669015, 0.1461887483130784, 0.08781751087482294, -0.08779753637253424, -0.09073679271131277, -0.02831432087557447, 0.0040197015884302165, -0.06563744709435344, -0.1704433875459869, -0.1168079250185378, -0.04540973875217061, 0.003468048111399559, -0.0006036272335952199, -0.00012787258099709132, 7.672968456128331e-05, 0.0004549842681280189, 0.0003188052990407595, -9.189607112351824e-06, 0.00037479961432058923, -0.0004241009685293887, 0.00185737753797876, 0.003786528559720553, 0.002161552213348798, -0.010502521074298393, -0.011361411963826638, -0.0037266620469764214, -0.00443279564102782, -0.0047885731338131315, 0.003304252514364724, 0.018328166724440983, -0.0014773568280383907, -0.03252602226780362, -0.005981864425396432, 0.006158766099469046, -0.0014976003905597442, -0.0019794215814187294, -0.009755922335038806, 0.016876646000306313, 0.022324580966733842, 0.0029298185981374955, 2.9489310699604084e-05, 0.0005450699265586866, 4.6518333143139754e-05, -0.0004374427718625952], [0.0005510124467199058, -4.4342582624506e-05, 0.0008885412877153285, -4.442603960518062e-05, 0.00018223433997555498, 0.0007892004960649879, 0.0005001926763965345, -0.0001804768715641505, -2.209268807788123e-05, 0.00029257184692918926, -0.0011080692520794011, 0.0007313049242854619, 0.0002584629629157865, 1.141731204384299e-05, 0.00030377030701978164, 0.0001659947348136954, 6.1784642051875906e-06, 0.0002888186758583453, -0.00019092498449510033, 0.00012468694893392904, 0.0001919565745385375, 0.00038804796396683196, -0.0005544655834892032, -0.000704120724794832, 0.0002245733150425579, -0.00028788716528738346, 0.0001271853570115446, -2.6680699460149613e-05, 0.00036182919570311765, 2.789049366454982e-05, -0.0007244281773048267, -0.0002686253093602874, -0.00021496096296258658, 0.00019955532298651494, -0.00022054825351299983, -0.000527714520776227, -0.0004235011752358429, 0.002019600055252467, 0.0036893758647271744, 0.004223646480566772, 0.0022279232647909606, 0.00045975722135874317, -0.028881519272545647, -0.05369888240460424, -0.002575535555510672, -0.004569423183783019, 0.00048265116817374924, 0.0010320055545933958, 0.0005859434097793336, 0.0015717599912805176, -0.0005902117025510552, -0.00016246719813520528, -1.1428737950259527e-05, -0.0008297342606434203, 0.0005724767052588774, -0.00012681227621600237, -0.0007916297978114855, 0.0004847647885820721, -3.7058994122119304e-05, -0.0013862815053953352, -0.00012787127764473877, -0.0004615936279237681, 0.0006110442319661006, 9.258780396819036e-05, 0.015744293731592734, 0.030970285672279548, 0.0202664560525854, 0.04778483659161392, 0.07701364561487338, 0.024559856255315256, 0.056945719816494676, -0.032659909694102575, -0.011416300543162458, -0.0005997264972453199, -0.017510226526107293, 0.04127619979938433, 0.02147625026263874, 0.012960459822715884, 0.008060089984656248, 0.0023030742591840796, -0.0058392761506603445, -0.005535495580141968, 0.00035451377990073496, 0.0006228103211231154, -0.00012903971250764174, -0.00014904508228993116, -0.0002482281658359057, -0.003496054426066701, -0.0008730793236764646, 0.004136573551690199, 0.03006778368831026, 0.07316434302413932, 0.09137864555672716, 0.0797436120436222, 0.1139411082744785, 0.18653106621050541, 0.2502840472478282, 0.3192058396097522, 0.4127950020820821, 0.35073220335403243, 0.21296771643522092, 0.2680198223125737, 0.3816333046748889, 0.3794691964719273, 0.2576769376865753, 0.15210965007981203, 0.09933415772878593, 0.013039805024605318, 0.01033645128519532, -0.023808836945922236, -0.0015303164684804308, -0.000426031805274097, 0.00028619476260526163, -0.0004937661828181224, 0.0001652889233662595, 0.0005134535237214325, 0.008348662405221138, 0.03591051917678072, 0.05882657116719102, 0.1116459007803803, 0.15933752106238855, 0.09146326234153199, 0.048011846779071186, -0.07178269072613631, -0.02843898130697738, -0.010511167183687336, 0.12595634231961042, 0.06784907872239124, -0.16089302448637777, 0.10990162936038096, 0.28884586934096373, 0.345167844340776, 0.28063935847334315, 0.2569945175443241, 0.2258446180599373, 0.05426944850525453, 0.006739923585694499, -0.056069437397160846, -0.04201779591492119, -0.0033220318794448807, -0.0007097550251697213, 0.0001799962453738235, 0.0004939790414515267, 0.0035839793921773277, 0.009765295998516688, -0.003861712291581221, 0.10393528380156856, 0.2326612628322053, 0.23307792994867402, 0.20710182885649076, 0.11919578645899014, -0.14155805149823109, -0.037405562145368804, -0.5796319536884889, -0.32444139140798106, -0.3306268391915673, 0.09817096728421447, 0.0432308240172351, 0.08884524862081575, 0.032879554349640634, 0.2576697098179814, 0.0870841431518446, 0.12487186129449664, 0.22814888038502498, 0.05852655742037172, -0.07337685760352064, 0.007590227121745822, 0.01264820561475893, 0.0004195769103166515, 0.0001742832363604701, 0.0021009519482166573, 0.005533645075478643, 0.1142387460565496, 0.32819350495900707, 0.32094368999251127, 0.32288672426509407, 0.29886354851642755, 0.09007267803964508, -0.21998815124823784, -0.3562297510853869, -0.1728405402284696, -0.24374620696427582, -0.3909757408296684, -0.41898661815350363, -0.48879406521895635, -0.6541560744273031, -0.7693205978536508, -0.44825933878589935, -0.05362331482005369, -0.17781603646168814, 0.14265374836572126, 0.46857079340949287, 0.3406895850616351, 0.07096267798309563, 0.042747555829295694, 0.009996576131483397, 0.0003800383450079335, 0.002912889058857319, 0.0041024064282603944, 0.04802831283336372, 0.16022845179430137, 0.3623774910651808, 0.033101099140846656, 0.20085022554896795, -0.057129677307482786, -0.31268575294157264, -0.3952793968062473, -0.1443313426292348, -0.37829384746124034, -0.08751860929596789, -0.048021657581549276, -0.26950060693456057, -0.5676085612525205, -0.3653076299351571, -0.647944995256772, -0.3818535288874306, -0.44964726770683755, -0.3657028822129788, 0.077997905109534, 0.32667033902283293, 0.5186978624704064, 0.365777807765398, 0.12228749642241528, -0.002137493664369363, 0.00011542167147657488, 0.004386087103976003, 0.01582485335380179, 0.07661435485611243, 0.10984661353669742, 0.03723022372737519, -0.19171660054957013, -0.18736146607630705, -0.45015910899619715, -0.3592076639924635, -0.481428998902049, -0.28436324978809957, -0.3308206254819625, -0.40620992896779673, -0.8040948214716659, -0.6530477009734074, -0.9814911525170861, -0.4549613942272164, -0.6001883265829958, -0.3043049060834309, -0.02379724469892598, -0.09040934968664867, 0.010842969422735335, 0.30836221879780257, 0.39607924416518014, 0.3878549270181843, 0.04889617073658609, -0.01176996751723678, 0.0007918260827412186, 0.004483580717081154, 0.021016706719094693, -0.07793862021911217, -0.16840005938072544, -0.26636878411957865, -0.5646982114658425, -0.5578617477275171, -0.380498515058384, -0.7635892099105112, -1.162029567836699, -0.7917869629933673, -0.7379063319269369, -1.023925956945605, -1.2392973304834665, -0.8496151791200263, -0.3050838342925989, -0.0025825162974589828, -0.06954060157057997, 0.04506084613779913, 0.06993327115019134, 0.30430049854560687, -0.009113296543466431, 0.053553148345927275, 0.0776145730748551, 0.11044440066871539, -0.000116352891512658, 0.003568153679869032, -0.0004014306034768288, 0.0037006875134017203, 0.00017886747908586357, -0.09154265585512103, -0.3890360317470512, -0.4013542680978348, -0.746478946797221, -0.4346453372512392, -0.6954910763692181, -0.6771354691163674, -0.9845449328522302, -0.8066803055012195, -0.8066125404363723, -0.7118813768372302, -0.6566267821270768, -0.10409845877897485, -0.28658138718531806, 0.34143921749513806, 0.07952293119051622, 0.05452559163387082, 0.3352012393731206, -0.03644757143163127, -0.22242096652231622, -0.4408348828955282, -0.031063913438732448, 0.07035834194738974, 0.005509446915226749, 0.0003673373505339686, 0.0006017173361087554, 0.003360036476415603, 0.007377544639030176, -0.1128748961522864, -0.4722422424014422, -0.4320966900849871, -0.5926952949019839, -0.4914560631438247, -0.3611643708346332, -0.2107575829364141, 0.03679237443729306, 0.05989347747460004, 0.2623634517711187, -0.14646787867103164, -0.2192076010197176, -0.28278221635791156, -0.1143733211444915, -0.19101812507712632, -0.5614470527519851, -0.21392216868868882, -0.24959083093621534, -0.3903733979306987, -0.4095783969690192, -0.4951709773065505, -0.3805794287299587, -0.12686189458438785, -0.020654544577099126, -0.0008576162734862691, -0.0007095791628051449, -0.0004463211655616423, 0.005180849643025842, -0.16807546230784565, -0.5930070377600751, -0.4975084828994002, -0.28731214642910824, -0.29509931638066433, 0.3945512714270759, 0.18410685541912641, 0.8141309825348332, 0.7957028442232047, 0.9355127004656574, 0.8827356280449136, 0.27811852801794573, -0.1145602219647478, 0.16323475565099552, -0.5486058887147932, -0.7061632952124854, -0.4600254804674444, -0.4684998920383735, -0.3526420540253125, -0.2977488500243961, -0.314497600818019, -0.008857343722709849, -0.04385966602280578, -0.04777300769894592, -0.0025210500345263314, -0.00027700559961281647, -0.0024577326213716727, -0.0012795845337153357, -0.0643367051369023, -0.3780300430561218, -0.004093158697139812, 0.3400445172034269, 0.376712954774758, 0.6832142552299758, 0.6593510185962304, 0.7209414728693104, 0.6279439446011347, 0.7149834492471275, 0.2601490576768893, -0.23199290917822654, 0.21024491801874332, 0.32797121762497233, -0.06093275281543067, -0.07778135341153179, 0.04986444499401419, -0.019527739262570207, 0.07241891089226693, -0.025590767428865062, 0.20805682403713363, 0.40515328239342363, 0.025647816161311957, -0.02705256732808215, -0.009129689415139605, 0.001396792721144273, -0.00035330097967871263, -0.002028615196289483, 0.04123247904709912, 0.09443642064306203, 0.5781888673840394, 0.5669229196595452, 0.6987188244595526, 0.4537589217245323, 0.6799087995309927, 0.5517636096082651, 0.7249352582063454, 0.62007421118749, -0.32686837412315684, -0.19727108188493758, 0.16505471179658343, 0.4964985645102705, 0.4568289807752836, 0.029536748629291364, 0.1201072072199632, 0.1276914402883986, 0.16257844637260874, 0.25373534062372827, 0.23421445949892192, 0.3113924076193671, 0.032343734594426896, -0.013933691829065602, -0.0020624494503489813, 0.00030344155087034353, 0.0015745239278866338, 0.02061372729789876, 0.1904861539234393, 0.3079451291663515, 0.59565631138932, 0.6895141533293746, 0.6654926024442911, 0.30427364604740903, 0.6986086685162463, 0.33468806549144775, 0.2556443836131005, 0.5933142477920886, -0.21735766532543693, 0.05349014434197411, 0.2529138824877668, 0.33521999832112015, 0.3216106845843929, 0.21246278382723607, 0.3662327467598543, 0.06257982722301283, 0.446347479468448, 0.26673717108822614, 0.2576789375224013, 0.18567476340516242, 0.03353580239152178, 0.024028854502044422, -0.0011527513800915724, 0.0002660716382736984, 0.001402430734578751, 0.02090080525778475, 0.22313771351929282, 0.3427413848573685, 0.5385362329352883, 0.4561553324872588, 0.411303290960904, 0.43863608299373275, 0.2383911029772003, 0.0309121060524619, 0.23041900274289343, 0.06747011988015246, 0.08735239046987249, 0.27759806842627754, 0.3667292073606932, 0.11658119399002115, 0.3798010106340255, 0.5468628912753773, 0.5184757424661571, 0.3106712226405511, 0.49613150203801326, 0.19044978442550167, 0.24141402818890892, 0.1272017869871211, 0.027233520545971293, -0.010360574894590498, -0.0007447794683085622, -0.0007487796999402948, 0.0007372828578693802, 0.03076563367504544, 0.23803317530117657, 0.3833425163134765, 0.288889264330018, 0.21927249649112024, 0.21972860947661124, 0.27052354017041963, 0.017585118199029214, -0.13147467345979144, 0.32743570403221217, -0.3112025277922859, 0.08278003317850374, -0.005454868708237047, -0.10938258276831958, 0.25448222707287554, 0.20632201689089655, 0.5094564821809745, 0.21798467764159116, 0.2828081910218632, 0.4834166797090797, 0.39088431542932633, 0.3162768319869458, -0.10212575798231432, -0.049518508796158496, -0.02522377638940548, -0.002511102925429156, -0.00021731572889469852, 0.001035934801437439, 0.023183776435660306, 0.2310383661378143, 0.20725728606368052, 0.16136643776825624, 0.06759343115470544, 0.029908607969459478, 0.07307229099832524, -0.09156182989233383, -0.38365294466416244, -0.22451382395630426, 0.21284858280406552, 0.22413409252178534, 0.006502167958972099, 0.08437320660593368, 0.4906922264222237, 0.1844600791154603, 0.1318282769465336, 0.10332920086497395, 0.23330670881568139, 0.5280753241477776, 0.22646083617594018, 0.07984322110346641, -0.06513456638758407, -0.016316996811691117, -0.01318530102563031, -0.00435270632035183, 0.0003518909320350048, -0.0025629316068332447, 0.029006481781234484, 0.12213962770802435, -0.03380285308059422, 0.05336469758551199, -0.1461491147818911, -0.07480219824287086, -0.19701636619088064, -0.02757510359961775, -0.04086496323783792, 0.10676545450854914, 0.1402046915936493, 0.055141244314802565, 0.07514664608765298, 0.265145461968209, 0.25742604098508076, 0.4651750538837887, 0.23463886086460256, -0.21334837855279581, 0.047838688963731855, 0.053117586473732756, -0.15441672354037314, -0.160591610925886, -0.10924120038736505, -0.04161772135138707, -0.009925642647308299, -0.000601502821574911, -0.00017635423133188766, -0.005240393847971412, 0.021009126573064092, 0.0902244303761668, -0.19118439386277605, -0.2339117693158158, -0.32163240959986855, -0.30562748572757936, -0.3621966910841512, 0.059873927125912864, 0.05053690233949283, -0.11446790172152255, -0.11071850322517163, -0.19118791872668603, 0.10970685082139409, 0.18786889033976062, 0.1686592990594216, 0.29019030478305635, 0.19009063824957287, -0.19406162114200234, -0.12393794657956016, -0.11619195992753538, -0.14398423564246124, -0.23754652557050174, -0.21658071839787424, -0.03817361418321609, 0.0005546284873673588, 0.0009943067936142933, 0.0004207594529875412, 0.0016188914011074636, 0.023261169340789232, 0.059628390715951926, -0.1749757868583354, -0.44177671539855595, -0.4548529708668997, -0.36405829507357135, -0.11852453701696936, -0.12957897599506388, -0.36411795765426447, -0.13107692993682227, -0.11703644847206292, -0.3510727134314689, -0.1651817376147183, -0.26151338757480797, 0.015817554177566532, 0.11219839395047386, 0.23493834107721911, -0.07242364153594855, -0.3011269809717243, -0.09095065997159844, -0.08133568935014451, -0.17853755994330142, -0.19850295486269595, -0.017040885218602666, -0.025608463250976068, -0.0001446652896263084, 0.00032732369096762515, 0.0007967233261134604, 0.022274422962162428, 0.05392500126511268, 0.01854692424409321, -0.19789067897884152, -0.38845222272828706, -0.21108460200505144, -0.12749609038312182, -0.18142557731334716, -0.029036285703584897, 0.15167349277340933, 0.20493431199909568, 0.16235418246993877, -0.358699554840671, -0.07050133142121504, -0.21777318809402013, -0.16226199719447656, 0.05865458388953187, 0.09719790732609428, -0.013451278878378622, -0.05798355334041068, -0.037595141858231325, -0.12465026621597673, -0.15237341347016528, 0.005316280955771424, 0.002845005014186196, 0.00024052709905153857, 0.0007061105978963861, 0.0003603007337208654, 0.0024185046205311284, 0.04552529558860269, 0.09000126659515284, 0.04574946673380825, -0.014793634177333844, -0.03619064859097064, 0.17851551629475398, 0.333385708908842, 0.30388102855296784, -0.013215959100766998, -0.1498491431461051, -0.05059013007714877, 0.12515787629119055, -0.18848566824757035, -0.30543337421072037, -0.4420741282482065, 0.04459364551959905, 0.04233072680905898, 0.062134183860506634, -0.05225624057225545, -0.12020038482491179, -0.15182045214751996, -0.140288027933142, 0.005543325628417573, 0.008537875305448488, 0.0002465460825254311, 0.00020266661702917713, 0.0003824089914298774, 0.0005777404212913461, 0.01698519210562907, -0.0285829312138776, 0.07525291982823355, 0.08967457638439351, -0.036565845513145574, -0.0986793546872304, 0.2212021244885625, 0.15635690136507058, 0.32524597826928636, 0.32807678989758804, 0.2533333911338187, 0.23796554624480296, 0.08367503579858711, 0.19594768382704447, -0.22528008591084683, -0.19211780389490518, -0.18976154685265628, -0.30149414416995113, -0.14008915673495423, 0.0018555266779903016, -0.04318202816495223, -0.023494098788958785, 0.0036613082422795474, 0.0005261224637180951, -0.0011436475228804796, 0.00038784305371662183, -0.0010468672254921494, 7.116538074275998e-05, -0.00019158000649188708, -0.009896732654406186, -0.06146331212742975, -0.18402530715634785, -0.2557953676846075, -0.29042033543156087, -0.18424930139779763, -0.2245468094912615, -0.24971566807809947, -0.19973464475040406, -0.03600475075910781, -0.119621334756054, -0.07447943094044891, -0.4894639676050107, -0.7187385480299632, -0.6449266000041073, -0.5525410944539898, -0.3325461738216073, -0.18589114183009559, -0.02176079263932345, 0.06715380329962596, 0.007799869303146291, 5.8767391522965546e-05, 0.0007013161354968551, -8.287352575057008e-05, 0.000346125589761163, -0.00024477549623969346, 0.00020540097680711973, 8.498786975294056e-05, -0.008904951956892527, -0.024695848463704644, -0.11695590665201855, -0.1564022970036244, -0.10873459209856126, -0.16355947412094685, -0.3775666300976524, -0.33189050388293234, -0.2556072763858532, -0.24120884549185195, -0.46987771592185085, -0.286941700451525, -0.3256996736130196, -0.23557858538944457, -0.29236491117713936, -0.29586804754936274, -0.3022200395309617, -0.21604500332647325, -0.06420947859853118, -0.010549258708975329, 0.0003517712226070579, -0.0005042907967811911, 0.00016850549767939046, 0.0007618244179759188, 0.001124605088130574, 0.00029999964605735736, -2.221204607669968e-05, -0.00035695734548645203, 0.00037011569901320926, 0.0001224359138393507, -0.0011466772115132607, -0.006739789120939417, -0.006730349500025007, -0.008453435407732107, -0.06523656492874548, -0.04480451887610914, -0.07065117862840466, -0.044652330088804114, -0.0629083653156519, -0.024542256390593386, -0.006545189417165518, -0.005260203717717829, -0.01937184211804941, -0.022558566652938098, -0.000789255504891353, -0.0014444192497347355, 0.0001476746059991563, -0.0005003339973993228, 5.976450879555157e-05, -0.0004174975945108679, 2.15115073242407e-05, -0.0008939670135195556], [0.0005152999241620305, -0.0010677973649645671, -7.191202371024924e-05, -0.000593439321518489, -0.0004260241028098895, 1.0752653998339462e-05, -0.00032852400029290195, 0.00016320640759444783, 0.0008547577327295128, -0.00017995779038021764, 0.00020119642234756347, -8.607917393731978e-05, 0.0013059788406943162, 0.0031059868998973557, -9.709962587352157e-05, -0.00038925038016052866, 0.0003727859492647395, -0.0007440843764757629, 0.00041736443080917277, -0.000454480537180022, 0.00013493419497061785, 0.0005155516389359655, 0.0002948847944818607, -0.0003239451954981249, -0.0008058502562064152, -5.622021969617394e-05, -4.810224281917699e-05, 0.0009458209347187848, -0.000860688884700504, 0.00039411347187910504, 0.0006149441445280854, -0.00013579674031826054, 0.0006571454394998943, 0.000541842937911359, -0.0004746666605380513, -0.00120410342181151, -0.0049327574604215935, -0.0030703633551574317, -0.006780084339108719, 0.018338758089553743, 0.047484888867817605, 0.01956749895217419, -0.0027548864159529555, 0.01746039501248925, 0.05242431539233579, 0.025305575482973564, -0.0018525879336528045, -0.0015516549926847987, -0.0015294557611971074, -0.0029731342115907403, -0.001098815804218905, -0.0007637481111197529, 8.970513507932558e-05, 0.0002876899342605452, -0.0010400000973208527, 0.00022234871749051246, 0.0007398272887557772, 6.683370809978785e-05, 0.0003146123286153895, -0.00010937336121599163, -0.00020215306858407722, -0.0004885789329088277, -0.002968120929154841, -0.007257092579021939, -0.0152337147475497, 0.013554302381982023, 0.004710913643702059, -0.013621908000831304, -0.04018782683195493, -0.016317699520830634, 0.010193426482347924, 0.04824040876231531, 0.06876130172310989, -0.015684750081938346, -0.013796436233822398, 0.06560513986908055, 0.10737028903078034, 0.06898805657464298, 0.023412836989334527, 0.01174425332489405, 0.006737288761241526, 0.00027380308197118004, 0.00039898773116563125, -7.695867414436707e-05, -4.0621742675953846e-05, -0.0006388157784642917, -0.0002028929042132825, -2.981635260240344e-05, -0.0012800324916092678, -0.013048968709172753, -0.0058419511903551186, -0.050681126260293786, -0.05530571498091718, 0.04399283050701126, 0.03131236197232292, 0.12092667414482573, -0.010923388563340517, 0.002371007692354781, 0.0578063324426022, 0.11754994644841288, 0.10552546598503353, 0.07746577672045857, 0.15528517384925183, 0.12533710351793095, 0.05114644825064154, 0.09397129350071416, 0.10249018195195722, 0.038928273298882134, 0.01479185353505117, -0.016223778439106756, -0.005113852058150221, -0.0003020434590299657, 0.000746709166212165, 0.0006651176664751383, -0.0004925318517620087, 0.0016913157763162208, -0.0011000950872187315, -0.00030449031086082426, 0.02733136487722384, -0.02919513299459069, -0.11861516704698395, -0.07853064531563143, -0.008272451148072657, 0.13069259370593478, 0.04962181906338543, 0.11250648526881865, -0.13900439260541034, -0.20174928087513583, -0.15445777026597501, 0.05342375676133245, -0.12466877167280971, 0.1019087923562851, 0.16694145871540847, 0.1405529189787096, 0.1645255084192039, 0.03282612298111083, -0.11114085205484485, -0.08400120144444093, -0.030262497786316678, 0.001612654732532571, -0.00020276033731603311, 0.0001494150383631655, -8.924038414824028e-05, -0.012562383537460675, 0.0018033372128781297, -0.08083541980622862, -0.053605515112822834, -0.13607072668111794, -0.0677633859265343, -0.08176800218114887, 0.006382206479000959, 0.019874580711939573, -0.08953353485757129, -0.0917471803326431, -0.07651261085340484, -0.106226447948503, -0.01695554742333419, -0.0028810249791294813, -0.0621930714930529, -0.3946298773114204, -0.284956540944056, -0.12761349743048128, -0.15025560796569215, -0.16413407958112924, -0.17063778863018889, -0.16600641932754603, -0.013691786958439983, 0.0009256093472138944, 0.0007204609197456253, -0.0004786110505081172, 0.000584987614826363, -0.00791767650093659, 0.047332839140107864, -0.07842117508779158, -0.10629298004758402, -0.1116391828042563, -0.12153807859592405, -0.10587015747279105, 0.025534217949285273, 0.18609933676456303, -0.28868847165517, -0.20432139660719706, -0.07457509232158083, 0.024723528881970287, 0.06312757188200387, 0.016007004105425108, 0.12375299402043378, -0.06317172392504615, -0.17633105323027704, -0.019669922517627256, -0.18401351633275595, -0.36545378385985916, -0.619829202429124, -0.38930147983955893, -0.07438171150388262, -0.021260526753621067, -0.0008172191291181926, -0.000854123376757358, 0.0067429174305215734, -0.000752938362006018, 0.09913192765495445, 0.07187355900041921, 0.10589177055215422, -0.17044104650599962, -0.38913989531532295, -0.10358202660237195, -0.14004089746377035, 0.16857375733230529, 0.010676219192630544, 0.06915251496637763, 0.18504324679309872, -0.13988621279164837, 0.026808265917804015, -0.02122419244628601, 0.058967850097869666, -0.19431178193387924, -0.10250021561113618, -0.09913726551512828, -0.0902516485682895, -0.31242070397113764, -0.3933385800814696, -0.3451104295667476, -0.16131898708902348, -0.0030748995887488325, 0.00014374896832237464, 7.006138416406178e-06, 0.005246046130963692, -0.047067344144131155, -0.006190290497574811, -0.13465610334516045, -0.12300938982871049, -0.35460663482025456, -0.28369726319431104, -0.1598506941836687, -0.33140252364602524, -0.12008350686964611, -0.351559934677621, -0.22736734199275374, 0.04243639369649364, -0.0193582882881356, 0.044351019465518594, 0.07696459282315395, -0.058913718788673054, -0.16997485566235776, 0.006233301267398539, -0.007050093771870587, -0.316074469784366, -0.23313966903485656, -0.3334558393656517, -0.3867925500980619, -0.12883843105444104, -0.003937039551897574, 0.0013025284728865483, -0.00010064637321362263, -0.006024823490130773, -0.10549240131739983, -0.04498983623027518, -0.14553451429892483, -0.01537100792066728, -0.3739797967201583, -0.23035736894569392, -0.1041468550758826, 0.04091492091700185, -0.40708790159981384, -0.33116703284856946, 0.12892733647234755, -0.26515696982438075, -0.4733251632857191, -0.3916331473502826, -0.20071674804726528, 0.14711824149165362, 0.39405762831552404, 0.13669999673294414, -0.13326527855031758, -0.5856582153668805, -0.03544827886365758, -0.24042729110492783, -0.5764431477301283, -0.16414780797402184, -0.01329157773032648, 0.00014972141682283147, 4.801634079323716e-05, -0.0026034765467012866, -0.10351536528764259, -0.10492583062962096, 0.10539407225472008, 0.0017853591889499714, -0.20781249813880998, -0.31940472107231305, -0.11497188118030859, -0.09419438287755869, 0.006793038598833316, -0.1607324795652435, -0.34838855192965845, -0.3456590275930019, -0.7076894198026864, -0.553183268473069, 0.21343384688605055, 0.5077575270226347, 0.19577698842927865, -0.10317338884961329, -0.11027919815257348, -0.024012736751965566, 0.28849569457523233, -0.17165134600895818, -0.5939395586599028, -0.13267689909099903, -0.014705693121423283, -6.215274409278034e-05, -0.0003616774654534108, 0.0055386926224743815, -0.025121647382249097, -0.059178563791212925, -0.1339963238920967, 0.03964416347510401, 0.005927630931573943, -0.012286590464350076, -0.05530083860796228, -0.3031340105262068, -0.04325473015505178, -0.18905690136527306, -0.025137783389923327, -0.6195109562855445, -1.2370750109015218, -1.1859972405009143, -0.4266841524910779, -0.2593778842041534, 0.08979119418725937, -0.17220355609699242, 0.05853380978336407, 0.2332163060656245, 0.37090150587957516, 0.18060990515547123, -0.22191882673167157, -0.09179912927286574, -0.002293533569652715, 0.00043254933320652884, 0.00042432647079493243, 0.005479933783807283, -0.02296395525696747, -0.09591702308386983, -0.1742203434263417, 0.2518439659570658, 0.11231295436807849, 0.10810732303711379, -0.0019811335076686523, -0.23360613818693046, -0.15882002804392323, -0.0014398646789379134, 0.01195437309640309, -0.8523251589476057, -1.6538054717497486, -1.0215488257693728, -0.0693361708279787, -0.2759723049563073, -0.14069173170808244, -0.10062626559598299, 0.3522220271864011, 0.6029261381595562, 0.9059450076168479, 0.79210050531823, 0.06301663207244725, 0.017879994305354165, 0.003537691117872397, 0.0009139012524795204, 0.0025469935457757458, 0.0036368880275068427, 0.03414740298269591, 0.08893807984496907, -0.0229118212474857, 0.45075301670475043, 0.33639120863671906, 0.18051671297683594, 0.2607284326165593, -0.035698151512520516, -0.0845524883747687, 0.059359625300569395, -0.15664991904265674, -0.9168471677561918, -1.301707547452221, -0.6795113863338884, 0.12224070793832917, 0.006173865048239456, -0.14848196810273004, 0.2305717456679081, 0.43593940271110954, 0.4957532284791664, 0.9635840190949576, 0.7590560330120373, 0.1599980774348779, 0.04863638779209921, 0.035353499868682636, -0.0002662215728466187, -0.0011822368172514715, -0.0013961433281161812, 0.050596065249880126, 0.10773858184842165, 0.1822653481135019, 0.16720247243878714, 0.3166280725417053, 0.3672776607420552, 0.2900034542977239, 0.2433189828661956, 0.2843413387082622, -0.10028616205789287, -0.47681987458720404, -0.7384428147716154, -0.497698886879477, -0.08735211287798977, 0.36920864653789764, 0.34320769131826623, 0.3411826650058776, 0.500194748682053, 0.5910599030362427, 0.37356109049340636, 0.5774487145443539, 0.41921896318899265, 0.18262234206408143, 0.05194932461561226, 0.0023675864905803963, 2.883805959796456e-05, -0.0036851634532386935, -0.003980278076555462, 0.09649371419593207, -0.12256641244805225, 0.24572337483854242, -0.01860314810628526, 0.272227425860453, 0.36661204715866014, 0.18196362255535295, 0.4997025265568256, 0.5054782161387547, -0.011362116183119952, -0.5728475032967218, -0.7761060074948456, -0.232929883213324, 0.21472340555638286, 0.40330080025470416, 0.3249963517970956, 0.37184602458524757, 0.3424329880597457, 0.24959588010776, 0.12875945511043768, 0.2195193523122671, 0.13064021449909247, 0.1607781162363775, 0.06818312105355749, 0.002678576607884849, 0.0010528472900679742, -0.00168536780627458, -0.0017348440719126476, -0.015178553740130933, -0.1602948108895571, 0.30358790730026236, 0.27288304079702375, 0.20351564942114833, 0.2602387668246865, 0.46184041739743525, 0.6755111010031825, 0.5524900826499444, -0.11308791912818407, -0.4889371849217871, -0.30033991142751515, 0.21662509704342972, 0.40354450152028626, 0.5590186975819064, 0.581479566900671, 0.2612607992963353, 0.23449255184702086, 0.4375430575186063, 0.1674807530032242, 0.1045274896850624, 0.06794285223343198, 0.15684315747481864, 0.06295461195276736, 0.0035290799483578775, 0.0002990339920907399, -0.0005763023487650792, 0.015882734201262707, -0.11304179635430564, -0.17584070922668038, 0.1078434938087044, -0.07603953609497574, 0.09802262545284092, 0.06511634284879694, 0.5535550816360497, 0.6034873735285152, 0.092935997777875, -0.17757798580705741, -0.14592822801918864, 0.22685939653760392, 0.7266283790686031, 0.43875784782826294, 0.3015232599962299, -0.026526755942421626, -0.13529109159878291, 0.35452515829535514, 0.4254608285331182, 0.6374668290064007, 0.015735879543536505, -0.0207521021755697, 0.1415247113293902, 0.03330117561475584, 0.03695232601194804, -7.079420594566155e-05, 0.0007305345242315589, 0.009599067764008373, -0.2112163176238824, -0.22034926781677594, -0.005069338655769956, -0.11468419653246874, 0.3145348886654068, 0.38806084548696884, 0.5666690496560084, 0.8242997860709652, 0.25796710676191814, -0.029556224268310023, -0.13160851760764464, 0.06856458032074014, 0.20001706887384654, 0.26820446017444316, 0.09256148773903991, 0.3714354813943174, 0.11747701015739856, 0.1037374821512473, -0.03450616191975959, 0.20905991336842694, 0.05528343306222692, 0.05495272226662981, 0.17331289602863786, 0.04522034638692599, 0.025106238381386967, -0.0005532400149980894, 0.004265681929069324, 0.01495154613656048, -0.1305242256875179, -0.1820794965222205, -0.09591747455974478, 0.18838328796804163, 0.3709552982691971, 0.37306242019450264, 0.5936587927189951, 0.850772328066772, 0.4527223116928761, -0.0075921646684522885, -0.2469843755878922, -0.28467632302550816, 0.12541962341670873, -0.011243240458287335, 0.044791365915607576, -0.10268354650903855, 0.04346895989586172, -0.2755250188671149, 0.06966824158857943, 0.22010893542518917, 0.05335164767412206, 0.03778407581872079, 0.15695967564112148, 0.03566017178882718, 0.006946090271527091, -0.0010611914314100697, 0.013049344328882799, 0.04088272816844156, 0.044771650216288025, -0.016875242297485216, 0.11799251590699646, 0.02443907756836601, 0.46293452265886975, 0.07412049373706399, -0.03409233629490311, 0.45537007265485746, 0.5725464969992567, 0.24031975855314772, -0.43484274575143717, -0.23259139718201358, 0.05918660736265889, -0.1719353613390614, -0.006607879190074329, 0.06484125626906385, 0.03182444337876665, -0.14976554858389993, 0.11770087651183714, -0.03308628256647998, -0.18045701532563604, 0.02093849217648176, 0.06958600816973773, 0.021098418685210566, -4.960159270165789e-05, 0.0011217034078775745, 6.843135226355408e-05, 0.05769626725344163, 0.15354719948919143, 0.07093861770460354, 0.11247540020684992, 0.25988585896127336, 0.1480722072203291, -0.08454296534406615, 0.18209799563258694, 0.28756814779158824, 0.3671274584667572, 0.2707011846169037, 0.1716594454084718, 0.03198728620443342, -0.11207135183772564, 0.07883156966340744, -0.07975739369062049, -0.3088292211605653, -0.19762552588908316, -0.26439706331693064, 0.010758744318012077, 0.10941946941505241, -0.004063371277824378, 0.11432518282601745, 0.07103712848271611, 0.019240520310846172, 0.00021939868875380867, -3.6266230664444896e-05, 0.0008732362712182558, 0.01615809761014665, 0.040512663474401356, 0.02553005862834412, 0.0658086883950842, 0.16832964839829756, 0.14792591287227774, 0.3795156769426164, 0.213986829177191, 0.3131373609473635, 0.318613993588894, 0.1528883966924373, -0.04038729351780742, -0.3331759147623615, -0.15485187721122046, -0.2833370141907774, -0.40223644163878974, -0.1978912926862904, -0.1430275795381608, -0.08917152472326625, 0.23015349147606265, 0.24993638933781961, 0.019435871832590722, 0.10717582464092078, 0.06117309038789565, 0.005005938349033042, -8.26866269803558e-05, 7.696489405036832e-05, 9.156991036890033e-05, -0.006375305047621703, -0.018522777902014436, -0.07032409842554024, -0.11463515850920387, -0.014679725642582752, 0.16663832216902721, 0.37655841091024156, 0.28957124026645914, 0.1717370160627017, 0.2887140553288777, 0.24987820713813555, 0.11475686438667392, -0.003465651221430225, -0.02799819754462831, -0.36220619513019725, -0.2714172240125134, -0.10445819702735033, -0.1742871767146075, -0.003086439921367614, 0.1732423327028163, 0.21102350779091159, 