{"layers": [784, 30, 10], "weights": [[[0.008915626853524, 0.0033167547815903813, 0.009940041160816596, -0.003881703108616453, -0.009991284731415048, 0.0036885608310178314, 0.002051090451878666, 0.017015531912032984, -0.018193197374610944, -0.023844577711813256, 0.012899536929393638, 0.024388624529389464, -0.0036777761710964562, -0.006861009609701235, 0.0014733593586880912, 0.005183065574680265, 0.026137371114957165, -0.012643601573450815, -0.010116499690187823, -0.006672542348903504, -0.011410408005333142, 0.009083004891608506, -0.027056843049913206, 0.013822004562475374, 0.008224166595234202, -0.0038567598986811212, -0.016629703417685774, -0.008631776833839791, 0.013728258356224654, -0.004033316724677921, 0.018654315332535153, 0.010929698502519384, -0.0027609039054395587, -0.028444191607623556, 0.01593797463720928, -0.01850534078963678, -0.01908678457383817, 0.006101427070188047, 0.023528323461361328, -0.008839724388270857, -0.027609645004213736, 0.004402695190053519, -0.022786518852816507, 0.014047935803694898, -0.004988257959365325, 0.015267489052055458, -0.002348470304391067, 0.0005238116942112857, -0.02394782522807111, -0.004478985936128024, -0.018012598817423262, -0.014389322048230783, 0.028711861384598022, 0.013534810141790827, 0.009108331182392154, 0.010767643505443084, 0.007681976254885365, -0.016484617977446006, -0.01706044522603671, -0.0177499070375035, 0.0008185988967352166, -0.012348412515170687, -0.019655652540072854, 0.006616035042581952, 0.0028179018350728276, -0.006979530474169585, -0.022580557813453715, -0.0037690782476808866, 0.014390767932071152, -0.010205994066260136, 0.022180583845818093, -0.024216815774234346, -0.01620756339570633, -0.0021693681219679332, 0.007917022032653114, -0.01301640840385948, -0.012262574389693824, -0.005818747099355329, 0.009795449515286412, 0.011569335695979833, 0.006080136174002342, -0.02571473969287522, 0.0044543673516482096, 0.0005083950082980247, -0.008141888850232629, 0.0017126069472711036, -0.0065343665533625275, -0.006869644491638162, 0.009076001879437698, -0.0037246337678318014, -0.013872145764817923, -0.0005705906202345571, -0.004401225439388206, 0.004705787903262948, 0.012467320636833758, -0.01128955754642638, -0.023936467345697657, 0.013132037954514068, -0.0037017229880628904, -0.03625812557193677, -0.04327763669243361, -0.04862709628263682, -0.014265934311676748, 0.013008833723029592, -0.007014581944732497, -0.00267888780370517, -0.019597655280562246, -0.011126212777473504, -0.011067584021352104, 0.0069782026051764135, 0.009549255513522181, 0.004606580661439076, 0.010957322236649336, 0.006636885258357274, 0.009167511502167462, 0.03504886594932765, 0.006596663444185436, 0.014040399534980194, 0.000412760583615838, -0.011110173391535085, 0.007160695840928637, -0.012800796711791754, 0.00434439060759522, -0.0019931800282143217, -0.005409895553423393, -0.04157757197603154, -0.103047960991155, -0.06413695954564133, -0.0485475968008155, -0.020223395712999397, -0.015453354220404298, -0.019444330801254645, 0.0013752039643659599, -0.0083627290666766, -0.028180600045316206, 0.009015289211007848, -0.021798011490867037, 0.006111294768809586, 0.00676896756430943, 0.001669119065085699, -0.03440620590032202, -0.024952449747425734, -0.01054558146015662, -0.010501904305957453, -0.010853626011448824, -0.01675989418156452, -0.015098381935745048, 0.011058504930245221, 0.02274106209688626, -0.020070232683981285, -0.010414076205194136, -0.04922587454685737, -0.10142346583992971, -0.1159200623350188, -0.1357505131652329, -0.11693419135157687, -0.11525731262369328, -0.0688714181383801, -0.026090875473486503, 0.004432924687440269, 0.0034634643839668465, -0.0028119866177385945, -0.04038532332747214, 0.01642376603774166, 0.0029323487521714566, 0.0386150378839604, -0.0056112547668333195, 0.008508629712138269, 0.0008267107160004618, -0.0228248602237004, 0.015888579113233804, -0.008555597646145012, -0.013430116229743931, -0.025551288965041597, -0.024508580151398708, 0.004881962018379444, 0.009563198157199613, -0.016090142312105166, -0.06590667012341765, -0.0753421816628546, -0.06857081992258723, -0.048073390998214054, -0.04106797530073926, -0.03017038152854406, -0.04411166786710705, -0.06526345795357874, -0.04404087193435757, 0.006715258714927716, -0.016110777356709346, -0.009197545384150128, -0.004402541984800257, -2.85386896318714e-06, 0.007574204277388222, 0.019843613454517323, -0.010711467169715381, -0.0049916412986607496, -0.017372254705457744, -0.004175786157190293, 0.015125380467253724, 0.02843349440109302, 0.005280206571681443, -0.012351211854538486, 0.020773683362307394, 0.0030990028883929877, -0.0829402820412671, -0.07932305099989183, -0.055609658757846236, -0.01556646588609824, -0.03484701655238862, -0.032039055712905384, -0.0195949597464161, 0.007875058375824145, -0.08520483564431268, -0.10903989404036271, -0.12006430245922066, -0.06062699968220035, -0.03838230778965321, 0.01457524548557243, -0.023426159594919383, -0.006292186845442379, -0.0029020566277131125, -0.012917065255934978, -0.028704236431408597, 0.01700421707035179, 0.002656452874671068, -0.016107367941634726, -0.006705790631690949, 0.018495106768691708, -0.0007476008341647626, -0.0007118348859343854, 0.003846514287236598, -0.0950009487954194, -0.05707889660526066, -0.010104314591351185, 0.0037811722241938785, -0.01012755748065566, -0.017194042267219607, -0.01902163354346728, -0.0299301418143733, -0.011413395241619525, -0.08148618190362036, -0.05968752058502005, -0.07162996796463977, -0.09487969473239109, -0.09488182333997865, -0.06792837441621548, 0.013791936799371816, 0.0014507126148500175, -0.0008786464064410755, 0.007991669955117835, -0.026348707690821285, -0.0015264300170950969, 0.011107506246006529, -0.017881902719473024, 0.017267166703773568, -0.0003580464417301804, 0.008220538320594337, -0.01642253456969076, -0.04169452678835073, -0.04481967012959712, -0.060183015892590126, -0.004149810205924325, -0.003632975228222043, -0.025227494063417566, -0.04134397176208444, -0.018019491501025775, -0.01848072787605126, 0.009045991878540372, -0.06205603919739389, -0.061717184010822525, -0.011367736642812064, -0.02093498476320651, -0.04069517487028095, -0.0678922395609829, -0.06504168271579079, -0.0167425699024828, -0.008820270929289411, 0.009784404098491116, -0.0007856777359008924, -0.02326588265432241, 0.030135375355262336, 0.00795126832739049, -0.02428739095908092, 0.010217265438366464, 0.003656956593436952, -0.033009378657445666, -0.07677568520680543, -0.09040525220020652, 0.03360027227488482, -0.006899223322790275, -0.006077391037701841, 0.0035893691962748794, -0.06909085893170759, -0.03727855544670118, -0.019534365044198858, 0.0038518283117683436, -0.06209074671478155, -0.03567830515880596, -0.01696091622578917, 0.008990782785852684, 0.004469738575799954, -0.029686097379758775, -0.06983743841936609, -0.07501516114106015, -0.004450345809463758, -0.008177685056429183, -0.004592819802282695, 0.016280330164765655, 0.020147164550905074, 0.007362566330410506, -0.004644159759341807, 0.003942084559288194, -0.0049665882886134015, -0.06612357808243496, -0.11464237694951838, -0.0009195407526359455, -0.006956099061538659, 0.01340761217346566, -0.02122366629600953, -0.04820631764133011, -0.04298984086111425, -0.019443031741676626, -0.008432337071731029, -0.018649516097840813, -0.04795310974470978, -0.03941446839591229, -0.01202451663806215, 0.006061272006922944, 0.01747963518395915, 0.02439741664720941, -0.05768579679071927, -0.08692458619678879, -0.019884627358962927, 0.006574097397291732, -0.015079524855614661, 0.01163159728278182, -0.004446714800590366, 0.008605284429006373, 0.007282044860659427, 0.0015844063614449462, -0.0017645461280971916, -0.05192644720342847, -0.07010227748216387, -0.020558957108353332, -0.0013343745256310998, 0.015235035132698789, -0.041800933231150576, -0.02924917604725221, -0.03668882613567062, -0.024718031132913366, 0.0056149721507263665, -0.044504262197272916, -0.034190271939538094, -0.01220926998463638, -0.005511621003453586, 0.003961729467777286, 0.021345761399067086, 0.02925154016784014, 0.02741809941070297, -0.08098012748818464, -0.04410659184022837, 0.028085437940578432, 0.007709664037523667, -0.004088215900289126, 0.014137628931701268, 2.9156399796973793e-05, -0.017875637042621715, 0.01611667037977171, -0.005352472224256587, -0.04236965314274936, -0.05659327431987025, 0.018081459785184932, 0.005197069921907968, 0.0031938419591898077, -0.04876359311054624, -0.03254121136909699, 0.01566652608556564, -0.021229400828352833, -0.038906990129570926, -0.02849734879828542, -0.061820897657693205, -0.0022611011864305227, -0.020840508000541904, 0.00848976091068192, -0.021475584993629917, -0.010443740609409731, 0.00461871198966531, -0.043476269898565824, -0.054829749619064394, -0.005677029213587059, -0.014597694468116297, 0.02502790595897991, 0.002503991483901738, 0.04150296139077606, -0.012599191550013319, -0.01656167875301302, 0.014803170646399414, -0.08797707189194293, -0.042596193764210546, 0.033612461616272536, -0.014951133448198057, -0.02067698652553425, -0.017589760267923433, -0.03324186205747992, -0.018720371815557812, -0.0385554792394392, -0.05178416411035099, -0.06921220828665164, -0.07112044115052434, -0.027003968997052263, -0.03285222631790161, -0.0509382040355735, -0.02880673918102784, -0.019310773465305256, -0.005795004656179856, -0.0015841019523072665, -0.08759877736848513, 0.0049408730074559735, -0.006347693992987628, -0.00767525216687792, 0.012013201361207667, 0.01716855684882164, -0.022728559410410947, -0.012033636188566258, 0.0002529845137408702, -0.06770109088552245, -0.07404180102700379, 0.006139201236025217, 0.006450972623615031, -0.019279252003367577, -0.02972566292533539, -0.05322597318893819, -0.015021421771730947, -0.04118123825468728, -0.05623195036140514, -0.06786732643603087, -0.05285078215727379, -0.04955926286522781, -0.029223724288011406, -0.04653929638727052, -0.034417474085031305, -0.000839581318054076, 0.023758362458040798, -0.015647176767513503, -0.07052039246529208, -0.012638223999764117, -0.01913079729370005, 0.01642785069374464, -0.007685886231319537, -0.024374274153150164, -0.011571624527453453, 0.008012623277327558, 0.017503535338011463, -0.020567041150680098, -0.08103028101136785, -0.0036761136095152256, 0.038778152203605205, -0.009102581867355674, -0.020966473361833198, 0.011718775292547978, 0.01447325987939849, -0.03585275192886113, -0.058323667554672574, -0.04556536944642298, -0.06076003773550666, -0.02548071248365237, -0.014703697509620887, -0.0187336323338813, -0.001755527333327244, -0.012174108615113729, 0.035144773358773945, -0.021867684415137024, -0.06876152244401634, -0.004914393345668446, 0.022566203978396284, 0.01731405107303787, 0.009085379531347684, 0.00934392529227213, -0.014421738069350508, -0.005847792046591352, 0.0004153065514400252, -0.006076897558572619, -0.08311678422351869, -0.04361324812017661, 0.03644546627247382, 0.011491038652219558, -0.02155156345086198, 0.02771385585332628, -0.012600135506627261, -0.056350240111300125, -0.02727115957555734, -0.026169647125442324, -0.06624633610350321, -0.02139289745317435, -0.02300571054259438, -0.024811151826479638, 0.008144159204929793, 0.028868492655900958, -0.0021313004590541025, -0.04204653290598135, -0.10068522890626384, -0.009331279972236676, 0.016774579234776956, 0.01327952066653102, -0.003444084413142721, -0.01841752080357586, -0.0017857211004168327, 0.010218317478913469, -0.01600745298602132, 0.02602288337804057, -0.0553366089074314, -0.06523257363072467, -0.05578203851696131, -0.005246330053240083, -0.04036700649952885, -0.02523318937642045, -0.0230653697032852, -0.025093082779979733, -0.025388980410604757, -0.03335863390571096, -0.025645146777599586, -0.038638133520392394, -0.049789477633392684, -0.003080322814412708, 0.013125151458832477, 0.021827673878268655, 0.02511184276694502, -0.0832514997172579, -0.07060497966138822, -0.00801565150218545, 0.002294457828530756, -0.01973104494672777, 0.02759706002750467, 0.0019518643288758439, 0.01295253285638157, 0.012708984927278736, 0.023543828086779416, -0.004572275432678515, -0.006790433625836614, -0.0840143993070743, -0.05060255212732931, -0.058971155941169515, -0.0658196998310126, -0.05384886885517255, -0.0505166580412059, -0.019396250142437396, -0.019207697065434983, -0.05794377050020906, -0.06470034995743397, -0.052165348001873765, -0.029030073002298883, -0.027907356627414646, -0.025824144501004863, 0.001203625304693448, 0.021382503178416556, -0.09149031269890547, -0.04679566120878122, -0.0013240795569348421, -0.013586274324889989, -0.0035621793842039767, 0.0035511327145939754, -0.004484017875033273, -0.015622958655747502, -0.002667945210786688, 0.008703662609173225, 0.024042659482555535, -0.017065758784567866, 0.008205606388943224, -0.08036850849840468, -0.08371455658940588, -0.08479194455063344, -0.056505429863301544, -0.054551025411571114, -0.004687136800706971, -0.03571107721257763, -0.06275204967538862, -0.03834022526138129, -0.021722691949046316, 0.0034577345776653223, 0.01385045977389806, 0.030405077200449996, -0.006875185812800215, -0.06009460275919334, -0.06992283053162184, -0.009863166727606856, 0.003807203197063272, -0.00222381518126348, 0.0022413011710561152, 0.020660100039972453, 0.007614215298760856, -0.006687143018419166, 0.02029950682034177, -0.014832684841381196, 0.016525064628920588, 0.0009294303929258719, 0.014016254962900009, -0.001001289622048898, -0.06042592190050891, -0.12499942732640056, -0.16526169835627405, -0.0919948492382176, -0.02170157581076374, -0.0634185362230189, -0.0597047254948065, -0.05190762136661808, -0.004104027175940406, -0.014317400811815095, -0.05099232105778137, -0.04791677262951369, -0.07710048237040529, -0.09510427729742447, -0.0006360366632974571, 0.010303858234667576, 0.026036292660392917, 0.0017041545140668473, -0.016945353838840643, 0.004612805900572069, 0.003931898286076982, 0.014195349026264133, -0.018496351978803408, 0.004596446683498046, 0.002680665836066076, 0.0015861892997966584, 0.036491642943308665, -0.009685093846898779, -0.013763149984435456, -0.021426611309818704, -0.09262537192199445, -0.0666097442383705, -0.07422708451607117, -0.11415725142178622, -0.0979572854524012, -0.07508565886734755, -0.05463968837777297, -0.06848371693117537, -0.11052229281324225, -0.0737127422303088, -0.029576724907585342, -0.030549537747017776, 0.0027825190483576354, 0.0061780721664933735, 0.002438728549110531, 0.0011215277692146193, 0.010183946950800257, -0.021248681275885486, -0.018847110949243476, 0.0037311850229452934, 0.005826302321908384, -0.0021756069210710377, 0.021145767084305524, 0.013690673675591363, 0.00044737207879235174, 0.01998853503927079, -0.008179994250383543, -0.04688862518240629, -0.023556088955454024, 0.00823608006082337, -0.07699277617595461, -0.07032959006314611, -0.053278529129104565, -0.06086203152716191, -0.06301490306634006, -0.06002026874630944, -0.029489889083253954, 0.024182756357294943, 0.01062882449998969, -0.001803840952855416, -0.0320040987348931, -0.015104306069519683, 0.011094820452751467, 0.021102984158585386, 0.010651879905570911, 0.00846546186288941, -0.006508613071761181, -0.0026195014372951933, -0.01244428991550631, -0.016536434091770167, 0.016589954227468496, 0.017626770071987447, 0.003142263785264842, 0.012742035453290243, -0.012105388689713413, -0.02490454832583931, -0.013264060236093996, 0.005760792575041194, 0.01848526476568386, -0.04931341806667912, -0.028527212642008467, 0.015514143552679783, -0.0009677269445048807, 0.010216003292879429, 0.0029328743829331663, 0.00822946281457245, 0.016038322398901943, 0.024212014646928542, -0.026139206841010475, 0.014682735904277131, 0.002303255668557024, 0.018251774236656356, 0.00022404925236272472, 0.015330927697524803, 0.024259576319879694, 0.015732311413341735, 0.03188232700313709, -0.005149642775894936, -0.013328069035615665, 0.0015193423556335843, -0.008485387334720158, -0.0078086819246368, -0.01043766053197781, 0.000382377371868976, -0.0311991412490153, -0.01002187423991978, -0.0012301286881278336, -0.021625476895260398, 0.025005865278839676, -0.0034456681223726093, -0.009783842801565806, -0.006412710610418522, -0.006462996122106146, -0.009092077459898299, -0.006505667727094959, -0.0004146405498806102, 0.023672801783145975, 0.0004812238303667237, -0.0009499141226770724, -0.023493598854549953, -0.002788373321442479, -0.019477165883930447, 0.01280988149929843, -0.00729699160498869, -0.01397399619447471, -0.014294951874892457, 0.004297901166189098, 0.00804316837086023, 0.0068680746937386985, -0.004901278957605642, -0.01805268350223622, 0.008612914293462807, 0.004140395494477308, -0.018650314510649347, -0.03368428206719905, -0.010156010380498215, -0.006072345470612495, 0.006321434043233819, -0.007094382523545959, -0.005373124373594622, 0.0011979333333603888, -0.014038938765351028, -0.0164457908929142, -0.001247182874195979, -0.02293654051112659, 0.030364178456176328, 0.03149914961048217, -0.014382285482519805, -0.0027910659213768586, 0.004689190684297671, 0.015601587773019617, -0.01959103877023205, 0.006882128353659084, 0.027958627378756745, -0.011276697300620264, 0.017066395013808213, -0.0034668748604610054, -0.00039627996356175857, -0.016154732950952672, 0.00251545468077705, -0.006331379686100523, 0.01098439625050409, 0.012367752365889722, -0.011241333655318686, 0.0029286127610770115, -0.001257351793692443, -0.007489681986114585, 0.027080926300963683, 0.004439293254488305, -0.019401130410627323, -0.008902426976461741, 0.013183542074219717, -0.011582997215460526, -0.0030160700474755023, -0.04075795444321352, 0.005489935915691451, 0.009396780106178837], [-0.013964319918445304, -0.004960070854416272, 0.020870259969842157, 0.0067187574654126786, 0.002417263254994363, -0.026150217880432678, -0.02256924024590806, 5.549550937966836e-05, -0.005279251403188795, 0.0074981575792250725, 0.003735123515743446, 0.002433305264350288, 0.001821192554871192, -0.01502580935217032, -0.0016425604476947987, 0.01319092400075733, 0.02087272716860481, 0.004738817399950071, 0.023079701188487987, -0.006884870807158946, 0.0030909811299607596, 0.0249608855076549, -0.005394427071724029, -0.01171008273711064, -0.0011072170952702019, 0.026242063562392632, -0.0004978864004085916, -0.015694062590552577, 0.0017814604571252447, 0.017920717545562726, -0.015528300794800352, -0.0035624307970589446, -0.014972288925379445, 0.0028957178304843886, -0.009232012676600326, -0.009570148958588596, 0.028750188474408644, 0.009219819814419003, 0.0026323231754204236, -0.005562414104247166, -0.011997918412514812, 0.004676952680435082, -0.008966525526012256, -0.009525692957081784, -0.00601184514016127, 0.024407124168264016, -0.005659928383892613, 0.010568520194403162, -0.006492107450206261, 0.008491399060355573, 0.01627535435807137, 0.004342779978758525, -0.0016035573657522783, 0.015553825247604411, -0.006746227547302623, -0.005523135143774787, -0.00522628418671459, 0.003641399764477364, 0.004783416676446494, -0.00989225189456804, -0.017136882886787098, 0.0033755582512839206, 0.013042667958220105, -0.004226642451977821, -0.006351078698518932, 0.008114234710901686, -0.024248035600311857, -0.025924069012897406, -0.002014925952521816, -0.015512442883769073, 0.008107071295913334, 0.010783483998717614, -0.004792717723581706, -0.023147034470457222, 0.015950336446291444, -0.010287344148695376, -0.009641344557175703, -0.0135319808794474, -0.005509259037036865, -0.01035447048505035, 0.011307426201026066, -0.008611381791208426, 0.011464817329686957, -0.015538590426439252, -0.007067581826933534, -0.022845287733206158, 0.0012591615947075844, 0.014782613891215348, -0.013628355030888393, 0.012441979123556894, 0.0016523403904407043, -0.027805629379797202, -0.00967783931605857, 0.0058932190112114214, -0.001929669959270444, -0.020198727562697704, 0.012197181250488718, 0.01506951149872432, 0.007043771308285037, 0.010750377911920178, 0.00689228857626938, -0.04386168402874622, -0.06332441902476581, -0.015551873021624953, 0.0170489727721436, 0.006804173422085782, -0.01496270025717886, 0.015368471826309061, 0.016737353928834756, 0.03596041743058564, -0.0016234407661824164, -0.01700713631427647, -0.012205890771503214, 0.002061147791876258, -0.005240258296714345, 0.00042158196363581944, 0.01912907874410389, -0.001022251696068012, 0.009369675878052073, 0.02483447289845403, 0.009604228248689962, 0.00876336411589042, -0.01602424757178954, 0.007916681231593488, 0.008805508429143762, -0.006797189748315985, 0.014007037336229515, -0.0178823524535587, -0.059101279443441804, -0.0456419806733718, -0.03509279423365286, -0.02361299406328284, -0.009490523245096109, 0.004004084403091947, 0.000535832250160112, 0.007552619762567492, 0.0005516880052402449, -0.005621056100907059, 0.0022135195499975286, -0.011706867572186398, 0.019351866771853285, -0.013215375795364465, -0.006785441717295542, -0.008512477376492042, -0.000813610345495323, -0.004662434796623205, 0.005390143578228143, -0.004340743868602938, -0.018392052585679917, 0.011213888982396648, 0.016820785845575392, -0.0016764886517150572, -0.013581388270816903, -0.004230764972926758, -0.045614054554930776, -0.07669094556243009, -0.06257212351608193, -0.03840577076720808, -0.016182572133252502, -0.022877661332887118, -0.021173070963862128, 0.02144077077512614, 0.005848165453133396, -0.011899855047683533, 0.003056585492126249, 0.015799731242121105, 0.0030904919662185534, 0.000795247408182457, -0.0013913348824188972, 0.009212613191340273, 0.0010749969038880783, 0.0005780396721045186, -0.003924227287968913, -0.029100955115843236, 0.020296032059343393, -0.006821948300234744, 0.00936365117697743, -0.008244469910222948, -0.02848138168020721, -0.004751273186422007, -0.038194794483994626, -0.05246623303935431, -0.07169008615142383, -0.05728411699441373, -0.04573258824833843, -0.030163370365273216, -0.0489459718820972, -0.0417010662142176, -0.010564504443065495, -0.02918014256107564, -3.0864063433923283e-06, -0.004445859587081134, -0.026117865468396846, -0.017227577115757037, 0.026647226414409614, -0.0030998470222341895, 0.005977895830176855, -0.018768887023273673, 0.0039011083886835644, 0.02195144286068795, 0.0014562441370599148, 0.010165524463344787, -0.014535224244717738, -0.00032676904120635796, -0.0019511589829440614, -0.013891086959269725, -0.052194989638522066, -0.030769323208627353, -0.02705460174580205, -0.0776215946345994, -0.09660415208769749, -0.028172457873104084, -0.03606914662488525, -0.042473281924050914, -0.049750558155340775, -0.04354757798822446, -0.025923096649049647, -0.03328755436181947, -0.010849987175600912, -0.01772331682573539, -0.025838202887091936, -0.0352093435594153, -0.030491881724049038, 0.00970456019128672, 0.005390722216753016, -0.004555739050542593, 0.021540492075696943, -0.033496737892459306, 0.011327065325392622, 0.0017444489677232188, -0.02813552458015908, -0.01553694229698144, -0.009759623980427186, -0.026906563771935198, -0.06275706703126283, -0.03063477417046841, -0.05768253284445191, -0.10354398865349419, -0.06854164975989363, -0.060023389572370044, -0.06663601911678378, -0.028147125955642182, -0.04392557522667087, -0.043915108940260225, -0.03186525014459107, -0.0172282038291715, -0.03832766673653097, -0.010052050491897906, -0.021382429601651036, -0.017766169523377298, 0.00108691162166762, -0.016834268394457223, 0.0021162341483406694, 0.007272340624927378, -0.004016265920013715, -0.016124472859982725, -0.012125723718409984, -0.03040810613622544, 0.004662159361080273, -0.018896023003167912, -0.0018822997319395628, -0.02556058258465659, -0.06531674614734428, -0.010074947283928317, -0.07710067673602346, -0.06289479407742798, -0.06717004500632712, -0.05210211241516644, -0.06370276594003368, -0.05014704430341931, -0.04665661534497281, -0.07327511594338829, -0.026485161323952976, -0.05737820995351677, -0.019903818196129807, -0.02041646014431005, -0.009262952650558268, -0.0007663806062851581, 0.010329791071615064, -0.003964938787796791, 0.021505664136495836, 0.004436988663907644, 0.00015328290853216638, -0.007965066849875541, 0.021614563597465903, -0.025760402016155624, -0.022157202579365917, 0.009422853260887694, -0.0014500501361565414, -0.004252819998251369, -0.03539718061749697, -0.06114091848486917, -0.0831111686897747, -0.046178535866571384, -0.06793458346110454, -0.06520368728554202, -0.0393202898019874, -0.019369761140364275, -0.05037209638016402, -0.058882353684660146, -0.023131482357817427, -0.025779206811389066, -0.005690518090657751, 0.007578242584161706, -0.0077549621670586774, -0.011530428194626184, 0.03073017933762658, 0.002368784131562963, 0.009547279504636531, 0.021259766874548842, 0.020107320877650093, 0.02220535573899571, -0.01716473516468584, 0.0078862249978299, -0.02144937025408192, -0.0015385229230639695, -0.008554894724120413, -0.04516655560394919, -0.04224709234490559, -0.08721598335908554, -0.0659398905293322, -0.06911994109968335, -0.051114359258354815, -0.08444263064904128, -0.05539917357382072, -0.03877219964946556, -0.051874384483377736, -0.04228863785226658, -0.018226588315383645, -0.018877798080069872, 0.007497367564015495, 0.028750202991585195, -0.011731220301193892, 0.018107206834605257, -0.009925270282862084, 0.0013175298449320128, -0.010569574096818099, 0.00570339763795862, 0.009499846710117112, -0.0015910121725144495, 0.011482659090616817, -0.014286516942180777, -0.003223906019946753, -0.026808553791233855, -0.03023202999064476, -0.0034114566022719842, -0.058086643723975595, -0.08346414764322245, -0.07315050510420414, -0.06527245952389879, -0.0817604857995852, -0.07589915289383707, -0.04020707928178573, -0.049739959683209004, -0.041119319361817876, 0.003699428122081511, 0.00044186972722920145, -0.019702413055264687, -0.011965020331374183, 0.00470061501263574, 0.013189734502400985, -0.006969557519580666, 0.003301860212801707, -0.005335823069272622, 0.020979988297773883, 0.002750795790262461, 0.0004268686866100191, -0.013421010490412588, 0.013683498849238713, -0.004187904690824352, 0.0006633395998187762, -0.03732437940160455, -0.03226149828572855, -0.02391975046323584, -0.04220370103713882, -0.09401319577688344, -0.07149098649969074, -0.07120745218970138, -0.10256500208917518, -0.12975672473863567, -0.08597782575362421, -0.10868867061129131, -0.027928626411693615, -0.0012399269725728301, -0.009184872296178388, -0.014793060605218247, -0.02280790327565685, -0.037719472635725816, 0.005191319356644957, -0.01661650027150566, -0.01767407900057746, 0.011666461899532153, -0.019842561731477193, -0.006537614284746154, -0.006756882695983885, 0.002152479606149406, 0.03246422043373726, -0.014895549707995084, -0.0018207654908130935, 0.007631317803027563, -0.03028227749778752, -0.039879026505742626, -0.0768147863973183, -0.08084569818509739, -0.06674482205765246, -0.051258703785494186, -0.0964058100738167, -0.05849608339715851, -0.05888560885617137, -0.04340649603055515, -0.057367858437929416, -0.0004361351196598036, -0.008399671110310281, 0.0034871632032369643, -0.0007422067154235879, -0.0006760101597780518, -0.016706097739951502, 0.015597758428141357, 0.01233945243015377, -0.01050683619765372, 0.009715097555439665, -0.006657197108833093, 0.016827922783987665, 0.0028897429785856425, -0.012629135827862036, -0.006328827781948612, -0.008178631782947483, -0.01689819934237692, -0.03467062244027282, -0.03982317719775255, -0.09509524797455954, -0.062236563249661835, -0.05665934901626157, -0.08257952051040961, -0.09746006116045915, -0.07670501960311114, -0.06257328062831295, -0.01583152111277428, -0.03862231988498846, -0.04991396614956456, -0.02250480974002527, -0.03864583983238854, -0.008566230529653279, -0.023497366089303067, 0.018435485809610047, -0.0057610976567155185, -0.0012116147649720342, 0.009500501402170453, -0.001998898486533758, 0.008332740999040229, 0.0109255213646027, 0.00289665077903547, -0.0013628553994223676, 0.0038945704118609477, 0.016287590632147, -0.010900854431759432, -0.020449532746091452, -0.031063799112634547, -0.0763090214953284, -0.027097274823308856, -0.04946026190688624, -0.058693428919498136, -0.08376367453427139, -0.04495224959038603, -0.024398943340841445, -0.034265784621946224, -0.002006047603821568, -0.04060375283684346, -0.03259824288330542, -0.04024895585226428, -0.02936340281438873, 0.005182704777008535, -0.016428735616192805, 0.0025070443572673402, 0.030044064472952388, 0.028829219940920883, 0.004839942702495135, -0.0036879745099619235, -0.0010736498389160064, 0.014249150524367373, 0.017001331487678784, 0.0342656616945994, -0.015069056759045766, -0.03449864317482392, -0.024672808560218265, -0.043855331299283346, -0.08831952357322959, -0.052037044674597174, -0.019350527832032255, -0.03844560110060777, -0.046231913185528356, -0.033365968749025934, -0.016105821242019213, 0.011456379194345147, -0.019734299487181965, -0.05645736015952882, -0.033415728713644316, -0.0212324791465445, -0.0222455195557338, -0.006754778320318602, 0.02101939854341194, -0.02406262878331795, -0.005264559849010203, 0.013447803030808567, -0.0077186046403025736, 0.01729755394110349, -0.019959020210387115, -0.0078075803700573855, -0.008785184683840357, -0.0012837218583682862, -0.020543718913026764, -0.018920242285989042, -0.03788547445264094, -0.061490732731242545, -0.04868404982284227, -0.008276791870402232, -0.017312028893291132, -0.03344336638033469, -0.07153432710564595, -0.04101335293701609, -0.023657965066348402, -0.02121740887250978, -0.05016605189455106, -0.07468391066382742, -0.019515596675790982, -0.028906394737235868, -0.014640010043431071, -3.801673859520999e-05, 0.004428691438351103, -0.0024049417519298893, 0.01949198007522885, -0.004013891817930622, 0.007285994069034391, 0.017312625415250023, -0.020215042139269362, 0.01950923179356404, 0.006265013370196209, -0.019154648500480816, -0.028911704437493795, -0.03398569469165421, -0.00826886871701057, -0.024309587992770207, -0.07617708819436897, 0.0003505047106843028, -0.026102072360782783, -0.05856234317615529, -0.07645297862660637, -0.021769646168104492, -0.004497555521277178, -0.015221317457189572, -0.03424104372150153, -0.05629469817305175, -0.042300431483362565, -0.03850215145540771, -0.04435816350301065, 0.003093559080929372, 0.008570433534066042, -0.003620019341069422, 0.017768504572115495, 0.0027751946781183986, -0.0028184234575719495, -0.005521555315728742, 0.010533808637523288, -0.019338954847151542, -0.007376163491303492, -0.007193102553358528, -0.01830162341623033, -0.027028701167110245, -0.025722655643365983, -0.03145690861390558, -0.06947888364721344, -0.04359624444738912, -0.07097362484132622, -0.08395416518748351, -0.05779370467588285, -0.026101547796837536, 0.000872478046722888, -0.05881325622940197, -0.06143279019225056, -0.04671085761043567, -0.02595377032972942, -0.007759287621192937, -0.005529039793441393, -0.01422852766642458, 0.01256982033869188, -0.014715600475143134, 0.0012477831369561764, -0.0024482045665306386, 0.006745030812568085, 0.018871780140504172, 0.003359209586697985, 0.022254012606726593, -0.002530854919745569, -0.03094615223040417, -0.021825197752654096, -0.054451895725468526, -0.024181141442925425, -0.03333621306253536, -0.07739370143721462, -0.11515010443501059, -0.11381594976731528, -0.05125492575499976, -0.06361991848998988, -0.054508348035105104, -0.050059543117279226, -0.061286729741009405, -0.026815563267275074, -0.007524412602354173, -0.018761701171965343, -0.019297607208201808, 0.015743299192716356, -0.00909870097978414, 0.013053332671162196, 0.008437353720787459, -0.01143357011491779, -0.024676193546241367, -0.00803248868740474, -0.00048190481353949343, -0.011509828412416137, 0.0015872515481408704, 0.00895320411259907, 0.00481818459371562, -0.014711608337170987, -0.019162397510606433, -0.02072285958793574, -0.04537608233130151, -0.03636690308153834, -0.08396111751952828, -0.059385008726444144, -0.054465712342969055, -0.058908746278317416, -0.058851395291651606, -0.0429494080763089, -0.04248661589010513, -0.007607702468427171, 0.005009963140808064, 0.01753648418883331, 0.006222451528345062, -0.007785259967640069, 0.0017380488872151564, 0.015623396420831815, -0.009296105829744258, -0.001013965066230324, -0.0006364137474997194, 0.007498007646217989, 0.004302125892141723, 0.011485105110050289, -0.014934925635671796, -0.011714973439779591, 0.011286109677809844, -0.005888701475505086, -0.05164848035267872, -0.039454927360576764, -0.03454081657510201, -0.06768060914670773, -0.049746169210828965, -0.020360962271845442, -0.02269277496475952, -0.021128130905594143, -0.02558560928195481, -0.01108633019308298, -0.008984847789020395, 0.03183283855230839, 0.009528986492218875, 0.0025196089392205824, -0.0001543014239779772, 0.006006858310708116, 0.023391142000795118, 0.016297815343647944, 0.0004447427006259746, -0.01993189355971993, -0.0025498283157241197, 0.016583307461578694, -0.009519825873754452, -0.008663028945647749, 0.004374425883769518, -0.023000208466394365, 0.0034454158621408317, -0.01703724608666331, 0.02725916406048305, -0.026946064374456558, -0.0015410634123782434, -0.008829537717572125, 0.006527927907584446, 0.005454265707310097, -0.005377077430620398, -0.022528627072478668, -0.02658625574826136, -0.007368599973246625, 0.00410347516601844, 0.0042898312281101445, 0.015461492281276277, 0.018193212625252864, -0.024972657138616267, -0.018578012253852035, 0.002030857387629556, 0.007741405421435147, -0.003987742594831568, 0.004890476633544082, 0.012509605609580303, 0.004857056626164985, -0.007373509716792238, 0.01664945249841443, -0.009940324295069693, -0.0055253672064244416, 0.009172007970694148, 0.0131103042596138, 0.008124136767919697, 0.0021447741898124413, 0.01713323168947254, -0.03254917603046883, 0.01780377280085837, 0.025550955425734437, -0.008956136598887502, -0.024088991828552137, -0.011332551770878543, -0.010161063603852698, -0.0035220188615228657, -0.013897452585191358, 0.032320192417791375, -0.02170341993282716, 0.021343245427951036, -0.004642951596484698, -5.538909665805364e-05, 0.011520655276869496, 0.004634503382676681, -0.0060615770996707095, -0.015217584685217528, -0.011289449141290658, -0.006598224117741714, 0.003038201846502889, 0.007658133944559377, 0.013217909339007891, -0.005126674897737979, -0.00021176852685058663, 0.0002284322069682585, -0.0042798117400197205, -0.01433539646984964, -0.0024067314459886636, -0.018884325087005934, -0.006776428282189802, -0.006221647794210221, 0.007548268584072539, -0.01283930002215839, -0.01840330908270364, 0.0055819340270784265, 0.009184936227327823, -0.02230050574961228, -0.013927872943310608, 0.015065935572796006, 0.021915572360748103, -0.0027561878795895217, -0.011006716450659596, 0.015660007768824986, -0.006155021702780619, -0.0009000649757464113, -0.004241876397737334, 0.0030513625342693373, -0.001404714576463278, -0.0011604279706791917, -0.008375090171157317, 0.011567768582586579, 0.03450458566484348, -0.003826781447105795, 0.00018841536538128072, -0.03293137462467265, -0.01786203541969052, -0.00847122891096213, -0.006458580903527972, -0.01619285534255935, -0.0027992728681557736, -0.02353827547934359, -0.009160074643401185, 0.003629267027745835, 0.010823776539956219, -0.016718971016098722, -0.013378054764167339, -0.026256647880878378, -0.00848174212258474, -0.004573615635435194, 0.013515245196699046, 0.013516800769628079, 0.013514098784729143, 0.01465520398085548], [0.00986316207376028, -4.6869660120005175e-05, -0.006361674896034519, 0.015323874914405343, 0.002601939337480358, 0.010237463742040974, 0.007495333698742216, 0.004927844662855422, 0.020044766027747348, 0.0031962539425534945, -0.017971258069044867, 0.006379023259406321, 0.0004281404894679765, -0.010212094332820703, -0.001619607785014137, 0.020098758773273218, -0.0010076512298395923, 0.0030160233463886747, 0.021940701644814892, -0.004535847416310494, -0.015134556344010107, 0.011069848863952026, 0.0015487909200612342, 0.013287390740102933, 0.008385243720636511, -0.008788324641631534, 0.0020785722810808126, -0.016631385384904523, 0.013583867590993823, -0.025958366878749264, -0.020441847614959045, 0.0008984787548965946, -0.018116637783425923, 0.023582890197500705, -0.004523902135564269, 0.0020673324169650257, -0.002619635136938559, 0.023909558010373422, 0.011832872558944956, 0.013723917490168606, -0.004025597967228285, -0.035061217815062856, 0.022928827559096834, -0.008664901529991179, -0.011456087643838075, 0.011237636587485013, -0.03805848779998932, 0.025526300271279053, 0.021949674576917478, 0.004682462498557706, -0.015239589363136335, -0.004160643851039747, 0.007819496620821863, 0.0032631699865813867, 0.004833133007989827, -0.00956708746201391, -0.023940807935081982, 0.005999013292629239, 0.006354448994169937, -0.009479849556901529, 0.008828277848570982, -0.01463940643592203, 0.0014161181228912927, 0.002830471279512746, 0.004347665090051748, -0.012741657697978501, 0.014707516314326735, -0.01887208830459477, -0.009643974562091068, -0.001424723999894823, 0.008696683863960341, 0.00611509348929501, -0.022524102694287857, -0.021752198560661653, -0.027129816913908075, -0.020782441671525455, -0.018907603229873234, -0.006403002322120357, 0.010869264846318128, 0.011233586357926506, -0.0015830172077399287, 0.006957476634456417, -0.0024251948674267275, 0.0023165988504251704, -0.002170118386875005, -0.01376593042327944, 0.015866588557268826, -0.022668936990572066, -0.0050158487634947005, -0.012388885771726602, 0.004218219142018862, 0.022215636113989086, -0.0028542345797006236, -0.0031719522500617283, 0.0053815976798324006, -0.005147234653929566, 0.008474293953690534, 0.008020163386417097, -0.005941046390417168, -0.005165998509832553, 0.0169790387988022, -0.010373037980932996, -0.05003705175085007, -0.028233239622817242, 0.012551188291706514, 0.0167903172576007, -0.003606750993525261, 0.0029990731621110053, -0.0051207023291763056, -0.00042583289995515246, 0.020564668866377003, -0.0021895006155225652, 0.027426247728350513, -0.0055467877493592535, -0.011717879481857211, 0.0026013382678215322, -0.0062987087828839505, -0.00580436922407742, 0.009911091914821393, -0.023517450609951092, -0.0024350786645587655, -0.01605668730041609, 0.018032117082170267, -0.012179622356694234, -0.0015732045432870238, 0.013826551862853724, -0.00830746108811259, 0.0013495839776514397, -0.028139923054709543, -0.0153408087643979, -0.011140906733837434, 0.00784726498646657, 0.003236199823698392, 0.014243683708768023, 0.012840708814819059, 0.008897816457321735, -0.0009653442396292191, -0.02156692630946204, -0.019087758493903238, 0.016956064935727783, 0.0018371015924231382, 0.006481035775037891, 0.017382447976661792, 0.0009679653772776238, 0.009054038496971499, 0.02135747117493687, -0.0037224350665516783, 0.01041166628038853, 0.010706417999516823, 0.00013234358719974384, 0.0032549996100131344, 0.005845695746222526, 0.006873466394337849, -0.024984277766810847, -0.03160615863100305, -0.02381099047735473, -0.04587494013242889, -0.03747909195163991, -0.01016609052616047, -0.0017209335952305688, -0.01887476675348054, -0.009972539551744658, 0.0042088405370295685, -0.011886092380820404, -0.0131975410506046, -0.008738980224117447, 0.015257137589821017, -0.02032638114348208, -0.00866892849847381, -0.01648808300792107, 0.001259147917721791, -0.01524380838505288, 0.00472580055583044, 0.005720520916522864, 0.008976597373549682, -0.038558502066802516, -0.003569111589727193, -0.015487839448206234, -0.012417569235183324, 0.015112979472421633, -0.030072557668798894, -0.014848226284683531, -0.0656870442402914, -0.07096948710270941, -0.041227816743123744, -0.021296412465209327, -0.025233208666239192, -0.018458174859242404, -0.021814129535654966, -0.025679758234476168, -0.024520300504566956, -0.0004918495196079467, -0.014299905563503376, -0.018349337823695223, -0.0039005775140599315, 0.017598121124892768, -0.005882881785350337, -0.010233838626653393, -0.016042909333576775, 0.016776280032370534, -0.018190417016484783, 0.00611533364590419, 0.0025950913681427783, 0.008415537210201721, 0.0013025481063373924, 0.0017454629592400014, 0.014263628407084636, -0.0013411111118518857, -0.03385846350859849, -0.05405796345771622, -0.11348984979915452, -0.047630766375705284, -0.0828717348636231, -0.06568887856443448, -0.05949737480110423, -0.04886794547466382, -0.06249956690518484, -0.006628002564809168, 0.006949090014891866, 0.011198030997111521, -0.025095898465570022, -0.007546822331963504, 0.0120346146457693, -0.004361995249931868, -0.001072340066060508, -0.018841564573407254, 0.0073080487453450966, 0.002821549489145659, 0.010798280947213107, 0.0016200718027883341, 0.003238060511708622, 0.011338119611767932, -0.004587366010704707, -0.031109133700565433, -0.0009195758534133585, -0.02651407201419744, -0.06740592040497839, -0.09186293533198207, -0.07905738758644631, -0.07700403754268945, -0.08420547410579433, -0.0581129084136008, -0.059346595379523505, -0.06732262618691508, -0.018680066290764304, -0.03644601157283065, -0.00271504449212355, 0.00374162298690974, 0.010008293497507472, -0.03264499365265542, 0.0008241578149396063, -0.01252805706382918, 0.007089991941517309, 0.04562164909184991, 0.013716910341438132, -0.0014859264568578105, -0.0031752173728018403, 0.016040659946834002, 0.004009687593272658, 0.013193387233244883, -0.019488930699867422, 0.013135893814939766, -0.024249335427400445, -0.049881515550680156, -0.06559227784014425, -0.0452603834151945, -0.036873580821874696, -0.041547255398629135, -0.023417841007540758, -0.042170569826633114, -0.07659996378378887, -0.05627869309194362, 0.01550263987973702, 0.0015247991836024309, 0.019649577087964373, -0.009050285339629663, -0.002530133287992168, -0.018546007862727962, -0.015179644137468, 0.014390375480998727, -0.004442960940427146, 0.007533036945851031, -0.006534965878761166, 0.009443739900863212, -0.014431368315586987, 0.0020602993298589932, 0.01197560276373213, 0.0043579572349817745, 0.01173249307044167, -0.0013924041654667738, -0.040019572249204535, -0.07472669545439287, -0.07369811556337845, -0.03637588672821968, -0.025907531008002964, -0.026849554281056752, -0.04522807787114944, -0.0295020246876466, -0.05146773210179881, -0.04367615491404366, -0.02086202798069266, -0.01557455726348328, 0.017106458906027203, 0.017797054192789694, 0.010416717621233309, -0.00015421871729193556, 0.009418495436965029, 0.018102886452516325, -0.018001818297177338, 0.023843718783303863, 0.018220649138516853, 0.002523451701431115, 0.0019273561614996802, 0.03899469718376178, 0.011964434235954457, 0.028726636832154456, -0.006571968771435734, -0.04379893970712376, -0.040629661801194844, -0.08274951297066353, -0.05821956111677298, -0.02765959701143461, -0.019551326955149644, -0.03126766851885543, -0.05654040391297459, -0.050792547898022004, -0.031320522287761145, -0.004006443986727762, -0.017281845125154464, -0.008566005255956381, -0.03212796571218424, 0.007058896134418244, 0.01340454617186612, 0.0015480776830260113, -0.006730143372667058, -0.01183274992514645, 0.0054620516638199225, -0.011342932359703357, 0.01568304394269661, 0.010097807208892143, 0.0024896201791371328, -0.011075757442063069, 0.02655323381517919, -0.00899360181948335, -0.03620253930239321, -0.03670138832533722, -0.050364968735443695, -0.08249609947031272, -0.057060022130426956, -0.06265963198434969, -0.0030637243918848083, -0.039977093447757656, -0.05419869215458276, -0.031328296370442564, -0.022337943197864963, -0.01803400870296621, -0.021322547386569433, -0.00848725902776139, -0.011946747340392206, -0.03594588895275191, -0.002243003230323508, 0.006240611458990815, -0.0047622021634776525, -0.0024610501772405016, -0.0035027643480488413, -0.018720891522941308, -0.01380138559159203, 0.007467332570582548, 0.00728601128152182, 0.020876562540008105, 0.007384361398138239, -0.022334054929973018, -0.041287208433641386, -0.03285628252202721, -0.05041664364815443, -0.07291978785255533, -0.02658537628720441, -0.040924372366347966, -0.06815395948564318, -0.08089274773720198, -0.05293040454479874, -0.054791261863696344, -0.020474452651312848, 0.0025916734164494457, -0.0027112179873592583, -0.00849680411329737, -0.010018396151763566, 0.006528100243683132, 0.009365169530985006, -0.0006440761358350586, 0.003855991144898734, -0.006806027936249009, 0.024963920717052432, 0.0021195437306456215, 0.01038006240691857, 0.0014835225054467228, -0.001827781122054837, 0.027635629707424957, 0.02356600521631823, -0.0021300689317103457, -0.03488536538812693, -0.0060591884362390415, -0.030204707388172745, -0.03192134017896554, -0.060102552791861774, -0.05815429354554867, -0.05205147775517055, -0.05235877726279124, -0.04076570760582864, -0.006014051417179737, -0.04168212761939783, -0.019482035449328045, 0.004935296913405356, -0.030157860128328377, -0.0019715612207119085, -0.01079103583582742, 0.00956252769239047, -0.022169056565944822, -0.01928276346533473, 0.016431766891692446, -0.017342846909014983, 0.007460637936283237, 0.005078266495828061, -0.012362522357551808, 0.004320461627422935, -0.024331978903708855, 0.0009630377934926352, -0.030821849072564175, -0.06883236734128793, -0.061372451492258444, -0.0830044370738407, -0.06724067499036128, -0.045184742837742216, -0.04769919229550437, -0.042638792109046204, -0.03938060937641574, -0.01646662335200424, 0.027875913121433053, 0.010020774714682103, -0.030827075380938283, -0.04027304823553999, -0.02902837406777896, -0.01758502512091643, -0.016806240158345934, -0.006056474690321688, 0.016330324706851963, 0.0035468430490206656, 0.00563732367579744, -0.016884101540574833, -0.014787663818269368, 0.004595658826918975, 0.008626845101484985, 0.01732637471121795, 0.010930195307437171, -0.010311785837325943, -0.022023019032722895, -0.05245230528512328, -0.0352384288198235, -0.056250397689858865, -0.03183631781873778, -0.0563980676636881, -0.030791081160740346, -0.026058169779360495, -0.016118605722498087, -0.012249990492820814, 0.013947238874479326, 0.016412918131312813, -0.031247994029912483, -0.021395189612960927, -0.008189297065238082, -0.0012196383719863828, 0.011509879636585988, 0.003343421059713225, 0.005755430144033926, 0.01479040067240141, -0.022437001415455814, -0.008053837680351549, -0.0007748468263106613, 0.02097903980775852, -0.004798663913937942, -0.024642939970652228, -0.0024123015208023847, 0.004052651957318905, 0.023124292663386503, -0.015390410844817551, -0.03423627047347933, -0.05925668173730054, -0.019621618849253054, -0.01811975317836669, -0.03965404036981698, -0.014923762378805073, -0.061530876979958515, 0.013097065786356011, 0.00710296456169067, -0.013589967927026162, -0.03809946933863872, -0.004592197254213804, -0.01695524721862349, -0.003033621655125054, 0.005172495375521545, 0.02168030085688256, 0.007320662397999378, 0.0038186821068183735, -0.006611600502810455, -0.010135653484908278, -0.0019572450821596444, 0.0027952138955891757, 0.0008625292106085404, -0.0168051322469256, -0.010834197161650011, -0.01091223086455946, -0.01176293521894708, -0.03161837009986779, -0.03757133466920811, -0.04890349570807034, -0.016756745564531644, -0.009558540529978858, -0.011684818606170263, -0.030980584646376878, -0.042659415587613124, -0.04427488769583069, -0.032586686047002565, -0.032410634063502176, -0.02312471645290572, 0.016911284850714667, -0.0033889519382425174, -0.02611135753725849, -0.009976488573777826, 0.008131769383497016, -0.004944772083452417, 0.03462666563547262, 0.00726665970162246, -0.0014259460986436117, 0.029651558174346605, 0.0009306148818624554, -0.0006952202362257335, 0.00638999973622199, 0.010159834536400373, 0.0004311029707509535, -0.02319054649271235, -0.03696415065381962, -0.055112310627816095, -0.025141472430296238, 0.007945562412101604, -0.027603548360676754, -0.012419143667257677, -0.051117467068162926, -0.023545396797918672, -0.03561150748312943, -0.017986920349629672, -0.03054560438843436, -0.023755020971051304, 0.012225043180279551, 0.03947597327592387, 0.007321202347568192, -0.004100175142475007, 0.01558178096941974, -0.00606775233231812, 0.029163805483477037, 0.011888087746083761, 0.00889632563395862, -0.017711458095459133, -0.013449130073100439, 0.0009196415570357805, -0.012992193651665398, -0.036885837845718215, -0.004111956627338077, -0.024609722126576014, -0.034357707627988114, -0.052213705497318255, -0.06496467465151018, -0.01985727260326, -0.042524728637592456, -0.04837838206159252, -0.08022995448546645, -0.06500149510823637, -0.024612508424202668, -0.01685418081658272, -0.022727537531027624, -0.027689086457940378, 0.020491596314373507, 0.006927057405928433, -0.004546901826048776, -0.0024026110227770357, 0.0008327686110581349, -0.009956642161596788, 0.020598485628076427, 0.000191824721931145, 0.005761271395819989, -0.007856822365845671, 0.011009063152806794, -0.010583902241838233, -0.006114402178838157, 0.011258525217750908, 0.002406359318814159, -0.04712101306448977, -0.05276710436596722, -0.05966728540092675, -0.05907156654102902, -0.08230174646197319, -0.08316528738883709, -0.08849602031004847, -0.05198447381661122, -0.07563569475460179, -0.021420653500670482, -0.03344293836543675, -0.006581926027616128, -0.01350162692570068, -0.004050360461959522, 0.014160602482954114, -0.02486622020395227, 0.002879095799926076, -0.007213660413181234, 0.028808542766593465, -0.006714636551414349, 0.0003925297696799561, 0.016627432315872215, 0.004158911219531227, -0.01597577042079752, -0.0013405149321535212, -0.0076514578902082435, 0.020073557978204516, -0.03574625052383114, -0.01488175989577888, -0.04138161382209009, -0.03368788349338244, -0.04566512698632586, -0.0612442948156474, -0.04882158974908727, -0.06803270194359443, -0.07132935328139595, -0.07946450730520604, -0.03339557227555181, -0.008937309343065233, 0.019063690691472155, 0.019446676660224264, 0.03979034982978876, 0.0016650129661073827, 0.017289555119280573, 0.008624543756051161, 0.02035351258635873, 0.005754419561332711, -0.0017610417159705215, 0.013917104783115353, -0.012152805937661212, -0.0006277939882299061, 0.027052821339862445, -0.0016000744649794707, 0.011022210696169621, 0.023779661373055972, 0.004164914808548319, -0.027861992182735412, -0.03291582623960126, -0.03990738003053481, -0.06231907676172631, -0.03402584324112251, -0.03790397687238493, -0.01751562136052689, -0.052714885689690724, -0.04384823098418001, 0.0024784818609779437, -0.0006980958328772382, 0.006460716730955912, -0.0024272994871764805, 0.005967624111686521, -0.014199781944071949, -0.013802030326278303, 0.007692021435861445, -0.015377605273628359, 0.014792988101993412, 0.0037184918023429603, -0.027862210996795894, 0.017128651536668548, -0.007121787903962389, -0.005556063218491932, -0.002170630887788306, -0.004095230880404168, 0.0005170597480020911, -0.011506042873627007, -0.012484299404872373, 0.003475671368951378, -0.025540448067250317, -0.005285680061380945, -0.007582257223165883, -0.003903987997342029, 0.008722475502052655, -0.01662914185649405, -0.014818564525696066, -0.024004892199186806, -0.004818625959951317, -0.01275451899391984, -0.0017427153040464939, 0.010548589606339519, 0.0006397154642512552, 0.0008039009644373042, -0.0006860340668725567, -0.003015462540410936, -0.0169028387976526, -0.014226081068458976, -0.004016375558923479, 0.030089533857470045, 0.01707171771885275, 0.0075250264994696885, 0.00938429837376139, -0.027282536790684292, -0.0001569660754144883, -0.004283624252555847, 0.001234874814682356, 0.005094151761033507, -0.030873118355740355, 0.025312852290463927, -0.009056580402289406, -0.0114978732386623, 0.00515981640503611, -0.01629917189437911, -0.012226299976104318, -0.0186030083241065, -0.03541159331144499, -0.0017775515416805227, 0.02187697269294833, -0.007401075372239379, 0.006664975307182412, -0.003732044703100128, -0.010166346065639226, -0.003397719835219335, 0.021662389140383185, -0.002649790134525316, 0.007059336632599145, 0.011636019831661949, -0.00902442674877081, -0.00754985604596715, -0.019513733612408084, -0.016295702269109702, 0.003525907391466668, 0.015320037491458507, 0.019543492900496416, 0.009811173565864197, 0.0065937650848792995, 0.022562959253047587, -0.01487612396857899, -0.014588194192392615, 0.007119853208804934, -0.015335703111778176, -0.00888052085147989, -0.02815914882858331, -0.02184276404555963, -0.01888592578781761, -0.003212114996351596, 0.0030395791187263228, 0.015315792817403582, -0.009771335276492004, 0.022626959261228066, -0.003932214257941547, 0.0066326135191392055, -0.012638434357917512, -0.005248380023315805, -0.008082852992871089, -0.00032226456392366525, 0.0008749829120170885, -0.01259409206946321, 0.019016691620302142, 0.020812008885647375, -0.006593410008256493, 0.023438226635478683, -0.005013649574828276, -0.019266225164088588, 0.0008998564664550365, -0.01060699921796496, 0.0038916671894417996, -0.008931693264907115, 0.020618130581513676, -0.009518420571164886, -0.01173302989759451, -0.0034726896785675153, 0.013586764271206045, 0.008478139701265137, -0.007275566260214846, -0.0094719503778804, -0.010218644195814499, 0.01211052211704211, -0.004464538885703474, -0.010869834016265815, 0.013471255177739516, -0.022859169929686], [0.00034335576786881237, 0.02187823912237449, 0.006832533063478029, 0.0203923206337734, -0.007401437955618567, -0.004843795702505604, 0.009629701271860115, 0.009669343869248996, -0.006924629582117464, 0.011869160510914707, -0.0034412142371367466, -0.01127752881802552, 0.00045074580191092667, 0.015301962956177804, -0.0015373360188798261, -0.001379650555376077, 0.011962574720737296, 0.015400181406950028, -0.00784376978113005, -0.008370877695946374, 0.00012027046867128396, 0.03176930227996546, -0.0010012091756579666, 0.03153344218457764, -0.009009494544783553, 0.014332352904941543, 0.014143853145321732, -0.03121937741449172, -0.006259607846127299, -0.012240212784256209, -0.01182862821363672, -0.009295888457867437, -0.01671075840341508, 0.020762590739658953, 0.017202481507830075, 0.0035356895711680324, -0.012272502216604869, -0.010990812864449756, 0.007265790689937109, 0.008762376539907146, -0.017553707153008646, 0.008148295934994925, -0.011610120202540883, -3.3790080337688196e-05, 0.003503150662541451, -0.00033673688997608265, -0.0011209994505857657, -0.006392951521565824, -0.002971719987560047, -5.259540840157436e-05, 0.004101076144132291, 0.022789607064182198, -0.001401351177041447, -0.020286575317833365, 0.008157205612318181, 0.01446844297467916, -0.00649990103696113, 0.00010640105311761418, -0.003065214166710918, 0.0041857485129828875, -0.0030167502573733166, 0.006467055706993757, 0.004890635339082384, 0.004245216575792476, -0.012891771808094941, 0.013674390812956782, 0.01963150771981052, 0.020990369448762376, 0.00824203300963902, 0.014551180822664482, 0.005964501401432581, 0.012830770846994757, 0.000651073636084095, 0.011091933849803583, -0.012443414364095223, 0.013124259607220638, 0.016865734613348, -0.0009946698531035907, -0.0033401501501605104, 0.005799223480444172, -0.003996639564702127, 0.0016107500305900936, -0.01645586909768624, 0.011161050188698314, -0.012135052219745849, -0.0005266817364748846, 0.007554753211942506, -0.0011886725675715017, -0.011633201704055043, -0.01850320498485467, 0.020803551002140288, -0.019633286676342336, 0.00022300276559890478, -0.0375630697455896, -0.0013576439168070885, 0.0187934024135534, 0.04464522394264529, -0.013053863449482343, 0.021588236741626323, -0.0008844692561942675, 0.01137849778130515, -0.024396634018830875, -0.041876206201689484, -0.022535726806225027, 0.006328940261815512, -0.030028087389301007, -0.01765098684591563, -0.0074755008186193905, -0.002505772109979082, -0.008542608641372493, 0.009325943745912623, 0.021742476467983267, -0.010813569911187957, 0.00864962825575508, -0.015034088199991415, 0.017769508963623466, 0.014767940195149657, 0.014691129981755835, -0.00929976627395982, -0.01550048319623946, 0.00018619714498559705, 0.010102073580651131, 0.004576162090224634, 0.026017107456101366, -0.0008108664590495255, -0.0014445646986314346, -0.00043793252022826057, -0.013037846547467268, -0.07242578176760237, -0.008107295637028469, -0.011762924944157808, -0.024550240844592987, -0.007736347772042475, -0.010121874939135574, 0.0023459026477097127, -0.00584930365665439, 0.000856575825276942, 0.008257779255525928, -0.011594752926756437, 0.009360499114387275, -0.01604264173987585, -0.022433643144260745, -0.01847569794859458, 0.005143808411751071, 0.0031476898875657253, -0.0005408064415761741, -0.02676595469751943, -0.014530778292586, -0.003066210491154157, -0.004969871278903045, -0.022895012407040848, -0.016807499609976267, -0.03012390757166108, -0.023769725351872623, -0.04223481972531223, -0.08255251268129617, -0.03165411664494747, -0.027694235485354417, -0.04163110662880109, -0.0003325691457636356, -0.019282873879627627, 0.02121647418233721, -0.02362279629444658, -0.004248377138747341, -0.02415860314316911, 0.0032328170272158336, -0.014813259697421376, -0.009698342334142643, 0.0026583275229386323, -0.005433516848370981, 0.0028374550414904426, 0.008855827987859497, -0.006793134724212014, 4.609537344268572e-05, -0.01782407146416808, -0.02639325168320404, -0.0014464241112405083, -0.018023477144839595, -0.02730252357966377, -0.04897000265938898, -0.028392322391290553, -0.04754956592361785, -0.06109889311232285, -0.06862667155606889, -0.028084857663810945, -0.05184350771226234, -0.04804632713926292, -0.028818266469947562, -0.020830424569614273, 0.007580116755135858, 4.721793710844467e-05, 0.018526452450057497, -0.009466199188384856, 0.001174288584907757, 0.008501422613252494, -0.00830186445051221, -0.00017486009807143443, -8.864941356473962e-05, -0.006362690088805352, -0.011988459879445558, -0.0072360026759160975, -0.044731501602636614, -0.016184738793162217, -0.030134231912960396, -0.06623712696656457, -0.02890726370111977, -0.037069511639135765, -0.06834539742481441, -0.06758221112697378, -0.07986564482846333, -0.12031123821291768, -0.11271149769326458, -0.08116059278129208, -0.10576592311473466, -0.12347550238002429, -0.06551620562880173, -0.006619418527776822, -0.024927805629607138, -0.004940967241229388, -0.006821212482237343, -0.003549002124487249, -0.014133414460291385, -0.0039686695907386925, 0.0029050842526984356, -0.026016798407380096, 0.0023739906019511624, -0.007789489168411027, 0.022881888232317474, -0.05056450090652927, -0.02914614824679832, -0.02891476228472856, -0.02916236992823143, -0.0437530571722184, -0.02784755756704456, -0.06310694998097303, -0.07867320551829, -0.10264277265293592, -0.1395323103885728, -0.12007483378465279, -0.11641000300091826, -0.10449903539653475, -0.13608339927304866, -0.12220171451961098, -0.10360015849222243, -0.032884703189960555, -0.004206350318434108, 0.013425159311320142, -0.0293598726586884, 0.021290706349684572, -0.0013809244779817446, -0.008987660815548033, -0.00022890168204629113, 0.020583247089149298, 0.002735231674925724, 0.011980079463093334, -0.009127557387032898, -0.016157343410696304, -0.024820729977478292, -0.014306287785858553, -0.01421825075074906, -0.05327491795414347, -0.040047081038138484, -0.06960715862116286, -0.03963466301774012, -0.10183109814017081, -0.1465789429155581, -0.11089728046701447, -0.07712374194383773, -0.09814909782412191, -0.07358130462101531, -0.08841670657504702, -0.09927332413631243, -0.018735452740233548, -0.02689570863834628, -0.0021884633306337845, -0.006302565138336874, 0.018015197872950302, 0.012122212599997403, -0.01158187989049571, 0.011444441253390116, 0.0033757101166881193, 0.02043659156579724, 0.007243279720422283, 0.004135788083414592, 0.009994995525309781, -0.01243439971932222, 0.01769115988524531, 0.026168570879488554, 0.0030675291983921515, -0.04098273265913076, -0.04384213587028362, -0.05496679669693697, -0.10040358723464786, -0.09908935312310398, -0.03417067945297687, -0.017397541766126307, -0.07262344980199108, -0.057448290798724884, -0.09122487079159093, -0.11259665976742245, -0.07948107536192216, 0.005375672990316313, -0.016488521157560013, -0.00878706795896747, 0.007310705557074281, -0.003113948442038462, -0.012313611718913747, 0.01192052801434666, -0.00210337515832534, 0.008984149114985317, -0.020540829446431725, -0.027202777544737315, 0.027728511327389134, 0.01161282907855511, 0.012486501397909654, 0.018748558425547457, 0.003156681833645247, -0.015575892210488777, -0.02492784832559557, -0.07613309114163731, -0.09552166409452707, -0.06159294523736103, -0.013262698285449648, -0.017800121548206267, -0.04779507640251449, -0.026718365146737876, -0.07351598982772653, -0.07443739395368114, -0.041560497447399355, -0.0048378370462856595, -0.012578701756891946, -0.032921193189917194, -0.013070071237515463, 0.006554272574885978, -0.024682403835855675, -0.005921987523606748, 0.00722740597342827, 0.013931205238404515, 0.009176840049902229, -0.022381407335605494, 0.013399040132975559, 0.02948320092483362, 0.033519237916395196, -0.00029905694054531683, -0.00430006777906141, -0.03989560364833713, -0.086618431545653, -0.08351034070284394, -0.06031325534576553, -0.019848873132926943, -0.03188953030412039, -0.060576630985516314, -0.06954397527919264, -0.07226649523192868, -0.07429849356071352, -0.08220651333394402, -0.030343521496207067, -0.03176091633423591, -0.005792624975147667, 0.006323149874651034, -0.006029290778067093, -0.0035911374973716373, 0.0070208579867109665, -0.007024815958624359, 0.022185640358656, -0.014836368736775195, -0.008343060167155154, -0.0017828623524041816, -0.0017534010224141336, -0.006805468595267872, 0.0186431319681068, -0.0024619141689269128, 0.008524865325041098, -0.04847231679689819, -0.07890115881068308, -0.09189572995382744, -0.01807788813701347, -0.01589058933226003, -0.07728960319537585, -0.10423360065363153, -0.09508397001949563, -0.0754745273040616, -0.0767433733190246, -0.07073625850560479, -0.03675238152699495, -0.047111828975279324, 0.0014988485971873598, 0.004910744562078904, 0.008126991260795767, 0.008255658339297487, 0.004989042055189758, -0.00292277983308445, 0.023005341895034507, 0.015061908242647429, 0.015024725149362463, -0.0007859793078170916, 0.005768603841270906, 0.004529107003370941, 0.015872778596798105, -0.0164142015576855, 0.007720041552435551, -0.009397829318529177, -0.04903483908365474, -0.05805189306125014, -0.09353377880206365, -0.09631199491987871, -0.10351367994694308, -0.09416723462615863, -0.06934365888319831, -0.05799426979946002, -0.10620631076190834, -0.06934208571309637, -0.07311550563449644, -0.052812659192313864, -0.03013451449006831, -0.010255577570076129, 0.014453002624038864, 0.014794370313842013, -0.024063402551145207, -0.00987944776129355, 0.005036765593443117, -0.0036786350826334573, 0.00946258137146423, -0.014552241578858618, -0.018047170996597126, 0.026344697973726253, -0.008758010606482926, -0.019096378754145247, -0.016454252328152997, -0.015893632436919967, -0.07122171578442335, -0.07161596740553962, -0.041502737220127824, -0.04764048036647008, -0.07081624869776139, -0.08920260279218949, -0.06128354556579978, -0.07509372314943909, -0.08628988874007162, -0.09323017827506128, -0.09100802254150495, -0.0228423574608625, 0.0004481426403777706, 0.021413716218059934, -0.00858988256993238, 0.02849117708885141, -0.0008694153959638684, -0.02718754796819169, -0.022548511843826755, 0.00769340606847904, 0.006023353537458033, 0.014244266289398705, -0.02869487178445054, -0.007022003866940562, 0.006492198225287257, 0.014416257825024502, 0.00093709933817923, -0.02491105796645797, -0.06025312415289866, -0.007067886769459834, 0.004579765577926278, -0.01522326805862436, -0.06538149922385522, -0.07390817507198937, -0.03532863866434115, -0.04228342014258737, -0.06719474517812388, -0.07096633377548536, -0.0002019850067228931, 0.0001501859233203606, 0.010610828923094054, -0.003233334140551391, -0.01307610665630486, 0.018738541619629897, 0.021080598006270122, 0.030385001637092676, 0.012386681724425848, -0.009551050950532962, -0.0001855946874928805, -0.008775936309140689, 0.0078060027019184255, -0.0041357506131333936, 0.010211840953506761, -0.005093146502684279, -0.026168396743178984, -0.031247465995742886, -0.05276001977084967, 0.02138184929809203, -0.012891561295963713, -0.07061347110302886, -0.07364849182376064, -0.05224314126268095, -0.07086461352641242, -0.07031189380417398, -0.04783435500338086, -0.06822103686504417, -0.010336525134972144, -0.023538171949356364, 0.004777952251146731, -0.007159657876339273, -0.010053252884672908, 0.011073665915498666, -0.014751395165036228, 0.013613575380782365, -5.3592111872547316e-05, -0.011825453988016618, -0.0205829951877818, 0.020529655354764, 0.013056289123841954, -0.014156479116352405, -0.006873132027268772, -0.022421200030406315, -0.04019089072685886, -0.016695479052782177, -0.026892424430342177, -0.008590284435839313, -0.0468912218499421, -0.07687964268112588, -0.07813497399853274, -0.0835629879504454, -0.05933176806230734, -0.032938947992977544, -0.004706390233837951, -0.030276326761762506, -0.004536277428940306, -0.006611168454770337, 0.0005652839862739136, -0.01901380292144523, -0.0056774125082849755, -0.025798678098995654, 0.004201641590023668, -0.016383061407213056, -0.013950145736644862, 0.01355060116908981, -0.008025644158249983, -0.00021833839207998078, -0.02559235345488462, -0.0311108409459172, -0.033205357487537925, -0.014503918236610758, -0.05106646669324903, -0.027864214932740324, -0.05222203548815927, -0.055555022751882094, -0.06209703264144841, -0.07276244682350125, -0.08714846999162053, -0.09580675829802084, -0.06308252124443088, -0.003648104269213289, -0.01536878481390323, -0.020248403190935654, 0.01637644606659401, -0.012594777475561904, -0.026462317494623997, -0.0066372652283749126, -0.026065013845986515, -0.00745605776381745, -0.012230187886016056, 0.01448122500779336, -0.0032256896669075165, -0.015316535803183939, 0.024476909435183464, -0.002093631424794748, -0.005335528269272379, -0.005308855859817318, -0.00498898750615485, -0.039038564759351635, -0.04817816599952323, -0.04905932213458749, -0.08948779013915717, -0.08836200811877716, -0.11002006284651403, -0.05235712041239191, -0.08008275722297109, -0.05244295369241009, -0.06714687532203636, -0.01628188362581743, -0.04226692592532838, -0.016511189207923334, 0.0015366168483734045, 0.011478513296407693, 0.002985932505747114, 0.018792892223760682, -0.012734674063462759, 0.02858447933630203, 3.986634523003083e-05, -0.02446547074374178, 0.011876226116412252, -0.0066375861777992545, -0.014313018816515663, 0.02564058869104691, 0.015281163082596519, 0.0019407872856805253, -0.00851619229754044, -0.02918851698829744, -0.056368154201684686, -0.039526295170808995, -0.09886640406917166, -0.13271277699500314, -0.10265280448271188, -0.08127779459259915, -0.09159243258328167, -0.09798314578450994, -0.06684861926493398, -0.05989573687285512, -0.052236220000694444, -0.015741442427774796, -0.008935201540059707, 0.0002524451556749118, 0.01661807978842421, -0.011091135659838337, 0.015096138460338766, -0.009045059345078052, -0.015044893014281078, -0.009267118888593695, 0.0008739738865287457, -0.0024831146257325042, -0.0006409171443521862, -0.0006831086249465013, -0.004227744276220311, -0.003650984236279292, -0.03302921408004606, -0.014128973009842501, -0.021886114406610726, -0.02962511549885571, -0.06863551565644822, -0.1016228290791707, -0.08018050181196273, -0.09336945262241331, -0.10260108109593995, -0.11030863487945729, -0.061796589190215585, -0.03080129319917818, -0.015168890051756046, -0.013317272817491392, -0.012243816226841155, -0.013376624002317188, -0.023769310959096488, -0.003444008613448093, 0.015424845320218221, 0.007620631159196973, -0.007557797620473762, 0.0003898485602090122, -0.016365718109977875, -0.017440077564839552, -0.011158005268136054, 0.01608158643734802, 0.009581785729467341, 0.0017664230838652874, -0.023522307152110705, -0.007657112940377447, 0.008040840733069083, 0.0005679853375778122, -0.07185995309810793, -0.07372387956159213, -0.046326969478336186, -0.06301179562011723, -0.06911256503513914, -0.0313148893606304, -0.04239255004773977, -0.019343726338893766, -0.024360632033953607, -0.05211425600852906, -0.02755743421936728, -0.00941584105525128, -0.02849394262878491, -0.01443457471780915, 0.004088745692496236, -0.021976656459000852, 0.019646877713040682, 0.00863221588627201, 0.012253629610540603, -0.02537804818549834, -0.007645215734600305, 0.009897194662486212, -0.005756859580307938, -0.01467417567509768, -0.0012695727672887675, 0.008204529155764109, -0.010907848284372993, -0.01333553327627745, -0.04510239666118918, -0.026327522741266353, -0.03254673769955358, -0.029913874875375883, -0.035791892289146615, -0.029154661704013807, -0.037003710230106755, -0.024415222835288873, -0.02303534686670858, 0.0012152806234917526, 0.004464131722313904, 0.014091545448499188, -0.0027653092867024167, -0.004748031654249299, 0.037856672360412534, -0.009096753023595897, 0.020424323452700854, -0.007751250801055318, -0.00339225174731689, 0.001913933462176362, -0.009706002706185332, -0.020515703573334595, 0.008339957283782395, -0.01513055214682209, 0.0066454863008126325, -0.0072741464160731096, -0.014253128804525964, -0.027312945261848, 0.00891739170499598, -0.009826899267442983, -0.017761772372081923, -0.02206100003752499, -0.04028560808209601, -0.00918108771741194, -0.05054849039753296, -0.025078502488367318, -0.0276780720243988, -0.011250188763704759, -0.008747276359129046, -0.0011186818885028493, -0.014166493078153259, -0.0010840319464016375, -0.0013332373401301592, 0.01413105818984161, -0.014157020298955263, 0.01548858680593206, -0.004128538988932705, -0.01009184843164781, 0.0007633503219673189, -0.016718532099764382, 0.008512216697072562, 0.00017980958106177548, 0.012218965972079792, -0.010507231182559508, -0.07999608342988052, -0.008588736554972417, 0.00950700271978512, 0.0044468043743640575, -0.008474925051049381, -0.01651273446409945, -0.03286886469853018, -0.02148948296009208, -0.014455550746836297, -0.00819945051515254, -0.011682535766409955, -0.006068208405466526, -0.03796222100255937, -0.007256621780094207, 0.028529926444601283, -0.015007918984480655, -0.0056491831713223984, 0.013131984014615537, 0.0044292594145788474, 0.006600289721346598, -0.004864126683646861, 0.0039308615746858665, -0.005230992658603774, 0.0026650993720896523, 0.0102925932082744, 0.00516701845770661, 0.02323518347167977, 0.008325779124738706, 0.002369669266626109, 0.011055018769030516, 0.009253485044489662, 0.016302060001841652, 0.0069321897677118525, 0.016409251939872915, 0.04004198169707523, 0.016666254558847234, 0.014244362996583534, -0.015938891722183386, 0.011374574755527592, 0.003258087647135919, 0.002441262047115284, 0.004809723667765106, -0.015562706729387633, -0.0031832021415294986, -0.004609446691736958, -0.006352764732890463, 0.0038835695104476034, -0.004842068953438732], [-0.005319940825405052, -0.003669445413991075, -0.000305677072487637, 0.007636875098669368, -0.004355728443706772, -0.023220572670204553, 0.02124107812265064, -0.020987372309125795, 0.021985464860902727, 0.00971492411229519, 0.001534113474366566, -0.0062020702616786575, 0.006110693503223517, -0.010903689769743478, 0.01274945531616787, 0.005719118801763631, 0.02447633370749099, -0.01356264967319483, 0.010322132255964603, -0.010066344985311433, 0.01013327228366297, 0.015129569327328157, 0.017057945182428372, 0.011246044907356234, 0.004853839198704265, 0.004350929445033515, 0.011328378643348213, -0.02435009373405636, -0.01016457056386552, -0.011544231001612735, -0.019023100565764832, 0.019539396586815902, 0.0034543144770037733, 0.004556968260275117, -0.002185269874192794, -0.020785763506247147, 0.017950764403788174, 0.027185016666535333, -0.006243097784119282, -0.01568737526684983, 0.00540456700878445, 0.009422569522919854, -0.0005479115162834845, -0.011400279803818721, -0.019015605232792616, 0.027309007677475725, -0.0030346819950660847, -0.005663684500608633, -0.0002770402812466213, 0.020269030305248657, -0.019555467658564144, 0.005016741116572671, 0.013931669652407642, 0.007501121596721277, 0.00032384229156737763, -0.018595604775725187, 0.0031896726650570708, 0.004825106905609592, -0.00928347049927053, 0.019685968127004363, -0.009753471793223308, -0.011058547434686653, 0.02318126410425745, 0.02132235144134284, -0.012392056049447753, -0.002064462866448918, -0.014902284439878826, 0.006635635687899856, -0.025410292766818394, 0.009288740611944539, 0.005935984665624752, -0.0035242000391064792, -0.0008193443660973517, -0.00180805858514304, 0.0025465708435180516, -0.006278663588853715, 0.002364320628052158, 0.002752711347524043, 0.0034172473352518133, -0.012225052089108365, 0.017914466685680832, -0.003459163308282381, 0.01989304604787298, -0.0055990442400979615, -0.005946214471611859, 0.02114356707287317, 0.03249805481331108, -0.004612568975161797, -0.0004824288812208571, -0.0033735955243108517, 0.005665947836042476, 0.01257734615992391, 0.00562761405880873, -0.0006634318979711418, 0.007932465515819748, -0.0047013773440367276, 0.008239212215319433, 0.00010973224695006008, -0.005726860613224415, 0.0003515766157930498, -0.0418190559711253, 0.01424436047771589, -0.01563614072809016, -0.008320659282760955, -0.00035408223416286274, 0.0005033425344347019, 0.012146702777592179, 0.009140390548118067, 0.012035953583866579, 0.005407242340617183, -0.010659664709599411, -0.01133534226901668, -0.004860791894999283, 0.006854640756292174, -0.007017622592600574, 0.020438496831597038, 0.013669752479781807, 0.0023402067167449334, -0.004845448696562259, -0.008835443275699023, -0.023719943892293597, -0.0003322621809094856, 0.008498049557285219, 0.018469539048730062, -0.006332525271976953, -0.01651649956334757, 0.004008197612620716, 0.003269806779612903, 0.012419630539097946, 0.0071321597184206935, -0.03123221950954105, 0.012934607168389204, 0.010163314103163252, 0.012329486280228945, -0.008369609980582962, -0.0057368274771554244, 0.027198499184136915, -0.017555981459618588, 0.0011622853235441837, 0.017673666712957253, 0.005486004657986119, 0.005387271228675726, 0.017739534947178146, -0.0008680869227029422, 0.006498888755218243, -0.004198922147147253, -0.00426205565264772, 0.00671244763039603, -0.011589852445331943, -0.007184989269738429, 0.026627787888974932, -0.011275010141931274, -0.023039350798987453, -0.010687614073987476, -0.02756076023290966, -0.01703313760412913, -0.012273759364288175, -0.009491558033172457, -0.0019315047342421615, 0.004579591522405932, -0.0017640775207179832, -0.023780391445040718, -0.01541185616110385, -0.022972820303101743, -0.01025632841278257, 0.003294987881878748, 0.02853294686614348, 0.016146871356846025, 0.020028268803485055, -0.015911896298396844, -0.006428692800451125, 0.005115024365105768, 0.03265071374382662, 0.00959390523942252, -0.01623581170024628, -0.01836277970437451, -0.012481733516253701, 0.0066214726812596335, -0.01754212032628827, 0.008794828569054471, -0.012737514187643822, -0.003188203736888087, -0.018195459860684552, -0.024604090490232416, -0.02808022795458417, -0.019749054843208286, -0.02110349809198173, -0.03316576889721636, -0.031065779574008887, -0.005656097942232506, -0.011088384528480143, -0.007464099788922478, -0.01697474482976424, -0.0005389706440137305, 0.0025635604928750245, -0.005096878117198757, 0.004788319794339673, 0.027528878970328352, 0.014790660797881782, -0.017151222256120674, -0.0038705942470078952, -0.012819788820917475, 0.007185692102592451, -0.009164395328488187, -0.02356552273733798, -0.011567394242846089, -0.013199005993359544, 0.00028487524300545427, -0.029965574997211024, -0.0168871405322243, -0.05989190247641058, -0.042856907654414425, -0.021588080638784046, -0.02282415668899311, -0.030823149688913677, -0.05042233934247096, -0.008734757606744824, -0.004669284195641698, -0.014390559863359588, -0.01051964334065476, -0.02545341272991064, -0.005716005661501399, -0.003517483984096551, -0.010007838514593932, -0.01517922418427547, 0.004657428729981855, -0.0042463955297026516, -0.015890086657885837, -0.01390904937770197, -0.01801338553793244, -0.010605954708349392, -0.026621641712507325, -0.022856944596411494, -0.02313057945660542, -0.016489583570095116, -0.03949644172511863, -0.040562343272551045, -0.04563570952280688, -0.043728422093271546, -0.04079357600907739, -0.03573254530338948, -0.058400239871166014, -0.023113593586891544, -0.04801920498464572, -0.026418495148062795, -0.05639924248331771, -0.0035010373720103676, 0.001107979166288206, -0.0227032609212462, 0.0017073348948577407, 0.004631846342111079, -0.005216423968740103, -0.0020258394019215236, -0.021647231632822395, -0.03038089330843326, -0.007074041719451739, -0.027238858859458082, -0.005506567725002768, -0.038753880208289515, -0.022515183937551014, -0.009722321373775147, -0.008378098525022644, -0.007164942209715369, -0.03105386716967816, -0.017618270446344148, -0.026832084210665835, -0.05840302310859317, -0.0334010377764489, -0.019166511387471483, -0.014052823221259277, -0.032166121160245316, -0.03668678694363705, -0.04728369407310491, -0.023055427722657906, -0.0347907632595095, -0.020444117637064493, -0.0014761532811427651, 0.0032015206552435714, -0.008383842900396548, 0.002204294232052592, -0.032729648204938774, -0.01832145288500224, -0.0033340499694862764, -0.015170905308162317, 0.0037750566558779515, -0.005246364639555563, 0.00812576070562025, -0.014889556023262845, -0.02581040531119236, -0.01737015967020173, -0.05052459070127822, -0.017007557147474737, -0.007792874481448097, -0.031107293573915222, -0.032290526242195396, -0.05786422441351985, -0.024721794277171274, -0.005225815627015738, -0.02692878007348059, -0.06173238062517741, -0.05537563926507719, -0.011341396475026872, -0.0001847589439668046, -0.002156629568462283, -0.023776967342399966, 0.005496274595785677, -0.02683017377527204, 0.00014815799039630525, -0.015078553766405644, 0.043906269303535944, 0.01423085364257063, -0.006848702120507378, -0.027172055628341314, -0.01668351291392364, -0.0056294523294128295, -0.026032448367887765, -0.0004977424670731337, -0.02043127794779973, -0.033699246141006334, -0.02493668486943007, -0.03138571080952764, -0.03462313289742221, -0.046221605679293856, -0.03388407099748774, -0.01506156202898514, -0.047892246868964934, -0.026257226100468326, -0.03707571812716804, -0.03942281318758413, -0.03342702715242543, -0.009504847045944875, -0.0011820177124944261, -0.008849917677113085, 0.01984395205360744, 0.01564785432023055, -0.016419358689060932, 0.01617597810719958, -0.015203797840535473, 0.006579209121968528, -0.02858131008168114, -0.0024442191767989814, -0.011596266838072154, -0.014153054019215303, 0.001713109319427941, -0.023858669286547122, -0.019649299885641534, -0.003626526634198917, -0.045960764047826806, -0.03691474994767574, -0.03189997305510721, -0.028836558999806798, -0.062413238005009565, -0.050104468891792805, -0.029629246310655492, -0.023147790224401724, -0.030490692073167465, -0.011496098808253715, -0.023590300812389955, -0.012755953345398335, -0.0029384605438728, 0.0073518902461927145, -0.021507921976716065, 0.004320704251553552, -0.004092540988733288, 0.011660094991251839, 0.02493700127601788, 0.019501021937662063, -0.005470339345229267, -0.008175379971093058, -0.003838920034207583, 0.01369830045056088, -0.012161177761265511, 0.0028032119770650087, -0.01375828908064628, -0.010608061155759593, -0.026380866332162335, -0.029612116903600934, -0.024298075424423082, -0.0647640025869417, -0.060578937820212383, -0.055646591736537895, -0.04567067675169161, -0.04822660942151424, 0.00045075096519194436, -0.023418802780113337, 0.009817561581833278, -0.016368882944279753, -0.002487262999710632, 0.008914088594489911, -0.010159785002922295, -0.0034757553238140434, -0.013725018782464028, -0.004337160354377965, -0.009110997098866556, 0.0005318452734256598, 0.022626799719921094, -0.008861196215898115, -0.007455958504881489, -0.02048078766318393, -0.03018009590032434, -0.03242255038009623, -0.045108388731604256, -0.02462743974676595, -0.011959118072637179, -0.02183598170250625, -0.0354652763624178, -0.059211843279392655, -0.052305704949324947, -0.03154410367744089, -0.0255239298309583, -0.03647627018252324, -0.01900005364301035, -0.041448964878433234, -0.014915903522049846, -0.007311243302083176, 0.020269371969989645, 0.027921152823498566, -0.0005180119962053286, -0.006603731862912217, 0.015896718961796768, 0.01249253742230792, -0.007997375762665756, -0.01967144846353699, -0.01550930290543289, 0.020060367183627546, 0.03659580198189065, -0.020093550520177694, -0.04728397849176362, -0.03592942364028115, -0.02468002372184534, -0.02865878207742801, -0.015885692295674828, -0.018204320022589104, -0.04865684861789445, -0.051180321810910784, -0.03503028737788755, -0.051485210144036384, -0.0359043395156132, -0.009965706740377365, -0.01589617244115448, -0.0513703351289276, -0.054252880846272854, -0.027213440314782157, -0.01723133447122843, 0.021508494736554272, 0.002542924681931012, -0.009315589660669836, -0.00781620242020251, 0.0007002422277312105, -0.010302670124832453, 0.02109859360405134, -0.019118910296510336, -0.010399790411564644, 0.004631571165699616, -0.003742416538137186, -0.00998546307416549, -0.03177831317853011, -0.027851124740632192, -0.04790742572523647, -0.023264405482406984, -0.06822674175774476, -0.04302339180824396, -0.05440172397916114, -0.04138994434870101, -0.03588279930582583, -0.03009816246932532, -0.015280300871489086, -0.02564516005811429, -0.012927166516388285, -0.040068540586451463, -0.013737888072088523, -0.031971431021224905, -0.017085988573614288, -0.01926907304727878, -0.009336166147543682, -0.00021226488176360518, -0.011776582887677503, 0.02072748170841101, -0.006111409113146212, -0.017516790688805153, -0.0006986860835144586, -0.006015453388971884, 0.0020894881629776097, -0.04784216611081015, -0.043546346940304265, -0.041915604779896885, -0.07251251468863652, -0.03818462246810693, -0.040483116606781264, -0.04540955560760777, -0.03615744044939348, -0.013574788034821358, -0.009070064645928112, -0.015126546888354579, 0.002947051513171886, -0.02839864553959674, -0.03869451186528181, -0.025998314036681628, -0.015793715804080566, -0.005213950820770902, -0.00016756916040007997, -0.019494710913968365, 0.006521982401144159, 0.017578306333187643, 0.00172552055472649, 0.008001032740902882, 0.02213386602326268, 0.0061476211291571015, 0.00414972720780767, 0.0066243959662158165, -0.023951745859582263, -0.0342956635552956, -0.016190331109027137, -0.02396766371417507, -0.012649375016544711, -0.022343932978666933, -0.03667045141589274, -0.029043983994083474, -0.05053175194547817, -0.02745284722462868, 0.0018474708003632127, -0.004758788173154125, 0.00924972047290814, -0.022299253248879526, -0.02850497636278143, -0.02125249964202712, 0.0026608113033980444, -0.017262030962077637, -0.02730370444516195, 0.004291063611661503, -2.3579325466829227e-05, -0.014108043923357051, -0.008831858389427382, -0.007474641086670772, 0.0214862107531724, 0.04433779200524051, -0.00855775167796492, -0.010368427770323903, -0.03391278869252487, 0.013613012760069605, -0.01667783804969352, -0.03400508930194569, -0.0001186768389345096, 0.005700169206295113, -0.046727756282812435, -0.07629286065439342, -0.057960066133138664, -0.01938970878415165, 0.016892808320396174, -0.024369954157798353, -0.012081016936193402, -0.0018239083145791491, -0.01522612922050298, -0.03721454735844661, -0.029413707286275435, -0.006467732301984224, 0.008981177802607036, -0.037642028613487234, -0.020653156830824426, 0.00968138691918572, -0.004063473178769275, -0.005103938297218008, 0.0011090271760064547, 0.0009836477114374504, -0.019987173037759612, 0.012397269807133507, 0.02090148383690954, -0.02811469012356058, -0.00943383715277191, 4.592187464744083e-05, -0.047790566315302783, 0.0027776214733366282, -0.018001145931723465, -0.04523878218132593, -0.026057019375748464, -0.016558073823791226, -0.020605459814392064, -0.028254753677006406, -0.033474080906051785, -0.02207404321257645, -0.0283270889631019, -0.011049802755852385, -0.0023983529702203236, -0.011783756749954225, 0.0063769053258293015, 0.009549919072595855, -0.003204732341532519, 0.012997007648913522, -0.004632438511923659, 0.004404004830449268, 0.005379016396714035, 0.0018527055439570665, -0.023576458378772543, -0.01313475898589594, -0.003916575348007421, -0.013115529141703447, 0.004275523438240966, -0.05508664092017808, -0.00847817888402724, -0.037281237842747485, -0.03878646983681202, -0.016642976666517702, -0.05347886296803405, -0.04075634280175477, -0.020460093927843103, -0.03193274241309457, -0.010261302779844996, -0.01264600730170481, 0.0010998801744732509, -0.03175136911793517, -0.008095060706813791, -0.008594122955954924, 0.0065784028640685135, 0.006767262615529621, -0.017198180628277424, 0.021088762844950433, -0.011735245711918035, -0.012455694728699476, -0.009661448341469476, 0.012565992233031332, 0.00842510224579385, 0.01666485806419485, -0.003154260492842254, -0.01962812891110247, -0.018739295407445018, -0.03514647865669362, -0.04378661713762283, -0.004789482384196604, -0.05999421594435031, -0.035414704988251895, -0.01762149346427672, 0.00025360267118682846, -0.014072046012014068, 0.0009074409490377501, -0.002907766211990793, -0.0028978789223994585, -0.014479103932660175, 0.014314966163651884, -0.03240789249492863, 0.01410364515215012, -0.014089557703045355, -0.006062727563267883, -0.019261836043029085, 0.0013463384884056053, -0.005447081633451476, 0.00801887821509346, -0.004377855854549281, -0.006678810508801246, 0.01351943275260279, 0.013364883408994464, -0.018067158010505128, 0.005506504033451647, -0.0013673865604979366, -0.016926845665083984, -0.041452311709310886, -0.031893952332593636, -0.023405943736617068, -0.02173736879308556, -0.03204886362620496, 0.0023443215701892083, 0.0021036383377235953, -0.00019361893668045846, -0.000946640147604143, 0.0011969950325493603, -0.005761430490269153, -0.008815100470725147, 0.004395297353346549, 0.018920900989825934, 0.001720716146792972, -0.028326158600732426, -0.01056822957274746, -0.017391657745678163, -0.020379337784203238, 0.02625267937383448, 0.011142993962575506, 0.004593633589988736, -0.0327582006858506, -0.023272569943124672, -0.027827860574864853, -0.0026291151125909145, -0.030674894520760655, 0.00027455468870976715, -0.009606378232481706, -0.009956762604046722, 0.0025419246827375584, -0.018947371082029006, -0.009441323569543029, 0.005764955603029809, 0.0006689125777944059, 0.009247946721572104, 0.019202283644752568, -0.0055554295126590035, -0.011267037631857048, 0.006890711630889562, -0.00349152665798988, 0.014391689122753121, 0.008198531858858594, 0.024187617239593718, 0.002939381226228204, -0.009627963782137918, 0.0016638829390907765, 0.024151316214654456, 0.01222688152899278, 0.013877494099676806, 0.010272561553674264, -0.03028747242430111, 0.012508689907558958, 0.009769235025927992, -0.024741102928124977, 0.0051176805751942545, -0.018125809461441742, -0.032680472192873025, 0.00990917067496683, 0.0003561492770342056, 0.0015321318966719844, 0.0028290230892767635, -0.01678632631702557, -0.0006846330483966708, 0.015240562423916167, -0.02476342734661046, -0.018267544035127987, 0.017022125694519764, -0.012732071566789667, 0.019389272896509598, 0.015713047678543108, 0.02373341702872749, -0.001867524059072394, -0.025194294419373233, 0.000548423674639031, 0.006319131099251325, -0.013171084314798506, -0.008179329592343791, 0.0038473889159126185, 0.01110493555664962, -0.012287115263290379, 0.02476909199226503, -0.0057377826953868396, -0.03402419761517654, -0.027369821110743216, -0.017147921161188795, -0.003090636019738792, 0.006334305986326131, 0.007880824588731478, 0.01796683948519017, 0.025503063535025208, -0.021450590383262143, -0.022619649933677877, -0.0054597368055607585, -0.011012150572446242, -0.002151114568238788, 0.028352434497207698, -0.004029901354155477, -0.004894177116966883, -0.004132658047831065, -0.019925066822742924, 0.010089285993536026, -0.009260440636615935, -0.01805418269548639, -0.006330297322462914, 0.009726175737961164, -0.016351195862733998, 0.009389817945495293, 0.020826693323399054, 0.0065911515810232035, 0.01391392234837892, -0.005290037118248113, -0.0065726870990233405, -0.0026548256269779097, 0.013554338480233512, -0.0034895351373868803, 0.009532247359001083, 0.00025668719250365995, 0.003937827465544285, -0.0006767469824459722, -0.013790590625201476, 0.020426740757029306, 0.0016845903296064137, -0.005255331414010969, 0.005362281291580766, -0.01459035310434549, -0.005465944166631111, -0.017307465702094692, 0.0002703381315338991, -0.0037028723491623907], [0.0012684251679854204, 0.0002867373939490669, -0.01661669625710051, -0.02318115083970833, -0.011109989053773167, -0.0004757676081753056, -0.006801617490847997, 0.0024645361579709894, 0.006622265407098414, 0.018644931241217452, -0.02044290642987878, 0.0030754339498188497, -0.01477127118178319, 0.01011405826626147, -0.03851937339071213, 0.007128097863238036, 0.00843157003832456, -0.003612200671367744, 0.009481210712916216, 0.019923876831800007, -0.0029173921260172617, -0.0030283530680067865, -0.027303968678463096, -0.0007934045920958858, 0.025018029381846267, -0.0024113150534003447, 0.013286622078654178, 0.0025940334805761287, -0.0013317372895219736, 0.027864486517180605, -0.002501743455171339, -0.007505761438366591, -0.02633755409566405, -0.02374812391432113, -0.04148695030663363, 0.005495238251147652, 0.023973848791524876, -0.008359525587307527, 0.027167395002096736, -0.01444323074575116, -0.008348960227794173, -0.012762793421150038, 0.0015322372064698313, -0.009448863770851188, 0.008701086286592326, -0.006447964095705192, -0.009773287024783988, -0.022755190845670698, -0.020482137617114895, 0.018469417603088744, 0.009009930939606198, -0.04033041226742628, 0.0005061498549682631, -0.030130399250051156, 0.014546732615564021, 0.004849811623487108, -0.0036032502892544465, -0.00042452195223083116, -0.005135947134143695, -0.01942398239011152, 0.000661757541534334, 0.007896969898573077, -0.0017788865560116954, 0.00410411880242788, 0.02637489297554516, -0.015465466935267982, -0.00118312662145302, 0.005411061893433595, 0.0006340342611116934, -0.004977334923238528, 0.0217808118457911, -0.003170404780321274, 0.005688178353028033, 0.010529533966130045, -0.0014487147329129537, 0.0015094541941871843, 0.008585799327530926, 0.0009343306568032768, -0.006845833405510003, -0.016730531658967613, -0.018668517662134343, 0.0035405719141002098, -0.005931112352120038, -0.0008659231668257923, -0.0013366313294451001, 0.008274125596502516, 0.02121092797902126, -0.006286047887316504, 0.006105908069701495, 0.026817461961246084, -0.00563939564640545, 0.006916332232031843, 0.01423981116732121, 0.002161538930094898, 0.0010837124907215332, 0.005611705205181944, -0.011086100358676153, 0.003583461128887437, -0.014370503185892844, 0.017114247719875072, -0.02288089970093009, -0.020020100331719897, -0.0031560506812457296, 0.0057606192206107265, 0.014146058490095842, 0.0045159231660323275, -0.014828325164056383, 0.010786003914403437, -0.004906200048560116, -0.007450163740183505, 0.023408478341937357, -0.009414325911582795, -0.009607977776190149, -0.0017038755802393363, 0.0013489204319756796, -0.030235317535871796, 0.017671697959354925, -0.013582134083929507, -0.0004446271630154249, 0.019113859244421466, 0.010553529545282632, -0.005289919787058137, -0.006022521641246467, 0.01925703500322184, -0.0065665285830642664, 0.020279985297134966, 0.016691991860108328, 0.012652186433621966, 0.018915273719270716, 0.019836885438561817, 0.018436276566954322, 0.027189035697445053, 0.016609280850272683, 0.006521462510366676, 0.03224843625140814, 0.023001653201879895, 0.0072448585146796625, 0.019969231974258032, 0.0092621334975729, -0.019655431925636915, -0.03798988365251965, 0.014134986329749959, 0.006787920094113357, -0.015772306362461495, -0.019019715355668092, -0.007543236897166258, 0.004842755800312488, -0.0014153266351202745, 0.01133492750061014, 0.013866143889085396, 0.010575564290142437, 0.01435256486589445, 0.009114304464163, 0.02618945029250495, 0.012254780659738075, 0.04981156466788415, 0.05394304996365617, 0.023868679454447272, 0.04567633288531341, 0.04780157570993961, 0.02048695208431071, -0.003998776066212577, -0.03724073791603881, 0.004656590831214436, 0.0023302033539018526, -0.01713999710153726, 0.01688841515887119, -0.0006814144449562754, 0.0036666150497027053, -0.016739728579406973, -0.02333025938456539, -0.0029160791841196135, 0.03863642117442588, 0.013781017999022713, 0.0030226016395658115, -0.00041659091301680354, 0.00292354838755248, 0.03963298239091959, 0.029191148922901988, 0.009750743258275366, -0.011095128433338614, 0.024621471718561886, 0.00033236544375920803, 0.04491996358176122, 0.06297353482998982, 0.0481743454311303, 0.09320358430233516, 0.1052326105605521, 0.05918751082063095, 0.030883648681432424, 0.031414936164291814, 0.025934926893248455, 0.032497260913025926, 0.007973475736836903, -0.017263285735278893, -0.0008631320182557813, -0.0020610960167460482, -0.0016369012237404613, 0.004896051546961089, 0.01091530843596742, 0.007691521207729226, 0.029453321309324366, 0.005604906870528263, 0.012428499606105104, 0.07970634858945669, 0.05215994992460599, 0.0752590027151792, 0.006558392464723388, 0.05807576253692182, 0.07195738480062892, 0.07942378122905493, 0.10337613867148096, 0.06892183156520953, 0.06351612132125592, 0.09068302965447135, 0.11316836634237931, 0.1155417103417354, 0.061886217583199565, 0.012825621256054302, 0.00703117786107709, -0.008138639554272872, 0.01073811381012918, -0.01217755437751198, -0.010624069043810446, 0.028311878661040277, -0.03273450106750755, -0.011372825676146343, 0.01612250622300084, 0.07067588157614116, 0.0420853020350516, 0.06043959103356551, 0.04366812466186543, 0.09437282615283271, 0.06792314398628355, 0.05901624665048176, 0.09163405906089452, 0.08683899770120071, 0.11996532545368288, 0.11761227793620932, 0.08564030962007346, 0.05272729668509012, 0.058286124574508005, 0.10553572121382712, 0.11211423490999065, 0.10999583241335048, 0.10238485948147413, 0.0211516044184069, 0.012354476373106806, 0.009079401031179136, -0.008490952750457444, -0.013349157721157474, 0.01297936781245724, 0.009245432915762583, -0.03150929201874772, -0.012051137981434675, 0.04167500374262791, 0.05838691152861196, 0.05597100602375973, 0.08816302869046753, 0.07834336364903713, 0.07096905743899028, 0.03676316400226471, 0.026730117661788875, 0.033784942551587455, 0.066999986432643, 0.12480299724934119, 0.08839797195033998, 0.07357465420920468, 0.06643713140616629, 0.08284504652009107, 0.09104004407729992, 0.15509767447653228, 0.15626259623849362, 0.0966550082466131, 0.01775149430487953, 0.03562351440432627, 0.0008051029595245469, -0.02055823803223724, -0.011671441313903002, -0.020352013499758796, -0.003821345514431229, 0.0393975893824965, 0.004504269791657676, 0.018051621451813184, 0.04698541027514999, 0.051473378961392716, 0.04494562266397435, 0.0791698348762514, 0.07052078151971904, 0.027360164084157767, 0.03538399570130872, 0.060050532333597306, 0.07052337436795385, 0.0716257506310843, 0.07368164761316714, 0.0796297162467295, 0.08447237252249497, 0.0849238222562648, 0.10242863913821336, 0.1304083979015058, 0.131742036116277, 0.11610955413732127, 0.038087220093074005, -0.009062881315371972, -0.0026851152660394475, 0.02431173301798809, -0.010260713127541793, -0.019080881956199842, 0.0035962598904183524, 0.008443741912658426, 0.0026438151004690626, 0.03730151944159367, 0.014362276571162068, 0.04637178489096582, 0.05608887643045295, 0.06087986213752163, 0.027197080209689566, 0.04611481892117657, 0.0675962393008896, 0.09278919299196751, 0.061351629906363066, 0.05873599028059545, 0.06189450084895028, 0.06564083225440455, 0.06952807380959877, 0.07275899416187431, 0.10207232737458204, 0.15123876573378925, 0.12457287642737565, 0.07790205452778337, 0.06704657772809437, 0.0014243891835391525, 0.0031848207040900017, 0.010587657039055114, 0.01277634617870256, -0.004738745275893271, -0.012890360180922343, -0.012676099309637971, 0.0030293323562614696, -0.0157071087909242, 0.014424043027260665, 0.06066601589079237, 0.053569093448877905, 0.07097732595186956, 0.07665696209739709, 0.056130240216411394, 0.08456160302723582, 0.06202485572072197, 0.06202310163266537, 0.08413578716600209, 0.08276356511449372, 0.08208244129670283, 0.11534564788608447, 0.094107944372052, 0.07139836744793968, 0.08596182108726054, 0.08641917569586821, 0.0800116410382787, 0.06432738850487575, -0.004886227798227763, -0.00734915145006008, -0.038712701179673695, 0.0016954621824387737, 0.018636484895941725, 0.010101759591244226, 0.015996314767779244, 0.002628958110854567, -0.004992177623206839, 0.014101013328823575, 0.0519529757301081, 0.03396148126474744, 0.09218466712133737, 0.07901413040918756, 0.0592389426738959, 0.045118060140506865, 0.05053843992644683, 0.040714098742309926, 0.10214946863625751, 0.1230086563282262, 0.10144168892100915, 0.11454359796728639, 0.10606009635792106, 0.11459770412429278, 0.086518491357353, 0.08603209501567549, 0.08479169808841121, 0.04597702198783487, 0.003066164208609542, -0.007816684852819757, 0.0039002016302278376, 0.0028047874958355523, -0.017028674873495082, -0.0033419769805673547, -0.008439500263055826, 0.018022915989093634, 0.022220368996296116, 0.011645996023165675, 0.03387571845581814, 0.0670448792860564, 0.08577606329733195, 0.09732685342937919, 0.06376141187261145, 0.07059110220680727, 0.07089981427996576, 0.10988243401481701, 0.11564511422845603, 0.10536851747849063, 0.06811405561475421, 0.097646981241221, 0.09375150622516634, 0.11625409719106886, 0.0728177852296751, 0.09401695267304377, 0.08504263148985641, 0.05072849004534595, 0.001501972364697902, -0.0038670425822576776, -0.002359170079455763, -0.010258977446889509, -0.00314769434447944, -0.00619735539110465, 0.02927245084869519, -0.007810531492530024, 0.013726124644495987, 0.03352995303233473, 0.04990470097622378, 0.11543136933747673, 0.12737732834946527, 0.11266836307802984, 0.07071492645441632, 0.07187913561845781, 0.08529024445582024, 0.08818067440011211, 0.12155218279316617, 0.09671809070244179, 0.0997011180291204, 0.10148105740367538, 0.10251500283259266, 0.11448972061320495, 0.10466748529977761, 0.10269053041326737, 0.09619006188406033, 0.07454914685008879, 0.03275084804576086, -0.001927382884485195, 0.01539235945143944, 0.016727973740460717, 0.02260334288342755, -0.004772522670953501, -0.0004906146452745755, -0.005451168642950067, -0.01975925729735784, 0.014539848553564072, 0.06587326399238884, 0.1061324133031513, 0.14294146746975206, 0.1500535540024357, 0.09928408626272238, 0.11845434833070151, 0.11957046957343116, 0.12895101766950795, 0.10935316920516946, 0.13975933115492956, 0.12359110937702769, 0.051433437893380334, 0.09307908059378868, 0.08672871392005371, 0.07357263705537227, 0.10265482362410211, 0.1186877025356699, 0.09938698810252637, 0.017377106652357352, -0.0236402627624766, -0.005772930947880429, -0.007614223026522463, 0.002937733541560784, 0.006850320263288149, -0.000877893176368797, 0.0005714634980656832, 0.01264991414974802, 0.0032792985542511453, 0.04447895006557079, 0.06045251174106025, 0.11460335796190821, 0.14387802398915503, 0.12119416893208093, 0.08179398898003816, 0.10264912087834283, 0.07734740714407909, 0.07596824615846082, 0.13459170539616738, 0.03588619086943583, 0.025837242331895403, 0.05677264403206689, 0.05687308121718834, 0.0432860956708625, 0.04631297417392597, 0.068595056628891, 0.061680126236289656, -0.02070601394867557, 0.0015490854905824611, -0.008926782315836535, -0.01839962340962043, 0.007969781774247313, -0.011221774457165292, 0.008819429168477428, 0.0019885309630691224, -0.005211660526684952, -0.00044623335673695896, 0.026912553712099486, 0.0368986290617288, 0.07599172582823119, 0.09190893071651203, 0.05951134358529388, 0.03726946924682772, 0.05175550804022748, 0.022492409802270817, 0.08135143645635287, 0.07143891562004259, 0.02042602384161235, 0.02572015679240216, 0.0383856910463653, 0.056978021158406736, 0.07233560799769874, 0.08355800333723429, 0.07816028011879071, 0.07005632856073717, -0.01676805133649615, 0.01553488041835585, 0.0024735013020704914, 0.017761719854200952, 0.003805833803935025, 0.034552917640953563, 0.010557935323652576, -0.014237662199105165, -0.01925986320969948, 0.024941198785253613, 0.043532656902263225, 0.022607432417301173, 0.05910376126072323, 0.02455736623650368, 0.05160506479567016, 0.014563096800027583, 0.029300545428224654, 0.030014529864814912, 0.06122120132450727, 0.08541574873907833, 